FANN_FLO_2.1
num_layers=135
learning_rate=0.700000
connection_rate=1.000000
network_type=1
learning_momentum=0.000000
training_algorithm=2
train_error_function=1
train_stop_function=0
cascade_output_change_fraction=0.010000
quickprop_decay=-0.000100
quickprop_mu=1.750000
rprop_increase_factor=1.200000
rprop_decrease_factor=0.500000
rprop_delta_min=0.000000
rprop_delta_max=50.000000
rprop_delta_zero=0.100000
cascade_output_stagnation_epochs=12
cascade_candidate_change_fraction=0.010000
cascade_candidate_stagnation_epochs=12
cascade_max_out_epochs=150
cascade_min_out_epochs=50
cascade_max_cand_epochs=150
cascade_min_cand_epochs=50
cascade_num_candidate_groups=2
bit_fail_limit=3.49999994039535520000e-001
cascade_candidate_limit=1.00000000000000000000e+003
cascade_weight_multiplier=4.00000005960464480000e-001
cascade_activation_functions_count=10
cascade_activation_functions=3 5 7 8 10 11 14 15 16 17 
cascade_activation_steepnesses_count=4
cascade_activation_steepnesses=2.50000000000000000000e-001 5.00000000000000000000e-001 7.50000000000000000000e-001 1.00000000000000000000e+000 
layer_sizes=49 1 1 1 1 1 1 1 1 1 1 1 1 1 1 1 1 1 1 1 1 1 1 1 1 1 1 1 1 1 1 1 1 1 1 1 1 1 1 1 1 1 1 1 1 1 1 1 1 1 1 1 1 1 1 1 1 1 1 1 1 1 1 1 1 1 1 1 1 1 1 1 1 1 1 1 1 1 1 1 1 1 1 1 1 1 1 1 1 1 1 1 1 1 1 1 1 1 1 1 1 1 1 1 1 1 1 1 1 1 1 1 1 1 1 1 1 1 1 1 1 1 1 1 1 1 1 1 1 1 1 1 1 1 1 
scale_included=1
scale_mean_in=11.989661 434.571991 2308.377930 13.396902 330.703613 2334.929688 22.376413 21.572956 2438.843994 25.613880 -180.629044 2433.442627 145.196289 249.201523 2372.797119 -119.668694 242.504318 2370.815674 216.606079 23.898478 2400.216064 -199.959351 16.292818 2405.189697 202.044434 -117.247498 2301.813477 -201.384796 -137.624008 2320.311035 123.205780 -232.573990 2452.142822 -72.765961 -237.018051 2447.716797 151.596725 -560.075684 2324.741943 -74.491501 -561.405884 2333.368896 -86.162399 -933.187744 2400.398193 174.871384 -923.019104 2394.214111 
scale_deviation_in=435.645111 365.777039 335.583740 432.969635 357.721008 324.009857 422.226044 334.425568 308.854187 416.082031 327.023041 306.867676 427.019012 352.571716 316.180084 437.716217 351.112183 336.456940 432.060730 346.899689 339.718018 451.249847 356.378418 350.893646 414.274750 358.129120 355.074860 463.248383 381.776062 379.688782 416.543274 316.625122 307.394928 416.598755 316.655792 320.590332 424.384552 314.544830 334.625214 406.485535 312.185089 342.867584 423.328461 329.470306 357.028229 461.476440 337.101868 358.982849 
scale_new_min_in=-1.000000 -1.000000 -1.000000 -1.000000 -1.000000 -1.000000 -1.000000 -1.000000 -1.000000 -1.000000 -1.000000 -1.000000 -1.000000 -1.000000 -1.000000 -1.000000 -1.000000 -1.000000 -1.000000 -1.000000 -1.000000 -1.000000 -1.000000 -1.000000 -1.000000 -1.000000 -1.000000 -1.000000 -1.000000 -1.000000 -1.000000 -1.000000 -1.000000 -1.000000 -1.000000 -1.000000 -1.000000 -1.000000 -1.000000 -1.000000 -1.000000 -1.000000 -1.000000 -1.000000 -1.000000 -1.000000 -1.000000 -1.000000 
scale_factor_in=1.000000 1.000000 1.000000 1.000000 1.000000 1.000000 1.000000 1.000000 1.000000 1.000000 1.000000 1.000000 1.000000 1.000000 1.000000 1.000000 1.000000 1.000000 1.000000 1.000000 1.000000 1.000000 1.000000 1.000000 1.000000 1.000000 1.000000 1.000000 1.000000 1.000000 1.000000 1.000000 1.000000 1.000000 1.000000 1.000000 1.000000 1.000000 1.000000 1.000000 1.000000 1.000000 1.000000 1.000000 1.000000 1.000000 1.000000 1.000000 
scale_mean_out=0.425573 
scale_deviation_out=0.494428 
scale_new_min_out=0.000000 
scale_factor_out=0.500000 
neurons (num_inputs, activation_function, activation_steepness)=(0, 0, 0.00000000000000000000e+000) (0, 0, 0.00000000000000000000e+000) (0, 0, 0.00000000000000000000e+000) (0, 0, 0.00000000000000000000e+000) (0, 0, 0.00000000000000000000e+000) (0, 0, 0.00000000000000000000e+000) (0, 0, 0.00000000000000000000e+000) (0, 0, 0.00000000000000000000e+000) (0, 0, 0.00000000000000000000e+000) (0, 0, 0.00000000000000000000e+000) (0, 0, 0.00000000000000000000e+000) (0, 0, 0.00000000000000000000e+000) (0, 0, 0.00000000000000000000e+000) (0, 0, 0.00000000000000000000e+000) (0, 0, 0.00000000000000000000e+000) (0, 0, 0.00000000000000000000e+000) (0, 0, 0.00000000000000000000e+000) (0, 0, 0.00000000000000000000e+000) (0, 0, 0.00000000000000000000e+000) (0, 0, 0.00000000000000000000e+000) (0, 0, 0.00000000000000000000e+000) (0, 0, 0.00000000000000000000e+000) (0, 0, 0.00000000000000000000e+000) (0, 0, 0.00000000000000000000e+000) (0, 0, 0.00000000000000000000e+000) (0, 0, 0.00000000000000000000e+000) (0, 0, 0.00000000000000000000e+000) (0, 0, 0.00000000000000000000e+000) (0, 0, 0.00000000000000000000e+000) (0, 0, 0.00000000000000000000e+000) (0, 0, 0.00000000000000000000e+000) (0, 0, 0.00000000000000000000e+000) (0, 0, 0.00000000000000000000e+000) (0, 0, 0.00000000000000000000e+000) (0, 0, 0.00000000000000000000e+000) (0, 0, 0.00000000000000000000e+000) (0, 0, 0.00000000000000000000e+000) (0, 0, 0.00000000000000000000e+000) (0, 0, 0.00000000000000000000e+000) (0, 0, 0.00000000000000000000e+000) (0, 0, 0.00000000000000000000e+000) (0, 0, 0.00000000000000000000e+000) (0, 0, 0.00000000000000000000e+000) (0, 0, 0.00000000000000000000e+000) (0, 0, 0.00000000000000000000e+000) (0, 0, 0.00000000000000000000e+000) (0, 0, 0.00000000000000000000e+000) (0, 0, 0.00000000000000000000e+000) (0, 0, 0.00000000000000000000e+000) (49, 5, 1.00000000000000000000e+000) (50, 5, 7.50000000000000000000e-001) (51, 5, 5.00000000000000000000e-001) (52, 5, 7.50000000000000000000e-001) (53, 5, 1.00000000000000000000e+000) (54, 5, 2.50000000000000000000e-001) (55, 5, 7.50000000000000000000e-001) (56, 5, 7.50000000000000000000e-001) (57, 5, 7.50000000000000000000e-001) (58, 10, 2.50000000000000000000e-001) (59, 5, 2.50000000000000000000e-001) (60, 10, 5.00000000000000000000e-001) (61, 5, 2.50000000000000000000e-001) (62, 10, 2.50000000000000000000e-001) (63, 11, 7.50000000000000000000e-001) (64, 3, 5.00000000000000000000e-001) (65, 11, 5.00000000000000000000e-001) (66, 5, 7.50000000000000000000e-001) (67, 5, 7.50000000000000000000e-001) (68, 5, 1.00000000000000000000e+000) (69, 5, 2.50000000000000000000e-001) (70, 5, 2.50000000000000000000e-001) (71, 5, 2.50000000000000000000e-001) (72, 10, 1.00000000000000000000e+000) (73, 11, 1.00000000000000000000e+000) (74, 5, 7.50000000000000000000e-001) (75, 11, 1.00000000000000000000e+000) (76, 5, 1.00000000000000000000e+000) (77, 10, 2.50000000000000000000e-001) (78, 5, 1.00000000000000000000e+000) (79, 3, 5.00000000000000000000e-001) (80, 10, 5.00000000000000000000e-001) (81, 10, 2.50000000000000000000e-001) (82, 10, 7.50000000000000000000e-001) (83, 10, 2.50000000000000000000e-001) (84, 10, 2.50000000000000000000e-001) (85, 5, 5.00000000000000000000e-001) (86, 5, 7.50000000000000000000e-001) (87, 10, 5.00000000000000000000e-001) (88, 10, 5.00000000000000000000e-001) (89, 10, 2.50000000000000000000e-001) (90, 3, 5.00000000000000000000e-001) (91, 3, 5.00000000000000000000e-001) (92, 3, 7.50000000000000000000e-001) (93, 10, 2.50000000000000000000e-001) (94, 10, 1.00000000000000000000e+000) (95, 10, 5.00000000000000000000e-001) (96, 10, 2.50000000000000000000e-001) (97, 10, 7.50000000000000000000e-001) (98, 10, 1.00000000000000000000e+000) (99, 5, 1.00000000000000000000e+000) (100, 10, 5.00000000000000000000e-001) (101, 10, 2.50000000000000000000e-001) (102, 10, 2.50000000000000000000e-001) (103, 11, 1.00000000000000000000e+000) (104, 10, 5.00000000000000000000e-001) (105, 15, 5.00000000000000000000e-001) (106, 5, 2.50000000000000000000e-001) (107, 11, 2.50000000000000000000e-001) (108, 10, 2.50000000000000000000e-001) (109, 10, 2.50000000000000000000e-001) (110, 11, 1.00000000000000000000e+000) (111, 5, 7.50000000000000000000e-001) (112, 5, 7.50000000000000000000e-001) (113, 5, 5.00000000000000000000e-001) (114, 5, 1.00000000000000000000e+000) (115, 5, 1.00000000000000000000e+000) (116, 5, 2.50000000000000000000e-001) (117, 5, 1.00000000000000000000e+000) (118, 10, 5.00000000000000000000e-001) (119, 5, 5.00000000000000000000e-001) (120, 5, 2.50000000000000000000e-001) (121, 5, 1.00000000000000000000e+000) (122, 5, 5.00000000000000000000e-001) (123, 3, 7.50000000000000000000e-001) (124, 10, 2.50000000000000000000e-001) (125, 5, 2.50000000000000000000e-001) (126, 10, 7.50000000000000000000e-001) (127, 5, 2.50000000000000000000e-001) (128, 5, 5.00000000000000000000e-001) (129, 10, 7.50000000000000000000e-001) (130, 10, 7.50000000000000000000e-001) (131, 10, 7.50000000000000000000e-001) (132, 10, 7.50000000000000000000e-001) (133, 11, 7.50000000000000000000e-001) (134, 10, 2.50000000000000000000e-001) (135, 3, 2.50000000000000000000e-001) (136, 5, 2.50000000000000000000e-001) (137, 3, 2.50000000000000000000e-001) (138, 10, 2.50000000000000000000e-001) (139, 10, 2.50000000000000000000e-001) (140, 5, 7.50000000000000000000e-001) (141, 10, 2.50000000000000000000e-001) (142, 10, 5.00000000000000000000e-001) (143, 5, 2.50000000000000000000e-001) (144, 5, 7.50000000000000000000e-001) (145, 10, 1.00000000000000000000e+000) (146, 11, 1.00000000000000000000e+000) (147, 10, 2.50000000000000000000e-001) (148, 10, 5.00000000000000000000e-001) (149, 5, 5.00000000000000000000e-001) (150, 5, 5.00000000000000000000e-001) (151, 10, 2.50000000000000000000e-001) (152, 5, 7.50000000000000000000e-001) (153, 11, 1.00000000000000000000e+000) (154, 10, 2.50000000000000000000e-001) (155, 10, 5.00000000000000000000e-001) (156, 5, 5.00000000000000000000e-001) (157, 10, 2.50000000000000000000e-001) (158, 10, 1.00000000000000000000e+000) (159, 5, 2.50000000000000000000e-001) (160, 5, 7.50000000000000000000e-001) (161, 5, 2.50000000000000000000e-001) (162, 10, 5.00000000000000000000e-001) (163, 11, 7.50000000000000000000e-001) (164, 10, 7.50000000000000000000e-001) (165, 3, 5.00000000000000000000e-001) (166, 5, 7.50000000000000000000e-001) (167, 11, 1.00000000000000000000e+000) (168, 11, 7.50000000000000000000e-001) (169, 5, 1.00000000000000000000e+000) (170, 10, 5.00000000000000000000e-001) (171, 10, 5.00000000000000000000e-001) (172, 5, 7.50000000000000000000e-001) (173, 11, 5.00000000000000000000e-001) (174, 5, 7.50000000000000000000e-001) (175, 3, 7.50000000000000000000e-001) (176, 5, 5.00000000000000000000e-001) (177, 5, 5.00000000000000000000e-001) (178, 10, 7.50000000000000000000e-001) (179, 17, 1.00000000000000000000e+000) (180, 10, 7.50000000000000000000e-001) (181, 10, 7.50000000000000000000e-001) (182, 4, 5.00000000000000000000e-001) 
connections (connected_to_neuron, weight)=(0, 1.51092281341552730000e+001) (1, 3.42973442077636720000e+001) (2, 8.37082684040069580000e-001) (3, -2.11287784576416020000e+000) (4, -8.61135673522949220000e+000) (5, 5.91311633586883540000e-001) (6, 7.83196866512298580000e-001) (7, -2.09015846252441410000e+001) (8, 4.06427145004272460000e-001) (9, -1.21824696660041810000e-001) (10, 4.62166905403137210000e-001) (11, 9.10518527030944820000e-001) (12, -1.12883007526397710000e+000) (13, -3.39865779876708980000e+000) (14, 7.20834851264953610000e-001) (15, -3.15740776062011720000e+000) (16, -3.75369668006896970000e+000) (17, 2.59594470262527470000e-001) (18, -6.86837017536163330000e-001) (19, -1.77795963287353520000e+001) (20, 1.28139460086822510000e+000) (21, -1.47067737579345700000e+001) (22, -5.95152473449707030000e+001) (23, 2.18154096603393550000e+000) (24, -8.86082077026367190000e+000) (25, 2.12702064514160160000e+001) (26, 6.16938889026641850000e-001) (27, -2.87579870223999020000e+000) (28, 1.18941669464111330000e+001) (29, 1.04317772388458250000e+000) (30, -1.13306343555450440000e+000) (31, 1.91946351528167720000e+000) (32, 6.16281449794769290000e-001) (33, 1.16050755977630620000e+000) (34, 1.54382359981536870000e+000) (35, 6.09064877033233640000e-001) (36, 5.36167335510253910000e+000) (37, 3.06911683082580570000e+000) (38, 3.54340404272079470000e-001) (39, 2.62555980682373050000e+000) (40, 2.47629375457763670000e+001) (41, 1.97059847414493560000e-003) (42, 1.93376216888427730000e+001) (43, 1.14681711196899410000e+001) (44, 9.84861969947814940000e-001) (45, -6.14382553100585940000e+000) (46, 1.95414137840271000000e+000) (47, 4.88708108663558960000e-001) (48, -1.50000000000000000000e+003) (0, 2.61752724647521970000e+000) (1, 1.18845663070678710000e+001) (2, 1.04361377656459810000e-001) (3, 6.19490981101989750000e-001) (4, -5.27372777462005620000e-001) (5, 3.97594273090362550000e-001) (6, -5.31385242938995360000e-001) (7, -1.11741285324096680000e+001) (8, 7.65218257904052730000e-001) (9, -3.16342085599899290000e-001) (10, -6.77496731281280520000e-001) (11, -5.20416319370269780000e-001) (12, -1.08009517192840580000e+000) (13, -1.34038478136062620000e-001) (14, 1.27526056766510010000e+000) (15, 1.21576023101806640000e+000) (16, 4.07634109258651730000e-001) (17, 6.53172433376312260000e-002) (18, -3.69535493850708010000e+000) (19, -5.30825185775756840000e+000) (20, -2.30350866913795470000e-001) (21, -7.95439481735229490000e-001) (22, -1.21165447235107420000e+001) (23, -7.46228620409965520000e-002) (24, 5.54999828338623050000e-001) (25, 4.22165966033935550000e+000) (26, 2.41072088479995730000e-001) (27, -1.83396375179290770000e+000) (28, 3.41132187843322750000e+000) (29, -4.46989566087722780000e-001) (30, 2.77671098709106450000e+000) (31, -3.18674683570861820000e-001) (32, 1.23398974537849430000e-001) (33, 2.89831018447875980000e+000) (34, -5.24389035999774930000e-002) (35, -6.17790408432483670000e-002) (36, 7.55501389503479000000e-001) (37, 2.44276928901672360000e+000) (38, 1.05896842479705810000e+000) (39, -9.61612910032272340000e-002) (40, 1.48840165138244630000e+000) (41, -2.06339702010154720000e-001) (42, 1.78250110149383540000e+000) (43, 3.14721298217773440000e+000) (44, 9.80888843536376950000e-001) (45, -3.96624541282653810000e+000) (46, 2.98830342292785640000e+000) (47, -5.43805539608001710000e-001) (48, -1.50000000000000000000e+003) (49, -1.26108044433593750000e+003) (0, 2.92582263946533200000e+001) (1, -5.55534899234771730000e-001) (2, 8.51258277893066410000e-001) (3, 1.99210965633392330000e+000) (4, -5.28965890407562260000e-001) (5, 2.51285552978515630000e-001) (6, -1.10325992107391360000e+000) (7, -2.21158504486083980000e+000) (8, 8.68384957313537600000e-001) (9, -2.16469979286193850000e+000) (10, 3.43340148925781250000e+001) (11, 1.05582988262176510000e+000) (12, -1.38114082813262940000e+000) (13, -1.65600144863128660000e+000) (14, 7.49439060688018800000e-001) (15, 4.31626033782958980000e+000) (16, -1.49666714668273930000e+000) (17, -7.55521965026855470000e+000) (18, -7.81446814537048340000e-001) (19, -3.84684681892395020000e+000) (20, -1.84306308627128600000e-001) (21, -2.33019886016845700000e+001) (22, -3.77374114990234380000e+001) (23, -8.66161882877349850000e-001) (24, -2.06564640998840330000e+000) (25, 1.02921829223632810000e+001) (26, 1.20708632469177250000e+000) (27, -8.45474052429199220000e+000) (28, -9.92830467224121090000e+000) (29, -4.87599372863769530000e+000) (30, -3.27044844627380370000e+000) (31, 6.49425506591796870000e+000) (32, 4.92552697658538820000e-001) (33, 8.70032215118408200000e+000) (34, 3.16859698295593260000e+000) (35, -4.46018993854522710000e-001) (36, -9.79402601718902590000e-001) (37, 1.89558231830596920000e+000) (38, 1.66640400886535640000e+000) (39, 2.84791234880685810000e-002) (40, -3.99706268310546870000e+000) (41, 8.59075129032135010000e-001) (42, 1.54489564895629880000e+000) (43, 3.21603631973266600000e+000) (44, 2.19536805152893070000e+000) (45, 1.33426472544670100000e-001) (46, 5.19879007339477540000e+000) (47, 9.69814682006835940000e+000) (48, -1.50000000000000000000e+003) (49, -5.27455383300781250000e+002) (50, 8.28988418579101560000e+001) (0, -3.50858044624328610000e+000) (1, 3.60408496856689450000e+000) (2, -4.85504448413848880000e-001) (3, -2.42187070846557620000e+000) (4, -7.81768381595611570000e-001) (5, -7.12251842021942140000e-001) (6, -1.50525403022766110000e+000) (7, -7.78225088119506840000e+000) (8, 9.33534681797027590000e-001) (9, -1.01132810115814210000e+000) (10, 1.69242191314697270000e+000) (11, 1.94660440087318420000e-001) (12, -3.84546875953674320000e-001) (13, -1.03655064105987550000e+000) (14, -6.77108705043792720000e-001) (15, 1.82788109779357910000e+000) (16, -1.05137014389038090000e+000) (17, -8.40683698654174800000e-001) (18, 1.38616168498992920000e+000) (19, -1.10958501696586610000e-001) (20, 4.70910578966140750000e-001) (21, 1.31623172760009770000e+000) (22, -6.86434793472290040000e+000) (23, 6.18532299995422360000e-001) (24, 2.98024713993072510000e-001) (25, 1.30161726474761960000e+000) (26, -7.87332803010940550000e-002) (27, 1.33621287345886230000e+000) (28, 3.40256977081298830000e+000) (29, -1.69520989060401920000e-001) (30, -2.41268301010131840000e+000) (31, 1.05740165710449220000e+000) (32, 1.13507294654846190000e+000) (33, 2.14864087104797360000e+000) (34, 7.98629939556121830000e-001) (35, -4.65886145830154420000e-001) (36, 5.34407757222652440000e-002) (37, -1.74748778343200680000e+000) (38, 1.29254555702209470000e+000) (39, 1.52157211303710940000e+000) (40, 2.38196372985839840000e+000) (41, 1.23150384426116940000e+000) (42, 1.70805382728576660000e+000) (43, 3.10412001609802250000e+000) (44, 2.32481792569160460000e-001) (45, 4.52030375599861150000e-002) (46, 2.10231494903564450000e+000) (47, 9.86678063869476320000e-001) (48, -1.50000000000000000000e+003) (49, -8.62254577636718750000e+002) (50, -6.39183654785156250000e+002) (51, 4.62267150878906250000e+001) (0, -1.08904719352722170000e+000) (1, 1.59648334980010990000e+000) (2, 2.71741300821304320000e-001) (3, -2.10511541366577150000e+000) (4, -6.73697292804718020000e-001) (5, 4.32272665202617650000e-002) (6, 1.41370892524719240000e+000) (7, -1.52370367050170900000e+001) (8, -2.50098198652267460000e-001) (9, 2.38078022003173830000e+000) (10, 1.72020947933197020000e+000) (11, 2.60821849107742310000e-001) (12, -2.46055513620376590000e-001) (13, -1.57793533802032470000e+000) (14, -1.22133754193782810000e-001) (15, 2.17269539833068850000e+000) (16, -8.02094638347625730000e-001) (17, -4.21052366495132450000e-001) (18, -7.74886429309844970000e-001) (19, -6.19199848175048830000e+000) (20, 4.68994349241256710000e-001) (21, -8.17317962646484380000e+000) (22, -1.91341012716293330000e-001) (23, 6.04939043521881100000e-001) (24, -9.15944457054138180000e-001) (25, 4.82895231246948240000e+000) (26, 7.72161185741424560000e-001) (27, 3.60740756988525390000e+000) (28, 4.11595851182937620000e-002) (29, 1.27757596969604490000e+000) (30, 1.73727023601531980000e+000) (31, 1.07623863220214840000e+000) (32, -5.32207310199737550000e-001) (33, 2.85161924362182620000e+000) (34, 4.85821342468261720000e+000) (35, 3.92886191606521610000e-001) (36, -7.80842602252960210000e-001) (37, 2.11069989204406740000e+000) (38, 5.72233378887176510000e-001) (39, 4.09483402967453000000e-001) (40, 4.16615247726440430000e+000) (41, 2.42008760571479800000e-001) (42, 2.23507380485534670000e+000) (43, 2.28075766563415530000e+000) (44, 6.67997241020202640000e-001) (45, -1.72098255157470700000e+000) (46, 2.13731288909912110000e+000) (47, 8.50124359130859380000e-001) (48, -1.20138354492187500000e+003) (49, -1.23286193847656250000e+003) (50, -9.59059448242187500000e+002) (51, 9.07803649902343750000e+001) (52, -6.85843994140625000000e+002) (0, 9.25435066223144530000e-001) (1, 1.40911173820495610000e+000) (2, 6.67715743184089660000e-002) (3, 5.95466077327728270000e-001) (4, -6.88721984624862670000e-002) (5, 4.22468274831771850000e-001) (6, -5.16732263565063480000e+000) (7, -5.10640525817871090000e+000) (8, -3.44673037528991700000e-001) (9, -2.54365134239196780000e+000) (10, 1.60628604888916020000e+000) (11, 1.38857769966125490000e+000) (12, 1.97707876563072200000e-001) (13, -6.78373670578002930000e+000) (14, 1.59927761554718020000e+000) (15, 1.61834359169006350000e+000) (16, -7.92756986618041990000e+000) (17, 3.22501301765441890000e-001) (18, -1.02721281349658970000e-001) (19, -2.85741066932678220000e+000) (20, -7.69686943385750060000e-004) (21, 2.49345302581787110000e+000) (22, -1.54258620738983150000e+000) (23, 6.06056809425354000000e-001) (24, -3.37113648653030400000e-001) (25, 1.37865746021270750000e+000) (26, -9.67069417238235470000e-002) (27, 1.33593630790710450000e+000) (28, 4.76855516433715820000e+000) (29, 9.32816863059997560000e-001) (30, -6.51497960090637210000e-001) (31, 1.81579935550689700000e+000) (32, -2.33521923422813420000e-001) (33, 4.62749153375625610000e-001) (34, 4.94282865524291990000e+000) (35, -3.01409929990768430000e-001) (36, -6.66891643777489660000e-003) (37, 1.76614308357238770000e+000) (38, 1.33220565319061280000e+000) (39, 1.27538061141967770000e+000) (40, 1.79893052577972410000e+000) (41, -4.21985268592834470000e-001) (42, 1.66110789775848390000e+000) (43, 2.44328594207763670000e+000) (44, 1.17649137973785400000e+000) (45, -9.98041629791259770000e-001) (46, 2.08242082595825200000e+000) (47, -2.85952776670455930000e-001) (48, -6.17697143554687500000e+002) (49, -1.29490124511718750000e+003) (50, -1.04381140136718750000e+003) (51, -9.50736694335937500000e+001) (52, -7.14125000000000000000e+002) (53, -6.13329406738281250000e+002) (0, -8.81387054920196530000e-001) (1, 2.95321059226989750000e+000) (2, 1.25761640071868900000e+000) (3, -1.50042617321014400000e+000) (4, -1.52980542182922360000e+000) (5, 6.02154314517974850000e-001) (6, -2.36021399497985840000e+000) (7, -1.29604520797729490000e+001) (8, -5.86374938488006590000e-001) (9, -1.96910130977630620000e+000) (10, 3.20445775985717770000e+000) (11, -1.42548367381095890000e-001) (12, -8.36660981178283690000e-001) (13, 5.15827894210815430000e-001) (14, -1.27253690734505650000e-002) (15, 2.26187682151794430000e+000) (16, -7.82639384269714360000e-001) (17, 3.14484983682632450000e-001) (18, 9.39117968082427980000e-001) (19, -6.14412546157836910000e+000) (20, 6.77688598632812500000e-001) (21, 1.22684800624847410000e+000) (22, -1.84576988220214840000e+001) (23, 9.97022390365600590000e-001) (24, 5.27363836765289310000e-001) (25, 2.04538035392761230000e+000) (26, -5.76454579830169680000e-001) (27, -3.94801616668701170000e-001) (28, 9.47678089141845700000e+000) (29, 1.39725357294082640000e-001) (30, 2.16833949089050290000e-001) (31, 6.66738891601562500000e+000) (32, -8.30955982208251950000e-001) (33, 5.88843297958374020000e+000) (34, 6.50590944290161130000e+000) (35, 1.10372471809387210000e+000) (36, 3.99522006511688230000e-001) (37, 2.11166024208068850000e+000) (38, 9.90539610385894780000e-001) (39, 2.01309895515441890000e+000) (40, 6.55642151832580570000e-001) (41, 6.00246250629425050000e-001) (42, -8.49894583225250240000e-001) (43, 2.33430051803588870000e+000) (44, 3.95302265882492070000e-001) (45, -3.95150923728942870000e+000) (46, 3.21451473236083980000e+000) (47, 1.39692103862762450000e+000) (48, -1.47500000000000000000e+003) (49, -1.50000000000000000000e+003) (50, -1.25339416503906250000e+003) (51, 6.69552688598632810000e+001) (52, -8.40633666992187500000e+002) (53, -3.89999847412109370000e+002) (54, -6.07169677734375000000e+002) (0, 1.08440437316894530000e+001) (1, 1.51878929138183590000e+001) (2, -7.62691199779510500000e-001) (3, -2.17262029647827150000e+000) (4, -3.96416664123535160000e-001) (5, -9.64492335915565490000e-002) (6, -2.08605074882507320000e+000) (7, -4.79675369262695310000e+001) (8, 3.55790615081787110000e-001) (9, 6.13982789218425750000e-003) (10, 1.04791331291198730000e+000) (11, -1.03187657892704010000e-001) (12, -4.24036169052124020000e+000) (13, 1.38679489493370060000e-001) (14, 1.06432688236236570000e+000) (15, 3.63280510902404790000e+000) (16, -1.87910997867584230000e+000) (17, 1.14489591121673580000e+000) (18, -7.63595294952392580000e+000) (19, 2.30468692779541020000e+001) (20, 1.01035213470458980000e+000) (21, -4.52755928039550780000e+000) (22, -1.18218603134155270000e+001) (23, 9.72725629806518550000e-001) (24, -5.48994481563568120000e-001) (25, -1.08875524997711180000e+000) (26, 1.80848658084869380000e+000) (27, -3.14111781120300290000e+000) (28, -1.09784519672393800000e+000) (29, -6.32844865322113040000e-002) (30, -1.86071717739105220000e+000) (31, 1.79827475547790530000e+000) (32, -6.45338058471679690000e-001) (33, 3.08907270431518550000e+000) (34, 1.69913268089294430000e+000) (35, 5.84160208702087400000e-001) (36, -1.62049561738967900000e-001) (37, 2.90881109237670900000e+000) (38, 7.34987854957580570000e-001) (39, 2.83717274665832520000e+000) (40, 6.71353101730346680000e+000) (41, 2.87238121032714840000e-001) (42, 6.09480667114257810000e+000) (43, 1.07942562103271480000e+001) (44, 3.51617904379963870000e-003) (45, 2.57133936882019040000e+000) (46, 2.23048138618469240000e+000) (47, 8.46194803714752200000e-001) (48, -1.47500000000000000000e+003) (49, -1.50000000000000000000e+003) (50, -1.46931140136718750000e+003) (51, -7.36170471191406250000e+002) (52, -8.51281677246093750000e+002) (53, -7.33580444335937500000e+002) (54, -3.57423797607421870000e+002) (55, 3.45757904052734380000e+002) (0, 4.57600069046020510000e+000) (1, 1.38443918228149410000e+001) (2, 1.23052155971527100000e+000) (3, -1.19961094856262210000e+000) (4, 1.02874267101287840000e+000) (5, 7.14944422245025630000e-001) (6, -9.57932114601135250000e-001) (7, -2.35939559936523440000e+001) (8, -4.27215158939361570000e-001) (9, -1.77618813514709470000e+000) (10, 5.18362104892730710000e-001) (11, 6.54503226280212400000e-001) (12, -8.45426797866821290000e-001) (13, 5.94200372695922850000e-001) (14, 4.91879403591156010000e-001) (15, 1.54198038578033450000e+000) (16, -4.44026410579681400000e-001) (17, 1.03923268616199490000e-001) (18, 2.99610584974288940000e-001) (19, -6.18732452392578130000e+000) (20, 7.13673532009124760000e-001) (21, 2.24492526054382320000e+000) (22, -3.17274880409240720000e+000) (23, 2.56820261478424070000e-001) (24, -9.75265622138977050000e-001) (25, 4.04266309738159180000e+000) (26, -2.31204316020011900000e-001) (27, -1.52035188674926760000e+000) (28, 1.75954401493072510000e+000) (29, -9.91434529423713680000e-002) (30, 9.28060173988342290000e-001) (31, 1.39760994911193850000e+000) (32, 7.52425312995910640000e-001) (33, 1.01438939571380620000e+000) (34, 8.98218214511871340000e-001) (35, -4.39444750547409060000e-001) (36, -5.37420225143432620000e+000) (37, 1.79952180385589600000e+000) (38, 5.14823257923126220000e-001) (39, 7.46385753154754640000e-001) (40, 8.53627204895019530000e-001) (41, -1.96096733212471010000e-001) (42, 1.47776114940643310000e+000) (43, 2.69072842597961430000e+000) (44, -8.62962722778320310000e-001) (45, 7.17341542243957520000e-001) (46, 3.80561828613281250000e+000) (47, -6.41835510730743410000e-001) (48, -1.39716442871093750000e+003) (49, -1.33204919433593750000e+003) (50, -1.05410620117187500000e+003) (51, 2.11460952758789060000e+002) (52, -2.31836059570312500000e+002) (53, -2.89135284423828120000e+002) (54, -4.25276092529296870000e+002) (55, -2.20101833343505860000e+001) (56, -2.28459869384765620000e+002) (0, -3.75393033027648930000e-001) (1, 6.60567820072174070000e-001) (2, 1.01288199424743650000e+000) (3, 5.33672012388706210000e-002) (4, 1.43489789962768550000e+000) (5, 5.09454548358917240000e-001) (6, -8.77397835254669190000e-001) (7, -1.64381647109985350000e+000) (8, 4.49961632490158080000e-001) (9, -8.36194217205047610000e-001) (10, 8.57339918613433840000e-001) (11, 4.19743329286575320000e-001) (12, -3.20726227760314940000e+000) (13, -7.65704488754272460000e+000) (14, -1.72450736165046690000e-001) (15, 2.01867866516113280000e+000) (16, -1.33232581615448000000e+000) (17, -2.73745626211166380000e-001) (18, 1.80448126792907710000e+000) (19, -8.36939990520477290000e-001) (20, -6.35708272457122800000e-001) (21, 2.31845450401306150000e+000) (22, 7.37070798873901370000e-001) (23, 1.42115712165832520000e-001) (24, 2.42797231674194340000e+000) (25, 1.80704936385154720000e-001) (26, 7.39464834332466130000e-002) (27, 1.59673166275024410000e+000) (28, -1.70272424817085270000e-001) (29, 2.23118543624877930000e-001) (30, -6.98471879959106450000e+000) (31, 9.57806706428527830000e-001) (32, 1.21780657768249510000e+000) (33, 7.55802631378173830000e-001) (34, 2.90134966373443600000e-001) (35, 3.69784861803054810000e-001) (36, 1.92386496067047120000e+000) (37, 1.42027628421783450000e+000) (38, -5.26126980781555180000e-001) (39, -2.10822939872741700000e+000) (40, 3.06408643722534180000e+000) (41, -3.84079605340957640000e-001) (42, 1.58187520503997800000e+000) (43, 2.16278839111328120000e+000) (44, 4.58723992109298710000e-001) (45, 8.42193126678466800000e-001) (46, 2.71267342567443850000e+000) (47, -2.38288834691047670000e-001) (48, -1.99021124839782710000e+000) (49, 5.23171305656433110000e-001) (50, 8.20380096435546880000e+001) (51, 2.48437023162841800000e+000) (52, -1.49765367507934570000e+001) (53, -8.16747605800628660000e-001) (54, 1.54649281501770020000e+000) (55, 1.94923629760742190000e+002) (56, -3.83704589843750000000e+002) (57, 1.09800354003906250000e+002) (0, -2.14815706014633180000e-001) (1, 5.24975180625915530000e-001) (2, 2.59303629398345950000e-001) (3, -2.42502164840698240000e+000) (4, 5.34388720989227290000e-001) (5, 8.77554774284362790000e-001) (6, -3.73593807220458980000e+000) (7, 3.42786222696304320000e-001) (8, -2.36516535282135010000e-001) (9, -2.75680756568908690000e+000) (10, 4.93744075298309330000e-001) (11, -7.73421168327331540000e-001) (12, 4.36357051134109500000e-001) (13, 7.48147964477539060000e-001) (14, 1.34292254224419590000e-002) (15, 4.10715907812118530000e-001) (16, -5.07859349250793460000e-001) (17, 8.45655798912048340000e-001) (18, -7.69276142120361330000e-001) (19, -4.75595504045486450000e-001) (20, -3.70692849159240720000e-001) (21, 1.98123240470886230000e+000) (22, -3.02058815956115720000e-001) (23, 5.73612928390502930000e-001) (24, 1.51921927928924560000e+000) (25, 3.47226798534393310000e-001) (26, 3.84616017341613770000e-001) (27, 1.57400989532470700000e+000) (28, 1.04725360870361330000e+000) (29, 5.61019079759716990000e-003) (30, -4.57677453756332400000e-001) (31, -3.67513060569763180000e+000) (32, 1.79413616657257080000e-001) (33, 1.76106202602386470000e+000) (34, 1.12357568740844730000e+000) (35, 1.57231837511062620000e-001) (36, -2.32949867844581600000e-001) (37, -1.84743857383728030000e+000) (38, -8.48023951053619380000e-001) (39, 1.46522915363311770000e+000) (40, -2.13782858848571780000e+000) (41, 4.45906966924667360000e-002) (42, 1.39625275135040280000e+000) (43, 7.71263480186462400000e-001) (44, -5.62528252601623540000e-001) (45, 2.59822048246860500000e-002) (46, 2.50738954544067380000e+000) (47, -6.74107819795608520000e-002) (48, 1.03023850917816160000e+000) (49, -2.56547975540161130000e+000) (50, -4.79279212951660160000e+001) (51, 1.50256423950195310000e+001) (52, -1.51401939392089840000e+001) (53, 3.72675478458404540000e-001) (54, 4.95930862426757810000e+000) (55, 1.01779782772064210000e+000) (56, -7.43317794799804690000e+000) (57, -3.57262115478515630000e+001) (58, 1.50000000000000000000e+003) (0, 1.40739604830741880000e-001) (1, 9.37099754810333250000e-001) (2, 2.90188372135162350000e-001) (3, -9.92223024368286130000e-002) (4, 6.59912586212158200000e-001) (5, 1.30274856090545650000e+000) (6, 8.85800302028656010000e-001) (7, -6.15165996551513670000e+000) (8, -6.27552509307861330000e-001) (9, -6.06471967697143550000e+000) (10, 3.28111141920089720000e-001) (11, -3.36167901754379270000e-001) (12, -7.59978532791137700000e+000) (13, 6.84295177459716800000e-001) (14, 5.81744015216827390000e-001) (15, 7.73793756961822510000e-001) (16, -1.29131644964218140000e-001) (17, -6.34095132350921630000e-001) (18, 3.37743782997131350000e+000) (19, 1.93924212455749510000e+000) (20, 1.50175690650939940000e-001) (21, 6.53966486454010010000e-001) (22, -5.69899892807006840000e+000) (23, -3.44156950712203980000e-001) (24, 7.10823357105255130000e-001) (25, -3.76047044992446900000e-001) (26, -5.21413460373878480000e-002) (27, 2.36639904975891110000e+000) (28, -2.79002141952514650000e+000) (29, 8.45499515533447270000e-001) (30, 3.54164510965347290000e-001) (31, 3.50274354219436650000e-001) (32, -3.30434255301952360000e-002) (33, 1.32717156410217290000e+000) (34, 9.93674516677856450000e-001) (35, 4.33542281389236450000e-001) (36, -2.01478123664855960000e+000) (37, 1.37497591972351070000e+000) (38, 4.17060166597366330000e-001) (39, 9.74407792091369630000e-001) (40, 1.97863733768463130000e+000) (41, -4.31197315454483030000e-001) (42, 1.26102542877197270000e+000) (43, 2.78809523582458500000e+000) (44, -5.99069952964782710000e-001) (45, -1.47543653845787050000e-001) (46, 3.27753305435180660000e+000) (47, 5.82060933113098140000e-001) (48, -1.66030430793762210000e+000) (49, -7.90068626403808590000e-001) (50, 2.17634248733520510000e+000) (51, -2.98142280578613280000e+001) (52, 1.83161711692810060000e+000) (53, -4.79108123779296870000e+002) (54, 1.69155693054199220000e+001) (55, 2.92177772521972660000e+000) (56, -1.77143650054931640000e+001) (57, -7.40034255981445310000e+001) (58, -1.50000000000000000000e+003) (59, -1.17563098144531250000e+003) (0, -2.39140629768371580000e+000) (1, -6.74881100654602050000e-001) (2, 1.16389937698841090000e-001) (3, -2.96219038963317870000e+000) (4, 7.51705527305603030000e-001) (5, 2.51488775014877320000e-001) (6, -2.74937629699707030000e+000) (7, -1.38900766372680660000e+001) (8, 2.30790197849273680000e-001) (9, 2.75523304939270020000e+000) (10, 2.07137870788574220000e+000) (11, -7.78692126274108890000e-001) (12, -1.55695712566375730000e+000) (13, -4.55150097608566280000e-001) (14, 1.07316696643829350000e+000) (15, 1.58788323402404790000e+000) (16, -3.01295518875122070000e+000) (17, 1.11013138294219970000e+000) (18, 7.52755463123321530000e-001) (19, -9.21737766265869140000e+000) (20, 8.99591147899627690000e-001) (21, -5.05354356765747070000e+000) (22, -3.21864080429077150000e+000) (23, 7.35986113548278810000e-001) (24, 2.60163128376007080000e-001) (25, 6.06030607223510740000e+000) (26, 6.99071764945983890000e-001) (27, 4.21212196350097660000e+000) (28, 1.51086473464965820000e+000) (29, 1.13042724132537840000e+000) (30, -1.20893836021423340000e+000) (31, 7.52313041687011720000e+000) (32, 9.90237116813659670000e-001) (33, 5.66831874847412110000e+000) (34, 1.54840910434722900000e+000) (35, -6.96761131286621090000e-001) (36, 4.83838230371475220000e-001) (37, 3.01079034805297850000e+000) (38, -4.34583202004432680000e-002) (39, 1.53309965133666990000e+000) (40, 2.63783740997314450000e+000) (41, 1.23756229877471920000e+000) (42, 1.90079987049102780000e+000) (43, 3.78586077690124510000e+000) (44, -7.12352514266967770000e-001) (45, -1.63562738895416260000e+000) (46, 2.65132999420166020000e+000) (47, 5.82362592220306400000e-001) (48, -9.36717834472656250000e+002) (49, -1.47135217285156250000e+003) (50, -1.19127783203125000000e+003) (51, -4.94575881958007810000e+001) (52, -7.41855957031250000000e+002) (53, -1.14100769042968750000e+003) (54, -4.66816680908203120000e+002) (55, -1.00554885864257810000e+001) (56, -1.27131797790527340000e+002) (57, -1.58097976684570310000e+002) (58, 1.02669464111328120000e+002) (59, -5.25047851562500000000e+002) (60, 1.50000000000000000000e+003) (0, -6.50413370132446290000e+000) (1, 5.20019173622131350000e-001) (2, -1.99915289878845210000e-001) (3, -3.19606304168701170000e+000) (4, 9.98081207275390630000e-001) (5, 1.25088596343994140000e+000) (6, -2.41906690597534180000e+000) (7, -1.42162013053894040000e+000) (8, -5.21831333637237550000e-001) (9, -8.82352161407470700000e+000) (10, -4.67683458328247070000e+000) (11, 3.40264476835727690000e-002) (12, -3.43344163894653320000e+000) (13, 1.07048058509826660000e+000) (14, 5.36772727966308590000e-001) (15, -3.32273006439208980000e-001) (16, 1.42376816272735600000e+000) (17, 1.13083803653717040000e+000) (18, -1.46872959136962890000e+001) (19, -8.17125606536865230000e+000) (20, 5.26179075241088870000e-001) (21, 1.81883916258811950000e-001) (22, 1.74551510810852050000e+000) (23, -2.57656306028366090000e-001) (24, 1.94213428497314450000e+001) (25, -4.69720745086669920000e+000) (26, 5.35921871662139890000e-001) (27, 3.45269143581390380000e-001) (28, -6.83064699172973630000e+000) (29, -5.46820580959320070000e-001) (30, -1.01951303482055660000e+001) (31, -6.93150281906127930000e-001) (32, 3.72260630130767820000e-001) (33, 9.17938411235809330000e-001) (34, -1.45215761661529540000e+000) (35, 6.57970309257507320000e-001) (36, 1.62601411342620850000e+000) (37, 1.39261615276336670000e+000) (38, 5.24272561073303220000e-001) (39, 1.99147777557373050000e+001) (40, 3.10970020294189450000e+000) (41, -8.08211898803710940000e+000) (42, 6.17846345901489260000e+000) (43, 3.05585241317749020000e+000) (44, -6.75004273653030400000e-002) (45, -1.17639122009277340000e+001) (46, 3.10313677787780760000e+000) (47, 4.59076315164566040000e-001) (48, -1.67627441883087160000e+000) (49, -1.32080087661743160000e+001) (50, 4.60061025619506840000e+000) (51, -2.22539901733398440000e+001) (52, -2.02815265655517580000e+001) (53, -2.01478266716003420000e+000) (54, -2.44708266109228130000e-002) (55, -1.05635654926300050000e+000) (56, 2.78427982330322270000e+000) (57, 2.67930316925048830000e+000) (58, -1.50000000000000000000e+003) (59, 1.19877302646636960000e+000) (60, -1.50000000000000000000e+003) (61, -2.78195810317993160000e+000) (0, 2.32490792870521550000e-001) (1, -5.07250487804412840000e-001) (2, 1.26141512393951420000e+000) (3, -5.59704720973968510000e-001) (4, 6.70680940151214600000e-001) (5, -4.81552183628082280000e-001) (6, 1.71750456094741820000e-001) (7, -8.14662575721740720000e-001) (8, 3.50459694862365720000e-001) (9, -4.39284950494766240000e-001) (10, 1.08535361289978030000e+000) (11, -6.99480473995208740000e-001) (12, -4.97503399848937990000e-001) (13, -1.11514723300933840000e+000) (14, 5.37731766700744630000e-001) (15, 4.09990739822387700000e+000) (16, -3.39927494525909420000e-001) (17, -5.00340610742568970000e-002) (18, -5.40850698947906490000e-001) (19, -1.69263705611228940000e-001) (20, 8.47161710262298580000e-002) (21, 2.54383254051208500000e+000) (22, -3.97151798009872440000e-001) (23, 1.24048256874084470000e+000) (24, -4.59682083129882810000e+000) (25, 3.36104846000671390000e+000) (26, 1.06345129013061520000e+000) (27, 3.43810892105102540000e+000) (28, 2.13793158531188960000e+000) (29, 1.56788289546966550000e-001) (30, -6.09408736228942870000e-001) (31, 1.39073228836059570000e+000) (32, 1.94451227784156800000e-001) (33, 4.60522174835205080000e-001) (34, 1.65421724319458010000e+000) (35, 9.31916534900665280000e-001) (36, -1.79632341861724850000e+000) (37, 3.71976995468139650000e+000) (38, -3.55458676815032960000e-001) (39, 1.56943500041961670000e+000) (40, 2.15249061584472660000e+000) (41, -3.09880733489990230000e-001) (42, 1.98467600345611570000e+000) (43, 2.59482097625732420000e+000) (44, 8.14064860343933110000e-001) (45, -2.61906027793884280000e+000) (46, 2.77481245994567870000e+000) (47, 1.19626557826995850000e+000) (48, -7.43281424045562740000e-001) (49, -4.88223880529403690000e-001) (50, 2.56110715866088870000e+000) (51, 5.46936452388763430000e-001) (52, 2.05824565887451170000e+000) (53, 3.20026683807373050000e+000) (54, 1.84773397445678710000e+000) (55, 2.28845429420471190000e+000) (56, -3.66815686225891110000e-001) (57, 1.82097303867340090000e+000) (58, -9.42983520507812500000e+002) (59, 1.44254648685455320000e+000) (60, 6.08576869964599610000e+000) (61, 6.81060552597045900000e-001) (62, -2.47664123773574830000e-001) (0, -5.98140563964843750000e+001) (1, 2.30604544281959530000e-001) (2, -2.34958910942077640000e+000) (3, -4.60386896133422850000e+000) (4, -4.56006750464439390000e-002) (5, -3.25673788785934450000e-001) (6, -4.09273862838745120000e+000) (7, 4.31013221740722660000e+001) (8, -6.47613465785980220000e-001) (9, -3.72844529151916500000e+000) (10, -1.40129575729370120000e+001) (11, 6.70815229415893550000e-001) (12, 1.13159954547882080000e+000) (13, 1.63569116592407230000e+000) (14, -1.56673049926757810000e+000) (15, -1.97996101379394530000e+001) (16, 2.35039186477661130000e+000) (17, -7.00513303279876710000e-001) (18, 1.00357496738433840000e+000) (19, 1.95043182373046870000e+000) (20, 2.51771122217178340000e-001) (21, -9.09442126750946040000e-001) (22, 2.76737284660339360000e+000) (23, 3.56200635433197020000e-001) (24, 2.08658480644226070000e+000) (25, 1.45461571216583250000e+000) (26, -7.36102640628814700000e-001) (27, 1.37684965133666990000e+000) (28, 6.77723693847656250000e+000) (29, -7.05831336975097660000e+000) (30, 2.34089050292968750000e+001) (31, 1.88041629791259770000e+001) (32, 3.86170029640197750000e-001) (33, -1.69783902168273930000e+000) (34, 8.06329154968261720000e+000) (35, -5.08130371570587160000e-001) (36, 2.42916927337646480000e+001) (37, 1.18573608398437500000e+001) (38, -3.36323618888854980000e-001) (39, 1.74936103820800780000e+001) (40, 4.29712963104248050000e+000) (41, -3.11311740875244140000e+001) (42, -7.21464633941650390000e-001) (43, 2.06733679771423340000e+000) (44, 3.57075244188308720000e-001) (45, 2.36173076629638670000e+001) (46, -7.17068862915039060000e+001) (47, -1.27072644233703610000e+000) (48, 1.50000000000000000000e+003) (49, -1.12865710449218750000e+003) (50, -5.79255981445312500000e+002) (51, 1.50000000000000000000e+003) (52, 1.50000000000000000000e+003) (53, -6.99868469238281250000e+001) (54, 6.43315277099609380000e+001) (55, -1.50000000000000000000e+003) (56, 1.17376174926757810000e+001) (57, -8.72753601074218750000e+002) (58, 1.50000000000000000000e+003) (59, -1.50000000000000000000e+003) (60, 1.50000000000000000000e+003) (61, -8.91712097167968750000e+002) (62, -1.19017614746093750000e+003) (63, 1.50000000000000000000e+003) (0, -8.21997165679931640000e-001) (1, -1.90483212471008300000e-001) (2, 1.30834317207336430000e+000) (3, 4.06969308853149410000e-001) (4, 1.18835949897766110000e+000) (5, 1.29516839981079100000e+000) (6, 5.16351401805877690000e-001) (7, 1.23324835300445560000e+000) (8, -2.25643187761306760000e-001) (9, -6.24626457691192630000e-001) (10, 1.04921305179595950000e+000) (11, -5.48198759555816650000e-001) (12, 6.45502507686614990000e-001) (13, -2.08566356450319290000e-002) (14, -3.15112946555018420000e-003) (15, 1.07002139091491700000e+000) (16, -6.75029456615448000000e-001) (17, 6.95347040891647340000e-002) (18, -7.82785594463348390000e-001) (19, -2.40618631243705750000e-001) (20, 8.83410394191741940000e-001) (21, 1.67596650123596190000e+000) (22, 8.87219086289405820000e-002) (23, 9.72548663616180420000e-001) (24, 4.52496170997619630000e-001) (25, 1.88920867443084720000e+000) (26, 1.61179304122924800000e-001) (27, 2.00838780403137210000e+000) (28, -1.56167089939117430000e-001) (29, 4.60855871438980100000e-001) (30, 1.91377297043800350000e-001) (31, 2.44943666458129880000e+000) (32, -4.83995914459228520000e-001) (33, 1.08800768852233890000e+000) (34, 6.87988579273223880000e-001) (35, -5.66771805286407470000e-001) (36, -9.83069598674774170000e-001) (37, 1.71212828159332280000e+000) (38, -3.93829524517059330000e-001) (39, 1.41811144351959230000e+000) (40, 2.17162108421325680000e+000) (41, 1.47751951217651370000e+000) (42, 1.81885612010955810000e+000) (43, 1.89267075061798100000e+000) (44, -3.08907270431518550000e-001) (45, -6.03652112185955050000e-002) (46, 3.19935584068298340000e+000) (47, 1.02826821804046630000e+000) (48, -7.61675953865051270000e-001) (49, -1.37515798211097720000e-001) (50, 9.89832878112792970000e-001) (51, 4.20022106170654300000e+000) (52, 1.67112112045288090000e+000) (53, 6.74837827682495120000e-001) (54, -3.40973019599914550000e-001) (55, 1.25005722045898440000e+000) (56, 3.40358644723892210000e-001) (57, 2.03327941894531250000e+000) (58, -1.11509675979614260000e+001) (59, 2.54298257827758790000e+000) (60, 8.47900695800781250000e+001) (61, 7.13687658309936520000e-001) (62, -5.72228431701660160000e+000) (63, -3.99252563714981080000e-001) (64, 9.02167663574218750000e+002) (0, -3.01962137222290040000e-001) (1, 1.88251900672912600000e+000) (2, -4.60780531167984010000e-001) (3, 1.00303754210472110000e-001) (4, 6.39115750789642330000e-001) (5, 5.07308661937713620000e-001) (6, -2.05225422978401180000e-001) (7, -3.12381124496459960000e+000) (8, -3.47699612379074100000e-001) (9, -4.28230874240398410000e-002) (10, 1.03399372100830080000e+001) (11, 4.97518688440322880000e-001) (12, -2.16364264488220210000e+000) (13, -8.46782684326171880000e+000) (14, 1.59866318106651310000e-001) (15, 1.93279516696929930000e+000) (16, -9.19945165514945980000e-002) (17, 1.32245361804962160000e+000) (18, 7.32167184352874760000e-001) (19, -5.39209413528442380000e+000) (20, 4.17659580707550050000e-001) (21, 1.90937817096710210000e+000) (22, -8.50163269042968750000e+000) (23, 1.56727224588394170000e-001) (24, 1.52607274055480960000e+000) (25, 1.24286270141601560000e+000) (26, 2.81108170747756960000e-001) (27, -2.54761862754821780000e+000) (28, 2.73878383636474610000e+000) (29, 1.28304445743560790000e+000) (30, -1.40793812274932860000e+000) (31, 5.70057487487792970000e+000) (32, -4.07696545124053960000e-001) (33, 6.63604855537414550000e-001) (34, 3.10822153091430660000e+000) (35, 1.47306725382804870000e-001) (36, -1.61775672435760500000e+000) (37, -4.57406044006347660000e+000) (38, 1.87484338879585270000e-001) (39, -1.97200059890747070000e+000) (40, 4.01598423719406130000e-001) (41, -2.35386207699775700000e-001) (42, 3.06987357139587400000e+000) (43, 2.06653213500976560000e+000) (44, 9.57966148853302000000e-001) (45, 8.48038613796234130000e-001) (46, 2.68528103828430180000e+000) (47, -3.17411273717880250000e-001) (48, -1.50000000000000000000e+003) (49, -7.43621978759765620000e+001) (50, -4.83772857666015620000e+002) (51, -7.28115653991699220000e+000) (52, -4.60790039062500000000e+002) (53, -2.35885467529296870000e+002) (54, -5.17825622558593750000e+002) (55, -4.18220153808593750000e+002) (56, -2.59139923095703120000e+002) (57, 1.41880798339843750000e+002) (58, -4.02128814697265620000e+002) (59, 7.72241058349609380000e+001) (60, 1.50000000000000000000e+003) (61, -1.35375045776367190000e+002) (62, -3.02896270751953120000e+002) (63, -3.41502960205078120000e+002) (64, 1.50000000000000000000e+003) (65, 2.90297222137451170000e+000) (0, -5.35020408630371090000e+001) (1, -1.25368738174438480000e+000) (2, -4.82350921630859370000e+000) (3, -2.34386491775512700000e+000) (4, -2.50802016258239750000e+000) (5, 5.35949617624282840000e-002) (6, -1.11163151264190670000e+000) (7, -1.03410243988037110000e+000) (8, -2.60389685630798340000e+000) (9, -6.94919824600219730000e-001) (10, 1.74369037151336670000e+000) (11, -1.08431315422058110000e+000) (12, 1.71811151504516600000e+000) (13, 1.25181126594543460000e+000) (14, -1.06995811462402340000e+001) (15, 2.02636361122131350000e+000) (16, 1.50903642177581790000e+000) (17, -7.28925645351409910000e-001) (18, 3.20258289575576780000e-001) (19, 8.21684598922729490000e-001) (20, 9.66387242078781130000e-002) (21, 1.31052005290985110000e+000) (22, 1.83782623291015620000e+002) (23, 6.94504156708717350000e-002) (24, 8.13807067871093750000e+001) (25, -2.76921844482421870000e+001) (26, -5.92757761478424070000e-001) (27, -1.33327913284301760000e+001) (28, -1.34710083007812500000e+002) (29, 1.43259271979331970000e-001) (30, 1.56018853187561040000e+000) (31, 3.28578805923461910000e+000) (32, -2.44723653793334960000e+000) (33, 9.25650238990783690000e-001) (34, 1.83614000678062440000e-001) (35, 6.15267515182495120000e-001) (36, -8.07436656951904300000e+000) (37, -3.38026905059814450000e+000) (38, -1.38030993938446040000e+000) (39, 8.58416366577148440000e+000) (40, 4.49452638626098630000e-001) (41, -4.05421400070190430000e+000) (42, 3.64344406127929690000e+000) (43, 8.28723609447479250000e-001) (44, 7.20742940902709960000e-001) (45, -1.19200611114501950000e+001) (46, -3.37264747619628910000e+001) (47, -4.48889350891113280000e+000) (48, 1.50000000000000000000e+003) (49, -1.50000000000000000000e+003) (50, 1.50000000000000000000e+003) (51, 1.50000000000000000000e+003) (52, 1.50000000000000000000e+003) (53, 1.05484545898437500000e+003) (54, 1.11270837402343750000e+003) (55, -1.37947924804687500000e+003) (56, -1.50000000000000000000e+003) (57, -2.17144409179687500000e+002) (58, -1.28631481933593750000e+003) (59, 1.50000000000000000000e+003) (60, 1.50000000000000000000e+003) (61, 1.50000000000000000000e+003) (62, 1.50000000000000000000e+003) (63, 2.38914031982421870000e+001) (64, -1.50000000000000000000e+003) (65, -1.41042749023437500000e+003) (66, 1.50000000000000000000e+003) (0, 1.55876052379608150000e+000) (1, 2.00486922264099120000e+000) (2, -5.61862230300903320000e-001) (3, 1.81515544652938840000e-001) (4, 1.05540072917938230000e+000) (5, -1.51059240102767940000e-001) (6, -8.42139363288879390000e-001) (7, -4.93645238876342770000e+000) (8, 3.90971064567565920000e-001) (9, 3.48947525024414060000e-001) (10, 1.17387545108795170000e+000) (11, -3.82111877202987670000e-001) (12, -1.52768957614898680000e+000) (13, -2.30064463615417480000e+000) (14, 5.19505739212036130000e-001) (15, 1.83437800407409670000e+000) (16, -1.67183554172515870000e+000) (17, 1.20869767665863040000e+000) (18, 5.48181474208831790000e-001) (19, -1.37162625789642330000e+000) (20, -1.98494940996170040000e-001) (21, 2.67865836620330810000e-001) (22, -5.65229272842407230000e+000) (23, -3.34258824586868290000e-001) (24, -9.72264409065246580000e-001) (25, 1.24152386188507080000e+000) (26, 2.07436323165893550000e-001) (27, -9.74567770957946780000e-001) (28, 1.81299197673797610000e+000) (29, -4.41824346780776980000e-002) (30, -1.48067176342010500000e+000) (31, 8.20254325866699220000e-001) (32, -1.15041509270668030000e-001) (33, 8.33799839019775390000e-001) (34, 1.23285329341888430000e+000) (35, 2.85329937934875490000e-001) (36, 6.17411620914936070000e-002) (37, 1.35792529582977290000e+000) (38, 7.09698855876922610000e-001) (39, 1.90466749668121340000e+000) (40, 1.62617313861846920000e+000) (41, 2.08977058529853820000e-001) (42, 1.05945646762847900000e+000) (43, 1.56213343143463130000e+000) (44, 1.29027354717254640000e+000) (45, -2.16934657096862790000e+000) (46, 3.47810983657836910000e+000) (47, 8.91764640808105470000e-001) (48, -7.14261352539062500000e+002) (49, 3.75487670898437500000e+002) (50, -5.53480651855468750000e+002) (51, -1.87715927124023440000e+002) (52, -3.03470825195312500000e+002) (53, -3.38479217529296870000e+002) (54, -3.24883819580078130000e+002) (55, -2.55305984497070310000e+002) (56, -4.09268524169921870000e+002) (57, 1.34657165527343750000e+002) (58, -1.42768225097656250000e+003) (59, -1.58568283081054690000e+002) (60, -4.62867462158203130000e+002) (61, -1.90147674560546870000e+002) (62, -1.50000000000000000000e+003) (63, -3.30513488769531250000e+002) (64, 1.50000000000000000000e+003) (65, -8.30792922973632810000e+001) (66, -5.21479003906250000000e+002) (67, 6.20858764648437500000e+002) (0, 3.07477712631225590000e-001) (1, 1.74334645271301270000e-001) (2, -6.50566741824150090000e-002) (3, -7.01576352119445800000e-001) (4, -1.21383585035800930000e-001) (5, 2.97752767801284790000e-001) (6, 4.65768188238143920000e-001) (7, -6.36500930786132810000e+000) (8, 6.95863306522369380000e-001) (9, 9.51529204845428470000e-001) (10, 2.29737401008605960000e+000) (11, -4.22366186976432800000e-002) (12, -2.11008000373840330000e+000) (13, -1.35451853275299070000e+000) (14, 1.02353298664093020000e+000) (15, 1.46207988262176510000e+000) (16, -1.17606103420257570000e+000) (17, 2.71755725145339970000e-001) (18, 1.34519970417022710000e+000) (19, -1.88612258434295650000e+000) (20, 7.08231210708618160000e-001) (21, 1.02554038166999820000e-002) (22, -4.28234863281250000000e+000) (23, 1.10014152526855470000e+000) (24, 2.13896656036376950000e+000) (25, 2.07764506340026860000e+000) (26, 3.90220940113067630000e-001) (27, 2.44938325881958010000e+000) (28, 1.26343941688537600000e+000) (29, 7.25213468074798580000e-001) (30, -1.52371323108673100000e+000) (31, -1.94947981834411620000e+000) (32, 5.38909733295440670000e-001) (33, 3.52263307571411130000e+000) (34, 6.78736925125122070000e-001) (35, -6.17495298385620120000e-001) (36, -3.11050862073898320000e-001) (37, 4.20602798461914060000e+000) (38, 1.01568043231964110000e+000) (39, -2.03200984001159670000e+000) (40, 1.98297703266143800000e+000) (41, -6.68741524219512940000e-001) (42, 1.20269453525543210000e+000) (43, 3.42451333999633790000e+000) (44, 9.92214024066925050000e-001) (45, -5.22927236557006840000e+000) (46, 6.14454793930053710000e+000) (47, 6.23109757900238040000e-001) (48, -9.36331298828125000000e+002) (49, 6.44747009277343750000e+002) (50, -1.01321112060546870000e+003) (51, -1.93894363403320310000e+002) (52, -8.08715148925781250000e+002) (53, -5.83523986816406250000e+002) (54, -7.09287902832031250000e+002) (55, -3.72914733886718750000e+002) (56, -8.65023620605468750000e+002) (57, 2.28450607299804690000e+002) (58, -1.50000000000000000000e+003) (59, 2.61769195556640630000e+002) (60, -1.25648596191406250000e+003) (61, -1.13798847198486330000e+001) (62, -1.50000000000000000000e+003) (63, -2.12764343261718750000e+002) (64, 1.50000000000000000000e+003) (65, -1.35436425781250000000e+003) (66, -7.70792053222656250000e+002) (67, 4.44876983642578120000e+002) (68, -1.21474963378906250000e+003) (0, 2.56331491470336910000e+000) (1, -3.21145325899124150000e-001) (2, 1.16697490215301510000e+000) (3, 1.21120762825012210000e+000) (4, 2.63176381587982180000e-001) (5, 5.47455251216888430000e-001) (6, 7.48564195632934570000e+000) (7, -2.34633598327636720000e+001) (8, 1.38566434383392330000e+000) (9, 2.95381951332092290000e+000) (10, 2.39213490486145020000e+000) (11, -1.53971418738365170000e-001) (12, -9.24946975708007810000e+000) (13, -2.22573304176330570000e+000) (14, 6.94665491580963130000e-001) (15, 2.73376274108886720000e+000) (16, -1.59048616886138920000e+000) (17, -2.71818727254867550000e-001) (18, -5.05747795104980470000e+000) (19, 4.72677278518676760000e+000) (20, 8.11905205249786380000e-001) (21, 3.70486259460449220000e+000) (22, 4.00455188751220700000e+000) (23, 1.21206033229827880000e+000) (24, -6.18108129501342770000e+000) (25, 8.06570816040039060000e+000) (26, -1.03437781333923340000e-001) (27, 6.65779638290405270000e+000) (28, 4.45600128173828120000e+000) (29, -4.59437012672424320000e-001) (30, -3.93929061889648440000e+001) (31, 3.87440991401672360000e+000) (32, 5.22738099098205570000e-001) (33, 8.30729770660400390000e+000) (34, 4.96850061416625980000e+000) (35, 9.05682325363159180000e-001) (36, -7.80091905593872070000e+000) (37, -1.62927970886230470000e+001) (38, 4.17724937200546260000e-001) (39, 7.03463745117187500000e+000) (40, 1.73121881484985350000e+000) (41, 1.05990612506866460000e+000) (42, 6.25786781311035160000e+000) (43, 1.01603488922119140000e+001) (44, 2.77339875698089600000e-001) (45, 1.96666793823242190000e+001) (46, 1.46758818626403810000e+000) (47, 2.65294998884201050000e-001) (48, -1.50000000000000000000e+003) (49, -1.24752453613281250000e+003) (50, 7.43466003417968750000e+002) (51, 2.03514923095703120000e+002) (52, -1.21027380371093750000e+003) (53, -7.27427429199218750000e+002) (54, -1.10118637084960940000e+002) (55, 7.84585693359375000000e+002) (56, 3.46246154785156250000e+002) (57, -2.36864517211914060000e+002) (58, 1.36893725585937500000e+003) (59, -1.11075585937500000000e+003) (60, 1.50000000000000000000e+003) (61, -2.69895721435546870000e+002) (62, -1.39265441894531250000e+003) (63, -7.07363952636718750000e+002) (64, 1.50000000000000000000e+003) (65, -5.47139099121093750000e+002) (66, 4.26850677490234370000e+002) (67, 1.50000000000000000000e+003) (68, -2.89240020751953120000e+002) (69, 9.35397766113281250000e+002) (0, 2.67038792371749880000e-002) (1, 2.50007301568984990000e-001) (2, 7.11651504039764400000e-001) (3, -7.02945351600646970000e-001) (4, -2.86812692880630490000e-001) (5, 7.57461726665496830000e-001) (6, -1.89924407005310060000e+000) (7, -7.24338579177856450000e+000) (8, -9.38604027032852170000e-003) (9, -1.84859991073608400000e+000) (10, 2.09066677093505860000e+000) (11, 3.47736626863479610000e-001) (12, 3.91560107469558720000e-001) (13, -7.40104734897613530000e-001) (14, -1.01943206787109370000e+000) (15, 1.49074244499206540000e+000) (16, -1.24464534223079680000e-001) (17, 3.53363186120986940000e-001) (18, 3.43247860670089720000e-001) (19, -3.02127861976623540000e+000) (20, -4.57057118415832520000e-001) (21, 1.87130355834960940000e+000) (22, -2.58900094032287600000e+000) (23, -3.74045610427856450000e-001) (24, 1.02303886413574220000e+000) (25, 1.30918455123901370000e+000) (26, -1.87690462917089460000e-002) (27, -1.48280084133148190000e+000) (28, 2.37489390373229980000e+000) (29, 5.70142507553100590000e-001) (30, -3.97063314914703370000e-001) (31, 2.50392127037048340000e+000) (32, -1.92216992378234860000e-001) (33, 1.32432448863983150000e+000) (34, 2.71940445899963380000e+000) (35, 6.52950346469879150000e-001) (36, -1.13965845108032230000e+000) (37, 7.72590577602386470000e-001) (38, 7.34119355678558350000e-001) (39, 1.28558897972106930000e+000) (40, 1.44006550312042240000e+000) (41, 5.35547196865081790000e-001) (42, 1.27904087305068970000e-001) (43, 1.34353625774383540000e+000) (44, -4.52583193778991700000e-001) (45, -1.36976152658462520000e-001) (46, 1.46652734279632570000e+000) (47, 8.83507370948791500000e-001) (48, -2.77359724044799800000e-001) (49, -8.12057113647460940000e+001) (50, 1.76228546142578120000e+002) (51, 1.16921520233154300000e+000) (52, -3.45988250732421870000e+002) (53, -3.28884979248046880000e+002) (54, -3.21773101806640620000e+002) (55, -1.86440780639648440000e+002) (56, -1.73920135498046880000e+001) (57, 5.47303962707519530000e+001) (58, -1.43000000000000000000e+003) (59, -2.25907173156738280000e+001) (60, 1.50000000000000000000e+003) (61, -9.61657333374023440000e+001) (62, -1.50000000000000000000e+003) (63, -5.00925048828125000000e+002) (64, 8.15916503906250000000e+002) (65, 6.87131042480468750000e+001) (66, -1.69866409301757810000e+002) (67, 5.98036155700683590000e+001) (68, -3.61337951660156250000e+002) (69, -2.25711166381835940000e+002) (70, -3.31235321044921870000e+002) (0, 6.85052454471588130000e-001) (1, 4.64804828166961670000e-001) (2, 9.85764801502227780000e-001) (3, 1.28188759088516240000e-001) (4, -2.28291392326354980000e-001) (5, -2.74581946432590480000e-002) (6, 2.78571510314941410000e+000) (7, -2.27209305763244630000e+000) (8, -7.88879692554473880000e-001) (9, -7.08311855792999270000e-001) (10, -3.03868800401687620000e-002) (11, -7.58446395397186280000e-001) (12, 1.09874057769775390000e+000) (13, 3.29961746931076050000e-001) (14, 1.17717111110687260000e+000) (15, -2.23591476678848270000e-001) (16, 2.06937730312347410000e-001) (17, -6.63034141063690190000e-001) (18, 2.42633163928985600000e-001) (19, -2.75857234001159670000e+000) (20, -4.88133609294891360000e-001) (21, -1.86994051933288570000e+000) (22, -2.83920836448669430000e+000) (23, -7.87380754947662350000e-001) (24, 1.82143691927194600000e-002) (25, -7.03115403652191160000e-001) (26, -5.51633298397064210000e-001) (27, -1.25514507293701170000e+000) (28, -9.98815238475799560000e-001) (29, -8.00844609737396240000e-001) (30, 3.61440092325210570000e-001) (31, 2.37325787544250490000e-001) (32, 1.14488112926483150000e+000) (33, -9.79140520095825200000e-001) (34, 2.76455916464328770000e-002) (35, 4.51674878597259520000e-001) (36, 2.18468815088272090000e-001) (37, 2.96325945854187010000e+000) (38, 1.01186001300811770000e+000) (39, -4.85996842384338380000e-001) (40, 2.59182620048522950000e+000) (41, 5.89097857475280760000e-001) (42, -1.91838920116424560000e-001) (43, 2.03367638587951660000e+000) (44, 6.81995987892150880000e-001) (45, 1.32314721122384070000e-002) (46, 3.38268733024597170000e+000) (47, 3.91615390777587890000e-001) (48, -1.40808522701263430000e+000) (49, -9.70299743652343750000e+002) (50, -6.73288513183593750000e+002) (51, 2.56263780593872070000e+000) (52, -5.60723205566406250000e+002) (53, -3.31924682617187500000e+002) (54, 1.98097431659698490000e+000) (55, -1.36446945190429690000e+002) (56, 3.51815080642700200000e+000) (57, -8.60734081268310550000e+000) (58, 3.77804222106933590000e+001) (59, -3.36377716064453130000e+001) (60, -1.44124291992187500000e+003) (61, 3.63000822067260740000e+000) (62, -1.44800000000000000000e+003) (63, -4.01375808715820310000e+001) (64, -1.50000000000000000000e+003) (65, -5.78994628906250000000e+002) (66, -9.90370273590087890000e+000) (67, 1.83159637451171870000e+000) (68, 1.45495319366455080000e+001) (69, -1.37231934070587160000e+000) (70, 5.94636425375938420000e-002) (71, -2.81865997314453120000e+002) (0, -1.24245786666870120000e+000) (1, -9.42249059677124020000e-001) (2, 9.19391587376594540000e-002) (3, 2.82240957021713260000e-002) (4, -1.10780727863311770000e+000) (5, -5.77746748924255370000e-001) (6, -9.93587315082550050000e-001) (7, -9.31719779968261720000e-001) (8, 1.00099945068359370000e+000) (9, -5.85118532180786130000e-001) (10, 1.16581726074218750000e+000) (11, 1.03987741470336910000e+000) (12, 1.47644132375717160000e-001) (13, 5.48272728919982910000e-001) (14, 3.02799999713897710000e-001) (15, 7.65682339668273930000e-001) (16, 1.24327158927917480000e+000) (17, -9.69696566462516780000e-002) (18, -7.52891242504119870000e-001) (19, -1.03759276866912840000e+000) (20, 1.09522104263305660000e+000) (21, 1.80274319648742680000e+000) (22, -1.96098875999450680000e+000) (23, -1.83403074741363530000e-001) (24, 8.50650966167449950000e-001) (25, 2.19598170369863510000e-002) (26, 4.65876162052154540000e-001) (27, 2.81947404146194460000e-001) (28, 1.33453035354614260000e+000) (29, 9.84598577022552490000e-001) (30, -4.97688055038452150000e-001) (31, 7.41058707237243650000e-001) (32, -2.18771308660507200000e-001) (33, 1.20896315574646000000e+000) (34, 8.29207837581634520000e-001) (35, -7.92718529701232910000e-001) (36, -7.66789138317108150000e-001) (37, 1.95090103149414060000e+000) (38, -3.32100629806518550000e-001) (39, -6.37568295001983640000e-001) (40, 3.28249859809875490000e+000) (41, -2.53117591142654420000e-001) (42, -3.88870716094970700000e-001) (43, 1.83763849735260010000e+000) (44, 9.03380572795867920000e-001) (45, 3.82572203874588010000e-001) (46, 2.13338851928710940000e+000) (47, 6.16273343563079830000e-001) (48, -8.23189795017242430000e-001) (49, -4.09957408905029300000e+000) (50, 1.45523023605346680000e+000) (51, 4.71511393785476680000e-001) (52, 3.62972140312194820000e+000) (53, 2.07404565811157230000e+000) (54, -5.18254697322845460000e-001) (55, 1.52741444110870360000e+000) (56, -2.92065930366516110000e+000) (57, 1.15801429748535160000e+000) (58, -1.50000000000000000000e+003) (59, 3.33757138252258300000e+000) (60, -7.30719055175781250000e+002) (61, -7.26231634616851810000e-001) (62, 1.50000000000000000000e+003) (63, -2.45781615376472470000e-001) (64, 8.65137207031250000000e+002) (65, 9.49123322963714600000e-001) (66, 1.79452562332153320000e+000) (67, 6.93066024780273440000e+000) (68, 9.18652713298797610000e-001) (69, 2.44023466110229490000e+000) (70, 2.60661888122558590000e+000) (71, -1.28824305534362790000e+000) (72, -3.16854149103164670000e-001) (0, -1.75756084918975830000e+000) (1, 2.76214542388916020000e+001) (2, 6.58894598484039310000e-001) (3, -3.01340794563293460000e+000) (4, 1.69417214393615720000e+000) (5, 5.37092208862304690000e-001) (6, -1.52727687358856200000e+000) (7, -2.46601428985595700000e+001) (8, 1.24134683609008790000e+000) (9, 1.49195394515991210000e+001) (10, 1.08906400203704830000e+000) (11, -2.38406330347061160000e-001) (12, 1.90972849726676940000e-001) (13, 4.57654666900634770000e+000) (14, -8.27375128865242000000e-002) (15, -2.64274311065673830000e+000) (16, -1.03203260898590090000e+000) (17, 9.79484617710113530000e-002) (18, -1.16304147243499760000e+000) (19, 1.47017955780029300000e+000) (20, -7.75806844234466550000e-001) (21, -1.98183786869049070000e+000) (22, -4.34122543334960940000e+001) (23, 4.93984431028366090000e-001) (24, 2.86634111404418950000e+000) (25, 5.47940587997436520000e+000) (26, 8.44545185565948490000e-001) (27, 1.66966450214385990000e+000) (28, 1.22935972213745120000e+001) (29, 1.43970087170600890000e-001) (30, -1.08743190765380860000e+000) (31, 3.82390379905700680000e+000) (32, 1.23194742202758790000e+000) (33, 2.15515923500061040000e+000) (34, 3.05048203468322750000e+000) (35, 9.53083157539367680000e-001) (36, -5.32360553741455080000e-001) (37, 3.73392701148986820000e+000) (38, -4.60893958806991580000e-001) (39, 2.73705869913101200000e-001) (40, 7.95363426208496090000e+000) (41, 1.66450917720794680000e-001) (42, -1.00377321243286130000e+000) (43, 5.57095050811767580000e+000) (44, 6.01914763450622560000e-001) (45, -6.68981027603149410000e+000) (46, 5.90789890289306640000e+000) (47, -4.80964541435241700000e-001) (48, -1.50000000000000000000e+003) (49, 9.95833251953125000000e+002) (50, 1.01986346435546870000e+003) (51, 4.52967071533203130000e+000) (52, -2.51581024169921870000e+002) (53, 4.87413970947265620000e+002) (54, 3.89582580566406250000e+002) (55, 8.53624572753906250000e+001) (56, -1.48535070800781250000e+003) (57, 6.68645629882812500000e+001) (58, -1.50000000000000000000e+003) (59, 2.05175342559814450000e+001) (60, -1.50000000000000000000e+003) (61, 3.56035583496093750000e+002) (62, -1.50000000000000000000e+003) (63, -1.50000000000000000000e+003) (64, 1.50000000000000000000e+003) (65, -8.31852478027343750000e+002) (66, -1.50000000000000000000e+003) (67, 1.50000000000000000000e+003) (68, -1.50000000000000000000e+003) (69, -8.42703491210937500000e+002) (70, 5.27518463134765620000e+000) (71, -1.50000000000000000000e+003) (72, 8.12993041992187500000e+002) (73, -1.50000000000000000000e+003) (0, -4.86914062500000000000e+000) (1, -1.35213661193847660000e+000) (2, 4.62157577276229860000e-001) (3, -9.72746968269348140000e-001) (4, -2.29332804679870610000e+000) (5, 4.42431211471557620000e-001) (6, 4.65001851320266720000e-001) (7, -1.92081117630004880000e+000) (8, -2.94435787945985790000e-002) (9, -1.25931000709533690000e+000) (10, 1.93321454524993900000e+000) (11, -3.65180879831314090000e-001) (12, -8.52386355400085450000e-001) (13, -1.28695869445800780000e+000) (14, 9.99456942081451420000e-002) (15, 1.41027247905731200000e+000) (16, -2.94397926330566410000e+000) (17, 9.72062110900878910000e-001) (18, -6.42149507999420170000e-001) (19, -2.19524073600769040000e+000) (20, 2.84419693052768710000e-002) (21, 1.21774697303771970000e+000) (22, -8.59191894531250000000e-001) (23, 4.86129939556121830000e-001) (24, -6.20897591114044190000e-001) (25, 9.38748657703399660000e-001) (26, -2.11353659629821780000e-001) (27, 2.33256912231445310000e+000) (28, 1.70182919502258300000e+000) (29, 1.54546052217483520000e-001) (30, -7.86463201045989990000e-001) (31, 3.23411059379577640000e+000) (32, 8.98538112640380860000e-001) (33, 2.17700481414794920000e+000) (34, 2.88836693763732910000e+000) (35, 5.06477236747741700000e-001) (36, 3.09823840856552120000e-001) (37, 1.93437278270721440000e+000) (38, 1.09657979011535640000e+000) (39, 2.86818695068359370000e+000) (40, 1.61208879947662350000e+000) (41, -5.47549068927764890000e-001) (42, 8.79894673824310300000e-001) (43, 2.35147809982299800000e+000) (44, 4.62521433830261230000e-001) (45, -1.07538439333438870000e-001) (46, 2.46410179138183590000e+000) (47, 6.48389935493469240000e-001) (48, -3.16478222608566280000e-001) (49, -3.52235889434814450000e+000) (50, -3.91249299049377440000e-001) (51, 9.60443377494812010000e-001) (52, 2.42210483551025390000e+000) (53, 2.83487749099731450000e+000) (54, 4.27538681030273440000e+000) (55, 8.47243010997772220000e-001) (56, -6.98998212814331050000e+000) (57, 1.32630074024200440000e+000) (58, -3.51480216979980470000e+001) (59, 1.87367093563079830000e+000) (60, 4.37016057968139650000e+000) (61, 1.47263729572296140000e+000) (62, 1.19514355468750000000e+003) (63, -1.17548284530639650000e+001) (64, 1.50000000000000000000e+003) (65, -9.55130577087402340000e+000) (66, 3.65533447265625000000e+000) (67, 2.68918824195861820000e+000) (68, -1.45334452390670780000e-001) (69, 2.20626568794250490000e+000) (70, 3.72781491279602050000e+000) (71, -5.75720965862274170000e-001) (72, 9.20211076736450200000e-001) (73, -1.61315417289733890000e+000) (74, 2.04329395294189450000e+000) (0, -2.49454421997070310000e+001) (1, 4.17190027236938480000e+000) (2, 1.99635773897171020000e-001) (3, -2.23517680168151860000e+000) (4, -7.17720925807952880000e-001) (5, -9.50632616877555850000e-002) (6, -1.60289180278778080000e+000) (7, -1.32091655731201170000e+001) (8, 2.88548946380615230000e-001) (9, 2.87621898651123050000e+001) (10, 2.13745546340942380000e+000) (11, -5.58599531650543210000e-002) (12, -5.06000936031341550000e-001) (13, -9.45790171623229980000e-001) (14, 3.97371202707290650000e-001) (15, 1.40012323856353760000e+000) (16, -2.03875929117202760000e-001) (17, 3.36313426494598390000e-001) (18, 7.92472541332244870000e-001) (19, -4.92925739288330080000e+000) (20, 1.14893865585327150000e+000) (21, 1.63270342350006100000e+000) (22, -9.71980094909667970000e-001) (23, 3.47080278396606450000e+000) (24, -1.42478919029235840000e+000) (25, -8.04554969072341920000e-002) (26, -5.58854997158050540000e-001) (27, 5.21774172782897950000e-001) (28, -6.51645565032958980000e+000) (29, -1.01882331073284150000e-001) (30, 1.05603158473968510000e+000) (31, 1.16139717102050780000e+001) (32, 4.57344323396682740000e-001) (33, 3.00935530662536620000e+000) (34, 3.44570708274841310000e+000) (35, -1.19629636406898500000e-001) (36, 1.28991734981536870000e+000) (37, 4.57228326797485350000e+000) (38, 1.49984371662139890000e+000) (39, 1.30495858192443850000e+000) (40, 2.45872187614440920000e+000) (41, 1.61162889003753660000e+000) (42, 2.96820372343063350000e-001) (43, 6.26808118820190430000e+000) (44, 3.91304194927215580000e-001) (45, -5.21567773818969730000e+000) (46, 9.63801383972167970000e+000) (47, 1.18633067607879640000e+000) (48, -1.50000000000000000000e+003) (49, 1.50000000000000000000e+003) (50, 1.50000000000000000000e+003) (51, -1.21812683105468750000e+002) (52, -7.00136657714843750000e+002) (53, -6.07421447753906250000e+002) (54, -3.79665954589843750000e+002) (55, -7.18619384765625000000e+001) (56, -1.13067578125000000000e+003) (57, 5.10720489501953120000e+002) (58, 3.06065612792968750000e+002) (59, -7.32778808593750000000e+002) (60, -1.50000000000000000000e+003) (61, -9.19966491699218750000e+002) (62, -1.50000000000000000000e+003) (63, -1.50000000000000000000e+003) (64, 1.50000000000000000000e+003) (65, 2.11113876342773440000e+002) (66, -1.50000000000000000000e+003) (67, -6.66248718261718750000e+002) (68, -1.05143078613281250000e+003) (69, 1.47385406494140620000e+002) (70, 1.40667236328125000000e+002) (71, -1.27399780273437500000e+003) (72, -8.47300659179687500000e+002) (73, -1.50000000000000000000e+003) (74, -1.01189123535156250000e+003) (75, -1.50000000000000000000e+003) (0, 1.64003944396972660000e+000) (1, 1.49226474761962890000e+000) (2, 5.70818129926919940000e-003) (3, -8.38479459285736080000e-001) (4, 3.96585352718830110000e-002) (5, -6.90161466598510740000e-001) (6, -5.72170376777648930000e-001) (7, -9.95436382293701170000e+000) (8, 4.24565225839614870000e-001) (9, -9.26931649446487430000e-002) (10, 1.37283396720886230000e+000) (11, 5.05692362785339360000e-001) (12, 1.96665787696838380000e+000) (13, -4.91824634373188020000e-002) (14, 5.03800928592681880000e-001) (15, 1.02112698554992680000e+000) (16, 1.16905100643634800000e-001) (17, 3.01895916461944580000e-001) (18, -4.84167307615280150000e-001) (19, -4.06136178970336910000e+000) (20, -4.53503131866455080000e-001) (21, -9.07030463218688960000e-001) (22, -7.06199312210083010000e+000) (23, 2.14912556111812590000e-002) (24, 2.63946175575256350000e-001) (25, -3.90241265296936040000e-001) (26, 5.04016518592834470000e-001) (27, 2.85846471786499020000e+000) (28, 1.74689495563507080000e+000) (29, 3.29042136669158940000e-001) (30, 2.61740952730178830000e-001) (31, 1.16407835483551030000e+000) (32, -2.92465269565582280000e-001) (33, 3.73914688825607300000e-001) (34, 3.00511792302131650000e-002) (35, 8.71173381805419920000e-001) (36, 9.40132975578308110000e-001) (37, 3.14493536949157710000e+000) (38, 5.38982868194580080000e-001) (39, 6.24611556529998780000e-001) (40, 2.13941311836242680000e+000) (41, 9.07887995243072510000e-001) (42, 1.61010515689849850000e+000) (43, 4.52794122695922850000e+000) (44, -3.14535677433013920000e-001) (45, -1.31078882217407230000e+001) (46, 2.81081104278564450000e+000) (47, -5.84778904914855960000e-001) (48, -3.76751160621643070000e+000) (49, 1.34801030158996580000e+000) (50, 4.84175062179565430000e+000) (51, 8.45100212097167970000e+000) (52, -1.98693065643310550000e+001) (53, 3.52017903327941890000e+000) (54, 3.95699048042297360000e+000) (55, 3.29642219543457030000e+001) (56, 7.40171372890472410000e-001) (57, 1.44114577770233150000e+000) (58, -1.50000000000000000000e+003) (59, 4.47030544281005860000e+000) (60, -1.50000000000000000000e+003) (61, 1.88582050800323490000e+000) (62, -1.50000000000000000000e+003) (63, -5.02132415771484380000e-001) (64, -1.50000000000000000000e+003) (65, 1.06120753288269040000e+000) (66, 2.99775409698486330000e+000) (67, 1.58143460750579830000e-001) (68, -9.10132293701171880000e+001) (69, 2.72119812011718750000e+002) (70, -1.00761466979980470000e+002) (71, -5.55272474884986880000e-002) (72, -1.81563930511474610000e+001) (73, -3.08580749511718750000e+002) (74, 6.05578899383544920000e+000) (75, -2.49457130432128910000e+001) (76, 1.26416385173797610000e+000) (0, -6.54770231246948240000e+000) (1, 3.11278057098388670000e+000) (2, 3.80551427602767940000e-001) (3, -4.12647294998168950000e+000) (4, 1.98310482501983640000e+000) (5, 5.62760353088378910000e-001) (6, -9.76536870002746580000e-001) (7, -3.78311610221862790000e+000) (8, 1.28242433071136470000e+000) (9, 1.02430858612060550000e+001) (10, 2.05764174461364750000e+000) (11, 1.19557738304138180000e+000) (12, -4.62364345788955690000e-001) (13, -2.37277165055274960000e-001) (14, 7.63980627059936520000e-001) (15, 2.66371870040893550000e+000) (16, 2.06634804606437680000e-001) (17, 9.76107597351074220000e-001) (18, 1.05207574367523190000e+000) (19, -3.74244189262390140000e+000) (20, 8.55071008205413820000e-001) (21, -2.07622647285461430000e+000) (22, -1.15271072387695310000e+001) (23, 1.34156954288482670000e+000) (24, -1.30853605270385740000e+000) (25, 3.51292777061462400000e+000) (26, -5.82028687000274660000e-001) (27, 4.43938541412353520000e+000) (28, 1.75654160976409910000e+000) (29, -6.84707939624786380000e-001) (30, -7.37698853015899660000e-001) (31, 5.81563889980316160000e-001) (32, -4.75902527570724490000e-001) (33, 4.79958176612854000000e-001) (34, 4.50158405303955080000e+000) (35, 1.01040518283843990000e+000) (36, -1.05792856216430660000e+000) (37, 2.69678664207458500000e+000) (38, -4.82499688863754270000e-001) (39, 4.58105325698852540000e-001) (40, 3.35591959953308110000e+000) (41, 6.38623893260955810000e-001) (42, 2.22313642501831050000e-001) (43, 3.88742423057556150000e+000) (44, -8.60235869884490970000e-001) (45, -1.21305453777313230000e+000) (46, 3.43269801139831540000e+000) (47, -3.90080288052558900000e-002) (48, -1.50000000000000000000e+003) (49, 1.25637219238281250000e+003) (50, 1.50000000000000000000e+003) (51, 4.28481445312500000000e+001) (52, -1.76016418457031250000e+002) (53, -1.74630783081054690000e+002) (54, 1.19126594543457030000e+002) (55, 3.17378753662109370000e+002) (56, -7.10925231933593750000e+002) (57, 1.79335723876953120000e+002) (58, -1.50000000000000000000e+003) (59, -5.71483825683593750000e+002) (60, 1.50000000000000000000e+003) (61, -5.19153137207031250000e+002) (62, -1.50000000000000000000e+003) (63, -1.00166430664062500000e+003) (64, 1.50000000000000000000e+003) (65, -1.44627819061279300000e+001) (66, -1.09551220703125000000e+003) (67, 7.87525024414062500000e+002) (68, -1.31927893066406250000e+003) (69, -1.34274963378906250000e+002) (70, -2.25639724731445310000e+002) (71, -1.11325317382812500000e+003) (72, 7.34624389648437500000e+002) (73, -1.27495031738281250000e+003) (74, -1.41343408203125000000e+003) (75, -1.01041979980468750000e+003) (76, -1.24343591308593750000e+003) (77, 1.50000000000000000000e+003) (0, -6.15965247154235840000e-001) (1, -8.27574491500854490000e-001) (2, 5.08081197738647460000e-001) (3, -8.58915030956268310000e-001) (4, -9.79426681995391850000e-001) (5, 8.83563049137592320000e-003) (6, 3.26749652624130250000e-001) (7, 1.93102397918701170000e+001) (8, 1.14041358232498170000e-001) (9, -1.54892339706420900000e+001) (10, 1.95974576473236080000e+000) (11, -4.37962934374809270000e-002) (12, -4.10399317741394040000e-001) (13, -3.22260165214538570000e+000) (14, -7.07235336303710940000e-001) (15, 2.58721232414245610000e+000) (16, -7.27021694183349610000e-001) (17, -2.21422344446182250000e-001) (18, -7.13037014007568360000e-001) (19, -2.91815948486328130000e+001) (20, -2.63965725898742680000e-001) (21, 2.58968472480773930000e+000) (22, -4.65129518508911130000e+000) (23, -3.18062424659729000000e-001) (24, -6.66692614555358890000e-001) (25, -7.17898607254028320000e-001) (26, 5.28708100318908690000e-001) (27, 3.32106852531433110000e+000) (28, 1.11252546310424800000e+001) (29, 1.20751535892486570000e+000) (30, 1.35463464260101320000e+000) (31, 2.72479104995727540000e+000) (32, 7.08209395408630370000e-001) (33, -2.10584378242492680000e+000) (34, 2.67768239974975590000e+000) (35, 3.00534456968307500000e-001) (36, 4.05155092477798460000e-001) (37, 2.31580805778503420000e+000) (38, -2.02620044350624080000e-001) (39, 2.87632012367248540000e+000) (40, 3.97082996368408200000e+000) (41, 1.21696472167968750000e+000) (42, 3.85570025444030760000e+000) (43, 1.76385843753814700000e+000) (44, 1.35078382492065430000e+000) (45, 5.57486677169799800000e+000) (46, 1.79299235343933110000e-001) (47, -1.44948256015777590000e+000) (48, 3.34140411376953120000e+002) (49, -1.07598156738281250000e+003) (50, -3.10109313964843750000e+002) (51, -7.47813964843750000000e+002) (52, -6.36303710937500000000e+002) (53, 2.46156555175781250000e+002) (54, 1.42681717872619630000e-001) (55, -9.08253097534179690000e+001) (56, 1.81032501220703120000e+002) (57, -8.84633178710937500000e+002) (58, -1.50000000000000000000e+003) (59, -7.42023742675781250000e+002) (60, -1.50000000000000000000e+003) (61, 1.29473071289062500000e+003) (62, 1.05341979980468750000e+003) (63, -3.75977439880371090000e+001) (64, 1.50000000000000000000e+003) (65, -3.14670925140380860000e+001) (66, 8.06238830566406250000e+002) (67, -6.41956615447998050000e+000) (68, 8.17850646972656250000e+002) (69, -1.18091064453125000000e+003) (70, -5.83869445800781250000e+002) (71, 1.40988311767578130000e+002) (72, -2.51881942749023440000e+001) (73, 1.14881753921508790000e+001) (74, -3.02051635742187500000e+002) (75, -9.63696350097656250000e+002) (76, -1.03632592773437500000e+003) (77, -8.01446960449218750000e+002) (78, -4.08972869873046870000e+002) (0, -1.61652100086212160000e+000) (1, 1.25349387526512150000e-001) (2, 2.19159796833992000000e-001) (3, -5.18058490753173830000e+000) (4, -9.85353812575340270000e-002) (5, -8.63580048084259030000e-001) (6, 1.76831400394439700000e+000) (7, 1.20951449871063230000e+000) (8, 2.26946659386157990000e-002) (9, 1.51552033424377440000e+000) (10, -1.67580473423004150000e+000) (11, 4.80483770370483400000e-001) (12, 2.84643197059631350000e+000) (13, -1.37411639094352720000e-001) (14, -4.96437370777130130000e-001) (15, 1.96665599942207340000e-001) (16, 9.04040515422821040000e-001) (17, -6.71213090419769290000e-001) (18, -9.61904227733612060000e-002) (19, 4.11621063947677610000e-001) (20, 5.03149867057800290000e-001) (21, 1.41370549798011780000e-001) (22, 5.41339814662933350000e-001) (23, 1.01355016231536870000e+000) (24, 8.39785933494567870000e-002) (25, 3.34621095657348630000e+000) (26, 9.83025580644607540000e-002) (27, 1.51830720901489260000e+000) (28, 1.17359854280948640000e-001) (29, -5.74983417987823490000e-001) (30, 1.13009762763977050000e+000) (31, -1.00806033611297610000e+000) (32, 4.30797696113586430000e-001) (33, 2.12068200111389160000e+000) (34, -1.73361003398895260000e+000) (35, -7.36141383647918700000e-001) (36, 1.87599077820777890000e-001) (37, 2.37114787101745610000e+000) (38, 2.46444776654243470000e-001) (39, -1.46237540245056150000e+000) (40, 2.97158718109130860000e+000) (41, 1.01823441684246060000e-001) (42, -2.62390756607055660000e+000) (43, 3.88602805137634280000e+000) (44, 7.22271978855133060000e-001) (45, 2.41979330778121950000e-001) (46, 2.60835194587707520000e+000) (47, 5.45416414737701420000e-001) (48, -1.94040024280548100000e+000) (49, 1.93131911754608150000e+000) (50, 2.39974904060363770000e+000) (51, 2.40387797355651860000e+000) (52, 5.44357442855834960000e+000) (53, 3.62557196617126460000e+000) (54, -7.40224361419677730000e+000) (55, 9.37183022499084470000e-001) (56, -8.82918247953057290000e-004) (57, 1.11380195617675780000e+000) (58, -1.50000000000000000000e+003) (59, 3.53654742240905760000e+000) (60, -1.01162290573120120000e+001) (61, 1.06838893890380860000e+000) (62, -1.50000000000000000000e+003) (63, -2.86236613988876340000e-001) (64, -1.50000000000000000000e+003) (65, -4.24811929464340210000e-001) (66, 1.33682985305786130000e+001) (67, 1.08335256576538090000e+000) (68, 2.37558817863464360000e+000) (69, -2.17651489257812500000e+002) (70, 3.50434613227844240000e+000) (71, 3.20206403732299800000e+000) (72, -7.32788145542144780000e-001) (73, 2.64626711606979370000e-001) (74, -3.84242797851562500000e+002) (75, -4.94504213333129880000e+000) (76, 1.26683914661407470000e+000) (77, -4.23626678466796870000e+002) (78, -5.79323244094848630000e+000) (79, -1.50000000000000000000e+003) (0, 3.01780313253402710000e-001) (1, 4.28536355495452880000e-001) (2, -5.23722052574157710000e-001) (3, -2.90119916200637820000e-001) (4, 8.30007940530776980000e-002) (5, -4.17894512414932250000e-001) (6, -8.06067407131195070000e-001) (7, -2.12520822882652280000e-001) (8, -6.88319087028503420000e-001) (9, 5.61496794223785400000e-001) (10, -5.67396450042724610000e+000) (11, 1.18258726596832280000e+000) (12, -1.28876700997352600000e-001) (13, 7.04723224043846130000e-003) (14, 5.05237638950347900000e-001) (15, 2.03874635696411130000e+000) (16, 1.05751442909240720000e+000) (17, -2.51569226384162900000e-002) (18, -8.66876840591430660000e-001) (19, 1.13303983211517330000e+000) (20, -6.56259894371032710000e-001) (21, 2.77980542182922360000e+000) (22, 2.22550678253173830000e+000) (23, -4.91401821374893190000e-001) (24, 1.83639931678771970000e+000) (25, -4.03633403778076170000e+000) (26, 7.92467594146728520000e-001) (27, -1.94479691982269290000e+000) (28, 2.57345533370971680000e+000) (29, 5.99140465259552000000e-001) (30, -4.54386615753173830000e+000) (31, -5.61948966979980470000e+000) (32, -2.87577539682388310000e-001) (33, 2.18370032310485840000e+000) (34, -5.61665725708007810000e+000) (35, -5.03895998001098630000e-001) (36, -1.13256959915161130000e+001) (37, 2.54767036437988280000e+000) (38, -5.72705924510955810000e-001) (39, 1.89027214050292970000e+000) (40, 3.30685234069824220000e+000) (41, 6.44160985946655270000e-001) (42, 2.39474391937255860000e+000) (43, 3.34800410270690920000e+000) (44, -2.28516414761543270000e-001) (45, 1.65720450878143310000e+000) (46, 2.82739901542663570000e+000) (47, 1.25408554077148440000e+000) (48, 3.66283133625984190000e-002) (49, -7.06493377685546880000e+001) (50, -8.46807098388671880000e+001) (51, 3.06696677207946780000e+000) (52, -1.16856945800781250000e+003) (53, -6.83904361724853520000e+000) (54, -4.19740203857421870000e+002) (55, 2.34237461090087890000e+001) (56, -8.45648670196533200000e+000) (57, -6.40457763671875000000e+001) (58, -1.50000000000000000000e+003) (59, -1.38688400268554690000e+002) (60, -9.08591308593750000000e+002) (61, 2.22784767150878910000e+001) (62, 1.85121078491210940000e+001) (63, -6.80998168945312500000e+002) (64, -1.50000000000000000000e+003) (65, -5.47495178222656250000e+002) (66, 1.00923328399658200000e+001) (67, 4.06692838668823240000e+000) (68, -6.74853698730468750000e+002) (69, 1.95041465759277340000e+000) (70, -3.27726650238037110000e+000) (71, 6.45769023895263670000e+000) (72, 5.53516805171966550000e-001) (73, 9.10617113113403320000e-002) (74, 5.63697278499603270000e-001) (75, -5.83429870605468750000e+002) (76, -8.39113533496856690000e-001) (77, -1.50000000000000000000e+003) (78, 3.61695785522460940000e+001) (79, 2.23548522949218750000e+002) (80, 1.50000000000000000000e+003) (0, -9.75438833236694340000e-001) (1, -3.93988311290740970000e-001) (2, 1.11506164073944090000e+000) (3, -3.02524328231811520000e+000) (4, 6.13226711750030520000e-001) (5, 4.68652546405792240000e-001) (6, -2.10473775863647460000e+000) (7, 2.09553170204162600000e+000) (8, 6.35438799858093260000e-001) (9, -3.03296136856079100000e+000) (10, -2.60071206092834470000e+000) (11, -8.68034303188323970000e-001) (12, 1.75390386581420900000e+000) (13, -7.00706124305725100000e-001) (14, -4.32493060827255250000e-001) (15, -8.38168084621429440000e-001) (16, 8.33329372107982640000e-003) (17, -3.67295853793621060000e-002) (18, -8.37352371215820310000e+000) (19, -4.04419749975204470000e-001) (20, -7.90652167052030560000e-003) (21, -7.65936374664306640000e-001) (22, 2.78209829330444340000e+000) (23, 3.71449202299118040000e-001) (24, 4.96152311563491820000e-001) (25, -2.30983161926269530000e+000) (26, -7.34643936157226560000e-001) (27, 8.39630067348480220000e-001) (28, 4.52911043167114260000e+000) (29, -8.84334743022918700000e-001) (30, 8.86821079254150390000e+000) (31, -3.42302155494689940000e+000) (32, -2.24571600556373600000e-001) (33, -8.19778203964233400000e-001) (34, -1.23003053665161130000e+000) (35, -5.24030148983001710000e-001) (36, -1.51010084152221680000e+001) (37, 2.95925688743591310000e+000) (38, 3.33057433366775510000e-001) (39, 1.67713546752929690000e+000) (40, 1.09360349178314210000e+000) (41, 1.11766970157623290000e+000) (42, 1.17510175704956050000e+001) (43, 3.65416073799133300000e+000) (44, 2.11923718452453610000e-001) (45, 8.97959327697753910000e+000) (46, 2.93533706665039060000e+000) (47, 6.36730194091796880000e-001) (48, -1.99295997619628910000e+000) (49, 3.61103868484497070000e+000) (50, -9.12673568725585940000e+001) (51, 3.67521739006042480000e+000) (52, 2.47385668754577640000e+000) (53, -9.80897216796875000000e+002) (54, 6.83893978595733640000e-001) (55, 8.91355752944946290000e-001) (56, -5.94590087890625000000e+002) (57, 6.00944290161132810000e+001) (58, -1.50000000000000000000e+003) (59, -1.46337219238281250000e+003) (60, -1.50000000000000000000e+003) (61, -1.11757316589355470000e+001) (62, -1.31948876953125000000e+003) (63, -6.31792541503906250000e+002) (64, -1.50000000000000000000e+003) (65, -1.38870751953125000000e+003) (66, -4.06277179718017580000e+000) (67, 1.04017907714843750000e+003) (68, 3.98303484916687010000e+000) (69, -2.14747762680053710000e+000) (70, -1.73030792236328120000e+002) (71, 1.93926417827606200000e+000) (72, -2.73982822895050050000e-001) (73, -1.36099475097656250000e+003) (74, -2.41767215728759770000e+001) (75, -1.13077783203125000000e+003) (76, 6.98307434082031250000e+002) (77, -1.10130468750000000000e+003) (78, 5.03382293701171870000e+002) (79, -3.85075867176055910000e-001) (80, -1.50000000000000000000e+003) (81, 1.50000000000000000000e+003) (0, 1.35456156730651860000e+000) (1, -9.74031448364257810000e-001) (2, -6.85226202011108400000e-001) (3, -3.45134913921356200000e-001) (4, -2.02801036834716800000e+000) (5, 2.28578060865402220000e-001) (6, 1.11939287185668950000e+000) (7, 5.75891256332397460000e-001) (8, 5.49265086650848390000e-001) (9, 5.17199337482452390000e-001) (10, -4.85527813434600830000e-001) (11, 9.43582057952880860000e-001) (12, -4.21854287385940550000e-001) (13, 2.83603388816118240000e-002) (14, 9.48148965835571290000e-001) (15, -8.15313041210174560000e-001) (16, 4.65384632349014280000e-001) (17, -1.64139211177825930000e-001) (18, -4.42101746797561650000e-001) (19, -2.79830598831176760000e+000) (20, 1.72824189066886900000e-001) (21, 2.66217994689941410000e+000) (22, -4.42807483673095700000e+000) (23, -4.49901938438415530000e-001) (24, -8.45871150493621830000e-001) (25, -1.69544890522956850000e-001) (26, -6.00934743881225590000e-001) (27, 1.73460745811462400000e+000) (28, 3.25373911857604980000e+000) (29, 1.98828250169754030000e-001) (30, -9.37909781932830810000e-002) (31, -2.52042365074157710000e+000) (32, 1.02298587560653690000e-001) (33, 2.40299057960510250000e+000) (34, -4.76754379272460940000e+000) (35, 9.97144818305969240000e-001) (36, -8.33825290203094480000e-001) (37, 2.68554210662841800000e+000) (38, -9.25475716590881350000e-001) (39, 3.12096333503723140000e+000) (40, 5.08298110961914060000e+000) (41, 3.80877792835235600000e-001) (42, 3.66968011856079100000e+000) (43, 4.64265346527099610000e+000) (44, -6.20180845260620120000e-001) (45, -1.59918498992919920000e+000) (46, 5.19812202453613280000e+000) (47, 8.51135373115539550000e-001) (48, -3.85919547080993650000e+000) (49, 2.47010922431945800000e+000) (50, 3.34530520439147950000e+000) (51, 1.97034764289855960000e+000) (52, 2.68591499328613280000e+000) (53, -3.21757926940917970000e+001) (54, 2.12301224470138550000e-001) (55, -6.03526651859283450000e-001) (56, -3.28519868850708010000e+000) (57, 2.03573155403137210000e+000) (58, -6.71078348159790040000e+000) (59, 1.67759132385253910000e+000) (60, 4.66592254638671870000e+002) (61, 7.08274424076080320000e-001) (62, -7.27710327148437500000e+002) (63, 9.29743170738220210000e-001) (64, -1.50000000000000000000e+003) (65, 1.34017539024353030000e+000) (66, 1.57705965042114260000e+001) (67, 4.84431982040405270000e+000) (68, 6.67954874038696290000e+000) (69, 5.85281610488891600000e-001) (70, -3.69498491287231450000e+000) (71, 9.81101512908935550000e-001) (72, -6.69429063796997070000e-001) (73, 1.04841113090515140000e+000) (74, 2.79314219951629640000e-001) (75, 2.20338606834411620000e+000) (76, 2.57506656646728520000e+000) (77, 7.59653503417968750000e+002) (78, 1.35183298587799070000e+000) (79, 1.74853897094726560000e+001) (80, 2.22173482179641720000e-002) (81, -1.14483715820312500000e+003) (82, -1.24847221374511720000e+001) (0, -5.52299404144287110000e+000) (1, 7.44819104671478270000e-001) (2, -6.87594413757324220000e-001) (3, 1.01477003097534180000e+001) (4, 9.33036565780639650000e-001) (5, 1.06812596321105960000e+000) (6, -7.49915421009063720000e-001) (7, -1.26927843093872070000e+001) (8, 7.65359878540039060000e-001) (9, -1.27222692966461180000e+000) (10, 5.44997811317443850000e-001) (11, -4.73774731159210210000e-001) (12, 1.24510252475738530000e+000) (13, 1.12155580520629880000e+000) (14, 3.56317400932312010000e-001) (15, 7.10119307041168210000e-001) (16, -4.06190127134323120000e-001) (17, -1.86285823583602910000e-001) (18, 1.12223029136657710000e+000) (19, -6.74483060836791990000e+000) (20, 1.06153047084808350000e+000) (21, 1.76188394427299500000e-001) (22, -2.91631722450256350000e+000) (23, 2.78506636619567870000e-001) (24, 9.13242816925048830000e-001) (25, 1.66598808765411380000e+000) (26, -7.90118694305419920000e-001) (27, -1.65431272983551030000e+000) (28, -2.10606980323791500000e+000) (29, -6.04530811309814450000e-001) (30, 2.03895950317382810000e+000) (31, -3.16372185945510860000e-001) (32, 1.00310575962066650000e+000) (33, -8.16012263298034670000e-001) (34, 4.86574828624725340000e-001) (35, 9.49640154838562010000e-001) (36, -1.54303197860717770000e+001) (37, 3.46901106834411620000e+000) (38, -1.50511279702186580000e-001) (39, 8.48882484436035160000e+000) (40, 2.22786188125610350000e+000) (41, -8.12900960445404050000e-001) (42, 9.72970199584960940000e+000) (43, 3.16361379623413090000e+000) (44, 3.87468934059143070000e-001) (45, -1.30023450851440430000e+001) (46, 3.67147636413574220000e+000) (47, -4.63818788528442380000e-001) (48, 1.32563865184783940000e+000) (49, 1.79186928272247310000e+000) (50, -2.92401733398437500000e+002) (51, 1.18901901245117190000e+002) (52, -3.27659729003906250000e+002) (53, -4.57746839523315430000e+000) (54, 1.11892414093017580000e+001) (55, 2.03091144561767580000e+000) (56, -9.99162353515625000000e+002) (57, -2.74477294921875000000e+002) (58, -1.50000000000000000000e+003) (59, -8.86875915527343750000e+002) (60, -1.50000000000000000000e+003) (61, 7.55710184574127200000e-001) (62, -1.50000000000000000000e+003) (63, -6.00276756286621090000e+001) (64, -1.50000000000000000000e+003) (65, 4.27994489669799800000e-001) (66, 2.24261713027954100000e+000) (67, 8.14482927322387700000e-001) (68, 5.74873275756835940000e+001) (69, 1.47161912918090820000e+001) (70, -3.78240242004394530000e+001) (71, -5.70957397460937500000e+002) (72, 9.52370643615722660000e-001) (73, -2.87133972167968750000e+002) (74, 3.42240500450134280000e+000) (75, -1.04741928100585940000e+002) (76, -2.23711013793945310000e+001) (77, -1.10192333984375000000e+003) (78, 2.93666386604309080000e+000) (79, -1.50000000000000000000e+003) (80, -1.40369674682617190000e+002) (81, 1.44896166992187500000e+003) (82, -3.14013868570327760000e-001) (83, -1.50000000000000000000e+003) (0, 1.40108704566955570000e+000) (1, 1.62946856021881100000e+000) (2, 1.02225732803344730000e+000) (3, -7.46387290954589840000e+000) (4, 6.99955511093139650000e+000) (5, 3.54862064123153690000e-001) (6, 5.40156602859497070000e-001) (7, -4.70880966186523440000e+001) (8, 1.15309667587280270000e+000) (9, 1.42463388442993160000e+001) (10, 2.46180129051208500000e+000) (11, 5.86775243282318120000e-001) (12, 2.87300610542297360000e+000) (13, 6.60318183898925780000e+000) (14, 1.22771453857421870000e+000) (15, 3.06163239479064940000e+000) (16, -2.57975310087203980000e-001) (17, 6.25635683536529540000e-001) (18, 1.60480618476867680000e+000) (19, 1.50968027114868160000e+001) (20, 8.50636005401611330000e-001) (21, 1.47722768783569340000e+000) (22, -2.06970672607421880000e+001) (23, 1.06956815719604490000e+000) (24, -2.29932591319084170000e-001) (25, -1.18461906909942630000e+000) (26, 2.17495765537023540000e-002) (27, -2.12934470176696780000e+000) (28, 3.05272722244262700000e+000) (29, 5.17003893852233890000e-001) (30, 4.10778611898422240000e-001) (31, 2.95120620727539060000e+000) (32, 1.41414034366607670000e+000) (33, 1.84059762954711910000e+000) (34, 3.13411045074462890000e+000) (35, 2.38211527466773990000e-001) (36, 8.04308032989501950000e+000) (37, 1.03719320297241210000e+001) (38, -3.47565203905105590000e-001) (39, 3.18777585029602050000e+000) (40, 1.37909948825836180000e+000) (41, 4.17563056945800780000e+000) (42, -5.06396198272705080000e+000) (43, 2.57679510116577150000e+000) (44, 1.60892164707183840000e+000) (45, -2.05137290954589840000e+001) (46, 2.55268650054931640000e+001) (47, 2.03980684280395510000e-001) (48, -1.50000000000000000000e+003) (49, 1.50000000000000000000e+003) (50, 1.04517187500000000000e+003) (51, -1.48500000000000000000e+003) (52, -4.71220947265625000000e+002) (53, -1.50000000000000000000e+003) (54, -1.05630847167968750000e+003) (55, -1.44641571044921870000e+002) (56, -1.50000000000000000000e+003) (57, -5.66901306152343750000e+002) (58, -1.50000000000000000000e+003) (59, -1.50000000000000000000e+003) (60, 1.50000000000000000000e+003) (61, -8.59620300292968750000e+002) (62, 1.50000000000000000000e+003) (63, 1.04176969528198240000e+001) (64, 1.50000000000000000000e+003) (65, -7.78677368164062500000e+001) (66, -3.56728881835937500000e+002) (67, 1.45824011230468750000e+003) (68, -1.50000000000000000000e+003) (69, -1.48935791015625000000e+003) (70, 9.08260620117187500000e+002) (71, -1.50000000000000000000e+003) (72, 1.43317614746093750000e+003) (73, -1.50000000000000000000e+003) (74, -1.50000000000000000000e+003) (75, -1.50000000000000000000e+003) (76, -1.50000000000000000000e+003) (77, 2.14736511230468750000e+002) (78, -1.07849389648437500000e+003) (79, 9.71623992919921880000e+001) (80, -1.50000000000000000000e+003) (81, -1.50000000000000000000e+003) (82, -8.10374267578125000000e+002) (83, 1.43460754394531250000e+002) (84, -8.06154251098632810000e+001) (0, 8.99516522884368900000e-001) (1, -5.88216161727905270000e+000) (2, 6.79838716983795170000e-001) (3, 3.27948331832885740000e-002) (4, -1.86996841430664060000e+000) (5, 2.39360183477401730000e-001) (6, 1.34514197707176210000e-001) (7, -1.71557641029357910000e+000) (8, 7.54471838474273680000e-001) (9, -6.72792625427246090000e+000) (10, 1.58744049072265630000e+000) (11, -5.69881021976470950000e-001) (12, -4.06710803508758540000e-001) (13, -2.27747106552124020000e+000) (14, 7.18109905719757080000e-001) (15, 7.60644435882568360000e-001) (16, -1.03738379478454590000e+000) (17, 3.76759469509124760000e-002) (18, -6.84784233570098880000e-001) (19, 1.04380941390991210000e+001) (20, -8.08394730091094970000e-001) (21, 8.14935863018035890000e-001) (22, -1.66957128047943120000e+000) (23, 8.01799476146698000000e-001) (24, 7.44993925094604490000e-001) (25, -2.53157436847686770000e-001) (26, 3.50101734511554240000e-003) (27, 8.38564395904541020000e+000) (28, 2.84161949157714840000e+000) (29, 6.81198835372924800000e-001) (30, -2.90310263633728030000e-001) (31, 3.18375192582607270000e-002) (32, -2.64335960149765010000e-001) (33, -2.72047251462936400000e-001) (34, -5.15172433853149410000e+000) (35, -5.12818276882171630000e-001) (36, 2.37441346049308780000e-001) (37, 1.66224765777587890000e+000) (38, 5.41417479515075680000e-001) (39, -4.79431247711181640000e+000) (40, -1.15178394317626950000e+000) (41, 3.44990879297256470000e-001) (42, 3.66995990276336670000e-001) (43, -1.11772986128926280000e-002) (44, 5.51120162010192870000e-001) (45, 4.96379733085632320000e-001) (46, 2.97538614273071290000e+000) (47, -4.50998663902282710000e-001) (48, 1.50000000000000000000e+003) (49, -1.50000000000000000000e+003) (50, -4.85494293212890620000e+002) (51, -9.97320938110351560000e+001) (52, -5.54816101074218750000e+002) (53, -3.31435699462890620000e+002) (54, -4.47147460937500000000e+002) (55, -7.82019424438476560000e+001) (56, 4.67938018798828120000e+002) (57, -3.32178680419921870000e+002) (58, -1.50000000000000000000e+003) (59, -6.23426818847656250000e+002) (60, -1.50000000000000000000e+003) (61, -1.86752304077148440000e+002) (62, 1.50000000000000000000e+003) (63, -1.44852161407470700000e+001) (64, 1.05000000000000000000e+003) (65, 8.61319824218750000000e+002) (66, 9.21522949218750000000e+002) (67, -5.40155883789062500000e+002) (68, 6.21323364257812500000e+002) (69, -3.01958808898925780000e+001) (70, -4.84735992431640620000e+002) (71, 3.86367225646972660000e+001) (72, 1.50000000000000000000e+003) (73, -1.11166557312011720000e+002) (74, 5.00159637451171870000e+002) (75, 1.00995285034179690000e+002) (76, -1.12520111083984370000e+002) (77, -1.50000000000000000000e+003) (78, 1.31363708496093750000e+002) (79, -1.22777001953125000000e+003) (80, 2.22308425903320310000e+002) (81, 1.50000000000000000000e+003) (82, 1.50000000000000000000e+003) (83, 1.46656713867187500000e+003) (84, 1.50000000000000000000e+003) (85, -3.87741241455078120000e+002) (0, -4.13617849349975590000e+000) (1, 3.67510080337524410000e-001) (2, -6.34565770626068120000e-001) (3, -5.09910678863525390000e+000) (4, -8.47614169120788570000e-001) (5, -4.14664715528488160000e-001) (6, 9.55714881420135500000e-001) (7, 5.40603160858154300000e-001) (8, 1.03067851066589360000e+000) (9, 3.17571103572845460000e-001) (10, 3.91384983062744140000e+000) (11, 3.44820231199264530000e-001) (12, -5.00198984146118160000e+000) (13, -9.94999825954437260000e-001) (14, 4.91290032863616940000e-001) (15, 4.70877933502197270000e+000) (16, 9.01350617408752440000e-001) (17, -5.77481806278228760000e-001) (18, -8.60890865325927730000e-001) (19, 3.18594217300415040000e-001) (20, 5.38223190233111380000e-003) (21, 4.21299839019775390000e+000) (22, 9.61302638053894040000e-001) (23, 9.27626311779022220000e-001) (24, -3.03405070304870610000e+000) (25, 2.35465671867132190000e-002) (26, 5.35754024982452390000e-001) (27, -1.53294360637664790000e+000) (28, 2.91811323165893550000e+000) (29, -8.85277867317199710000e-001) (30, 3.31271767616271970000e-001) (31, 1.99712193012237550000e+000) (32, -9.68765616416931150000e-001) (33, 4.55807304382324220000e+000) (34, -2.98915243148803710000e+000) (35, -9.57518875598907470000e-001) (36, 8.55372011661529540000e-001) (37, 3.61173653602600100000e+000) (38, 1.00524222850799560000e+000) (39, 3.55727934837341310000e+000) (40, 2.59668350219726560000e+000) (41, 3.62867474555969240000e-001) (42, 2.29028558731079100000e+000) 