FANN_FLO_2.1
num_layers=108
learning_rate=0.700000
connection_rate=1.000000
network_type=1
learning_momentum=0.000000
training_algorithm=2
train_error_function=1
train_stop_function=0
cascade_output_change_fraction=0.010000
quickprop_decay=-0.000100
quickprop_mu=1.750000
rprop_increase_factor=1.200000
rprop_decrease_factor=0.500000
rprop_delta_min=0.000000
rprop_delta_max=50.000000
rprop_delta_zero=0.100000
cascade_output_stagnation_epochs=12
cascade_candidate_change_fraction=0.010000
cascade_candidate_stagnation_epochs=12
cascade_max_out_epochs=150
cascade_min_out_epochs=50
cascade_max_cand_epochs=150
cascade_min_cand_epochs=50
cascade_num_candidate_groups=2
bit_fail_limit=3.49999994039535520000e-001
cascade_candidate_limit=1.00000000000000000000e+003
cascade_weight_multiplier=4.00000005960464480000e-001
cascade_activation_functions_count=10
cascade_activation_functions=3 5 7 8 10 11 14 15 16 17 
cascade_activation_steepnesses_count=4
cascade_activation_steepnesses=2.50000000000000000000e-001 5.00000000000000000000e-001 7.50000000000000000000e-001 1.00000000000000000000e+000 
layer_sizes=49 1 1 1 1 1 1 1 1 1 1 1 1 1 1 1 1 1 1 1 1 1 1 1 1 1 1 1 1 1 1 1 1 1 1 1 1 1 1 1 1 1 1 1 1 1 1 1 1 1 1 1 1 1 1 1 1 1 1 1 1 1 1 1 1 1 1 1 1 1 1 1 1 1 1 1 1 1 1 1 1 1 1 1 1 1 1 1 1 1 1 1 1 1 1 1 1 1 1 1 1 1 1 1 1 1 1 1 
scale_included=1
scale_mean_in=66.951530 417.460907 2276.135010 65.917488 318.528748 2307.486084 68.354851 20.807081 2424.123535 67.565987 -178.877258 2424.890625 192.223282 237.771576 2349.672852 -66.139687 232.041290 2340.831055 259.833099 11.618642 2367.545410 -147.992813 7.415475 2387.646973 225.862656 -136.185623 2272.415527 -143.119171 -148.392487 2303.281006 164.242950 -224.772232 2439.552002 -30.643850 -228.121979 2439.409668 194.079544 -538.190063 2314.455322 -49.293552 -534.576782 2327.797607 -70.663414 -900.932617 2395.022461 216.398453 -895.117920 2384.781982 
scale_deviation_in=423.211578 386.383911 361.763397 422.077820 380.122040 351.857727 418.464081 357.671997 335.713837 416.576935 354.746094 333.328552 418.410583 376.185150 343.805908 427.396942 374.492310 362.038605 425.828979 374.256409 374.154968 440.288208 384.839661 379.507721 409.859680 383.782501 392.418793 450.163055 405.326111 402.039337 418.092682 342.473816 337.801178 416.095612 342.153900 346.981598 434.446198 333.603912 360.546967 410.865234 320.525696 365.844543 430.706116 336.565826 381.666718 478.286804 357.553314 387.829681 
scale_new_min_in=-1.000000 -1.000000 -1.000000 -1.000000 -1.000000 -1.000000 -1.000000 -1.000000 -1.000000 -1.000000 -1.000000 -1.000000 -1.000000 -1.000000 -1.000000 -1.000000 -1.000000 -1.000000 -1.000000 -1.000000 -1.000000 -1.000000 -1.000000 -1.000000 -1.000000 -1.000000 -1.000000 -1.000000 -1.000000 -1.000000 -1.000000 -1.000000 -1.000000 -1.000000 -1.000000 -1.000000 -1.000000 -1.000000 -1.000000 -1.000000 -1.000000 -1.000000 -1.000000 -1.000000 -1.000000 -1.000000 -1.000000 -1.000000 
scale_factor_in=1.000000 1.000000 1.000000 1.000000 1.000000 1.000000 1.000000 1.000000 1.000000 1.000000 1.000000 1.000000 1.000000 1.000000 1.000000 1.000000 1.000000 1.000000 1.000000 1.000000 1.000000 1.000000 1.000000 1.000000 1.000000 1.000000 1.000000 1.000000 1.000000 1.000000 1.000000 1.000000 1.000000 1.000000 1.000000 1.000000 1.000000 1.000000 1.000000 1.000000 1.000000 1.000000 1.000000 1.000000 1.000000 1.000000 1.000000 1.000000 
scale_mean_out=0.424370 
scale_deviation_out=0.494246 
scale_new_min_out=0.000000 
scale_factor_out=0.500000 
neurons (num_inputs, activation_function, activation_steepness)=(0, 0, 0.00000000000000000000e+000) (0, 0, 0.00000000000000000000e+000) (0, 0, 0.00000000000000000000e+000) (0, 0, 0.00000000000000000000e+000) (0, 0, 0.00000000000000000000e+000) (0, 0, 0.00000000000000000000e+000) (0, 0, 0.00000000000000000000e+000) (0, 0, 0.00000000000000000000e+000) (0, 0, 0.00000000000000000000e+000) (0, 0, 0.00000000000000000000e+000) (0, 0, 0.00000000000000000000e+000) (0, 0, 0.00000000000000000000e+000) (0, 0, 0.00000000000000000000e+000) (0, 0, 0.00000000000000000000e+000) (0, 0, 0.00000000000000000000e+000) (0, 0, 0.00000000000000000000e+000) (0, 0, 0.00000000000000000000e+000) (0, 0, 0.00000000000000000000e+000) (0, 0, 0.00000000000000000000e+000) (0, 0, 0.00000000000000000000e+000) (0, 0, 0.00000000000000000000e+000) (0, 0, 0.00000000000000000000e+000) (0, 0, 0.00000000000000000000e+000) (0, 0, 0.00000000000000000000e+000) (0, 0, 0.00000000000000000000e+000) (0, 0, 0.00000000000000000000e+000) (0, 0, 0.00000000000000000000e+000) (0, 0, 0.00000000000000000000e+000) (0, 0, 0.00000000000000000000e+000) (0, 0, 0.00000000000000000000e+000) (0, 0, 0.00000000000000000000e+000) (0, 0, 0.00000000000000000000e+000) (0, 0, 0.00000000000000000000e+000) (0, 0, 0.00000000000000000000e+000) (0, 0, 0.00000000000000000000e+000) (0, 0, 0.00000000000000000000e+000) (0, 0, 0.00000000000000000000e+000) (0, 0, 0.00000000000000000000e+000) (0, 0, 0.00000000000000000000e+000) (0, 0, 0.00000000000000000000e+000) (0, 0, 0.00000000000000000000e+000) (0, 0, 0.00000000000000000000e+000) (0, 0, 0.00000000000000000000e+000) (0, 0, 0.00000000000000000000e+000) (0, 0, 0.00000000000000000000e+000) (0, 0, 0.00000000000000000000e+000) (0, 0, 0.00000000000000000000e+000) (0, 0, 0.00000000000000000000e+000) (0, 0, 0.00000000000000000000e+000) (49, 5, 5.00000000000000000000e-001) (50, 5, 1.00000000000000000000e+000) (51, 5, 2.50000000000000000000e-001) (52, 5, 1.00000000000000000000e+000) (53, 5, 1.00000000000000000000e+000) (54, 11, 2.50000000000000000000e-001) (55, 5, 1.00000000000000000000e+000) (56, 11, 5.00000000000000000000e-001) (57, 5, 5.00000000000000000000e-001) (58, 10, 1.00000000000000000000e+000) (59, 10, 2.50000000000000000000e-001) (60, 10, 2.50000000000000000000e-001) (61, 5, 5.00000000000000000000e-001) (62, 5, 2.50000000000000000000e-001) (63, 5, 7.50000000000000000000e-001) (64, 10, 7.50000000000000000000e-001) (65, 11, 2.50000000000000000000e-001) (66, 5, 7.50000000000000000000e-001) (67, 11, 7.50000000000000000000e-001) (68, 11, 5.00000000000000000000e-001) (69, 5, 7.50000000000000000000e-001) (70, 5, 1.00000000000000000000e+000) (71, 5, 7.50000000000000000000e-001) (72, 5, 2.50000000000000000000e-001) (73, 3, 7.50000000000000000000e-001) (74, 10, 1.00000000000000000000e+000) (75, 10, 1.00000000000000000000e+000) (76, 10, 5.00000000000000000000e-001) (77, 10, 7.50000000000000000000e-001) (78, 10, 5.00000000000000000000e-001) (79, 5, 2.50000000000000000000e-001) (80, 10, 7.50000000000000000000e-001) (81, 5, 5.00000000000000000000e-001) (82, 5, 2.50000000000000000000e-001) (83, 5, 7.50000000000000000000e-001) (84, 5, 5.00000000000000000000e-001) (85, 10, 2.50000000000000000000e-001) (86, 5, 1.00000000000000000000e+000) (87, 10, 7.50000000000000000000e-001) (88, 10, 2.50000000000000000000e-001) (89, 11, 1.00000000000000000000e+000) (90, 5, 5.00000000000000000000e-001) (91, 10, 1.00000000000000000000e+000) (92, 5, 5.00000000000000000000e-001) (93, 14, 1.00000000000000000000e+000) (94, 11, 7.50000000000000000000e-001) (95, 11, 7.50000000000000000000e-001) (96, 5, 1.00000000000000000000e+000) (97, 5, 1.00000000000000000000e+000) (98, 5, 1.00000000000000000000e+000) (99, 10, 5.00000000000000000000e-001) (100, 10, 1.00000000000000000000e+000) (101, 10, 1.00000000000000000000e+000) (102, 10, 2.50000000000000000000e-001) (103, 10, 2.50000000000000000000e-001) (104, 10, 2.50000000000000000000e-001) (105, 5, 7.50000000000000000000e-001) (106, 15, 2.50000000000000000000e-001) (107, 11, 7.50000000000000000000e-001) (108, 11, 7.50000000000000000000e-001) (109, 10, 2.50000000000000000000e-001) (110, 10, 1.00000000000000000000e+000) (111, 5, 2.50000000000000000000e-001) (112, 5, 2.50000000000000000000e-001) (113, 10, 5.00000000000000000000e-001) (114, 10, 2.50000000000000000000e-001) (115, 3, 1.00000000000000000000e+000) (116, 10, 5.00000000000000000000e-001) (117, 10, 5.00000000000000000000e-001) (118, 11, 5.00000000000000000000e-001) (119, 10, 7.50000000000000000000e-001) (120, 5, 5.00000000000000000000e-001) (121, 10, 2.50000000000000000000e-001) (122, 10, 2.50000000000000000000e-001) (123, 10, 2.50000000000000000000e-001) (124, 10, 2.50000000000000000000e-001) (125, 5, 5.00000000000000000000e-001) (126, 5, 1.00000000000000000000e+000) (127, 11, 5.00000000000000000000e-001) (128, 10, 2.50000000000000000000e-001) (129, 5, 7.50000000000000000000e-001) (130, 11, 1.00000000000000000000e+000) (131, 5, 7.50000000000000000000e-001) (132, 11, 7.50000000000000000000e-001) (133, 10, 2.50000000000000000000e-001) (134, 10, 2.50000000000000000000e-001) (135, 5, 5.00000000000000000000e-001) (136, 11, 2.50000000000000000000e-001) (137, 11, 5.00000000000000000000e-001) (138, 5, 5.00000000000000000000e-001) (139, 10, 1.00000000000000000000e+000) (140, 11, 1.00000000000000000000e+000) (141, 11, 7.50000000000000000000e-001) (142, 11, 1.00000000000000000000e+000) (143, 5, 5.00000000000000000000e-001) (144, 11, 5.00000000000000000000e-001) (145, 10, 2.50000000000000000000e-001) (146, 3, 7.50000000000000000000e-001) (147, 10, 2.50000000000000000000e-001) (148, 10, 1.00000000000000000000e+000) (149, 11, 5.00000000000000000000e-001) (150, 11, 2.50000000000000000000e-001) (151, 11, 2.50000000000000000000e-001) (152, 10, 7.50000000000000000000e-001) (153, 3, 1.00000000000000000000e+000) (154, 10, 5.00000000000000000000e-001) (155, 4, 5.00000000000000000000e-001) 
connections (connected_to_neuron, weight)=(0, 4.70137739181518550000e+000) (1, 6.87837886810302730000e+000) (2, 3.22667926549911500000e-001) (3, -1.22064280509948730000e+000) (4, -1.56012451648712160000e+000) (5, 1.06738197803497310000e+000) (6, -5.61697602272033690000e-001) (7, -1.07471103668212890000e+001) (8, -5.73394596576690670000e-001) (9, 5.91331958770751950000e-001) (10, -1.29869868978857990000e-002) (11, 2.25252225995063780000e-001) (12, 5.50843775272369380000e-001) (13, -3.00764870643615720000e+000) (14, -4.95749145746231080000e-001) (15, 4.35841751098632810000e+000) (16, -1.27673168182373050000e+001) (17, 6.81269824504852290000e-001) (18, -3.87868857383728030000e+000) (19, -2.02672290802001950000e+000) (20, 2.27397859096527100000e-001) (21, -3.93525671958923340000e+000) (22, -3.15786623954772950000e+000) (23, 8.95344495773315430000e-001) (24, -2.27167892456054690000e+000) (25, 1.92900383472442630000e+000) (26, -2.26787939667701720000e-001) (27, -4.44414758682250980000e+000) (28, 3.23484158515930180000e+000) (29, -1.12684600055217740000e-001) (30, 2.01976418495178220000e+000) (31, 1.05089437961578370000e+000) (32, 3.09546023607254030000e-001) (33, 6.14932823181152340000e+000) (34, 1.85227699279785160000e+001) (35, 1.08603000640869140000e+000) (36, 8.75593471527099610000e+000) (37, 1.56431019306182860000e+000) (38, 8.85901749134063720000e-001) (39, 1.77732503414154050000e+000) (40, -4.62587308883666990000e+000) (41, -8.71316850185394290000e-001) (42, -2.83756828308105470000e+000) (43, 2.02616906166076660000e+000) (44, -8.70053768157958980000e-002) (45, -8.18979740142822270000e+000) (46, 1.84878230094909670000e+000) (47, 9.29606556892395020000e-001) (48, -1.50000000000000000000e+003) (0, -9.69785809516906740000e-001) (1, 1.03236207962036130000e+001) (2, 6.46418705582618710000e-003) (3, -1.54307770729064940000e+000) (4, -1.28398275375366210000e+000) (5, 5.72603523731231690000e-001) (6, 8.97496283054351810000e-001) (7, -1.69468765258789060000e+001) (8, 7.21849381923675540000e-001) (9, 1.03720855712890620000e+001) (10, 1.48984706401824950000e+000) (11, 1.00261867046356200000e+000) (12, -2.39028263092041020000e+000) (13, -4.10913038253784180000e+000) (14, -3.87523204088211060000e-001) (15, 1.27064263820648190000e+000) (16, -3.25703525543212890000e+000) (17, 4.45646941661834720000e-001) (18, -1.25136013031005860000e+001) (19, -5.12861680984497070000e+000) (20, 6.11528396606445310000e-001) (21, -9.96361732482910160000e+000) (22, -1.83394050598144530000e+001) (23, 1.10634493827819820000e+000) (24, -1.16822922229766850000e+000) (25, 6.91787481307983400000e+000) (26, -3.05518181994557380000e-003) (27, 4.29772064089775090000e-002) (28, 1.17922554016113280000e+001) (29, -1.68272435665130620000e-001) (30, 1.69448833465576170000e+001) (31, 2.63893723487854000000e+000) (32, 9.11471426486968990000e-001) (33, 9.58247184753417970000e+000) (34, 2.08666706085205080000e+000) (35, -2.85249978303909300000e-001) (36, -9.14583086967468260000e-001) (37, -8.07013392448425290000e-001) (38, 1.07008862495422360000e+000) (39, 3.40041446685791020000e+000) (40, 4.53356599807739260000e+000) (41, -1.13467879593372340000e-001) (42, -3.39409255981445310000e+000) (43, 4.18690252304077150000e+000) (44, 8.98285090923309330000e-001) (45, -8.19446277618408200000e+000) (46, 7.24328327178955080000e+000) (47, 9.44911539554595950000e-001) (48, -1.50000000000000000000e+003) (49, -1.50000000000000000000e+003) (0, -1.66374564170837400000e+000) (1, 4.49121892452239990000e-001) (2, 6.52408480644226070000e-001) (3, 3.73467355966567990000e-002) (4, -4.05076473951339720000e-001) (5, -1.76224067807197570000e-001) (6, 1.57923829555511470000e+000) (7, -8.83264636993408200000e+000) (8, 5.39716362953186040000e-001) (9, 5.34893608093261720000e+000) (10, 7.02675282955169680000e-001) (11, 9.63745638728141780000e-002) (12, 7.40080070495605470000e+000) (13, -1.02222070693969730000e+001) (14, -8.11942964792251590000e-002) (15, 2.17458868026733400000e+000) (16, -2.05399751663208010000e+000) (17, 3.73525321483612060000e-001) (18, -2.54596710205078130000e+000) (19, -2.53015875816345210000e+000) (20, -1.33980989456176760000e-001) (21, -6.52545595169067380000e+000) (22, -1.28462529182434080000e+000) (23, 6.62536263465881350000e-001) (24, -5.00407218933105470000e-001) (25, 8.61838459968566890000e-001) (26, 5.82047820091247560000e-001) (27, -8.68836498260498050000e+000) (28, -2.07215285301208500000e+000) (29, 6.80719375610351560000e-001) (30, 1.46846234798431400000e+000) (31, 1.19020414352416990000e+001) (32, 3.37515056133270260000e-001) (33, 7.06439685821533200000e+000) (34, 4.91344690322875980000e+000) (35, 2.08950445055961610000e-001) (36, -4.16114330291748050000e-001) (37, 1.30671679973602290000e+000) (38, 1.50381907820701600000e-001) (39, 1.58981454372406010000e+000) (40, 2.00960063934326170000e+000) (41, 8.00556242465972900000e-002) (42, 1.51001417636871340000e+000) (43, 1.49110293388366700000e+000) (44, 3.94596815109252930000e-001) (45, -5.88484382629394530000e+000) (46, 3.62528562545776370000e+000) (47, 8.39473605155944820000e-001) (48, -1.41085510253906250000e+003) (49, -1.50000000000000000000e+003) (50, -6.72310546875000000000e+002) (0, -1.67222766876220700000e+001) (1, 1.14348053932189940000e+000) (2, -1.49344325065612790000e-001) (3, -5.98448610305786130000e+000) (4, 8.61014425754547120000e-001) (5, 1.52680861949920650000e+000) (6, -4.76125669479370120000e+000) (7, -4.12150917053222660000e+001) (8, -3.40250432491302490000e-002) (9, -1.45278322696685790000e+000) (10, 9.74378943443298340000e-001) (11, 9.44566547870635990000e-001) (12, 1.28381717205047610000e+000) (13, -6.51767492294311520000e-001) (14, 2.72280037403106690000e-001) (15, 1.27700138092041020000e+000) (16, -2.22687768936157230000e+000) (17, 9.93955016136169430000e-001) (18, 1.38419542312622070000e+001) (19, -2.20412864685058590000e+001) (20, 5.63409268856048580000e-001) (21, -2.86710023880004880000e+000) (22, -5.50556802749633790000e+000) (23, 2.44324779510498050000e+000) (24, 5.53496694564819340000e+000) (25, 1.86538970470428470000e+000) (26, 6.07830643653869630000e-001) (27, 6.13106727600097660000e+000) (28, 1.36500358581542970000e+001) (29, 4.75572496652603150000e-001) (30, -5.80035857856273650000e-002) (31, 2.45473155975341800000e+001) (32, -3.18419039249420170000e-001) (33, 1.60962224006652830000e+000) (34, 2.18297786712646480000e+001) (35, -4.09774303436279300000e-001) (36, -8.89379322528839110000e-001) (37, 1.16496503353118900000e+000) (38, 6.51748597621917720000e-001) (39, 1.65806255340576170000e+001) (40, 2.26722478866577150000e+000) (41, -3.78767699003219600000e-001) (42, -9.88298130035400390000e+000) (43, 2.50268840789794920000e+000) (44, -3.96933317184448240000e-001) (45, -3.33739042282104490000e+000) (46, 1.81882441043853760000e+000) (47, 1.10002243518829350000e+000) (48, -1.50000000000000000000e+003) (49, -1.50000000000000000000e+003) (50, -1.48200000000000000000e+003) (51, -6.26676574707031250000e+002) (0, -4.56628608703613280000e+000) (1, 4.93322700262069700000e-001) (2, 2.51464426517486570000e-001) (3, -2.68312263488769530000e+000) (4, 4.60044682025909420000e-001) (5, -3.75156216323375700000e-002) (6, -1.51699578762054440000e+000) (7, -8.70202445983886720000e+000) (8, 4.80449758470058440000e-002) (9, 7.32694959640502930000e+000) (10, 8.62512290477752690000e-001) (11, 4.16308581829071040000e-001) (12, 1.09550154209136960000e+000) (13, -2.49425792694091800000e+000) (14, 1.68512597680091860000e-001) (15, 2.29057192802429200000e+000) (16, -2.21549367904663090000e+000) (17, -5.92548735439777370000e-002) (18, -8.08868646621704100000e-001) (19, -2.80005645751953120000e+000) (20, 1.37708604335784910000e+000) (21, -4.43711566925048830000e+000) (22, -1.87552094459533690000e+000) (23, 8.85481059551239010000e-001) (24, -7.22699165344238280000e-001) (25, 1.62627387046813960000e+000) (26, 9.71823573112487790000e-001) (27, -2.33856081962585450000e+000) (28, 1.62639200687408450000e+000) (29, -4.81400877237319950000e-001) (30, 2.55705523490905760000e+000) (31, 3.12478899955749510000e+000) (32, 1.54353886842727660000e-001) (33, 5.94557142257690430000e+000) (34, 6.43862962722778320000e+000) (35, -4.63723391294479370000e-001) (36, -4.79012459516525270000e-001) (37, -3.22505593299865720000e+000) (38, -5.03392934799194340000e-001) (39, 1.13420963287353520000e+000) (40, 2.30180311203002930000e+000) (41, 2.51744508743286130000e-001) (42, 3.52713346481323240000e-001) (43, 2.29154181480407710000e+000) (44, -3.27831447124481200000e-001) (45, -2.19389700889587400000e+000) (46, 2.24891328811645510000e+000) (47, 8.32131564617156980000e-001) (48, -1.48500000000000000000e+003) (49, -8.14475402832031250000e+002) (50, -6.89674804687500000000e+002) (51, -5.29100158691406250000e+002) (52, -2.11807174682617190000e+002) (0, -2.93869709968566890000e+000) (1, -1.36378502845764160000e+000) (2, 8.85820865631103520000e-001) (3, -1.68771356344223020000e-001) (4, -1.08767890930175780000e+001) (5, 1.36206674575805660000e+000) (6, 3.05312812328338620000e-001) (7, -1.53560543060302730000e+000) (8, 2.15691179037094120000e-001) (9, -3.48714619874954220000e-001) (10, 2.86615586280822750000e+000) (11, 5.47619238495826720000e-002) (12, -3.05201280862092970000e-002) (13, -1.70750093460083010000e+000) (14, 1.28276562690734860000e+000) (15, 2.90258932113647460000e+000) (16, -3.47643566131591800000e+000) (17, 6.00529491901397710000e-001) (18, 9.60277795791625980000e-001) (19, -6.13569498062133790000e-001) (20, 1.00383436679840090000e+000) (21, 3.43625688552856450000e+000) (22, -2.12141561508178710000e+000) (23, 2.73628562688827510000e-001) (24, -8.66398572921752930000e-001) (25, 2.52474999427795410000e+000) (26, 1.24808955192565920000e+000) (27, 4.23900413513183590000e+000) (28, 1.80221474170684810000e+000) (29, 7.51708269119262700000e-001) (30, 2.55766302347183230000e-001) (31, 2.17317104339599610000e+000) (32, 7.77113914489746090000e-001) (33, 3.42348504066467290000e+000) (34, 1.96273362636566160000e+000) (35, 4.75504904985427860000e-001) (36, -9.40003275871276860000e-001) (37, 3.08071017265319820000e+000) (38, 4.48489159345626830000e-001) (39, 5.57401561737060550000e+000) (40, 3.09160494804382320000e+000) (41, -2.96667665243148800000e-001) (42, 2.88862204551696780000e+000) (43, 1.87958753108978270000e+000) (44, -4.09473091363906860000e-001) (45, -1.80003285408020020000e+000) (46, 2.48458099365234370000e+000) (47, -1.16895288228988650000e-001) (48, 4.03183490037918090000e-001) (49, 3.81313538551330570000e+000) (50, 1.04604566097259520000e+000) (51, 5.32002210617065430000e+000) (52, 5.80090284347534180000e+000) (53, 2.14572525024414060000e+000) (0, 1.58103871345520020000e+000) (1, 3.20693659782409670000e+000) (2, 7.39039540290832520000e-001) (3, -8.68856757879257200000e-002) (4, -6.33355021476745610000e-001) (5, -6.25343143939971920000e-001) (6, -1.03446149826049800000e+000) (7, -1.15219485759735110000e+000) (8, 2.61175073683261870000e-002) (9, -5.06477296352386470000e-001) (10, 1.97635149955749510000e+000) (11, -1.12680308520793910000e-001) (12, 8.69795322418212890000e+000) (13, -9.49401021003723140000e-001) (14, 1.19915843009948730000e+000) (15, 3.14788556098937990000e+000) (16, -2.16169071197509770000e+000) (17, -1.69103711843490600000e-001) (18, -1.26519787311553960000e+000) (19, -2.79372406005859380000e+001) (20, 8.29772651195526120000e-001) (21, 4.63937759399414060000e-001) (22, -1.58085021972656250000e+001) (23, 1.96041929721832280000e+000) (24, -1.20421059429645540000e-001) (25, 1.31481895446777340000e+001) (26, 2.41192162036895750000e-001) (27, -4.73734283447265630000e+000) (28, 4.48184490203857420000e+000) (29, -3.56758594512939450000e-001) (30, -3.06907320022583010000e+000) (31, 2.77466773986816410000e+000) (32, 4.94796447455883030000e-002) (33, 1.47488403320312500000e+000) (34, 1.05954122543334960000e+001) (35, 1.36652708053588870000e+000) (36, -3.90867280960083010000e+000) (37, 4.99603652954101560000e+000) (38, 8.47320675849914550000e-001) (39, -2.71527525037527080000e-002) (40, 2.45346260070800780000e+000) (41, -6.17790102958679200000e-001) (42, 5.07322788238525390000e+000) (43, 4.95917463302612300000e+000) (44, 1.14636504650115970000e+000) (45, -2.06717061996459960000e+000) (46, 2.10055375099182130000e+000) (47, 9.61443305015563960000e-001) (48, -1.50000000000000000000e+003) (49, -1.50000000000000000000e+003) (50, -1.44762890625000000000e+003) (51, -4.71662170410156250000e+002) (52, -1.11755261230468750000e+003) (53, -1.28230300903320310000e+002) (54, -7.69551879882812500000e+002) (0, 7.45794773101806640000e-001) (1, -1.30857205390930180000e+000) (2, 1.12104618549346920000e+000) (3, 4.99718815088272090000e-001) (4, 5.35899341106414790000e-001) (5, -5.24108827114105220000e-001) (6, -1.50849735736846920000e+000) (7, 6.98621809482574460000e-001) (8, -4.08242754638195040000e-002) (9, -1.26032233238220210000e+000) (10, 1.36642849445343020000e+000) (11, 5.63299298286437990000e-001) (12, 3.60561400651931760000e-001) (13, -2.27606222033500670000e-001) (14, 1.21280872821807860000e+000) (15, -5.28628468513488770000e-001) (16, -9.54273343086242680000e-001) (17, -2.23271593451499940000e-001) (18, 1.61262547969818120000e+000) (19, 1.37824714183807370000e+000) (20, 3.54656696319580080000e-001) (21, 4.05037075281143190000e-001) (22, 1.96871161460876460000e+000) (23, -2.81984746456146240000e-001) (24, 2.53017544746398930000e+000) (25, 2.06987452507019040000e+000) (26, -6.13949418067932130000e-001) (27, 4.78448867797851560000e-001) (28, 2.07488560676574710000e+000) (29, -5.63607692718505860000e-001) (30, -1.72504591941833500000e+000) (31, 7.78865694999694820000e-001) (32, 1.19705569744110110000e+000) (33, 1.85859099030494690000e-001) (34, 1.88805055618286130000e+000) (35, -5.63273727893829350000e-001) (36, 2.58159446716308590000e+000) (37, 1.86619102954864500000e+000) (38, 9.38391327857971190000e-001) (39, 1.00579535961151120000e+000) (40, 1.60123288631439210000e+000) (41, 3.92888188362121580000e-001) (42, 6.99916034936904910000e-002) (43, 1.16496503353118900000e+000) (44, -7.08943247795104980000e-001) (45, -3.87457638978958130000e-001) (46, 1.86748588085174560000e+000) (47, 8.95767927169799800000e-001) (48, -1.02099418640136720000e+000) (49, 1.63511168956756590000e+000) (50, 8.43581318855285640000e-001) (51, 3.36705493927001950000e+000) (52, 2.04040214419364930000e-001) (53, 3.11492085456848140000e+000) (54, -6.43250286579132080000e-001) (55, 2.43094587326049800000e+000) (0, 1.22601585388183590000e+001) (1, 1.31242408752441410000e+001) (2, 4.57369714975357060000e-001) (3, -3.64776659011840820000e+000) (4, -1.28760087490081790000e+000) (5, 8.18478703498840330000e-001) (6, -1.69458436965942380000e+000) (7, -6.22652769088745120000e+000) (8, 6.27477407455444340000e-001) (9, -3.30681353807449340000e-001) (10, 2.86678314208984380000e+000) (11, 4.52576816082000730000e-001) (12, -1.46656990051269530000e-001) (13, -2.02418804168701170000e+000) (14, -6.41761720180511470000e-001) (15, 2.70606493949890140000e+000) (16, -3.99001717567443850000e+000) (17, -6.18983566761016850000e-001) (18, -2.68459487706422810000e-002) (19, -4.82505416870117190000e+000) (20, 1.40815556049346920000e+000) (21, -6.56988954544067380000e+000) (22, -1.59057016372680660000e+001) (23, 4.03274506330490110000e-001) (24, -6.47411584854125980000e-001) (25, 3.81840157508850100000e+000) (26, 5.59810698032379150000e-001) (27, 1.70376276969909670000e+000) (28, -4.30322313308715820000e+000) (29, 2.62983322143554690000e-001) (30, 1.79494246840476990000e-001) (31, 4.20000696182250980000e+000) (32, 1.23964585363864900000e-001) (33, 2.42225456237792970000e+000) (34, 3.58063268661499020000e+000) (35, -6.93517252802848820000e-002) (36, -2.57075476646423340000e+000) (37, 2.05736064910888670000e+000) (38, 8.17991942167282100000e-002) (39, 8.99417102336883540000e-001) (40, 2.69164896011352540000e+000) (41, 2.81766444444656370000e-001) (42, 2.19504666328430180000e+000) (43, 3.18488788604736330000e+000) (44, -2.54993677139282230000e-001) (45, -2.76572108268737790000e+000) (46, 5.31254959106445310000e+000) (47, 2.61217683553695680000e-001) (48, -6.87298034667968750000e+002) (49, -7.44316864013671880000e+001) (50, -1.06687890625000000000e+003) (51, -1.76373062133789060000e+002) (52, -4.00463378906250000000e+002) (53, 3.00478546142578120000e+002) (54, -1.29290441894531250000e+003) (55, -1.44449121093750000000e+003) (56, -1.48706436157226560000e+001) (0, 1.11662817001342770000e+000) (1, 7.05807626247406010000e-001) (2, 8.58271479606628420000e-001) (3, 7.12445378303527830000e-001) (4, 4.34754878282547000000e-001) (5, 2.35957518219947810000e-001) (6, 7.37980231642723080000e-002) (7, -1.60704326629638670000e+001) (8, 5.36626756191253660000e-001) (9, -1.06192326545715330000e+000) (10, -8.83952260017395020000e-001) (11, 5.96448063850402830000e-001) (12, 8.24936926364898680000e-001) (13, 6.30825936794281010000e-001) (14, 4.74403142929077150000e-001) (15, 1.59626197814941410000e+000) (16, -2.74349629878997800000e-001) (17, -4.35226559638977050000e-002) (18, -6.38622581958770750000e-001) (19, -2.01585316658020020000e+000) (20, 6.28346383571624760000e-001) (21, -2.63841152191162110000e+000) (22, 1.42910912632942200000e-001) (23, -7.22281157970428470000e-001) (24, 1.35826361179351810000e+000) (25, -1.71573877334594730000e+000) (26, -1.04637765884399410000e+000) (27, 3.51317763328552250000e-001) (28, 4.51915359497070310000e+000) (29, 5.97786068916320800000e-001) (30, -9.96110498905181880000e-001) (31, 2.30646133422851560000e+000) (32, 4.42938923835754390000e-001) (33, -3.05652546882629390000e+000) (34, 2.46735429763793950000e+000) (35, -9.26228404045104980000e-001) (36, 1.60488605499267580000e-001) (37, 2.19842171669006350000e+000) (38, 3.04076403379440310000e-001) (39, 3.59309029579162600000e+000) (40, 2.16503357887268070000e+000) (41, 5.00250399112701420000e-001) (42, -7.80406817793846130000e-002) (43, 3.96098661422729490000e+000) (44, 7.12554931640625000000e-001) (45, 4.65107895433902740000e-002) (46, 3.68321251869201660000e+000) (47, -7.42797017097473140000e-001) (48, -2.10861325263977050000e+000) (49, -3.34030461311340330000e+000) (50, 5.42112398147583010000e+000) (51, 2.33517193794250490000e+000) (52, 2.27304401397705080000e+001) (53, 3.41385793685913090000e+000) (54, -3.13065618276596070000e-001) (55, -9.97922420501708980000e-001) (56, -1.84449434280395510000e-001) (57, 2.21299076080322270000e+000) (0, 1.35329914093017580000e+000) (1, -3.44536632299423220000e-001) (2, -7.84797191619873050000e-001) (3, 1.31943368911743160000e+000) (4, 6.06906592845916750000e-001) (5, -3.20585340261459350000e-001) (6, 2.17386066913604740000e-001) (7, -9.07391846179962160000e-001) (8, -8.75741720199584960000e-001) (9, 1.23362946510314940000e+000) (10, -1.79102170467376710000e+000) (11, -4.96169388294219970000e-001) (12, 9.62252616882324220000e-001) (13, -1.87939479947090150000e-001) (14, 5.12553811073303220000e-001) (15, -4.81095170974731450000e+000) (16, 1.15152025222778320000e+000) (17, -5.88260173797607420000e-001) (18, -3.16222578287124630000e-001) (19, 3.92633765935897830000e-001) (20, 7.62603461742401120000e-001) (21, -5.00749945640563960000e-001) (22, -7.90707588195800780000e-001) (23, -3.29501479864120480000e-001) (24, 1.07870399951934810000e+000) (25, 1.24203264713287350000e+000) (26, 9.34504985809326170000e-001) (27, -3.36214208602905270000e+000) (28, 1.39049446582794190000e+000) (29, 6.21213495731353760000e-001) (30, 1.94038257002830510000e-001) (31, -2.27224373817443850000e+000) (32, 2.74524930864572530000e-002) (33, 2.73844051361083980000e+000) (34, -2.81334304809570310000e+000) (35, 1.88271641731262210000e-001) (36, 1.20225310325622560000e+000) (37, 2.83626413345336910000e+000) (38, -3.62408012151718140000e-001) (39, 2.65918374061584470000e+000) (40, 2.74824762344360350000e+000) (41, 1.13124586641788480000e-001) (42, -2.28935623168945310000e+000) (43, 1.69900572299957280000e+000) (44, 1.40274548530578610000e+000) (45, 9.33160483837127690000e-002) (46, 2.33481526374816890000e+000) (47, -9.37130391597747800000e-001) (48, -1.41039931774139400000e+000) (49, 5.04527235031127930000e+000) (50, 8.55943858623504640000e-001) (51, 1.31680774688720700000e+000) (52, 6.36646938323974610000e+000) (53, -7.68946075439453130000e+001) (54, -4.22197319567203520000e-002) (55, 1.91588437557220460000e+000) (56, 3.65846604108810420000e-001) (57, 1.59286546707153320000e+000) (58, -7.53210693359375000000e+002) (0, 5.97363412380218510000e-001) (1, -3.39837461709976200000e-001) (2, 1.49571308866143230000e-002) (3, 3.68010997772216800000e-001) (4, -2.27387104034423830000e+001) (5, 6.67909145355224610000e-001) (6, 8.58480811119079590000e-001) (7, -3.18338346481323240000e+000) (8, 1.04758155345916750000e+000) (9, -1.66786348819732670000e+000) (10, 8.38328719139099120000e-001) (11, -6.42284214496612550000e-001) (12, -2.14924716949462890000e+000) (13, -7.75095272064208980000e+000) (14, 6.98725700378417970000e-001) (15, 8.31359624862670900000e-001) (16, -1.47374715805053710000e+001) (17, -4.53148007392883300000e-001) (18, 7.76502966880798340000e-001) (19, 2.05811277031898500000e-001) (20, -3.24478894472122190000e-002) (21, 7.16517400741577150000e+000) (22, 1.86140790581703190000e-001) (23, -8.17836225032806400000e-001) (24, 1.12984645366668700000e+000) (25, -6.52043700218200680000e-001) (26, 8.02122056484222410000e-002) (27, 3.74595928192138670000e+000) (28, 1.06400680541992190000e+000) (29, -2.60459721088409420000e-001) (30, 7.31139898300170900000e-001) (31, 1.88854679465293880000e-001) (32, -6.84303581714630130000e-001) (33, 2.04567861557006840000e+000) (34, -7.51550635322928430000e-003) (35, 3.71756643056869510000e-001) (36, -7.26029753684997560000e-001) (37, 3.85849952697753910000e+000) (38, -4.76334512233734130000e-001) (39, 2.78558921813964840000e+000) (40, 9.46763324737548830000e+000) (41, -9.28166508674621580000e-001) (42, 3.84820508956909180000e+000) (43, 3.58400702476501460000e+000) (44, 1.81800946593284610000e-001) (45, -5.40138912200927730000e+000) (46, 4.62216711044311520000e+000) (47, 1.04541230201721190000e+000) (48, -1.45351397991180420000e+000) (49, -1.43112823486328120000e+002) (50, 1.51939618587493900000e+000) (51, 1.50000000000000000000e+003) (52, 1.21073842048645020000e+000) (53, 1.50000000000000000000e+003) (54, 1.21920502185821530000e+000) (55, 1.50000000000000000000e+003) (56, 1.52337774634361270000e-001) (57, 2.67014336585998540000e+000) (58, -1.50000000000000000000e+003) (59, -1.50000000000000000000e+003) (0, -1.80483019351959230000e+000) (1, 2.93234676122665410000e-001) (2, 2.22170084714889530000e-001) (3, -2.22272014617919920000e+000) (4, -8.81372213363647460000e-001) (5, 1.01234889030456540000e+000) (6, -1.15918898582458500000e+000) (7, 3.82206529378890990000e-001) (8, 5.09609580039978030000e-001) (9, -1.55855262279510500000e+000) (10, -6.35516941547393800000e-001) (11, -3.27531129121780400000e-001) (12, 6.75603374838829040000e-002) (13, -7.72547483444213870000e-001) (14, -2.84343212842941280000e-001) (15, 1.94255924224853520000e+000) (16, 8.27828235924243930000e-003) (17, 9.50424671173095700000e-001) (18, -3.50412666797637940000e-001) (19, 3.12206476926803590000e-001) (20, -9.07637000083923340000e-001) (21, 1.88915336132049560000e+000) (22, 1.61892557144165040000e+000) (23, -1.50821876525878910000e+000) (24, 3.34798669815063480000e+000) (25, -1.52448034286499020000e+000) (26, 4.44601982831954960000e-001) (27, -1.96349591016769410000e-001) (28, 6.82019114494323730000e-001) (29, -1.18696856498718260000e+000) (30, -1.08444368839263920000e+000) (31, 2.38100156188011170000e-001) (32, -6.50788605213165280000e-001) (33, 1.80700659751892090000e+000) (34, -9.28251802921295170000e-001) (35, 4.67805147171020510000e-001) (36, -1.35229265689849850000e+000) (37, -7.80230522155761720000e-001) (38, 4.70191091299057010000e-001) (39, 5.36380887031555180000e-001) (40, 1.15309023857116700000e+000) (41, 6.68532073497772220000e-001) (42, -2.02708914875984190000e-001) (43, -1.23931378126144410000e-001) (44, 1.02024877071380620000e+000) (45, 3.97539675235748290000e-001) (46, 8.91741931438446040000e-001) (47, -2.84507602453231810000e-001) (48, -1.24948537349700930000e+000) (49, -4.26489295959472660000e+001) (50, -3.57330203056335450000e+000) (51, -1.45470596313476560000e+002) (52, -7.27401275634765620000e+001) (53, 1.14046263694763180000e+000) (54, -5.33618049621582030000e+001) (55, 1.70605373382568360000e+001) (56, -1.30552208423614500000e+000) (57, 3.13757658004760740000e+000) (58, 1.50000000000000000000e+003) (59, 7.15747741699218750000e+002) (60, -1.50000000000000000000e+003) (0, 3.31067276000976560000e+000) (1, 1.05737571716308590000e+001) (2, 1.09446130692958830000e-001) (3, -1.62957227230072020000e+000) (4, 1.78762996196746830000e+000) (5, 6.90413653850555420000e-001) (6, 3.00362378358840940000e-001) (7, -6.16008329391479490000e+000) (8, 4.67248111963272090000e-001) (9, 8.49796390533447270000e+000) (10, 1.25616204738616940000e+000) (11, -9.31253358721733090000e-002) (12, -3.36839944124221800000e-001) (13, -1.46065306663513180000e+000) (14, 1.40588307380676270000e+000) (15, 1.04836797714233400000e+000) (16, -1.20553064346313480000e+001) (17, -1.40347957611083980000e-001) (18, 1.03611290454864500000e+000) (19, -2.25904989242553710000e+000) (20, 7.54745304584503170000e-001) (21, 2.94384551048278810000e+000) (22, -5.05985498428344730000e+000) (23, 4.90053653717041020000e-001) (24, -8.69201600551605220000e-001) (25, -5.15337228775024410000e-001) (26, 4.57985877990722660000e-001) (27, -5.17083597183227540000e+000) (28, -1.48786175251007080000e+000) (29, -2.76742309331893920000e-001) (30, 1.78119683265686040000e+000) (31, 2.02987742424011230000e+000) (32, 2.71977245807647710000e-001) (33, 1.79556691646575930000e+000) (34, 1.86843419075012210000e+000) (35, -5.32062172889709470000e-001) (36, -2.02062940597534180000e+000) (37, 3.33660483360290530000e+000) (38, -7.54595637321472170000e-001) (39, 4.62734811007976530000e-002) (40, 2.46229171752929690000e+000) (41, 1.80443346500396730000e+000) (42, 1.68793118000030520000e+000) (43, 1.83951389789581300000e+000) (44, 1.48653817176818850000e+000) (45, -7.77049446105957030000e+000) (46, 8.55196475982666020000e+000) (47, -7.28368878364562990000e-001) (48, 9.75393056869506840000e-002) (49, -4.89109588623046870000e+002) (50, -1.26435961914062500000e+003) (51, -5.79455688476562500000e+002) (52, -6.44135131835937500000e+002) (53, -3.58094116210937500000e+002) (54, -1.26390173339843750000e+003) (55, -1.17677404785156250000e+003) (56, -1.50000000000000000000e+003) (57, -9.97781799316406250000e+002) (58, -1.50000000000000000000e+003) (59, -1.31928527832031250000e+003) (60, 1.50000000000000000000e+003) (61, -1.13847084045410160000e+002) (0, -1.41932940483093260000e+000) (1, 1.90227758139371870000e-002) (2, 5.53726196289062500000e-001) (3, -2.48848080635070800000e+000) (4, 3.36812257766723630000e-001) (5, 4.72357898950576780000e-001) (6, 9.12428200244903560000e-002) (7, -5.00457704067230220000e-001) (8, 7.09390580654144290000e-001) (9, -6.38009488582611080000e-001) (10, 2.17134737968444820000e+000) (11, -7.36928343772888180000e-001) (12, -8.58985364437103270000e-001) (13, -4.16139841079711910000e-001) (14, 9.42530948668718340000e-003) (15, 2.03916430473327640000e+000) (16, 5.87938487529754640000e-001) (17, 7.15551555156707760000e-001) (18, 8.04178267717361450000e-002) (19, -2.59055233001708980000e+000) (20, -7.77699947357177730000e-001) (21, 8.06487846374511720000e+000) (22, -1.36383275985717770000e+001) (23, 5.84772109985351560000e-001) (24, -3.96726369857788090000e+000) (25, 4.10460196435451510000e-002) (26, 7.13959276676177980000e-001) (27, 1.34207916259765630000e+000) (28, 9.22227573394775390000e+000) (29, 4.51514452695846560000e-001) (30, -2.23569130897521970000e+000) (31, 2.02778577804565430000e+000) (32, -2.63388216495513920000e-001) (33, 2.07171320915222170000e+000) (34, 1.72094452381134030000e+000) (35, -5.07787942886352540000e-001) (36, 1.14772224426269530000e+000) (37, -2.32129454612731930000e+000) (38, -8.64104390144348140000e-001) (39, -5.74020385742187500000e+000) (40, 5.74814140796661380000e-001) (41, 8.62959086894989010000e-001) (42, 3.78714829683303830000e-001) (43, 2.42111611366271970000e+000) (44, 7.41663634777069090000e-001) (45, 1.28628969192504880000e+000) (46, 2.12091517448425290000e+000) (47, 8.59948039054870610000e-001) (48, -3.00188274383544920000e+001) (49, 6.68553888797760010000e-001) (50, -9.62415222167968750000e+002) (51, 2.94681182861328120000e+002) (52, -6.57181396484375000000e+002) (53, -2.11698207855224610000e+001) (54, 4.67246932983398440000e+001) (55, -6.37827819824218750000e+002) (56, -1.79048690795898440000e+002) (57, -1.63242980957031250000e+002) (58, -1.45327307128906250000e+003) (59, -1.50000000000000000000e+003) (60, 1.50000000000000000000e+003) (61, -4.41559692382812500000e+002) (62, -1.05111007690429690000e+001) (0, 2.76336938142776490000e-001) (1, -1.17159120738506320000e-001) (2, -5.93497157096862790000e-001) (3, 7.59866058826446530000e-001) (4, -7.57959902286529540000e-001) (5, 1.12100565433502200000e+000) (6, -2.25171849131584170000e-001) (7, -2.92630434036254880000e+000) (8, -4.16563674807548520000e-002) (9, 7.03934490680694580000e-001) (10, -8.38216364383697510000e-001) (11, 1.19539701938629150000e+000) (12, 3.33901911973953250000e-001) (13, 9.02220726013183590000e-001) (14, 4.06943917274475100000e-001) (15, 3.10790443420410160000e+000) (16, 9.65668022632598880000e-001) (17, -8.34206119179725650000e-004) (18, -5.17689049243927000000e-001) (19, -5.51870489120483400000e+000) (20, 5.00949680805206300000e-001) (21, -2.97769331932067870000e+000) (22, -3.34574246406555180000e+000) (23, 3.72032262384891510000e-002) (24, 3.87166172266006470000e-001) (25, 9.33161854743957520000e-001) (26, 1.03715427219867710000e-001) (27, -3.03542184829711910000e+000) (28, 1.79766058921813960000e-001) (29, -5.81582784652709960000e-001) (30, 3.73684287071228030000e-001) (31, 2.59343266487121580000e+000) (32, 7.89867155253887180000e-003) (33, -3.87175917625427250000e-001) (34, 2.61869907379150390000e+000) (35, -3.29461932182312010000e-001) (36, 1.00794446468353270000e+000) (37, 1.33186697959899900000e+000) (38, 1.88297092914581300000e-001) (39, 6.81180119514465330000e-001) (40, 1.75415968894958500000e+000) (41, -3.11196863651275630000e-001) (42, -3.36878597736358640000e-001) (43, 2.55608391761779790000e+000) (44, -3.50350141525268550000e-001) (45, -5.29690623283386230000e-001) (46, 3.22191452980041500000e+000) (47, 2.57745534181594850000e-001) (48, -2.03242957592010500000e-001) (49, -9.68445739746093750000e+001) (50, -1.08971504211425780000e+002) (51, -1.24237892150878910000e+002) (52, 3.45537376403808590000e+001) (53, 1.75075852870941160000e+000) (54, -1.92644836425781250000e+002) (55, -3.55595970153808590000e+001) (56, -7.39276657104492190000e+001) (57, -3.31960654258728030000e+000) (58, -1.50000000000000000000e+003) (59, -1.50000000000000000000e+003) (60, 1.50000000000000000000e+003) (61, 2.81128501892089840000e+000) (62, -6.05298881530761720000e+001) (63, 2.81343889236450200000e+000) (0, 6.85272991657257080000e-001) (1, -5.58569669723510740000e+000) (2, 5.01392006874084470000e-001) (3, 9.89012181758880620000e-001) (4, -1.15305256843566890000e+000) (5, 1.68641880154609680000e-001) (6, 7.22677171230316160000e-001) (7, 1.13273598253726960000e-001) (8, 1.14858381450176240000e-001) (9, 1.49776488542556760000e-001) (10, 2.01962089538574220000e+000) (11, -1.95116668939590450000e-001) (12, 2.98285305500030520000e-001) (13, -2.85375261306762700000e+000) (14, -1.07724010944366460000e-001) (15, 2.87300443649291990000e+000) (16, -1.37945365905761720000e+000) (17, 2.55447566509246830000e-001) (18, 9.80599343776702880000e-001) (19, 9.87328946590423580000e-001) (20, 1.01270353794097900000e+000) (21, 2.22432279586791990000e+000) (22, 2.57571309804916380000e-001) (23, 7.32758462429046630000e-001) (24, 1.22701847553253170000e+000) (25, 1.93950474262237550000e+000) (26, 2.85460650920867920000e-001) (27, 1.55221939086914060000e+000) (28, 1.70755279064178470000e+000) (29, -5.08749306201934810000e-001) (30, -7.43757486343383790000e-001) (31, 6.08788311481475830000e-001) (32, 1.21871478855609890000e-001) (33, 2.09943461418151860000e+000) (34, 1.69349968433380130000e+000) (35, 8.62933516502380370000e-001) (36, 4.85726118087768550000e-001) (37, 2.63135623931884770000e+000) (38, -7.10590600967407230000e-001) (39, 2.33071660995483400000e+000) (40, 2.70345211029052730000e+000) (41, 8.28626155853271480000e-001) (42, 2.68569087982177730000e+000) (43, 2.06956052780151370000e+000) (44, 7.48548686504364010000e-001) (45, 7.66557455062866210000e-001) (46, 3.02381920814514160000e+000) (47, 3.25790047645568850000e-001) (48, 1.29061067104339600000e+000) (49, 1.49637365341186520000e+000) (50, 3.05462169647216800000e+000) (51, 2.28196477890014650000e+000) (52, 3.89254212379455570000e+000) (53, 4.44331359863281250000e+000) (54, -9.14537072181701660000e-001) (55, 1.47374248504638670000e+000) (56, -3.33217859268188480000e-001) (57, 3.88391733169555660000e+000) (58, -7.28666841983795170000e-001) (59, -5.86989135742187500000e+002) (60, 1.19960021972656250000e+003) (61, 2.33536362648010250000e+000) (62, 1.04130816459655760000e+000) (63, 1.05049335956573490000e+000) (64, 9.53595399856567380000e-001) (0, -1.43475759029388430000e+000) (1, 1.71422994136810300000e+000) (2, -1.19008377194404600000e-001) (3, -1.86992111206054690000e+001) (4, 1.88470554351806640000e+000) (5, -2.63559997081756590000e-001) (6, -8.09287905693054200000e-001) (7, -2.13427686691284180000e+000) (8, 1.22310996055603030000e+000) (9, 8.54637241363525390000e+000) (10, 9.70309734344482420000e-001) (11, -3.31148743629455570000e-001) (12, 1.55760276317596440000e+000) (13, -5.28699755668640140000e-001) (14, 4.82860326766967770000e-001) (15, -8.56650695204734800000e-002) (16, -7.36165904998779300000e+000) (17, -5.78216370195150380000e-003) (18, 1.43557322025299070000e+000) (19, -8.88364410400390620000e+000) (20, 1.16597843170166020000e+000) (21, -1.80296051502227780000e+000) (22, -1.85560245513916020000e+001) (23, 9.71174538135528560000e-001) (24, 7.92526006698608400000e-001) (25, -9.91351246833801270000e-001) (26, -8.08795809745788570000e-001) (27, -3.22299790382385250000e+000) (28, 1.59256849288940430000e+001) (29, 2.77025610208511350000e-001) (30, 2.73336589336395260000e-001) (31, 2.18650817871093750000e+000) (32, 2.14380264282226560000e+000) (33, 7.22822099924087520000e-002) (34, 1.71856129169464110000e+000) (35, -6.46174550056457520000e-001) (36, 1.01733291149139400000e+000) (37, -2.36660456657409670000e+000) (38, -1.91314131021499630000e-001) (39, 8.60827326774597170000e-001) (40, 1.62593574523925780000e+001) (41, -4.21948641538620000000e-001) (42, 7.77043056488037110000e+000) (43, 9.21686410903930660000e-001) (44, 6.70875430107116700000e-001) (45, 2.64243149757385250000e+000) (46, -1.54992476105690000000e-001) (47, 8.51695358753204350000e-001) (48, -5.38072586059570310000e+000) (49, -3.15445953369140620000e+002) (50, -1.49643041992187500000e+003) (51, 7.62576293945312500000e+001) (52, -9.90044616699218750000e+002) (53, 2.49044036865234380000e+001) (54, -5.32597045898437500000e+001) (55, -3.22317108154296870000e+002) (56, -6.73056316375732420000e+000) (57, 5.55151733398437500000e+002) (58, -1.50000000000000000000e+003) (59, -1.50000000000000000000e+003) (60, -1.50000000000000000000e+003) (61, 2.49166885375976560000e+002) (62, 4.00846343994140620000e+002) (63, -1.25116889953613280000e+002) (64, 1.47359997558593750000e+003) (65, 1.34948217773437500000e+003) (0, 7.30568170547485350000e-001) (1, -1.67111659049987790000e+000) (2, 2.80702084302902220000e-001) (3, 1.73180758953094480000e+000) (4, -2.54282855987548830000e+000) (5, 9.63253974914550780000e-001) (6, 1.03466260433197020000e+000) (7, 1.15066909790039060000e+000) (8, -5.27072250843048100000e-001) (9, 7.82586038112640380000e-002) (10, 1.09624266624450680000e+000) (11, 1.72291994094848630000e-001) (12, -2.71090769767761230000e+000) (13, -1.76508092880249020000e+000) (14, -6.68667793273925780000e-001) (15, 1.35693168640136720000e+000) (16, -4.55755561590194700000e-001) (17, -1.03891365230083470000e-001) (18, -1.36315119266510010000e+000) (19, 1.60189187526702880000e+000) (20, -5.91304302215576170000e-001) (21, 1.86080062389373780000e+000) (22, 1.64648342132568360000e+000) (23, 1.02242183685302730000e+000) (24, -4.46031093597412110000e-001) (25, 9.09421026706695560000e-001) (26, 5.83836495876312260000e-001) (27, 1.63608586788177490000e+000) (28, 1.23721539974212650000e+000) (29, -6.09231054782867430000e-001) (30, -4.96392011642456050000e+000) (31, 8.72008740901947020000e-001) (32, 1.11083185672760010000e+000) (33, 9.44463074207305910000e-001) (34, 6.09714090824127200000e-001) (35, 6.77539050579071040000e-001) (36, 1.44716048240661620000e+000) (37, 3.40571045875549320000e+000) (38, 1.17801761627197270000e+000) (39, 1.61189556121826170000e+000) (40, 3.41216373443603520000e+000) (41, 1.20169115066528320000e+000) (42, 2.03375577926635740000e+000) (43, 2.47093820571899410000e+000) (44, 1.12739555537700650000e-001) (45, 2.08120554685592650000e-001) (46, 3.44854521751403810000e+000) (47, 1.12300646305084230000e+000) (48, -6.67702734470367430000e-001) (49, 1.31443643569946290000e+000) (50, -6.00420087575912480000e-002) (51, 2.90273809432983400000e+000) (52, 3.51338219642639160000e+000) (53, 2.32735514640808110000e+000) (54, -8.74929726123809810000e-001) (55, 1.37549138069152830000e+000) (56, -1.28044843673706050000e-001) (57, -1.54775902628898620000e-001) (58, 1.85166347026824950000e+000) (59, 4.87478271484375000000e+002) (60, 2.76262725830078120000e+002) (61, 2.66334128379821780000e+000) (62, 2.39997315406799320000e+000) (63, 3.03878784179687500000e+000) (64, 4.36111679077148440000e+001) (65, 1.86459636688232420000e+000) (66, -6.15331506729125980000e+000) (0, -7.54777967929840090000e-001) (1, 1.66480645537376400000e-001) (2, 8.60102295875549320000e-001) (3, 3.18254023790359500000e-001) (4, -7.60707914829254150000e-001) (5, -1.69527113437652590000e-001) (6, 1.35699772834777830000e+000) (7, -2.63999533653259280000e+000) (8, 7.72531867027282710000e-001) (9, 1.25640451908111570000e+000) (10, -1.45063698291778560000e+000) (11, 9.76884365081787110000e-001) (12, 1.01420474052429200000e+000) (13, 1.11559450626373290000e-001) (14, -3.32705974578857420000e-002) (15, 1.90911769866943360000e+000) (16, 1.77239954471588130000e-001) (17, 1.02879452705383300000e+000) (18, 8.26046645641326900000e-001) (19, -5.34070312976837160000e-001) (20, 8.20508599281311040000e-001) (21, 2.92649245262146000000e+000) (22, -4.36706304550170900000e+000) (23, 1.02041149139404300000e+000) (24, 7.17290699481964110000e-001) (25, -1.54408848285675050000e+000) (26, 9.52057719230651860000e-001) (27, 1.88979101181030270000e+000) (28, 2.14484617114067080000e-001) (29, -6.77700266242027280000e-002) (30, 1.83206230401992800000e-001) (31, 2.17202329635620120000e+000) (32, 3.28553944826126100000e-001) (33, -3.08911609649658200000e+000) (34, 1.35441315174102780000e+000) (35, 9.26134824752807620000e-001) (36, 8.94347131252288820000e-001) (37, 3.55727958679199220000e+000) (38, -5.68881869316101070000e-001) (39, 2.03257608413696290000e+000) (40, 2.36045908927917480000e+000) (41, 4.11610335111618040000e-001) (42, 1.96110224723815920000e+000) (43, 3.31317377090454100000e+000) (44, 2.64520436525344850000e-001) (45, -7.24637091159820560000e-001) (46, 4.15785646438598630000e+000) (47, -7.09910511970520020000e-001) (48, -1.35249185562133790000e+000) (49, 2.63224983215332030000e+000) (50, 1.63124811649322510000e+000) (51, 6.59432458877563480000e+000) (52, 1.87284457683563230000e+000) (53, 2.24165320396423340000e+000) (54, 8.93726050853729250000e-001) (55, 1.24297499656677250000e+000) (56, -3.03193122148513790000e-001) (57, 2.87565064430236820000e+000) (58, -7.61125850677490230000e+000) (59, -2.95324726104736330000e+001) (60, -1.20380544662475590000e+001) (61, 9.51535522937774660000e-001) (62, 1.16975927352905270000e+000) (63, -6.34863018989562990000e-001) (64, 7.35222434997558590000e+000) (65, -5.10366857051849370000e-001) (66, 1.06891500949859620000e+000) (67, -2.95513772964477540000e+000) (0, 8.96991539001464840000e+000) (1, 1.51777005195617680000e+000) (2, 3.89338088035583500000e+000) (3, -5.57935714721679690000e-001) (4, -1.08551597595214840000e+000) (5, 1.14317357540130620000e+000) (6, -2.02099943161010740000e+000) (7, -1.36853685379028320000e+001) (8, -2.91515201330184940000e-001) (9, 5.60555398464202880000e-001) (10, 2.58345603942871090000e+000) (11, 1.71513393521308900000e-001) (12, 5.02989768981933590000e-001) (13, -7.68565845489501950000e+000) (14, -3.91994118690490720000e-001) (15, 1.26463832855224610000e+001) (16, 8.47309708595275880000e-001) (17, 4.36417073011398320000e-001) (18, -9.17432308197021480000e+000) (19, -3.39867997169494630000e+000) (20, -1.42672806978225710000e-001) (21, 3.00836968421936040000e+000) (22, -2.22580051422119140000e+000) (23, 2.90972542762756350000e+000) (24, -8.70457744598388670000e+000) (25, 1.38060684204101560000e+001) (26, 8.95898520946502690000e-001) (27, -2.04940271377563480000e+000) (28, -1.19273214340209960000e+001) (29, -3.19172590970993040000e-002) (30, -1.76790847778320310000e+001) (31, 2.06900668144226070000e+000) (32, -5.20306127145886420000e-003) (33, 2.38222122192382810000e+000) (34, 2.24352812767028810000e+000) (35, 9.67904508113861080000e-001) (36, 4.28636893630027770000e-002) (37, 2.31117391586303710000e+000) (38, 4.73589944839477540000e+000) (39, 2.10019950866699220000e+001) (40, 6.60228872299194340000e+000) (41, 3.14625471830368040000e-001) (42, -7.25551748275756840000e+000) (43, 1.32135725021362300000e+001) (44, -1.57186657190322880000e-001) (45, 2.28741264343261720000e+000) (46, 4.58518314361572270000e+000) (47, -1.11125245690345760000e-001) (48, -1.50000000000000000000e+003) (49, -1.33622460937500000000e+003) (50, -1.50000000000000000000e+003) (51, 4.82587371826171870000e+002) (52, -1.01133703613281250000e+003) (53, -9.87039672851562500000e+002) (54, -1.50000000000000000000e+003) (55, -1.50000000000000000000e+003) (56, -1.50000000000000000000e+003) (57, -1.14852062988281250000e+003) (58, 1.50000000000000000000e+003) (59, -1.50000000000000000000e+003) (60, 1.50000000000000000000e+003) (61, 3.52506561279296880000e+001) (62, -7.23982543945312500000e+002) (63, -1.50000000000000000000e+003) (64, -1.50000000000000000000e+003) (65, 2.67907470703125000000e+002) (66, 1.37345715332031250000e+003) (67, -1.50000000000000000000e+003) (68, 5.46451660156250000000e+002) (0, -1.43706398010253910000e+001) (1, -1.61510753631591800000e+000) (2, -9.08722937107086180000e-001) (3, -7.20368289947509770000e+000) (4, -4.47307300567626950000e+000) (5, -3.65741282701492310000e-001) (6, -5.26708793640136720000e+000) (7, -1.62648749351501460000e+000) (8, 3.56333285570144650000e-001) (9, -1.59877490997314450000e+001) (10, 2.29273438453674320000e+000) (11, 8.80621746182441710000e-002) (12, -8.82268786430358890000e-001) (13, -1.77603840827941890000e-001) (14, 1.02465116977691650000e+000) (15, 1.66095197200775150000e+000) (16, -1.40571796894073490000e+000) (17, 7.31372117996215820000e-001) (18, 1.34756672382354740000e+000) (19, 1.20308852195739750000e+000) (20, 9.95581030845642090000e-001) (21, -1.42096745967864990000e+000) (22, 1.09759111404418950000e+001) (23, -1.47486257553100590000e+000) (24, 2.11554384231567380000e+000) (25, 5.04586219787597660000e-001) (26, 9.84338283538818360000e-001) (27, 2.29075546264648440000e+001) (28, 4.46654415130615230000e+000) (29, 8.72254610061645510000e-001) (30, -9.14887189865112300000e-001) (31, -3.23595666885375980000e+000) (32, 3.41536909341812130000e-001) (33, 1.48829591274261470000e+000) (34, -5.43215560913085940000e+000) (35, 8.67527723312377930000e-001) (36, 1.94233453273773190000e+000) (37, -2.91150021553039550000e+000) (38, -3.90229612588882450000e-001) (39, 4.36288404464721680000e+000) (40, 2.98040509223937990000e+000) (41, -8.34290802478790280000e-001) (42, 2.54318666458129880000e+000) (43, 1.04762709140777590000e+000) (44, -7.89188981056213380000e-001) (45, 5.65301227569580080000e+000) (46, -3.92786049842834470000e+000) (47, 5.78858405351638790000e-002) (48, 9.13536357879638670000e+000) (49, 6.86664855957031250000e+002) (50, -6.73359008789062500000e+002) (51, 6.77106201171875000000e+002) (52, -6.72203247070312500000e+002) (53, -3.33812255859375000000e+001) (54, 2.04893310546875000000e+002) (55, -4.32713989257812500000e+002) (56, -2.10795998573303220000e-002) (57, 7.18950500488281250000e+002) (58, 5.08747100830078130000e+000) (59, 4.34952423095703120000e+002) (60, -2.04217559814453120000e+002) (61, 1.49740922451019290000e+000) (62, -4.39456253051757810000e+001) (63, 4.35979919433593750000e+002) (64, 1.19263925552368160000e+001) (65, -1.86432862281799320000e+000) (66, -3.44391601562500000000e+002) (67, 8.48437423706054690000e+001) (68, -2.43164596557617190000e+002) (69, -8.26478500366210940000e+001) (0, -1.70666122436523440000e+001) (1, -9.35233306884765620000e+000) (2, -4.33380246162414550000e-001) (3, 4.19381666183471680000e+000) (4, -1.91992492675781250000e+001) (5, 1.23792357742786410000e-001) (6, 3.59264111518859860000e+000) (7, -2.40298957824707030000e+001) (8, 3.39082479476928710000e-001) (9, -3.85214691162109380000e+001) (10, 2.08638334274291990000e+000) (11, 4.74414229393005370000e-001) (12, -2.04803898930549620000e-001) (13, 1.97527730464935300000e+000) (14, -2.34630942344665530000e-001) (15, 3.23543238639831540000e+000) (16, -3.03795313835144040000e+000) (17, 7.87211477756500240000e-001) (18, 3.45044398307800290000e+000) (19, -3.27538037300109860000e+000) (20, 9.36631619930267330000e-001) (21, 2.28011131286621090000e+000) (22, 6.44379882812500000000e+001) (23, -2.38446068763732910000e+000) (24, 5.59640598297119140000e+000) (25, 2.80713272094726560000e+000) (26, -3.47549796104431150000e-001) (27, 8.65962123870849610000e+000) (28, -1.37005100250244140000e+001) (29, 2.30964854359626770000e-001) (30, 1.49750626087188720000e+000) (31, 3.29082965850830080000e+000) (32, -5.43018877506256100000e-002) (33, 3.03432369232177730000e+000) (34, 1.90026545524597170000e+000) (35, 7.77090668678283690000e-001) (36, 1.05783402919769290000e+000) (37, -8.89513874053955080000e+000) (38, 8.93966704607009890000e-002) (39, 4.56233054399490360000e-001) (40, 3.31738185882568360000e+000) (41, -1.40553462505340580000e+000) (42, -1.60363042354583740000e+000) (43, 1.68499135971069340000e+000) (44, -4.38671171665191650000e-001) (45, 1.47321481704711910000e+001) (46, -1.16349229812622070000e+001) (47, 7.86700069904327390000e-001) (48, 5.76138496398925780000e+001) (49, 3.15493377685546870000e+002) (50, 3.80715515136718750000e+002) (51, 2.52256835937500000000e+002) (52, -2.67121246337890620000e+002) (53, -1.50000000000000000000e+003) (54, 1.50000000000000000000e+003) (55, 1.50000000000000000000e+003) (56, 1.48709069824218750000e+003) (57, 1.48444799804687500000e+003) (58, -1.19004467773437500000e+003) (59, 1.50000000000000000000e+003) (60, -1.50000000000000000000e+003) (61, -6.18297241210937500000e+002) (62, 1.50000000000000000000e+003) (63, -1.44580139160156250000e+003) (64, 1.50000000000000000000e+003) (65, 1.16499548339843750000e+003) (66, 9.47579467773437500000e+002) (67, 1.50000000000000000000e+003) (68, -1.03402380371093750000e+003) (69, -1.37083093261718750000e+003) (70, 8.33420288085937500000e+002) (0, 4.40053367614746090000e+000) (1, 2.04070901870727540000e+000) (2, 5.22224187850952150000e-001) (3, -7.73098587989807130000e-001) (4, -1.60651504993438720000e-001) (5, 4.20830577611923220000e-001) (6, -3.58297020196914670000e-001) (7, -3.40136861801147460000e+000) (8, -4.48263913393020630000e-001) (9, -4.91821914911270140000e-001) (10, 1.43794608116149900000e+000) (11, 3.93571645021438600000e-001) (12, -1.30094039440155030000e+000) (13, -2.43575429916381840000e+000) (14, -2.25906684994697570000e-001) (15, 1.13199079036712650000e+000) (16, -7.54937648773193360000e-001) (17, 1.25957572460174560000e+000) (18, -2.83103251457214360000e+000) (19, -2.84732365608215330000e+000) (20, 5.38200419396162030000e-003) (21, 2.29036831855773930000e+000) (22, -2.39736509323120120000e+000) (23, 1.98099166154861450000e-001) (24, -5.27062900364398960000e-002) (25, 2.00871038436889650000e+000) (26, 4.68274861574172970000e-001) (27, -7.49590635299682620000e-001) (28, -1.73658168315887450000e+000) (29, 5.88181316852569580000e-001) (30, -1.69938981533050540000e+000) (31, 1.75245952606201170000e+000) (32, 1.88876032829284670000e-001) (33, 1.37176585197448730000e+000) (34, 1.87174177169799800000e+000) (35, 4.80520427227020260000e-001) (36, 5.47587752342224120000e-001) (37, 3.09247684478759770000e+000) (38, -5.21678686141967770000e-001) (39, -2.75975394248962400000e+000) (40, 1.66316401958465580000e+000) (41, -3.80349278450012210000e-001) (42, 4.07058954238891600000e+000) (43, 1.77095687389373780000e+000) (44, 5.85794970393180850000e-002) (45, -4.65551204979419710000e-002) (46, 2.10625052452087400000e+000) (47, 8.05441558361053470000e-001) (48, -9.92674316406250000000e+002) (49, 1.56512786865234370000e+002) (50, -3.61616760253906250000e+002) (51, -3.54399383544921880000e+002) (52, -4.58201019287109370000e+002) (53, 1.02015090942382810000e+002) (54, -1.34498254394531250000e+003) (55, -7.27710205078125000000e+002) (56, -2.43352260589599610000e+001) (57, -4.42072784423828120000e+002) (58, -1.50000000000000000000e+003) (59, -1.50000000000000000000e+003) (60, 1.21271713256835940000e+002) (61, 1.66286300659179690000e+002) (62, -5.24479309082031250000e+002) (63, -4.25844879150390630000e+001) (64, -1.50000000000000000000e+003) (65, 2.92727935791015620000e+002) (66, -8.01302490234375000000e+001) (67, -1.50000000000000000000e+003) (68, 1.10416333007812500000e+003) (69, -2.70908020019531250000e+002) (70, -1.39166458129882810000e+002) (71, -6.81542816162109370000e+001) (0, 9.18230957031250000000e+002) (1, -1.50000000000000000000e+003) (2, -7.90799179077148440000e+001) (3, 5.03736953735351560000e+001) (4, -6.30993713378906250000e+002) (5, -1.11455764770507810000e+001) (6, -1.49832666015625000000e+003) (7, 1.39056359863281250000e+003) (8, -1.09652113914489750000e+000) (9, -1.50000000000000000000e+003) (10, 7.02224426269531250000e+002) (11, -8.92794370651245120000e-001) (12, 9.32169151306152340000e+000) (13, 1.53098907470703120000e+002) (14, -5.47873115539550780000e+001) (15, -8.19878673553466800000e+000) (16, 1.21125231933593750000e+003) (17, -3.94740104675292970000e+000) (18, 2.15511941909790040000e+000) (19, 4.01730346679687500000e+001) (20, -4.47231721878051760000e+000) (21, 6.95435256958007810000e+001) (22, 3.54402069091796870000e+002) (23, -1.52845596313476560000e+002) (24, 1.00409039306640620000e+003) (25, -1.50000000000000000000e+003) (26, -5.18936932086944580000e-001) (27, -5.84289306640625000000e+002) (28, -1.77083557128906250000e+002) (29, -9.50983619689941410000e+000) (30, -1.02199035644531250000e+002) (31, 7.21720275878906250000e+002) (32, -1.44337058067321780000e+000) (33, -7.50253295898437500000e+002) (34, 4.90378684997558590000e+001) (35, -1.44123232364654540000e+000) (36, 1.03541763305664060000e+002) (37, -7.38085021972656250000e+001) (38, -3.41229476928710940000e+001) (39, -5.34869117736816410000e+001) (40, 1.93607673645019530000e+001) (41, -2.19288587570190430000e+000) (42, 1.46490625000000000000e+003) (43, 1.56251449584960940000e+002) (44, -7.94685668945312500000e+001) (45, 9.28719116210937500000e+002) (46, -1.04221923828125000000e+003) (47, -1.78394186496734620000e+000) (48, 1.83265899658203120000e+002) (49, -3.98672607421875000000e+002) (50, -1.50000000000000000000e+003) (51, 1.50000000000000000000e+003) (52, 1.50000000000000000000e+003) (53, -1.50000000000000000000e+003) (54, 1.50000000000000000000e+003) (55, 1.50000000000000000000e+003) (56, 1.47277978515625000000e+003) (57, -6.37070434570312500000e+002) (58, -1.50000000000000000000e+003) (59, 1.50000000000000000000e+003) (60, -1.50000000000000000000e+003) (61, -4.09199951171875000000e+002) (62, -1.50000000000000000000e+003) (63, 2.34199951171875000000e+002) (64, 1.50000000000000000000e+003) (65, -1.50000000000000000000e+003) (66, 1.50000000000000000000e+003) (67, 1.53934890747070310000e+002) (68, 1.50000000000000000000e+003) (69, -1.50000000000000000000e+003) (70, -1.50000000000000000000e+003) (71, -1.50000000000000000000e+003) (72, 1.50000000000000000000e+003) (0, -1.01670527458190920000e+000) (1, -3.38271230459213260000e-001) (2, 6.08065545558929440000e-001) (3, -5.10139822959899900000e-001) (4, 6.50701463222503660000e-001) (5, -3.26708316802978520000e-001) (6, -7.42047965526580810000e-001) (7, -2.54416346549987790000e-001) (8, 2.94377744197845460000e-001) (9, -1.28480184078216550000e+000) (10, -4.12475377321243290000e-001) (11, 2.65135705471038820000e-001) (12, -2.01339626312255860000e+000) (13, 4.75765839219093320000e-002) (14, -5.85513636469841000000e-002) (15, 5.27049064636230470000e-001) (16, -1.27551615238189700000e-001) (17, -7.87203729152679440000e-001) (18, 8.26941803097724910000e-002) (19, -1.14022483825683590000e+001) (20, 1.20832395553588870000e+000) (21, 6.82272970676422120000e-001) (22, 1.04191374778747560000e+000) (23, -7.68710911273956300000e-001) (24, 1.14146280288696290000e+000) (25, 1.14260518550872800000e+000) (26, 3.14251810312271120000e-001) (27, 7.20248043537139890000e-001) (28, 1.99137008190155030000e+000) (29, 3.62102419137954710000e-001) (30, -4.95746076107025150000e-001) (31, -1.78792560100555420000e+000) (32, -6.77359879016876220000e-001) (33, 2.09405303001403810000e+000) (34, -9.01131689548492430000e-001) (35, -4.37159210443496700000e-001) (36, -2.62406587600708010000e+000) (37, 2.61766386032104490000e+000) (38, 8.50171685218811040000e-001) (39, 1.48765492439270020000e+000) (40, 2.70746278762817380000e+000) (41, 5.78880310058593750000e-001) (42, 4.29223060607910160000e+000) (43, 3.32756495475769040000e+000) (44, 5.99924027919769290000e-001) (45, -1.78537988662719730000e+000) (46, 3.47409462928771970000e+000) (47, 1.23121190071105960000e+000) (48, 7.61358141899108890000e-001) (49, 2.16423416137695310000e+000) (50, 2.97384023666381840000e+000) (51, 4.91353893280029300000e+000) (52, 4.20947265625000000000e+000) (53, -1.41602408885955810000e+000) (54, -8.50902125239372250000e-002) (55, 1.48907136917114260000e+000) (56, -1.66092269897460940000e+002) (57, -1.40460653305053710000e+001) (58, -1.50000000000000000000e+003) (59, -1.50000000000000000000e+003) (60, -1.79520446777343750000e+002) (61, 2.77949452400207520000e+000) (62, 1.33013200759887700000e+000) (63, -1.00743360519409180000e+001) (64, 1.50000000000000000000e+003) (65, 5.19255495071411130000e+000) (66, 2.78724980354309080000e+000) (67, -1.30866088867187500000e+002) (68, -2.41554985046386720000e+001) (69, -1.00685157775878910000e+001) (70, -1.67455518245697020000e+000) (71, -8.65345478057861330000e+000) (72, 1.12067908048629760000e-001) (73, -5.09063385009765620000e+002) (0, -5.11323988437652590000e-001) (1, 6.45607948303222660000e-001) (2, 8.51772904396057130000e-001) (3, -1.70293259620666500000e+000) (4, -4.40851479768753050000e-001) (5, -1.41015708446502690000e-001) (6, -5.11968016624450680000e-001) (7, -2.13800162076950070000e-001) (8, 3.39875340461730960000e-001) (9, -1.26792895793914790000e+000) (10, -5.12339496612548830000e+000) (11, -4.96742010116577150000e-001) (12, 3.35051918029785160000e+000) (13, 7.02482044696807860000e-001) (14, 2.25526895374059680000e-002) (15, 8.54134976863861080000e-001) (16, -6.47088706493377690000e-001) (17, 5.24188220500946040000e-001) (18, 1.79211780428886410000e-001) (19, 1.14988565444946290000e+000) (20, -3.28433513641357420000e-001) (21, -5.50686847418546680000e-003) (22, 1.81884551048278810000e+000) (23, 1.34955376386642460000e-001) (24, -1.06091861724853520000e+001) (25, -8.37304782867431640000e+000) (26, 7.00616687536239620000e-002) (27, 8.67716908454895020000e-001) (28, 4.76142835617065430000e+000) (29, -3.90361577272415160000e-001) (30, -5.33369970321655270000e+000) (31, -2.03408503532409670000e+000) (32, 4.50965881347656250000e-001) (33, 1.77318179607391360000e+000) (34, 1.88767742365598680000e-002) (35, 9.43673610687255860000e-001) (36, -1.45668610930442810000e-001) (37, 2.21111226081848140000e+000) (38, 1.60722300410270690000e-001) (39, 2.79389142990112300000e+000) (40, 3.37096285820007320000e+000) (41, 7.63267338275909420000e-001) (42, 1.81478083133697510000e+000) (43, 2.54288816452026370000e+000) (44, -9.73849296569824220000e-001) (45, 1.93288767337799070000e+000) (46, 3.36001515388488770000e+000) (47, 5.60092091560363770000e-001) (48, -2.64612579345703130000e+000) (49, 4.91411304473876950000e+000) (50, 2.83319926261901860000e+000) (51, 2.19565248489379880000e+000) (52, 1.79471719264984130000e+000) (53, 2.49953727722167970000e+001) (54, 1.31617629528045650000e+000) (55, 8.73795568943023680000e-001) (56, 5.03758847713470460000e-001) (57, -3.03987640380859370000e+002) (58, -1.46117187500000000000e+003) (59, -1.50000000000000000000e+003) (60, -1.38855543136596680000e+001) (61, 1.61850500106811520000e+000) (62, 2.20195531845092770000e+000) (63, -1.54993116855621340000e+000) (64, -1.13895214843750000000e+003) (65, -3.69674831628799440000e-001) (66, 2.27242469787597660000e+000) (67, -8.23430061340332030000e+000) (68, 4.12664003670215610000e-002) (69, -1.53144721984863280000e+001) (70, 1.67472851276397710000e+000) (71, 6.11889362335205080000e-001) (72, -5.52063083648681640000e+000) (73, -1.50000000000000000000e+003) (74, 7.05026397705078130000e+001) (0, -4.23071950674057010000e-001) (1, -1.04371272027492520000e-001) (2, -7.07421779632568360000e-001) (3, -9.04136180877685550000e-001) (4, -1.45643930882215500000e-002) (5, -7.99569249153137210000e-001) (6, -1.51604235172271730000e+000) (7, -2.67418622970581050000e+000) (8, -3.36581230163574220000e-001) (9, -1.70064806938171390000e+000) (10, -2.46958589553833010000e+000) (11, 9.12899851799011230000e-001) (12, -9.91945385932922360000e-001) (13, 3.19135491736233230000e-003) (14, 1.04634031653404240000e-001) (15, 1.43440127372741700000e+000) (16, -4.26064133644104000000e-001) (17, 8.21271717548370360000e-001) (18, 2.21352785825729370000e-001) (19, -1.44056880474090580000e+000) (20, 1.07884073257446290000e+000) (21, 2.38277769088745120000e+000) (22, 1.22080826759338380000e+000) (23, -9.09380197525024410000e-001) (24, 5.53917348384857180000e-001) (25, -1.72913551330566410000e-001) (26, 3.53974401950836180000e-001) (27, 1.63334918022155760000e+000) (28, -8.70876573026180270000e-003) (29, 6.97369039058685300000e-001) (30, -1.26489996910095210000e+000) (31, -2.07281684875488280000e+000) (32, -6.94415926933288570000e-001) (33, 1.03762149810791020000e+000) (34, -2.24224114418029790000e+000) (35, -4.68884795904159550000e-001) (36, -3.64933180809021000000e+000) (37, 3.02060341835021970000e+000) (38, 8.79437565803527830000e-001) (39, 1.91305589675903320000e+000) (40, 2.12896180152893070000e+000) (41, 9.27617073059082030000e-001) (42, 2.42677712440490720000e+000) (43, 2.51499366760253910000e+000) (44, -3.86153221130371090000e-001) (45, -6.50448381900787350000e-001) (46, 3.03658962249755860000e+000) (47, 9.81325924396514890000e-001) (48, -1.11949956417083740000e+000) (49, 2.65001225471496580000e+000) (50, -1.77438125610351560000e+001) (51, 3.13781166076660160000e+000) (52, -5.88523000478744510000e-002) (53, 2.18714599609375000000e+001) (54, -2.48527789115905760000e+000) (55, 3.60708355903625490000e-001) (56, 5.97705423831939700000e-001) (57, 5.73365867137908940000e-001) (58, -4.46823387145996090000e+001) (59, -1.00118634033203120000e+003) (60, -4.59412460327148440000e+001) (61, 3.66039872169494630000e+000) (62, 2.13157629966735840000e+000) (63, -4.04217185974121090000e+001) (64, -1.89869766235351560000e+001) (65, 2.88407802581787110000e-001) (66, -1.80635917186737060000e+000) (67, -3.09809863567352290000e-001) (68, 3.69818776845932010000e-001) (69, -1.63484649658203120000e+001) (70, 1.46982538700103760000e+000) (71, 8.70039939880371090000e+000) (72, -2.76536315679550170000e-001) (73, 5.09275627136230470000e+000) (74, -1.50000000000000000000e+003) (75, 2.62606889009475710000e-001) (0, -1.17305444335937500000e+003) (1, -8.04883117675781250000e+002) (2, -4.12227134704589840000e+001) (3, -1.20764846801757810000e+002) (4, 3.06690001487731930000e+000) (5, -3.32901649475097660000e+001) (6, 8.35842704772949220000e+000) (7, 2.06880989074707030000e+001) (8, -3.45423011779785160000e+001) (9, 1.54961013793945310000e+000) (10, 1.47903118133544920000e+001) (11, 5.73369741439819340000e-001) (12, -1.83743835449218750000e+002) (13, 3.26915245056152340000e+001) (14, -1.38502092361450200000e+001) (15, 1.16678488254547120000e+000) (16, 2.24752092361450200000e+000) (17, -3.52584495544433590000e+001) (18, 5.99427700042724610000e+000) (19, 6.67912414550781250000e+002) (20, -3.41520042419433590000e+001) (21, 3.09614944458007810000e+000) (22, 1.02873632812500000000e+003) (23, -1.83957424163818360000e+001) (24, 2.24332931518554690000e+002) (25, 9.51140761375427250000e-001) (26, -1.63334333896636960000e+000) (27, 1.50000000000000000000e+003) (28, -1.66946430206298830000e+001) (29, -6.40488100051879880000e+000) (30, 3.94597534179687500000e+002) (31, -1.17822370529174800000e+001) (32, -3.70803570747375490000e+000) (33, 4.70121097564697270000e+000) (34, -9.77314376831054690000e+000) (35, 2.36175358295440670000e-001) (36, 3.55475020408630370000e+000) (37, -6.12598083496093750000e+002) (38, -7.78038203716278080000e-002) (39, -9.58512451171875000000e+002) (40, -1.92805309295654300000e+001) (41, 1.50412678718566890000e-001) (42, -9.47332572937011720000e+000) (43, -1.10419833660125730000e+000) (44, -7.19805192947387700000e+000) (45, 4.63602638244628910000e+000) (46, -7.81207962036132810000e+001) (47, -4.04681712388992310000e-001) (48, 8.92852687835693360000e+000) (49, -1.50000000000000000000e+003) (50, -1.50000000000000000000e+003) (51, 8.39694824218750000000e+002) (52, -1.50000000000000000000e+003) (53, 1.50000000000000000000e+003) (54, -1.50000000000000000000e+003) (55, 1.50000000000000000000e+003) (56, 1.35055444335937500000e+003) (57, -1.32869311523437500000e+003) (58, -1.50000000000000000000e+003) (59, -1.50000000000000000000e+003) (60, -1.50000000000000000000e+003) (61, -1.50000000000000000000e+003) (62, 1.30873986816406250000e+003) (63, -6.69588195800781250000e+002) (64, -1.50000000000000000000e+003) (65, -1.37309295654296870000e+002) (66, 3.52799682617187500000e+002) (67, -8.12870788574218750000e+001) (68, 1.30658239746093750000e+003) (69, -1.48444799804687500000e+003) (70, -5.97420959472656250000e+001) (71, 1.50000000000000000000e+003) (72, -6.95082336425781250000e+002) (73, 1.50000000000000000000e+003) (74, -1.50000000000000000000e+003) (75, 3.33022499084472660000e+000) (76, -1.50000000000000000000e+003) (0, 6.91334962844848630000e-001) (1, -4.82888488769531250000e+001) (2, -4.58148449659347530000e-001) (3, 1.84455788135528560000e+000) (4, -1.03687882423400880000e+000) (5, -1.90160628408193590000e-002) (6, -8.70810806751251220000e-001) (7, -5.86927223205566410000e+000) (8, -4.93588179349899290000e-001) (9, -4.95242500305175780000e+000) (10, 2.16507077217102050000e-001) (11, 9.75298643112182620000e-001) (12, 7.32172155380249020000e+000) (13, -7.55780488252639770000e-002) (14, 3.37849289178848270000e-001) (15, 3.96543073654174800000e+000) (16, -6.37673512101173400000e-002) (17, -2.57522433996200560000e-001) (18, 2.60407567024230960000e+000) (19, -2.14712336659431460000e-001) (20, -8.85637044906616210000e-001) (21, 1.39072433114051820000e-001) (22, 8.90174865722656250000e-001) (23, -3.87370735406875610000e-001) (24, 2.70601201057434080000e+000) (25, 6.67327523231506350000e-001) (26, -8.88457536697387700000e-001) (27, -2.57302522659301760000e-001) (28, 3.16377868652343750000e+001) (29, 1.04236876964569090000e+000) (30, -2.33502120971679690000e+001) (31, -1.05020213127136230000e+000) (32, 1.09950923919677730000e+000) (33, -1.17791519165039060000e+001) (34, -1.22642934322357180000e+000) (35, 3.95743161439895630000e-001) (36, 3.23610472679138180000e+000) (37, 2.08576512336730960000e+000) (38, 1.36559963226318360000e+000) (39, -5.96421289443969730000e+000) (40, 2.15665841102600100000e+000) (41, 1.15147829055786130000e+000) (42, -3.55465149879455570000e+000) (43, 2.93870639801025390000e+000) (44, -7.06822395324707030000e-001) (45, 1.95970082283020020000e+000) (46, 2.04266691207885740000e+000) (47, -4.84951615333557130000e-001) (48, 3.82951736450195310000e-001) (49, -1.49205578613281250000e+003) (50, -1.48451367187500000000e+003) (51, 8.82963623046875000000e+002) (52, -2.88620819091796870000e+002) (53, 2.55725193023681640000e+000) (54, 3.78064304590225220000e-001) (55, 7.05461608886718750000e+002) (56, -5.00548286437988280000e+001) (57, 6.30335867404937740000e-001) (58, 1.50000000000000000000e+003) (59, -1.45507202148437500000e+003) (60, -1.48096875000000000000e+003) (61, -1.48096875000000000000e+003) (62, -8.26973080635070800000e-001) (63, -6.77539428710937500000e+002) (64, -1.48096875000000000000e+003) (65, -2.95058393478393550000e+000) (66, -2.11393356323242190000e+001) (67, -2.39222192764282230000e+000) (68, 2.16942000389099120000e+000) (69, 5.76572692871093750000e+002) (70, 2.74022960662841800000e+000) (71, -1.12621899414062500000e+003) (72, 9.24597263336181640000e-001) (73, 1.48660742187500000000e+003) (74, -1.48096875000000000000e+003) (75, 1.46373107910156250000e+003) (76, -1.48096875000000000000e+003) (77, 1.50000000000000000000e+003) (0, 1.89956879615783690000e+000) (1, -5.94583082199096680000e+000) (2, -5.52251815795898440000e-001) (3, -1.08120191097259520000e+000) (4, -5.66021144390106200000e-001) (5, -1.37552162632346150000e-002) (6, -2.92094916105270390000e-001) (7, 2.39124730229377750000e-001) (8, 7.10479021072387700000e-001) (9, -1.47307562828063960000e+000) (10, 3.37755942344665530000e+000) (11, -5.06803989410400390000e-001) (12, -2.91115622967481610000e-002) (13, 2.62444567680358890000e+000) (14, 6.10586881637573240000e-001) (15, 2.49038577079772950000e+000) (16, -1.82020878791809080000e+000) (17, -5.62543809413909910000e-001) (18, -1.20113325119018550000e+000) (19, 6.76258206367492680000e-001) (20, 1.24228227138519290000e+000) (21, 3.03147697448730470000e+000) (22, 7.36509680747985840000e-001) (23, -1.32752895355224610000e-001) (24, 1.15756440162658690000e+000) (25, 2.46136641502380370000e+000) (26, -5.38074254989624020000e-001) (27, 7.74775171279907230000e+000) (28, 2.07083740234375000000e+001) (29, 7.22220599651336670000e-001) (30, -1.82249794006347660000e+001) (31, -1.69329242706298830000e+001) (32, -5.42921304702758790000e-001) (33, 2.43228301405906680000e-001) (34, -2.12980804443359370000e+001) (35, 1.14499688148498540000e+000) (36, 1.54497444629669190000e+000) (37, 1.08096134662628170000e+000) (38, -5.61346888542175290000e-001) (39, -6.25680834054946900000e-002) (40, 9.91282999515533450000e-001) (41, 2.29979246854782100000e-001) (42, 2.14125061035156250000e+000) (43, 3.15253710746765140000e+000) (44, 8.19049358367919920000e-001) (45, -1.05252921581268310000e+000) (46, 4.31905865669250490000e-001) (47, 7.40248799324035640000e-001) (48, 5.84667907714843750000e+002) (49, -1.50000000000000000000e+003) (50, -1.50000000000000000000e+003) (51, 1.34822558593750000000e+003) (52, -8.90757934570312500000e+002) (53, 1.23978247070312500000e+003) (54, 1.19598120117187500000e+003) (55, -5.60964416503906250000e+002) (56, 1.22839721679687500000e+003) (57, 9.50625610351562500000e+001) (58, 1.50000000000000000000e+003) (59, 1.50000000000000000000e+003) (60, -1.50000000000000000000e+003) (61, -1.50000000000000000000e+003) (62, 1.98390289306640620000e+002) (63, -8.20315246582031250000e+002) (64, 1.50000000000000000000e+003) (65, -2.21519832611083980000e+001) (66, -1.50000000000000000000e+003) (67, 8.09469482421875000000e+002) (68, 8.12079406738281250000e+002) (69, 2.16707199096679690000e+002) (70, 1.17995178222656250000e+003) (71, -2.52902313232421870000e+002) (72, 1.21503015136718750000e+003) (73, 1.50000000000000000000e+003) (74, -1.03941345214843750000e+002) (75, 1.05345397949218750000e+003) (76, -1.50000000000000000000e+003) (77, 1.50000000000000000000e+003) (78, 1.50000000000000000000e+003) (0, -5.44179618358612060000e-001) (1, -3.23125720024108890000e-001) (2, 4.26857382059097290000e-001) (3, 3.09445053339004520000e-001) (4, -5.23259341716766360000e-001) (5, -2.91017204523086550000e-001) (6, -4.52927559614181520000e-001) (7, -4.64644527435302730000e+000) (8, 3.27887326478958130000e-001) (9, -6.43397569656372070000e-001) (10, 1.84446334838867190000e+000) (11, -4.49837138876318930000e-003) (12, 6.35303795337677000000e-001) (13, -1.22559461593627930000e+001) (14, 1.09992873668670650000e+000) (15, 1.94158875942230220000e+000) (16, -8.87446522712707520000e-001) (17, -5.37038207054138180000e-001) (18, -1.16454437375068660000e-001) (19, -2.58731341361999510000e+000) (20, 1.61181747913360600000e-001) (21, 2.67689561843872070000e+000) (22, -2.91971826553344730000e+000) (23, 2.58550494909286500000e-002) (24, 4.10190880298614500000e-001) (25, 4.09577560424804690000e+000) (26, -5.21810591220855710000e-001) (27, -2.28204798698425290000e+000) (28, 3.57223653793334960000e+000) (29, 1.19671583175659180000e+000) (30, 9.23207581043243410000e-001) (31, 1.60811030864715580000e+000) (32, -8.68181362748146060000e-002) (33, 2.15832877159118650000e+000) (34, 3.58521866798400880000e+000) (35, 4.57214504480361940000e-001) (36, 7.85854697227478030000e-001) (37, 3.22016239166259770000e+000) (38, 9.22167539596557620000e-001) (39, 1.32503545284271240000e+000) (40, 2.96850609779357910000e+000) (41, -6.70182824134826660000e-001) (42, 2.66000962257385250000e+000) (43, 3.73517417907714840000e+000) (44, 1.02129292488098140000e+000) (45, -1.07553803920745850000e+000) (46, 3.69504380226135250000e+000) (47, 7.53554701805114750000e-002) (48, -3.01971459388732910000e+000) (49, 3.28953552246093750000e+000) (50, 7.95435190200805660000e-001) (51, 2.83109164237976070000e+000) (52, 3.08755946159362790000e+000) (53, 3.30074763298034670000e+000) (54, -7.12736845016479490000e-001) (55, 4.68397235870361330000e+000) (56, -3.00693130493164060000e+001) (57, 1.17088520526885990000e+000) (58, -1.50000000000000000000e+003) (59, -1.50000000000000000000e+003) (60, 4.28659248352050780000e+000) (61, 1.10980319976806640000e+001) (62, 6.24984979629516600000e-001) (63, -1.40980697631835940000e+002) (64, -1.50000000000000000000e+003) (65, 3.31541228294372560000e+000) (66, -7.22144305706024170000e-001) (67, -6.49847946166992190000e+001) (68, -4.09152252197265620000e+002) (69, 1.97120451927185060000e+000) (70, 4.13972717285156250000e+002) (71, 5.71220040321350100000e-001) (72, -1.24541564941406250000e+002) (73, -1.38631408691406250000e+002) (74, 6.94547986984252930000e+000) (75, 8.99614274501800540000e-001) (76, -1.43287414550781250000e+003) (77, -1.50000000000000000000e+003) (78, -1.85670661926269530000e+000) (79, -1.44354665279388430000e+000) (0, 6.35501937866210940000e+001) (1, 1.21961212158203130000e+001) (2, 4.96065437793731690000e-001) (3, -2.38912761211395260000e-001) (4, -1.71634662151336670000e+000) (5, -2.10791647434234620000e-001) (6, -3.25298357009887700000e+000) (7, -4.81113100051879880000e+000) (8, 1.17697703838348390000e+000) (9, 3.19024264812469480000e-001) (10, 1.87604379653930660000e+000) (11, -2.67600603401660920000e-002) (12, 1.35856342315673830000e+000) (13, -1.15023636817932130000e+000) (14, 2.24225902557373050000e+000) (15, -1.63219809532165530000e+000) (16, -4.76848888397216800000e+000) (17, -3.48093926906585690000e-001) (18, 1.48139488697052000000e+000) (19, -3.19157943725585940000e+001) (20, -1.52757391333580020000e-001) (21, -2.21709156036376950000e+001) (22, -4.10072975158691410000e+001) (23, 6.27737522125244140000e+000) (24, -4.09479677677154540000e-001) (25, 9.24811065196990970000e-001) (26, 2.12861672043800350000e-001) (27, -2.16663150787353520000e+001) (28, 2.27755908966064450000e+001) (29, -3.18374663591384890000e-001) (30, -1.16936393082141880000e-001) (31, 2.61611413955688480000e+000) (32, 8.65621745586395260000e-001) (33, 1.40213775634765620000e+000) (34, 2.27856273651123050000e+001) (35, 7.45920836925506590000e-001) (36, -4.97768193483352660000e-001) (37, 2.18309164047241210000e+000) (38, 8.94332706928253170000e-001) (39, -3.05523931980133060000e-001) (40, 1.57116782665252690000e+000) (41, 2.21752613782882690000e-001) (42, 9.21585273742675780000e+000) (43, 5.81995439529418950000e+000) (44, -4.19803738594055180000e-001) (45, -2.05384273529052730000e+001) (46, 2.39383850097656250000e+001) (47, 1.09111952781677250000e+000) (48, -1.03086082458496090000e+002) (49, 1.19617077636718750000e+003) (50, 1.50000000000000000000e+003) (51, -1.50000000000000000000e+003) (52, -9.24535949707031250000e+002) (53, 1.50000000000000000000e+003) (54, 1.50000000000000000000e+003) (55, -1.50000000000000000000e+003) (56, -1.50000000000000000000e+003) (57, -1.50000000000000000000e+003) (58, -1.50000000000000000000e+003) (59, -1.50000000000000000000e+003) (60, 1.95848541259765620000e+002) (61, -1.50000000000000000000e+003) (62, -3.61199249267578120000e+002) (63, 6.73193664550781250000e+001) (64, -1.50000000000000000000e+003) (65, -4.76400970458984370000e+002) (66, -9.83652709960937500000e+002) (67, -1.50000000000000000000e+003) (68, -5.27954040527343750000e+002) (69, -1.22082934570312500000e+003) (70, 4.71645141601562500000e+002) (71, -6.12174606323242190000e+000) (72, -5.68599060058593750000e+002) (73, -1.50000000000000000000e+003) (74, -1.50000000000000000000e+003) (75, 1.04372216796875000000e+003) (76, -1.00041485595703120000e+003) (77, -1.50000000000000000000e+003) (78, -1.50000000000000000000e+003) (79, 2.95455841064453120000e+002) (80, -5.67377258300781250000e+002) (0, 8.78423309326171870000e+000) (1, 2.05980777740478520000e+000) (2, 5.13193786144256590000e-001) (3, -7.63369083404541020000e-001) (4, -7.29681372642517090000e-001) (5, -4.45969313383102420000e-001) (6, -1.30959331989288330000e+000) (7, -4.23601818084716800000e+000) (8, 6.80389583110809330000e-001) (9, -1.06194746494293210000e+000) (10, 5.83285748958587650000e-001) (11, -3.36942076683044430000e-001) (12, 1.62840712070465090000e+000) (13, -7.55166590213775630000e-001) (14, 1.02663815021514890000e+000) (15, 1.21719574928283690000e+000) (16, -4.41094309091567990000e-001) (17, -5.59428483247756960000e-002) (18, 1.35485839843750000000e+000) (19, -4.28554391860961910000e+000) (20, 1.22739568352699280000e-001) (21, 4.01097655296325680000e-001) (22, -3.30887947082519530000e+001) (23, 1.06762063503265380000e+000) (24, 1.58730649948120120000e+000) (25, 1.82078151702880860000e+001) (26, 4.83164370059967040000e-001) (27, -1.12946538925170900000e+001) (28, 1.58201198577880860000e+001) (29, 5.12793183326721190000e-001) (30, -7.60747909545898440000e-001) (31, 1.08198153972625730000e+000) (32, -4.06765416264534000000e-002) (33, 1.31416976451873780000e+000) (34, 2.27194142341613770000e+000) (35, -2.12330728769302370000e-001) (36, -7.13564991950988770000e-001) (37, 8.99957418441772460000e-001) (38, 2.95880049467086790000e-001) (39, 7.86871254444122310000e-001) (40, 1.19751119613647460000e+000) (41, 4.28761810064315800000e-001) (42, 3.54919481277465820000e+000) (43, 3.66763114929199220000e+000) (44, 8.11636447906494140000e-001) (45, -9.16769921779632570000e-001) (46, 3.22328019142150880000e+000) (47, 7.34422206878662110000e-001) (48, -2.10687427520751950000e+001) (49, 1.03477249145507810000e+001) (50, 1.42183898925781250000e+003) (51, 2.73452178955078120000e+002) (52, 9.45376220703125000000e+002) (53, -4.53560829162597660000e+001) (54, -1.50000000000000000000e+003) (55, -7.51806945800781250000e+002) (56, -5.74036598205566410000e+000) (57, -9.54906921386718750000e+001) (58, -1.50000000000000000000e+003) (59, -1.50000000000000000000e+003) (60, 1.18428198242187500000e+003) (61, 8.37291812896728520000e+000) (62, -7.02355468750000000000e+002) (63, 9.43989257812500000000e+002) (64, -1.44500000000000000000e+003) (65, 2.83589038848876950000e+001) (66, 1.18479003906250000000e+003) (67, 1.36609527587890630000e+002) (68, -1.30759716796875000000e+003) (69, -6.89969329833984370000e+001) (70, -9.19653564453125000000e+002) (71, -9.45542968750000000000e+002) (72, -1.50000000000000000000e+003) (73, 1.42517578125000000000e+003) (74, 2.43988922119140630000e+002) (75, -8.60663024902343750000e+002) (76, -3.42970458984375000000e+002) (77, -9.44121154785156250000e+002) (78, -3.89625511169433590000e+001) (79, 1.42583349609375000000e+003) (80, 1.18405102539062500000e+003) (81, 1.73194825649261470000e-001) (0, 9.93493843078613280000e+000) (1, 3.86692309379577640000e+000) (2, -8.13326835632324220000e-002) (3, 1.89378127455711360000e-001) (4, -1.70664638280868530000e-001) (5, 2.67054677009582520000e-001) (6, -1.45895802974700930000e+000) (7, -1.69619929790496830000e+000) (8, -1.11313708126544950000e-001) (9, 2.70602852106094360000e-001) (10, 6.02607369422912600000e-001) (11, 9.81453955173492430000e-001) (12, 3.39567065238952640000e-001) (13, -8.60383415222167970000e+000) (14, -1.02599980309605600000e-002) (15, 1.90086960792541500000e-001) (16, -2.38873815536499020000e+000) (17, -2.47002944350242610000e-001) (18, -4.56785440444946290000e-001) (19, -3.90278029441833500000e+000) (20, 7.30576634407043460000e-001) (21, -6.07603132724761960000e-001) (22, -2.99658412933349610000e+001) (23, 4.50481086969375610000e-001) (24, -4.15987348556518550000e+000) (25, 1.67577397823333740000e+000) (26, -2.85487323999404910000e-001) (27, 1.24187207221984860000e+000) (28, 1.58194315433502200000e+000) (29, 1.47139266133308410000e-001) (30, -3.84248733520507810000e-001) (31, 1.68464553356170650000e+000) (32, -3.06938320398330690000e-001) (33, -3.26867938041687010000e+000) (34, 2.65693988800048830000e+001) (35, 5.25292217731475830000e-001) (36, 9.17991101741790770000e-002) (37, 1.05945611000061040000e+000) (38, 6.10363435745239260000e+000) (39, -3.50861884653568270000e-002) (40, 6.20269107818603520000e+000) (41, 4.85793322324752810000e-001) (42, 6.00299644470214840000e+000) (43, 4.37026405334472660000e+000) (44, 1.00062203407287600000e+000) (45, 3.04605662822723390000e-001) (46, 6.46687698364257810000e+000) (47, 8.49143445491790770000e-001) (48, -1.50000000000000000000e+003) (49, 1.50000000000000000000e+003) (50, 1.50000000000000000000e+003) (51, -6.27469421386718750000e+002) (52, 2.49092422485351560000e+002) (53, 8.24287658691406250000e+002) (54, -1.50000000000000000000e+003) (55, -9.33203002929687500000e+002) (56, -2.97148156166076660000e+000) (57, -7.32960937500000000000e+002) (58, -1.50000000000000000000e+003) (59, -1.50000000000000000000e+003) (60, 1.50000000000000000000e+003) (61, 2.69084262847900390000e+001) (62, 5.25863891601562500000e+002) (63, -7.90215576171875000000e+002) (64, -1.50000000000000000000e+003) (65, -1.28943066406250000000e+003) (66, -4.10284973144531250000e+002) (67, -1.50000000000000000000e+003) (68, -1.50000000000000000000e+003) (69, -4.13392791748046870000e+002) (70, -9.51820373535156250000e+002) (71, 1.50000000000000000000e+003) (72, -1.23064819335937500000e+003) (73, 1.50000000000000000000e+003) (74, -1.50000000000000000000e+003) (75, 1.50000000000000000000e+003) (76, -1.50000000000000000000e+003) (77, -1.50000000000000000000e+003) (78, -1.50000000000000000000e+003) (79, 1.50000000000000000000e+003) (80, -1.50000000000000000000e+003) (81, -6.93460632324218750000e+002) (82, -1.20940155029296870000e+002) (0, 9.79836702346801760000e-001) (1, 3.04157466888427730000e+001) (2, 1.73289549350738530000e+000) (3, -1.80349493026733400000e+000) (4, 1.54381787776947020000e+000) (5, 9.01996567845344540000e-002) (6, 7.07041978836059570000e+000) (7, -5.54204988479614260000e+000) (8, 2.45715547353029250000e-002) (9, 3.01151218414306640000e+001) (10, 1.13238942623138430000e+000) (11, 8.27931761741638180000e-001) (12, 2.84993577003479000000e+000) (13, -9.89211368560791020000e+000) (14, 5.58792352676391600000e-001) (15, -1.41195166110992430000e+000) (16, -1.47966051101684570000e+000) (17, 1.10129535198211670000e+000) (18, 1.19450366497039790000e+000) (19, -3.12819194793701170000e+001) (20, 1.11502480506896970000e+000) (21, 1.23391616344451900000e+000) (22, -1.54308423995971680000e+001) (23, 1.49632632732391360000e+000) (24, 1.14804553985595700000e+000) (25, 1.17157993316650390000e+001) (26, 1.09477710723876950000e+000) (27, -1.55878009796142580000e+001) (28, -1.15599908828735350000e+001) (29, 5.37458300590515140000e-001) (30, 3.09059619903564450000e+000) (31, 4.25179183483123780000e-001) (32, -3.93085777759552000000e-001) (33, 1.62765674591064450000e+001) (34, 1.29671025276184080000e+000) (35, -9.83431339263916020000e-002) (36, -1.54193913936614990000e+000) (37, 3.69481925964355470000e+001) (38, 1.14014700055122380000e-001) (39, -1.65856895446777340000e+001) (40, -8.43384552001953130000e+000) (41, 3.38111400604248050000e-001) (42, -3.98176360130310060000e+000) (43, 1.55420708656311040000e+000) (44, -3.61041277647018430000e-001) (45, -1.92291927337646480000e+001) (46, 1.27205715179443360000e+001) (47, -2.96011239290237430000e-001) (48, -4.07071151733398440000e+001) (49, 1.29663708496093750000e+003) (50, 1.20652380371093750000e+003) (51, 2.85317138671875000000e+002) (52, -1.50000000000000000000e+003) (53, 1.47017358398437500000e+003) (54, 5.81554016113281250000e+002) (55, -1.13877404785156250000e+003) (56, -1.50000000000000000000e+003) (57, -1.27572033691406250000e+003) (58, -1.50000000000000000000e+003) (59, -1.50000000000000000000e+003) (60, 1.50000000000000000000e+003) (61, 9.08650268554687500000e+002) (62, -1.50000000000000000000e+003) (63, 5.74855834960937500000e+002) (64, -1.50000000000000000000e+003) (65, 2.39622314453125000000e+002) (66, -9.66772216796875000000e+002) (67, -1.50000000000000000000e+003) (68, -1.50000000000000000000e+003) (69, -1.50000000000000000000e+003) (70, 1.39080004882812500000e+003) (71, 8.14840332031250000000e+002) (72, 4.43266021728515620000e+002) (73, -1.29440429687500000000e+003) (74, -1.50000000000000000000e+003) (75, -1.50000000000000000000e+003) (76, -1.50000000000000000000e+003) (77, -1.50000000000000000000e+003) (78, 1.50000000000000000000e+003) (79, 1.20643762207031250000e+003) (80, -1.50000000000000000000e+003) (81, -7.81075317382812500000e+002) (82, 5.70781555175781250000e+002) (83, 1.05531860351562500000e+003) (0, 5.20357847213745120000e-001) (1, 1.53925859928131100000e+000) (2, 6.28800868988037110000e-001) (3, 2.33474850654602050000e+000) (4, 9.80470955371856690000e-001) (5, -5.15972971916198730000e-001) (6, 1.52522730827331540000e+000) (7, -2.30647754669189450000e+000) (8, 1.29238283634185790000e+000) (9, 4.49011516571044920000e+000) (10, 1.02147948741912840000e+000) (11, 6.02256119251251220000e-001) (12, 2.18848800659179690000e+000) (13, 1.79047501087188720000e+000) (14, -6.06728434562683110000e-001) (15, 2.07197618484497070000e+000) (16, 1.62911725044250490000e+000) (17, -1.25305700302124020000e+000) (18, 1.09789586067199710000e+000) (19, -3.07687854766845700000e+000) (20, 1.20172333717346190000e+000) (21, -1.00137643814086910000e+001) (22, -7.85547876358032230000e+000) (23, 1.09950304031372070000e+000) (24, 9.63428974151611330000e-001) (25, -3.72083973884582520000e+000) (26, -1.92486584186553960000e-001) (27, -9.94915103912353520000e+000) (28, -4.72706222534179690000e+000) (29, -9.27202701568603520000e-001) (30, 1.84660732746124270000e+000) (31, -2.04991512000560760000e-002) (32, -8.29239338636398320000e-002) (33, -7.17345118522644040000e-001) (34, 1.46131014823913570000e+000) (35, -1.20079830288887020000e-001) (36, 1.93624481558799740000e-001) (37, 2.95468783378601070000e+000) (38, -1.84688493609428410000e-001) (39, 9.98815250396728520000e+000) (40, 5.65898418426513670000e+000) (41, -1.03418087959289550000e+000) (42, -5.19828033447265620000e+000) (43, 3.82866430282592770000e+000) (44, -1.27425956726074220000e+000) (45, -8.01198959350585940000e-001) (46, 2.87445855140686040000e+000) (47, 6.09040737152099610000e-001) (48, -4.98588234186172490000e-001) (49, 1.15505542755126950000e+001) (50, 3.08732390403747560000e+000) (51, -5.75010105967521670000e-002) (52, 3.91721391677856450000e+000) (53, -4.83251476287841800000e+000) (54, 8.78279268741607670000e-001) (55, 8.00812244415283200000e+000) (56, -1.57608709335327150000e+001) (57, -3.01651031494140620000e+002) (58, -1.53044033050537110000e+001) (59, -1.50000000000000000000e+003) (60, 1.50000000000000000000e+003) (61, -1.21603517532348630000e+001) (62, -7.40581741333007810000e+001) (63, 3.01805438995361330000e+001) (64, -3.19958324432373050000e+001) (65, 3.41108846664428710000e+000) (66, 1.74476838111877440000e+000) (67, 1.75479090213775630000e+000) (68, -1.50000000000000000000e+003) (69, -7.61205322265625000000e+002) (70, 8.72711956501007080000e-001) (71, 1.76524174213409420000e+000) (72, 2.05683922767639160000e+000) (73, 7.48908630371093750000e+002) (74, -5.82701660156250000000e+002) (75, -1.50000000000000000000e+003) (76, -1.50000000000000000000e+003) (77, -1.50000000000000000000e+003) (78, -1.90390574932098390000e+000) (79, -5.12282562255859370000e+001) (80, -3.91456580162048340000e+000) (81, -4.42205566406250000000e+002) (82, -2.02081756591796880000e+001) (83, -4.70145082473754880000e+000) (84, 4.24135303497314450000e+000) (0, 1.50000000000000000000e+003) (1, 4.34358093261718750000e+002) (2, 7.51244049072265630000e+001) (3, 8.68090515136718750000e+002) (4, 1.83864883422851560000e+002) (5, 3.06298999786376950000e+001) (6, -6.04901962280273440000e+001) (7, 3.15892028808593750000e+002) (8, 3.09286937713623050000e+001) (9, 1.50000000000000000000e+003) (10, 1.98544189453125000000e+002) (11, 1.47825498580932620000e+001) (12, 4.34531517028808590000e+001) (13, -2.49617492675781250000e+002) (14, 1.83685806274414060000e+002) (15, -7.55931015014648440000e+001) (16, 9.82983856201171870000e+001) (17, 2.75055146217346190000e+000) (18, 6.51836109161376950000e+000) (19, -1.50000000000000000000e+003) (20, 1.42259397506713870000e+001) (21, -1.50000000000000000000e+003) (22, -1.50000000000000000000e+003) (23, 7.50587234497070310000e+001) (24, 1.13515716552734370000e+002) (25, -4.87790451049804690000e+001) (26, 3.36957321166992190000e+001) (27, -1.50000000000000000000e+003) (28, -1.47500000000000000000e+003) (29, 1.39189219474792480000e+000) (30, 2.11783485412597660000e+001) (31, 1.34635485839843750000e+003) (32, 3.45555877685546870000e+001) (33, 2.40839451551437380000e-001) (34, 7.49028198242187500000e+002) (35, -8.95996242761611940000e-002) (36, 5.06392898559570310000e+001) (37, 1.43240148925781250000e+003) (38, 3.35482621192932130000e+000) (39, 5.14372619628906250000e+002) (40, 9.59896484375000000000e+002) (41, 2.12012815475463870000e+000) (42, -4.39658721923828130000e+002) (43, 2.02068767547607420000e+001) (44, 1.07883059978485110000e+000) (45, -5.00608581542968750000e+002) (46, 3.95792572021484370000e+002) (47, 1.95599472522735600000e+000) (48, -7.01894402503967290000e-001) (49, 1.50000000000000000000e+003) (50, 1.50000000000000000000e+003) (51, -1.03720581054687500000e+003) (52, -1.50000000000000000000e+003) (53, -1.50000000000000000000e+003) (54, 4.48608764648437500000e+002) (55, -3.09199951171875000000e+002) (56, -1.50000000000000000000e+003) (57, -1.50000000000000000000e+003) (58, -1.50000000000000000000e+003) (59, -1.50000000000000000000e+003) (60, 1.50000000000000000000e+003) (61, -1.50000000000000000000e+003) (62, -1.50000000000000000000e+003) (63, -1.50000000000000000000e+003) (64, -1.50000000000000000000e+003) (65, 1.50000000000000000000e+003) (66, 5.66000976562500000000e+001) (67, 1.02237573242187500000e+003) (68, -1.50000000000000000000e+003) (69, -1.50000000000000000000e+003) (70, -1.50000000000000000000e+003) (71, -1.50000000000000000000e+003) (72, 7.15800048828125000000e+002) (73, 1.50000000000000000000e+003) (74, -1.50000000000000000000e+003) (75, -1.50000000000000000000e+003) (76, -1.50000000000000000000e+003) (77, -1.50000000000000000000e+003) (78, 1.50000000000000000000e+003) (79, -1.50000000000000000000e+003) (80, -1.50000000000000000000e+003) (81, 1.35428100585937500000e+003) (82, 1.50000000000000000000e+003) (83, 1.50000000000000000000e+003) (84, 1.40800048828125000000e+002) (85, 1.50000000000000000000e+003) (0, 1.57809674739837650000e+000) (1, -8.57779264450073240000e-001) (2, 2.05244243144989010000e-001) (3, 8.80503237247467040000e-001) (4, -8.21296274662017820000e-002) (5, 8.03465366363525390000e-001) (6, -4.96818208694458010000e+000) (7, 5.75322389602661130000e-001) (8, 1.12412917613983150000e+000) (9, 2.47759127616882320000e+000) (10, -7.10269987583160400000e-001) (11, 3.85764986276626590000e-001) (12, 6.67276561260223390000e-001) (13, -1.27968966960906980000e+000) (14, -9.34163808822631840000e-001) (15, 3.89514207839965820000e-001) (16, -6.98504507541656490000e-001) (17, 2.58911609649658200000e-001) (18, 1.23711466789245610000e+000) (19, -8.61685276031494140000e-001) (20, -7.10780501365661620000e-001) (21, -1.74569916725158690000e+000) (22, 3.28269526362419130000e-002) (23, 5.59910535812377930000e-001) (24, 4.39915627241134640000e-001) (25, 1.72582888603210450000e+000) (26, 2.82337188720703130000e-001) (27, -5.14616481959819790000e-002) (28, -2.04791665077209470000e+000) (29, 4.19079184532165530000e-001) (30, 2.40025520324707030000e+000) (31, 1.92143154144287110000e+000) (32, -8.07093918323516850000e-001) (33, -1.13606715202331540000e+000) (34, 2.26444387435913090000e+000) (35, 7.60786950588226320000e-001) (36, 9.27018523216247560000e-001) (37, 2.84725666046142580000e+000) (38, -6.37018859386444090000e-001) (39, -1.07753980159759520000e+000) (40, 3.91977787017822270000e+000) (41, -2.82483279705047610000e-001) (42, -8.05721461772918700000e-001) (43, 3.83902645111083980000e+000) (44, 5.58356530964374540000e-002) (45, 2.28755283355712890000e+000) (46, 3.64644742012023930000e+000) (47, 7.16294825077056880000e-001) (48, -4.41826701164245610000e-001) (49, 7.77068939208984380000e+001) (50, 3.21953225135803220000e+000) (51, 9.29574489593505860000e+000) (52, 2.57388758659362790000e+000) (53, 1.88910603523254390000e+000) (54, 1.02310287952423100000e+000) (55, 2.26039528846740720000e+000) (56, -1.05884325504302980000e+000) (57, 1.13935003280639650000e+001) (58, -1.93423020839691160000e+000) (59, -1.50000000000000000000e+003) (60, 1.49258581542968750000e+003) (61, 1.41639137268066410000e+000) (62, 1.54551827907562260000e+000) (63, -2.48438949584960940000e+002) (64, -7.32648193836212160000e-001) (65, -9.99235778808593750000e+002) (66, -8.91804580688476560000e+001) (67, -1.50000000000000000000e+003) (68, 7.99342215061187740000e-001) (69, 1.59684765338897710000e+000) (70, 4.89830963134765620000e+002) (71, 1.88940083980560300000e+000) (72, 1.90345346927642820000e+000) (73, -1.50000000000000000000e+003) (74, 