FANN_FLO_2.1
num_layers=23
learning_rate=0.700000
connection_rate=1.000000
network_type=1
learning_momentum=0.000000
training_algorithm=2
train_error_function=1
train_stop_function=0
cascade_output_change_fraction=0.010000
quickprop_decay=-0.000100
quickprop_mu=1.750000
rprop_increase_factor=1.200000
rprop_decrease_factor=0.500000
rprop_delta_min=0.000000
rprop_delta_max=50.000000
rprop_delta_zero=0.100000
cascade_output_stagnation_epochs=12
cascade_candidate_change_fraction=0.010000
cascade_candidate_stagnation_epochs=12
cascade_max_out_epochs=150
cascade_min_out_epochs=50
cascade_max_cand_epochs=150
cascade_min_cand_epochs=50
cascade_num_candidate_groups=2
bit_fail_limit=3.49999994039535520000e-001
cascade_candidate_limit=1.00000000000000000000e+003
cascade_weight_multiplier=4.00000005960464480000e-001
cascade_activation_functions_count=10
cascade_activation_functions=3 5 7 8 10 11 14 15 16 17 
cascade_activation_steepnesses_count=4
cascade_activation_steepnesses=2.50000000000000000000e-001 5.00000000000000000000e-001 7.50000000000000000000e-001 1.00000000000000000000e+000 
layer_sizes=49 1 1 1 1 1 1 1 1 1 1 1 1 1 1 1 1 1 1 1 1 1 1 
scale_included=1
scale_mean_in=153.315628 327.961426 2212.059326 150.508453 229.495148 2235.760742 152.143478 -62.958950 2350.665039 151.629547 -262.307770 2352.120117 265.184723 146.160126 2278.173828 24.968349 144.115631 2262.659424 311.380859 -94.343346 2289.500488 -34.514198 -101.953072 2295.628662 275.435272 -249.081512 2201.611816 -19.867062 -252.326370 2200.214844 249.294846 -298.256989 2369.743896 54.296524 -303.410370 2360.642334 277.968018 -618.447571 2236.959961 48.144814 -596.292358 2234.127441 29.990950 -962.682251 2294.729980 292.810608 -975.607910 2309.875488 
scale_deviation_in=429.829803 383.196777 322.228790 433.262573 373.592743 309.329895 440.001892 345.667419 290.703094 441.563477 338.738373 287.551208 437.985870 367.066528 292.202911 438.446686 362.460083 331.356964 448.657684 335.801025 321.760590 435.124207 335.236145 346.852997 431.826202 330.104584 311.565765 439.618164 354.005066 352.647156 446.139313 336.711243 292.914063 441.006470 332.918488 310.554596 454.961182 337.193573 286.450104 425.568298 332.387878 307.463593 434.051880 346.335419 321.723907 492.255554 358.850494 307.406921 
scale_new_min_in=-1.000000 -1.000000 -1.000000 -1.000000 -1.000000 -1.000000 -1.000000 -1.000000 -1.000000 -1.000000 -1.000000 -1.000000 -1.000000 -1.000000 -1.000000 -1.000000 -1.000000 -1.000000 -1.000000 -1.000000 -1.000000 -1.000000 -1.000000 -1.000000 -1.000000 -1.000000 -1.000000 -1.000000 -1.000000 -1.000000 -1.000000 -1.000000 -1.000000 -1.000000 -1.000000 -1.000000 -1.000000 -1.000000 -1.000000 -1.000000 -1.000000 -1.000000 -1.000000 -1.000000 -1.000000 -1.000000 -1.000000 -1.000000 
scale_factor_in=1.000000 1.000000 1.000000 1.000000 1.000000 1.000000 1.000000 1.000000 1.000000 1.000000 1.000000 1.000000 1.000000 1.000000 1.000000 1.000000 1.000000 1.000000 1.000000 1.000000 1.000000 1.000000 1.000000 1.000000 1.000000 1.000000 1.000000 1.000000 1.000000 1.000000 1.000000 1.000000 1.000000 1.000000 1.000000 1.000000 1.000000 1.000000 1.000000 1.000000 1.000000 1.000000 1.000000 1.000000 1.000000 1.000000 1.000000 1.000000 
scale_mean_out=0.474227 
scale_deviation_out=0.499335 
scale_new_min_out=0.000000 
scale_factor_out=0.500000 
neurons (num_inputs, activation_function, activation_steepness)=(0, 0, 0.00000000000000000000e+000) (0, 0, 0.00000000000000000000e+000) (0, 0, 0.00000000000000000000e+000) (0, 0, 0.00000000000000000000e+000) (0, 0, 0.00000000000000000000e+000) (0, 0, 0.00000000000000000000e+000) (0, 0, 0.00000000000000000000e+000) (0, 0, 0.00000000000000000000e+000) (0, 0, 0.00000000000000000000e+000) (0, 0, 0.00000000000000000000e+000) (0, 0, 0.00000000000000000000e+000) (0, 0, 0.00000000000000000000e+000) (0, 0, 0.00000000000000000000e+000) (0, 0, 0.00000000000000000000e+000) (0, 0, 0.00000000000000000000e+000) (0, 0, 0.00000000000000000000e+000) (0, 0, 0.00000000000000000000e+000) (0, 0, 0.00000000000000000000e+000) (0, 0, 0.00000000000000000000e+000) (0, 0, 0.00000000000000000000e+000) (0, 0, 0.00000000000000000000e+000) (0, 0, 0.00000000000000000000e+000) (0, 0, 0.00000000000000000000e+000) (0, 0, 0.00000000000000000000e+000) (0, 0, 0.00000000000000000000e+000) (0, 0, 0.00000000000000000000e+000) (0, 0, 0.00000000000000000000e+000) (0, 0, 0.00000000000000000000e+000) (0, 0, 0.00000000000000000000e+000) (0, 0, 0.00000000000000000000e+000) (0, 0, 0.00000000000000000000e+000) (0, 0, 0.00000000000000000000e+000) (0, 0, 0.00000000000000000000e+000) (0, 0, 0.00000000000000000000e+000) (0, 0, 0.00000000000000000000e+000) (0, 0, 0.00000000000000000000e+000) (0, 0, 0.00000000000000000000e+000) (0, 0, 0.00000000000000000000e+000) (0, 0, 0.00000000000000000000e+000) (0, 0, 0.00000000000000000000e+000) (0, 0, 0.00000000000000000000e+000) (0, 0, 0.00000000000000000000e+000) (0, 0, 0.00000000000000000000e+000) (0, 0, 0.00000000000000000000e+000) (0, 0, 0.00000000000000000000e+000) (0, 0, 0.00000000000000000000e+000) (0, 0, 0.00000000000000000000e+000) (0, 0, 0.00000000000000000000e+000) (0, 0, 0.00000000000000000000e+000) (49, 3, 7.50000000000000000000e-001) (50, 5, 7.50000000000000000000e-001) (51, 10, 7.50000000000000000000e-001) (52, 5, 5.00000000000000000000e-001) (53, 5, 2.50000000000000000000e-001) (54, 5, 7.50000000000000000000e-001) (55, 5, 2.50000000000000000000e-001) (56, 5, 1.00000000000000000000e+000) (57, 10, 7.50000000000000000000e-001) (58, 10, 2.50000000000000000000e-001) (59, 5, 2.50000000000000000000e-001) (60, 5, 5.00000000000000000000e-001) (61, 10, 5.00000000000000000000e-001) (62, 5, 2.50000000000000000000e-001) (63, 5, 7.50000000000000000000e-001) (64, 11, 1.00000000000000000000e+000) (65, 10, 1.00000000000000000000e+000) (66, 11, 7.50000000000000000000e-001) (67, 5, 5.00000000000000000000e-001) (68, 11, 2.50000000000000000000e-001) (69, 10, 2.50000000000000000000e-001) (70, 4, 5.00000000000000000000e-001) 
connections (connected_to_neuron, weight)=(0, -8.99896423339843750000e+002) (1, -2.73599609375000000000e+002) (2, -2.02843818664550780000e+001) (3, -2.92666292190551760000e+000) (4, 7.38204895019531250000e+002) (5, -2.00241775512695310000e+001) (6, -5.34289264678955080000e+000) (7, -2.12311536073684690000e-001) (8, -6.28424377441406250000e+001) (9, -1.51323719024658200000e+001) (10, -1.17861497402191160000e+000) (11, -3.17815589904785160000e+001) (12, -9.07487297058105470000e+000) (13, 1.24043041992187500000e+003) (14, -3.02608093261718750000e+002) (15, 5.17609405517578120000e+000) (16, 1.50000000000000000000e+003) (17, -2.74169235229492190000e+001) (18, -1.03756058216094970000e+000) (19, 2.01830363273620610000e+000) (20, -1.48704003906250000000e+003) (21, 3.16589630126953120000e+002) (22, 1.50000000000000000000e+003) (23, -2.08120613098144530000e+001) (24, 1.50000000000000000000e+003) (25, -1.50000000000000000000e+003) (26, -4.21862459182739260000e+000) (27, -9.08385467529296880000e+001) (28, 1.81884634494781490000e+000) (29, 1.75785705447196960000e-001) (30, -1.61664295196533200000e+001) (31, -1.24509727478027340000e+002) (32, -1.95353889465332030000e+001) (33, -5.44471130371093750000e+001) (34, -1.50000000000000000000e+003) (35, -2.84962177276611330000e+001) (36, 2.39824724197387700000e+000) (37, -3.43217086791992190000e+001) (38, -2.03655019402503970000e-001) (39, -1.50000000000000000000e+003) (40, -4.81406974792480470000e+000) (41, 1.13545632362365720000e+000) (42, -4.61754516601562500000e+002) (43, -1.30841979980468750000e+003) (44, 3.00136119127273560000e-001) (45, 1.50000000000000000000e+003) (46, -3.05908935546875000000e+002) (47, -3.40451985597610470000e-001) (48, 1.50000000000000000000e+003) (0, 2.65640807151794430000e+000) (1, 9.33696079254150390000e+000) (2, 9.95471775531768800000e-001) (3, -6.02079451084136960000e-001) (4, -2.23786854743957520000e+000) (5, 6.07413768768310550000e-001) (6, 1.03263184428215030000e-001) (7, -1.14881019592285160000e+001) (8, 1.01940858364105220000e+000) (9, -3.07847857475280760000e-001) (10, -1.04302667081356050000e-001) (11, -6.16611897945404050000e-001) (12, 2.44212603569030760000e+000) (13, -6.42903137207031250000e+000) (14, -1.59536734223365780000e-001) (15, -1.73770272731781010000e+000) (16, -1.15014533996582030000e+001) (17, 8.79409313201904300000e-001) (18, 4.24222379922866820000e-001) (19, -1.30804824829101560000e+000) (20, 1.21397614479064940000e+000) (21, -4.11335659027099610000e+000) (22, -6.55630397796630860000e+000) (23, 4.10906553268432620000e+000) (24, -6.31767463684082030000e+000) (25, 6.60273694992065430000e+000) (26, 2.47918874025344850000e-001) (27, -3.88383173942565920000e+000) (28, 9.56185817718505860000e+000) (29, -1.79214373230934140000e-001) (30, 2.59361934661865230000e+000) (31, 1.85457408428192140000e+000) (32, -5.14531195163726810000e-001) (33, 9.74725186824798580000e-001) (34, 1.03148770332336430000e+000) (35, -6.45481884479522710000e-001) (36, 9.32829976081848140000e-001) (37, 1.36347401142120360000e+000) (38, -1.03998713195323940000e-001) (39, 7.30031681060791020000e+000) (40, 1.58898904919624330000e-001) (41, 5.35158216953277590000e-001) (42, 6.54785871505737300000e-001) (43, 9.42569828033447270000e+000) (44, -1.23524241149425510000e-001) (45, -3.06121134757995610000e+000) (46, 8.77280890941619870000e-001) (47, 9.90797206759452820000e-002) (48, -1.50000000000000000000e+003) (49, 1.50000000000000000000e+003) (0, -1.38016271591186520000e+000) (1, -4.30864125490188600000e-001) (2, 1.11636590957641600000e+000) (3, -3.38305950164794920000e-001) (4, -1.03057253360748290000e+000) (5, 8.50579857826232910000e-001) (6, -2.60980081558227540000e+000) (7, 4.60683226585388180000e-001) (8, -6.38050019741058350000e-001) (9, -3.36095595359802250000e+000) (10, -2.63286185264587400000e+000) (11, 1.00432753562927250000e+000) (12, 2.69126236438751220000e-001) (13, 5.46554982662200930000e-001) (14, -2.53134191036224370000e-001) (15, -2.61584311723709110000e-001) (16, -1.20094679296016690000e-001) (17, 1.78923845291137700000e-001) (18, 1.66012966632843020000e+000) (19, 1.58823144435882570000e+000) (20, 2.65657514333724980000e-001) (21, 2.68603730201721190000e+000) (22, 5.47044336795806880000e-001) (23, -2.53551900386810300000e-001) (24, 3.74713510274887080000e-001) (25, -2.78265923261642460000e-001) (26, -5.30313849449157710000e-001) (27, 1.48561134934425350000e-001) (28, -5.78706836700439450000e+000) (29, -5.32181680202484130000e-001) (30, -2.89620018005371090000e+000) (31, -1.30783274769783020000e-001) (32, 7.60710120201110840000e-001) (33, -3.44113558530807500000e-002) (34, -8.49995553493499760000e-001) (35, -4.86484915018081670000e-001) (36, 2.25695514678955080000e+000) (37, 2.18326592445373540000e+000) (38, 3.78475904464721680000e-001) (39, -7.12862432003021240000e-001) (40, 3.24299240112304690000e+000) (41, -5.99975824356079100000e-001) (42, 2.24986982345581050000e+000) (43, 3.50696969032287600000e+000) (44, -3.92338514328002930000e-001) (45, 2.58517217636108400000e+000) (46, 1.25747156143188480000e+000) (47, -2.44937241077423100000e-002) (48, 3.07891786098480220000e-001) (49, -1.50000000000000000000e+003) (50, 2.70364332199096680000e+000) (0, 6.15368270874023440000e+000) (1, 1.63146991729736330000e+001) (2, 1.70308887958526610000e+000) (3, -8.98276805877685550000e-001) (4, 8.80970716476440430000e-001) (5, 1.19742381572723390000e+000) (6, -1.57332837581634520000e-001) (7, 3.22341203689575200000e+000) (8, 1.53916358947753910000e+000) (9, 1.41124403476715090000e+000) (10, 1.21810424327850340000e+000) (11, 1.66102552413940430000e+000) (12, 4.36225652694702150000e+000) (13, -1.99198257923126220000e+000) (14, 1.22874188423156740000e+000) (15, -1.18431228637695310000e+002) (16, -1.96340107917785640000e+000) (17, 5.18841147422790530000e-001) (18, 1.62902694702148440000e+002) (19, -1.60394935607910160000e+001) (20, 3.50867004394531250000e+001) (21, -1.21055603027343750000e+000) (22, -2.46202728271484370000e+002) (23, 2.36578845977783200000e+000) (24, 9.65373325347900390000e+000) (25, 1.43587789535522460000e+001) (26, 1.36686420440673830000e+000) (27, -1.48499038696289060000e+002) (28, -5.81282913684844970000e-001) (29, 5.94783723354339600000e-001) (30, 1.47902226448059080000e+000) (31, 2.01009654998779300000e+000) (32, 1.74078822135925290000e+000) (33, -6.67876675724983220000e-002) (34, 6.29621505737304690000e-001) (35, 6.36175870895385740000e-001) (36, -8.63929316401481630000e-002) (37, 6.74917526245117190000e+001) (38, 1.38630986213684080000e-001) (39, 2.28364353179931640000e+001) (40, 2.55827377319335940000e+002) (41, 2.42115437984466550000e-001) (42, 8.45376892089843750000e+001) (43, 3.53721189498901370000e+000) (44, -1.23292453587055210000e-001) (45, -5.36484420299530030000e-001) (46, 4.47745370864868160000e+000) (47, 1.63502371311187740000e+000) (48, -1.34501194953918460000e+000) (49, -1.50000000000000000000e+003) (50, -1.50000000000000000000e+003) (51, -1.50000000000000000000e+003) (0, 3.26672315597534180000e+000) (1, -2.35508728027343750000e+000) (2, 9.85805749893188480000e-001) (3, -5.97200930118560790000e-001) (4, 3.99541445076465610000e-002) (5, 7.89904892444610600000e-001) (6, 2.02560171484947200000e-001) (7, 6.59275591373443600000e-001) (8, -3.79061758518218990000e-001) (9, 8.78264367580413820000e-001) (10, 8.60335864126682280000e-003) (11, -2.23112672567367550000e-001) (12, 2.30335071682929990000e-001) (13, -1.41653776168823240000e+000) (14, 8.15072000026702880000e-001) (15, 8.05721580982208250000e-001) (16, -4.25491714477539060000e+000) (17, 1.18497276306152340000e+000) (18, -6.71542465686798100000e-001) (19, -1.62651038169860840000e+000) (20, 2.36611500382423400000e-001) (21, -2.94112265110015870000e-001) (22, 1.08785629272460940000e+000) (23, -1.93094667047262190000e-002) (24, -5.58418154716491700000e-001) (25, 4.76691305637359620000e-001) (26, 4.26035434007644650000e-001) (27, -4.22120094299316410000e+000) (28, 2.19554811716079710000e-001) (29, 7.90695726871490480000e-001) (30, -4.76734340190887450000e-001) (31, 2.16743373870849610000e+000) (32, -8.15594971179962160000e-001) (33, 2.42536187171936040000e-001) (34, 3.40107560157775880000e-001) (35, -7.64351308345794680000e-001) (36, -1.15937352180480960000e-001) (37, 3.21373438835144040000e+000) (38, 3.35526108741760250000e-001) (39, 9.25256919860839840000e+000) (40, -5.08270859718322750000e-001) (41, 6.20053648948669430000e-001) (42, -5.45359134674072270000e+000) (43, 2.23984345793724060000e-001) (44, -3.20020020008087160000e-001) (45, -2.08170700073242190000e+000) (46, 2.55534505844116210000e+000) (47, -1.94074232131242750000e-002) (48, -7.30037658691406250000e+002) (49, 8.86818603515625000000e+002) (50, -5.13874206542968750000e+002) (51, -1.50000000000000000000e+003) (52, 1.08403396606445310000e+001) (0, -1.38380634784698490000e+000) (1, -3.72670097351074220000e+001) (2, -8.85790169239044190000e-001) (3, -8.61936569213867190000e-001) (4, -4.95595026016235350000e+000) (5, 3.80911886692047120000e-001) (6, -1.67933464050292970000e+000) (7, -6.20507335662841800000e+000) (8, 4.40921694040298460000e-001) (9, -1.26529417037963870000e+001) (10, 1.02001228332519530000e+001) (11, -4.96155202388763430000e-001) (12, -1.48702466487884520000e+000) (13, -7.31682872772216800000e+000) (14, -8.63170996308326720000e-002) (15, 8.32579612731933590000e+000) (16, -5.37158370018005370000e-001) (17, 3.87445581145584580000e-003) (18, -8.74916374683380130000e-001) (19, 4.70718841552734380000e+001) (20, 5.76232850551605220000e-001) (21, 6.46797943115234370000e+000) (22, 2.14449386596679690000e+001) (23, 6.41751289367675780000e-001) (24, -3.17575067281723020000e-001) (25, -2.68015747070312500000e+001) (26, 1.16279578208923340000e+000) (27, 8.67650699615478520000e+000) (28, -1.57127218246459960000e+001) (29, 5.66381514072418210000e-001) (30, -1.54887962341308590000e+000) (31, 2.99163818359375000000e+001) (32, -7.92090773582458500000e-001) (33, -2.35541224479675290000e+000) (34, 1.11006367206573490000e+000) (35, 6.65751755237579350000e-001) (36, 8.80715906620025630000e-001) (37, 2.28808712959289550000e+000) (38, 3.47179740667343140000e-001) (39, -1.10033016204833980000e+001) (40, 3.08774185180664060000e+000) (41, 1.07549309730529790000e+000) (42, -3.52282404899597170000e-001) (43, -1.54060029983520510000e+001) (44, 5.96363544464111330000e-001) (45, 1.43199939727783200000e+001) (46, 1.36692786216735840000e+000) (47, 1.01292037963867190000e+000) (48, 1.50000000000000000000e+003) (49, 1.50000000000000000000e+003) (50, 1.50000000000000000000e+003) (51, -1.50000000000000000000e+003) (52, 1.54377380371093750000e+002) (53, -1.50000000000000000000e+003) (0, -2.00990867614746090000e+001) (1, 8.96503829956054690000e+000) (2, 8.61320912837982180000e-001) (3, -1.48083710670471190000e+000) (4, 2.22183012962341310000e+000) (5, 3.90291959047317500000e-001) (6, -2.54146337509155270000e-001) (7, 1.70887410640716550000e+000) (8, 1.10994267463684080000e+000) (9, 1.99905049800872800000e+000) (10, 2.92609953880310060000e+000) (11, 1.17788553237915040000e+000) (12, 7.25275218486785890000e-001) (13, -2.08183363080024720000e-001) (14, 5.84348022937774660000e-001) (15, -7.62686967849731450000e+000) (16, 1.66874802112579350000e+000) (17, 1.05832111835479740000e+000) (18, 3.87413024902343750000e+000) (19, -2.25333042144775390000e+001) (20, 7.17076122760772710000e-001) (21, 1.99056282043457030000e+001) (22, -3.86382560729980470000e+001) (23, 3.35333377122879030000e-001) (24, 3.65848827362060550000e+000) (25, -3.27732515335083010000e+000) (26, -5.77046394348144530000e-001) (27, -6.41248416900634770000e+000) (28, 1.92874393463134770000e+001) (29, 1.03342197835445400000e-001) (30, 1.19533371925354000000e+000) (31, 3.42681121826171870000e+000) (32, 1.10690736770629880000e+000) (33, 5.52199697494506840000e+000) (34, 4.74558067321777340000e+000) (35, -7.56056249141693120000e-001) (36, 3.99015337228775020000e-001) (37, 8.31396865844726560000e+000) (38, 6.28516793251037600000e-001) (39, -1.23042094707489010000e+000) (40, 4.53488016128540040000e+000) (41, -2.97438502311706540000e-002) (42, -2.78349727392196660000e-001) (43, 6.21684360504150390000e+000) (44, 1.32228052616119380000e+000) (45, -7.01971709728240970000e-001) (46, 4.22780704498291020000e+000) (47, -6.86525344848632810000e-001) (48, -3.36863983154296870000e+002) (49, 1.50000000000000000000e+003) (50, -1.50000000000000000000e+003) (51, -1.50000000000000000000e+003) (52, -1.50000000000000000000e+003) (53, -4.80479858398437500000e+002) (54, -2.97209167480468750000e+002) (0, -1.90291576385498050000e+001) (1, -1.97979125976562500000e+001) (2, 9.70810472965240480000e-001) (3, -4.83000218868255620000e-001) (4, -6.83873116970062260000e-001) (5, 1.11441564559936520000e+000) (6, 1.13689434528350830000e+000) (7, 9.14075374603271480000e-001) (8, -8.28767418861389160000e-002) (9, 8.98354709148406980000e-001) (10, 2.03302907943725590000e+000) (11, 9.40148591995239260000e-001) (12, 1.12269258499145510000e+000) (13, -6.68369233608245850000e-001) (14, -5.83795666694641110000e-001) (15, 1.24961786270141600000e+001) (16, 1.08474817276000980000e+001) (17, -5.53360223770141600000e-001) (18, -5.73583662509918210000e-001) (19, 3.42259001731872560000e+000) (20, 2.91251868009567260000e-001) (21, 9.20359230041503910000e+000) (22, 4.68092193603515630000e+001) (23, 7.84554183483123780000e-001) (24, -7.98448622226715090000e-002) (25, 5.76228809356689450000e+000) (26, -6.53095483779907230000e-001) (27, -9.12044882774353030000e-001) (28, 1.62484037876129150000e+000) (29, 1.18249118328094480000e+000) (30, 1.81926071643829350000e-001) (31, 9.73081961274147030000e-003) (32, -2.04275250434875490000e-001) (33, -1.21917915344238280000e+000) (34, -3.99531135559082030000e+001) (35, 5.67536354064941410000e-001) (36, -4.94528961181640620000e+000) (37, 9.33563590049743650000e-001) (38, 6.21445357799530030000e-001) (39, 3.91446232795715330000e-001) (40, 6.55575394630432130000e-001) (41, -7.75745630264282230000e-001) (42, -1.36665046215057370000e+000) (43, -3.74943435192108150000e-001) (44, -6.94106757640838620000e-001) (45, 2.62872308492660520000e-001) (46, -1.06736955642700200000e+001) (47, -5.52592134475708010000e+000) (48, 7.88801635742187500000e+002) (49, 1.50000000000000000000e+003) (50, -1.03697216796875000000e+003) (51, 2.84362243652343750000e+002) (52, 1.45200000000000000000e+003) (53, -6.46680358886718750000e+002) (54, 1.50000000000000000000e+003) (55, 1.50000000000000000000e+003) (0, 1.36706829071044920000e-001) (1, 1.79612323641777040000e-001) (2, 1.03916966915130620000e+000) (3, 1.91423285007476810000e+000) (4, 6.72093033790588380000e-001) (5, 7.70455002784729000000e-001) (6, 1.19508838653564450000e+000) (7, -5.38126516342163090000e+000) (8, 3.18122744560241700000e-001) (9, 5.13290882110595700000e-001) (10, -1.07301692962646480000e+001) (11, -7.54452764987945560000e-001) (12, -3.48987191915512080000e-001) (13, 9.85631704330444340000e-001) (14, -3.13803911209106450000e-001) (15, -3.51305270195007320000e+000) (16, -6.76118671894073490000e-001) (17, -8.90667557716369630000e-001) (18, -3.15902203321456910000e-001) (19, -2.71119698882102970000e-002) (20, -8.97371172904968260000e-001) (21, -1.28944385051727290000e+000) (22, 2.98982238769531250000e+000) (23, -8.42512249946594240000e-001) (24, 1.40812218189239500000e+000) (25, 5.30104827880859370000e+000) (26, 5.50257205963134770000e-001) (27, 2.99262940883636470000e-001) (28, 2.17103910446166990000e+000) (29, 1.00021958351135250000e+000) (30, -3.09645920991897580000e-001) (31, -5.25102663040161130000e+000) (32, -7.97706186771392820000e-001) (33, 6.35406553745269780000e-001) (34, -1.71000385284423830000e+000) (35, 7.91724264621734620000e-001) (36, 1.73199665546417240000e+000) (37, 3.78097534179687500000e+000) (38, 9.17464852333068850000e-001) (39, -5.71586370468139650000e+000) (40, 4.92653846740722660000e+000) (41, -5.02062775194644930000e-002) (42, 6.86058104038238530000e-001) (43, 4.56575393676757810000e+000) (44, 1.85894235968589780000e-001) (45, 9.82316955924034120000e-002) (46, 4.93238306045532230000e+000) (47, 5.09940326213836670000e-001) (48, -9.27207708358764650000e-001) (49, 1.50000000000000000000e+003) (50, 1.50202429294586180000e+000) (51, -1.50000000000000000000e+003) (52, -5.57455205917358400000e+000) (53, 6.10141813755035400000e-001) (54, 2.56246089935302730000e+000) (55, -1.65340332031250000000e+002) (56, 1.13739633560180660000e+000) (0, 1.27383351325988770000e+000) (1, -8.13008248805999760000e-001) (2, -7.27555155754089360000e-001) (3, 4.39539074897766110000e-001) (4, 1.19252383708953860000e+000) (5, -5.18632352352142330000e-001) (6, -8.51300001144409180000e-001) (7, -7.62392878532409670000e-001) (8, -9.49590027332305910000e-001) (9, -1.50889921188354490000e+000) (10, 3.83703202009201050000e-001) (11, 5.62617540359497070000e-001) (12, -3.96380648016929630000e-002) (13, 2.87641096115112300000e+000) (14, 6.60300254821777340000e-001) (15, 4.11005675792694090000e-001) (16, -2.02847504615783690000e+000) (17, 1.04368007183074950000e+000) (18, -1.08995556831359860000e+000) (19, -2.67767715454101560000e+000) (20, 6.74239814281463620000e-001) (21, -5.62685108184814450000e+000) (22, -1.54862844944000240000e+000) (23, -8.08234512805938720000e-001) (24, 5.65757513046264650000e-001) (25, -2.38982653617858890000e+000) (26, -3.52190136909484860000e-001) (27, 4.44044589996337890000e+000) (28, 2.41366720199584960000e+000) (29, 6.64324343204498290000e-001) (30, 6.93593561649322510000e-001) (31, -2.60616374015808110000e+000) (32, 5.55117368698120120000e-001) (33, -3.40963768959045410000e+000) (34, -2.64566898345947270000e+000) (35, -3.46766352653503420000e-001) (36, -2.27868050336837770000e-001) (37, 3.46829581260681150000e+000) (38, 3.50966632366180420000e-001) (39, 3.28841614723205570000e+000) (40, 1.85020959377288820000e+000) (41, 6.71571046113967900000e-002) (42, 1.17994177341461180000e+000) (43, 2.45108628273010250000e+000) (44, 3.24227511882781980000e-001) (45, 1.02774453163146970000e+000) (46, 3.16125035285949710000e+000) (47, 1.27621024847030640000e-001) (48, -3.02685499191284180000e-001) (49, 1.50000000000000000000e+003) (50, -6.32565307617187500000e+002) (51, -1.44800000000000000000e+003) (52, 6.70096874237060550000e+000) (53, -3.13491241455078120000e+002) (54, -2.46291565895080570000e+000) (55, 1.98558604717254640000e+000) (56, -2.22147941589355470000e+000) (57, -1.44800000000000000000e+003) (0, 3.46424102783203130000e+000) (1, 6.27003250122070310000e+001) (2, 1.38326609134674070000e+000) (3, 3.02038598060607910000e+000) (4, 2.18579792976379390000e+000) (5, 4.62545603513717650000e-001) (6, -5.41691493988037110000e+000) (7, 7.11078186035156250000e+001) (8, 1.48156487941741940000e+000) (9, 2.60123634338378910000e+000) (10, 2.09584854125976560000e+002) (11, 5.61306595802307130000e-001) (12, 5.29137706756591800000e+000) (13, -2.09250659942626950000e+001) (14, -1.69795766472816470000e-001) (15, -2.49215530395507810000e+002) (16, -2.60242056846618650000e+000) (17, 7.90534436702728270000e-001) (18, 3.62486511468887330000e-001) (19, -1.08086273193359380000e+002) (20, 1.33590862154960630000e-001) (21, 4.78907562255859370000e+002) (22, -1.45492439270019530000e+001) (23, 7.93419122695922850000e+000) (24, -1.15250766277313230000e+000) (25, 4.46353698730468750000e+002) (26, 8.40342938899993900000e-001) (27, -7.98830871582031250000e+001) (28, -7.49665527343750000000e+002) (29, -2.22686752676963810000e-001) (30, 1.00432908535003660000e+000) (31, 5.29150438308715820000e+000) (32, 1.20950949192047120000e+000) (33, -1.49781799316406250000e+000) (34, 1.11153274536132810000e+002) (35, -3.75660240650177000000e-001) (36, 1.22015357017517090000e-001) (37, 2.70383000373840330000e+000) (38, 1.03440463542938230000e+000) (39, -3.28595428466796880000e+001) (40, 8.34788818359375000000e+001) (41, -1.25753831863403320000e+000) (42, -6.44388427734375000000e+001) (43, 5.98535680770874020000e+000) (44, -8.10700225830078130000e+000) (45, 7.85829067230224610000e-001) (46, 7.45387935638427730000e+000) (47, 8.52832317352294920000e+000) (48, -1.46959997558593750000e+003) (49, 1.50000000000000000000e+003) (50, 1.50000000000000000000e+003) (51, -8.09199951171875000000e+002) (52, -1.50000000000000000000e+003) (53, -1.50000000000000000000e+003) (54, -1.50000000000000000000e+003) (55, -1.50000000000000000000e+003) (56, 1.50000000000000000000e+003) (57, 1.50000000000000000000e+003) (58, 1.50000000000000000000e+003) (0, -2.94063270092010500000e-001) (1, 1.40153625488281250000e+002) (2, 7.93021619319915770000e-001) (3, -2.87657499313354490000e-001) (4, 3.62911605834960940000e+001) (5, 5.43929696083068850000e-001) (6, -9.21087563037872310000e-001) (7, 1.48201971054077150000e+001) (8, -2.99564272165298460000e-001) (9, 8.27045798301696780000e-001) (10, 2.77814464569091800000e+001) (11, -3.41674238443374630000e-002) (12, 5.62748372554779050000e-001) (13, -1.37416303157806400000e+000) (14, -6.81345999240875240000e-001) (15, -1.22944793701171870000e+002) (16, 1.46835281372070310000e+002) (17, 7.80580565333366390000e-002) (18, 6.97791671752929690000e+001) (19, -5.30542663574218750000e+002) (20, 1.38157403469085690000e+000) (21, 2.57949028015136720000e+001) (22, 4.86256885528564450000e+000) (23, 4.51689863204956050000e+000) (24, 6.66918516159057620000e-001) (25, 2.61918473243713380000e+000) (26, 3.63043218851089480000e-001) (27, -6.53746490478515630000e+001) (28, 1.52180874347686770000e+000) (29, 1.21490478515625000000e+000) (30, 1.14040791988372800000e+000) (31, 1.09348697662353520000e+001) (32, 4.31209653615951540000e-001) (33, -6.03864431381225590000e-001) (34, 9.35340595245361330000e+000) (35, 2.21082374453544620000e-001) (36, 1.42850863933563230000e+000) (37, 1.53368072509765630000e+001) (38, -3.27573537826538090000e-001) (39, 2.60667987167835240000e-002) (40, 1.59426994323730470000e+001) (41, 8.38151454925537110000e-001) (42, 9.47833557128906250000e+001) (43, 1.06551773071289060000e+002) (44, 6.35707616806030270000e-001) (45, 1.74433386325836180000e+000) (46, 3.51284713745117190000e+001) (47, 6.65259599685668950000e-001) (48, -1.47790844726562500000e+003) (49, 1.50000000000000000000e+003) (50, -1.50000000000000000000e+003) (51, -1.50000000000000000000e+003) (52, -1.50000000000000000000e+003) (53, 1.50000000000000000000e+003) (54, 1.50000000000000000000e+003) (55, -1.50000000000000000000e+003) (56, 1.50000000000000000000e+003) (57, -1.50000000000000000000e+003) (58, -1.50000000000000000000e+003) (59, -6.06939392089843750000e+002) (0, -1.92578086853027340000e+001) (1, -8.10402870178222660000e+000) (2, 6.99535071849823000000e-001) (3, -1.30005836486816410000e+000) (4, -1.13647389411926270000e+000) (5, 1.02119036018848420000e-001) (6, -2.40098333358764650000e+000) (7, -1.92099857330322270000e+001) (8, -3.89907836914062500000e-001) (9, -2.01343393325805660000e+000) (10, -3.32402610778808590000e+000) (11, -8.98563742637634280000e-001) (12, -4.35638904571533200000e+000) (13, -3.64451676607131960000e-001) (14, 6.06734931468963620000e-001) (15, -2.46908235549926760000e+000) (16, 1.01949721574783330000e-001) (17, 5.49325823783874510000e-001) (18, -4.40096902847290040000e+000) (19, 1.09347019195556640000e+001) (20, -4.27746951580047610000e-001) (21, -1.52583265304565430000e+000) (22, 6.87686395645141600000e+000) (23, -7.34313845634460450000e-001) (24, 9.33085346221923830000e+000) (25, -5.99620819091796870000e+000) (26, -6.47272229194641110000e-001) (27, 1.79234191775321960000e-001) (28, 2.75498943328857420000e+001) (29, 4.09045428037643430000e-001) (30, -2.71170043945312500000e+000) (31, -4.28058338165283200000e+000) (32, -5.74745357036590580000e-001) (33, -1.87044155597686770000e+000) (34, -2.69955205917358400000e+000) (35, 4.16038721799850460000e-001) (36, -2.96226310729980470000e+000) (37, 3.80002164840698240000e+000) (38, 6.17792725563049320000e-001) (39, 3.04954853057861330000e+001) (40, 2.22084832191467290000e+000) (41, -1.45484730601310730000e-001) (42, -1.23040275648236270000e-002) (43, 2.41487932205200200000e+000) (44, 6.31403625011444090000e-001) (45, -9.47466087341308590000e+000) (46, 2.65390276908874510000e+000) (47, 6.76369786262512210000e-001) (48, -7.69232392311096190000e-001) (49, 1.50000000000000000000e+003) (50, 8.34722614288330080000e+000) (51, 1.15239306640625000000e+003) (52, 2.36484813690185550000e+000) (53, 7.19898071289062500000e+002) (54, 1.50000000000000000000e+003) (55, 1.03492860794067380000e+001) (56, 1.50000000000000000000e+003) (57, -1.50000000000000000000e+003) (58, 9.49789001464843750000e+002) (59, 1.50000000000000000000e+003) (60, 1.04342208862304690000e+002) (0, -5.05398094654083250000e-001) (1, -7.77477836608886720000e+000) (2, -5.17565429210662840000e-001) (3, -7.19463109970092770000e-001) (4, -5.45294189453125000000e+000) (5, 4.61687773466110230000e-001) (6, 8.49970430135726930000e-002) (7, -1.15052962303161620000e+000) (8, 8.41009080410003660000e-001) (9, 6.70109927654266360000e-001) (10, 2.12721037864685060000e+000) (11, 6.46633803844451900000e-001) (12, -7.14311778545379640000e-001) (13, -4.73317289352416990000e+000) (14, -6.57775819301605220000e-001) (15, -4.82293456792831420000e-001) (16, -1.43993082046508790000e+001) (17, 2.00972277671098710000e-002) (18, -5.33001542091369630000e-001) (19, 2.46717224121093750000e+001) (20, -2.67710745334625240000e-001) (21, -2.36566376686096190000e+000) (22, 2.02690291404724120000e+000) (23, 7.63079941272735600000e-001) (24, 7.48621940612792970000e-001) (25, -3.52588844299316410000e+000) (26, 1.01097166538238530000e+000) (27, 3.73409509658813480000e+000) (28, 1.10132198333740230000e+001) (29, -2.07207098603248600000e-001) (30, -1.04699647426605220000e+000) (31, 1.97050178050994870000e+000) (32, 8.94518613815307620000e-001) (33, -2.38146096467971800000e-001) (34, 2.21039652824401860000e+000) (35, -3.72649341821670530000e-001) (36, -8.14713895320892330000e-001) (37, -1.64328038692474370000e+000) (38, -1.89930304884910580000e-001) (39, -5.26357591152191160000e-001) (40, 1.93047666549682620000e+000) (41, 4.95533615350723270000e-001) (42, -6.18364810943603520000e-001) (43, -4.55689817667007450000e-001) (44, 7.55456328392028810000e-001) (45, 3.44574362039566040000e-001) (46, -7.16751050949096680000e+000) (47, -7.63044834136962890000e-001) (48, -1.08388042449951170000e+000) (49, 1.50000000000000000000e+003) (50, -1.01745986938476560000e+001) (51, 2.07534744262695310000e+002) (52, 6.66667175292968750000e+002) (53, -2.24234771728515630000e+002) (54, 4.47660156250000000000e+002) (55, 5.91267578125000000000e+002) (56, -1.04034436035156250000e+003) (57, 1.50000000000000000000e+003) (58, 1.50000000000000000000e+003) (59, 5.47802467346191410000e+001) (60, 8.23379943847656250000e+002) (61, 1.50000000000000000000e+003) (0, -2.16465377807617190000e+000) (1, -2.25103974342346190000e+000) (2, 1.31121492385864260000e+000) (3, -3.87184596061706540000e+000) (4, -3.93414258956909180000e-001) (5, 7.29319155216217040000e-001) (6, 6.49893939495086670000e-001) (7, -3.08389043807983400000e+000) (8, 4.65037077665328980000e-001) (9, 9.73899960517883300000e-002) (10, 1.26776909828186040000e+000) (11, 1.08917427062988280000e+000) (12, -3.15971940755844120000e-001) (13, -5.76452445983886720000e+000) (14, -3.62167328596115110000e-001) (15, -2.40160846710205080000e+000) (16, -2.02909374237060550000e+000) (17, 7.70160436630249020000e-001) (18, -8.21200832724571230000e-002) (19, 1.28352129459381100000e+000) (20, 2.80695855617523190000e-001) (21, 2.23512244224548340000e+000) (22, -1.79700827598571780000e+000) (23, 7.54099130630493160000e-001) (24, -5.06355404853820800000e-001) (25, 5.08874654769897460000e+000) (26, 5.85440285503864290000e-002) (27, 1.86982214450836180000e+000) (28, -4.29754167795181270000e-001) (29, 7.94454097747802730000e-001) (30, 1.49650469422340390000e-001) (31, 1.49433588981628420000e+000) (32, -2.16276809573173520000e-001) (33, -9.67330485582351680000e-002) (34, 1.69310879707336430000e+000) (35, -7.08991065621376040000e-002) (36, -5.20707517862319950000e-002) (37, 1.73519313335418700000e+000) (38, -3.05503398180007930000e-001) (39, 4.77933377027511600000e-001) (40, 2.10062336921691890000e+000) (41, 9.00977671146392820000e-001) (42, 1.45316338539123540000e+000) (43, 3.15139245986938480000e+000) (44, -5.72926700115203860000e-001) (45, 3.53174114227294920000e+000) (46, 1.32339167594909670000e+000) (47, -3.19532066583633420000e-001) (48, -1.70363575220108030000e-001) (49, -3.48337974548339840000e+001) (50, -2.13474456787109370000e+002) (51, -1.45209826660156250000e+003) (52, -4.69566711425781250000e+002) (53, -4.64418395996093750000e+002) (54, 3.36522865295410160000e+001) (55, -5.74658355712890630000e+001) (56, 1.31180992126464840000e+001) (57, -3.38981964111328120000e+002) (58, -2.15584014892578120000e+002) (59, 6.65810108184814450000e+000) (60, -6.50407470703125000000e+002) (61, -4.47903503417968750000e+002) (62, -3.52996215820312500000e+001) (0, -4.31296646595001220000e-001) (1, -4.85052537918090820000e+000) (2, 1.31048381328582760000e+000) (3, 7.36011624336242680000e-001) (4, -4.04718875885009770000e+000) (5, 1.35965001583099370000e+000) (6, -6.74822449684143070000e-001) (7, -1.10342407226562500000e+000) (8, -3.83121162652969360000e-001) (9, -4.42247688770294190000e-001) (10, 2.60543012619018550000e+000) (11, 1.24084222316741940000e+000) (12, -3.16060185432434080000e-001) (13, -5.52631187438964840000e+000) (14, 8.20293724536895750000e-001) (15, 7.77791798114776610000e-001) (16, -1.01896028518676760000e+001) (17, 1.25044548511505130000e+000) (18, 3.20570617914199830000e-001) (19, 1.76231920719146730000e+000) (20, -4.36014741659164430000e-001) (21, 3.31141543388366700000e+000) (22, 2.52347517013549800000e+000) (23, 1.11365473270416260000e+000) (24, -2.60861784219741820000e-001) (25, 2.23382806777954100000e+000) (26, 1.16817383095622060000e-002) (27, 3.27362346649169920000e+000) (28, 2.72086429595947270000e+000) (29, 8.41448307037353520000e-001) (30, 7.29869127273559570000e-001) (31, 3.56342434883117680000e+000) (32, 9.60287153720855710000e-001) (33, 7.17535138130187990000e-001) (34, 1.88573288917541500000e+000) (35, -4.16110306978225710000e-002) (36, -2.38811850547790530000e-001) (37, 3.33654475212097170000e+000) (38, 9.05620828270912170000e-002) (39, -5.08648574352264400000e-001) (40, 2.93732094764709470000e+000) (41, -2.62645691633224490000e-001) (42, -3.47386050224304200000e+000) (43, 4.15708780288696290000e+000) (44, 7.65601456165313720000e-001) (45, 2.19285774230957030000e+000) (46, 2.13625741004943850000e+000) (47, -8.70234429836273190000e-001) (48, -2.06469488143920900000e+000) (49, -1.50000000000000000000e+003) (50, -2.47946858406066890000e+000) (51, -1.50000000000000000000e+003) (52, 2.72126531600952150000e+000) (53, -1.68882572650909420000e+000) (54, -1.97346001863479610000e-001) (55, 1.33086812496185300000e+000) (56, -6.15403938293457030000e+000) (57, 1.50000000000000000000e+003) (58, -1.33499182128906250000e+003) (59, 4.32502985000610350000e+000) (60, 9.30108726024627690000e-001) (61, -1.37636608886718750000e+003) (62, -1.86678552627563480000e+000) (63, -7.77385175228118900000e-001) (0, -3.35555648803710940000e+001) (1, 7.44931650161743160000e+000) (2, -2.17894762754440310000e-001) (3, -1.12926959991455080000e+001) (4, -5.81013679504394530000e+001) (5, -6.44395411014556880000e-001) (6, 1.95388031005859380000e+001) (7, -1.15182847976684570000e+001) (8, -1.36668771505355830000e-001) (9, -2.04030075073242190000e+001) (10, -3.12847661972045900000e+000) (11, 2.04638168215751650000e-002) (12, -1.35218191146850590000e+001) (13, -3.08855509757995610000e+000) (14, 5.38821339607238770000e-001) (15, 2.52302490234375000000e+002) (16, -9.06737041473388670000e+000) (17, 7.05723047256469730000e-001) (18, -1.77100219726562500000e+002) (19, 1.05630910396575930000e+000) (20, -1.16901353001594540000e-001) (21, 2.06364097595214840000e+001) (22, 1.44628596305847170000e+000) (23, 5.46616673469543460000e-001) (24, -4.54912796020507810000e+001) (25, 9.67968940734863280000e-001) (26, 9.17462825775146480000e-001) (27, 5.31850280761718750000e+001) (28, 2.29630112648010250000e+000) (29, 1.16316604614257810000e+000) (30, -2.19221711158752440000e-001) (31, -6.46742582321166990000e-001) (32, -5.50676107406616210000e-001) (33, -8.24909806251525880000e-001) (34, -1.30033707618713380000e+000) (35, -2.40087769925594330000e-002) (36, -1.83006286621093750000e+002) (37, 2.70239925384521480000e+000) (38, 6.90937116742134090000e-002) (39, 5.79207458496093750000e+001) (40, 2.73189783096313480000e+000) (41, 1.74469685554504390000e+000) (42, 5.73803253173828130000e+001) (43, 9.28375542163848880000e-001) (44, 1.15461575984954830000e+000) (45, -2.26320953369140630000e+001) (46, 1.99204802513122560000e+000) (47, 2.35829968005418780000e-002) (48, 1.27608599141240120000e-002) (49, 1.44134570312500000000e+003) (50, -1.58857543945312500000e+002) (51, 1.33549047851562500000e+003) (52, 2.13863745331764220000e-001) (53, -5.81282714843750000000e+002) (54, 8.41122985839843750000e+002) (55, -1.96302528381347660000e+001) (56, 4.02236509323120120000e+000) (57, 2.86551386117935180000e-001) (58, -1.50000000000000000000e+003) (59, -1.01066017150878910000e+001) (60, -6.52121047973632810000e+001) (61, 8.42075526714324950000e-001) (62, 2.17057299613952640000e+000) (63, -1.61346786499023440000e+002) (64, -8.66797733306884770000e+000) (0, -2.34102025628089900000e-001) (1, -3.41232061386108400000e+000) (2, 4.45842593908309940000e-001) (3, -1.90057015419006350000e+000) (4, -4.12884187698364260000e+000) (5, -5.76445758342742920000e-001) (6, -8.87628018856048580000e-001) (7, 1.13527739048004150000e+000) (8, 7.95085370540618900000e-001) (9, -1.73273241519927980000e+000) (10, 2.91416883468627930000e+000) (11, 5.94076454639434810000e-001) (12, -1.65834820270538330000e+000) (13, -2.70117998123168950000e+000) (14, 1.68127059936523440000e-001) (15, 1.48889601230621340000e-001) (16, -3.61543631553649900000e+000) (17, -3.40914696455001830000e-001) (18, 8.56658518314361570000e-001) (19, 7.64421403408050540000e-001) (20, 1.35416901111602780000e+000) (21, 2.35649371147155760000e+000) (22, 2.23202729225158690000e+000) (23, -1.44957408308982850000e-001) (24, -3.69997113943099980000e-001) (25, -2.89910149574279790000e+000) (26, -1.07890799641609190000e-001) (27, 2.39974713325500490000e+000) (28, 3.08481407165527340000e+000) (29, 7.84652411937713620000e-001) (30, -1.14009654521942140000e+000) (31, 2.79913353919982910000e+000) (32, 3.73456209897995000000e-001) (33, 9.43116962909698490000e-001) (34, 2.85434865951538090000e+000) (35, 1.05539679527282710000e+000) (36, -8.61959517002105710000e-001) (37, 5.48849964141845700000e+000) (38, -3.37860733270645140000e-001) (39, 1.11074531078338620000e+000) (40, 2.56586503982543950000e+000) (41, 1.20454502105712890000e+000) (42, -5.99404536187648770000e-002) (43, 2.20165157318115230000e+000) (44, 1.35543450713157650000e-001) (45, -1.11468183994293210000e+000) (46, 1.66774368286132810000e+000) (47, 7.22002238035202030000e-002) (48, -1.81795823574066160000e+000) (49, 1.50000000000000000000e+003) (50, 3.06904166936874390000e-001) (51, 1.50000000000000000000e+003) (52, 5.48321819305419920000e+000) (53, -3.74208045005798340000e+000) (54, -5.89194536209106450000e+000) (55, -1.91301155090332030000e+000) (56, 3.66426348686218260000e-001) (57, 1.92928390502929690000e+001) (58, -1.50000000000000000000e+003) (59, 1.94993078708648680000e+000) (60, 8.74936699867248540000e-001) (61, -1.62190734863281250000e+002) (62, 1.23007690906524660000e+000) (63, -1.25821816921234130000e+000) (64, 1.12784862518310550000e+000) (65, 1.50000000000000000000e+003) (0, -6.82393729686737060000e-001) (1, -1.71075928211212160000e+000) (2, -4.10104393959045410000e-001) (3, 2.00919842720031740000e+000) (4, 2.77165818214416500000e+000) (5, -4.05748374760150910000e-002) (6, 1.15058505535125730000e+000) (7, 2.18428535461425780000e+001) (8, -2.57569789886474610000e-001) (9, 1.58123445510864260000e+000) (10, 3.66914057731628420000e+000) (11, -2.33735829591751100000e-001) (12, 1.40902507305145260000e+000) (13, -1.40059435367584230000e+000) (14, 1.05408310890197750000e+000) (15, 1.78371950984001160000e-001) (16, 4.65544193983078000000e-001) (17, 1.27831012010574340000e-001) (18, 9.75778639316558840000e-001) (19, -1.70967121124267580000e+001) (20, 9.06835734844207760000e-001) (21, 7.16057205200195310000e+000) (22, -3.21981391906738280000e+001) (23, 1.74992576241493230000e-001) (24, -8.99747562408447270000e+000) (25, 5.78290033340454100000e+000) (26, 1.00817263126373290000e+000) (27, 5.27471840381622310000e-001) (28, -6.28207540512084960000e+000) (29, -2.43610516190528870000e-001) (30, 1.17728185653686520000e+000) (31, 5.77498531341552730000e+000) (32, 6.18938446044921880000e-001) (33, -1.91004264354705810000e+000) (34, 6.28321981430053710000e+000) (35, 5.29335856437683110000e-001) (36, 6.95741534233093260000e-001) (37, 2.91953015327453610000e+000) (38, 2.13136702775955200000e-001) (39, -1.53943109512329100000e+000) (40, 4.59514713287353520000e+000) (41, 1.30054247379302980000e+000) (42, -1.77257522940635680000e-001) (43, 4.57023000717163090000e+000) (44, 3.31091374158859250000e-001) (45, -1.84451913833618160000e+000) (46, 4.46655702590942380000e+000) (47, 1.59505224227905270000e+000) (48, -1.38382911682128910000e+000) (49, -1.09653043746948240000e+001) (50, 7.63396682739257810000e+001) (51, -1.50000000000000000000e+003) (52, -4.00988128662109370000e+002) (53, -5.76605773925781250000e+002) (54, -2.15178268432617190000e+002) (55, 4.22030731201171870000e+002) (56, -3.12922630310058590000e+001) (57, -1.50000000000000000000e+003) (58, -3.81600097656250000000e+002) (59, -1.66474365234375000000e+002) (60, -9.40156250000000000000e+002) (61, 9.05273071289062500000e+002) (62, -5.46943511962890630000e+001) (63, -8.36046081542968750000e+002) (64, -1.13706835937500000000e+003) (65, -1.14347667694091800000e+001) (66, -5.44315856933593750000e+002) (0, 9.09579992294311520000e-001) (1, -1.82842779159545900000e+000) (2, 8.01623940467834470000e-001) (3, 4.18544918298721310000e-001) (4, -1.82014322280883790000e+000) (5, -1.49656638503074650000e-001) (6, -5.44023662805557250000e-002) (7, 1.07192313671112060000e+000) (8, 4.87840414047241210000e-001) (9, -1.50275683403015140000e+000) (10, 2.19140124320983890000e+000) (11, 8.19292664527893070000e-001) (12, -3.86563211679458620000e-001) (13, -1.27119326591491700000e+000) (14, -2.68115341663360600000e-001) (15, -3.37043590843677520000e-002) (16, -9.15107965469360350000e-001) (17, -7.61295318603515630000e-001) (18, 6.08293972909450530000e-002) (19, 1.59393787384033200000e+000) (20, -2.92430996894836430000e-001) (21, 3.04872989654541020000e+000) (22, 1.87506258487701420000e+000) (23, 3.12312841415405270000e-001) (24, 1.24112129211425780000e-001) (25, 2.04413914680480960000e+000) (26, 8.26383680105209350000e-002) (27, 2.75429224967956540000e+000) (28, 1.76856422424316410000e+000) (29, 4.91516113281250000000e-001) (30, 5.27543425559997560000e-001) (31, 4.30763661861419680000e-001) (32, 5.48456311225891110000e-001) (33, 4.16974186897277830000e-001) (34, 1.29157197475433350000e+000) (35, 4.51599955558776860000e-001) (36, -3.07599902153015140000e-002) (37, 1.46280157566070560000e+000) (38, 9.02542710304260250000e-001) (39, -6.33442342281341550000e-001) (40, 2.92095851898193360000e+000) (41, 1.20458924770355220000e+000) (42, 1.45948719978332520000e+000) (43, 2.80776238441467290000e+000) (44, -2.93071031570434570000e-001) (45, 1.94803535938262940000e-001) (46, 1.95783793926239010000e+000) (47, -4.25587356090545650000e-001) (48, -1.42881405353546140000e+000) (49, 1.34793548583984370000e+001) (50, 4.02891427278518680000e-001) (51, -4.39330062866210940000e+001) (52, 2.64290785789489750000e+000) (53, 1.49480593204498290000e+000) (54, 5.65136551856994630000e-001) (55, -8.23761343955993650000e-001) (56, 1.49199318885803220000e+000) (57, 1.45507121086120610000e+000) (58, -5.42631804943084720000e-001) (59, 1.87925565242767330000e+000) (60, -3.21679785847663880000e-002) (61, -1.46368467807769780000e+000) (62, 9.96163666248321530000e-001) (63, -1.25580477714538570000e+000) (64, 3.10167050361633300000e+000) (65, 2.21098571777343750000e+002) (66, 2.86376738548278810000e+000) (67, 1.88211774826049800000e+000) (0, 1.17215859889984130000e+000) (1, 6.94074749946594240000e-001) (2, -5.62491834163665770000e-001) (3, 2.17405104637146000000e+000) (4, -5.71485710144042970000e+000) (5, -9.00671482086181640000e-001) (6, 5.68254351615905760000e-001) (7, 1.83483982086181640000e+000) (8, -2.57252186536788940000e-001) (9, 9.63810980319976810000e-001) (10, 1.84377920627593990000e+000) (11, 1.14106535911560060000e-001) (12, -2.39207521080970760000e-001) (13, -8.33578395843505860000e+000) (14, 8.85636433959007260000e-002) (15, 3.45664834976196290000e+000) (16, -8.43071269989013670000e+000) (17, 5.98105847835540770000e-001) (18, 3.71273159980773930000e-001) (19, 1.20964598655700680000e+000) (20, 5.87777793407440190000e-001) (21, -1.83287105560302730000e+001) (22, 1.56422138214111330000e+000) (23, 8.62375438213348390000e-001) (24, 3.77719759941101070000e-001) (25, 2.37016534805297850000e+000) (26, 1.20274119079113010000e-001) (27, 1.58702659606933590000e+000) (28, 9.28647160530090330000e-001) (29, -1.93909093737602230000e-001) (30, 1.09943896532058720000e-001) (31, 2.42335870862007140000e-001) (32, -3.26596736907958980000e-001) (33, 1.91871154308319090000e+000) (34, -9.66901890933513640000e-003) (35, 6.37915730476379390000e-001) (36, 1.22681462764739990000e+000) (37, 2.01138210296630860000e+000) (38, -1.53666138648986820000e-001) (39, 2.20015954971313480000e+000) (40, 2.21800684928894040000e+000) (41, 8.91755819320678710000e-001) (42, 2.12390589714050290000e+000) (43, 3.06614351272583010000e+000) (44, -5.65820455551147460000e-001) (45, 1.59290015697479250000e+000) (46, 3.29859590530395510000e+000) (47, 1.25250673294067380000e+000) (48, -2.11034655570983890000e+000) (49, -1.50000000000000000000e+003) (50, 1.96218929290771480000e+001) (51, -1.50000000000000000000e+003) (52, 2.53978681564331050000e+000) (53, 2.69588136672973630000e+000) (54, -4.24342132568359370000e+002) (55, -7.60978400707244870000e-001) (56, -1.40343022346496580000e+000) (57, -1.50000000000000000000e+003) (58, -1.50000000000000000000e+003) (59, -1.18266944885253910000e+001) (60, 4.12581771612167360000e-001) (61, -5.79309768676757810000e+001) (62, 3.01604824066162110000e+001) (63, -8.03827941894531250000e+002) (64, -1.64586410522460940000e+002) (65, -1.50000000000000000000e+003) (66, 8.28167080879211430000e-001) (67, 1.87843780517578130000e+001) (68, -7.19703435897827150000e+000) (0, 5.55397450923919680000e-001) (1, 7.11587145924568180000e-002) (2, -1.49629324674606320000e-001) (3, 3.21056485176086430000e-001) (4, 7.19574987888336180000e-001) (5, 3.20868402719497680000e-001) (6, 1.53048634529113770000e+000) (7, -1.14718217849731450000e+001) (8, 3.00982654094696040000e-001) (9, 5.48531532287597660000e-001) (10, 5.40942907333374020000e+000) (11, 5.60347020626068120000e-001) (12, 4.79863226413726810000e-001) (13, -1.47361364364624020000e+001) (14, 7.64995664358139040000e-002) (15, 1.41331470012664790000e+000) (16, -1.23070936203002930000e+001) (17, 2.75182902812957760000e-001) (18, -1.10954964160919190000e+000) (19, -1.24821627140045170000e+000) (20, -1.98295235633850100000e-001) (21, -5.51385259628295900000e+000) (22, -2.59670972824096680000e+000) (23, -4.31997120380401610000e-001) (24, 2.13989496231079100000e+000) (25, 4.88238382339477540000e+000) (26, 1.79147517681121830000e+000) (27, -4.45210266113281250000e+000) (28, 7.98847293853759770000e+000) (29, 7.92624413967132570000e-001) (30, 2.88976001739501950000e+000) (31, 4.56232738494873050000e+000) (32, 5.72096526622772220000e-001) (33, 2.91678339242935180000e-001) (34, 4.76110172271728520000e+000) (35, 5.73214232921600340000e-001) (36, -2.93909049034118650000e+000) (37, 2.56517863273620610000e+000) (38, 8.17600369453430180000e-001) (39, 5.74944448471069340000e+000) (40, 3.44485831260681150000e+000) (41, 1.18814206123352050000e+000) (42, -2.91676974296569820000e+000) (43, 3.77211189270019530000e+000) (44, 7.59730041027069090000e-001) (45, 8.91464650630950930000e-001) (46, 3.48312830924987790000e+000) (47, 1.30282211303710940000e+000) (48, 3.73119068145751950000e+000) (49, 1.50000000000000000000e+003) (50, -1.11810351562500000000e+003) (51, 1.49998071289062500000e+003) (52, -8.76112304687500000000e+002) (53, -5.79762084960937500000e+002) (54, 2.26583221435546870000e+002) (55, -7.44051574707031250000e+002) (56, 5.65578552246093750000e+002) (57, -1.42125830078125000000e+003) (58, 2.04386962890625000000e+002) (59, -2.66225982666015620000e+002) (60, -6.55017578125000000000e+002) (61, 1.96842880249023440000e+002) (62, 4.89575866699218750000e+002) (63, -4.29708282470703120000e+002) (64, -4.67892456054687500000e+002) (65, 1.49997692871093750000e+003) (66, 2.06106307983398440000e+002) (67, -6.16305885314941410000e+001) (68, 3.66910896301269530000e+001) (69, -4.57645324707031250000e+002) 
