FANN_FLO_2.1
num_layers=3
learning_rate=0.700000
connection_rate=1.000000
network_type=0
learning_momentum=0.000000
training_algorithm=2
train_error_function=1
train_stop_function=0
cascade_output_change_fraction=0.010000
quickprop_decay=-0.000100
quickprop_mu=1.750000
rprop_increase_factor=1.200000
rprop_decrease_factor=0.500000
rprop_delta_min=0.000000
rprop_delta_max=50.000000
rprop_delta_zero=0.100000
cascade_output_stagnation_epochs=12
cascade_candidate_change_fraction=0.010000
cascade_candidate_stagnation_epochs=12
cascade_max_out_epochs=150
cascade_min_out_epochs=50
cascade_max_cand_epochs=150
cascade_min_cand_epochs=50
cascade_num_candidate_groups=2
bit_fail_limit=3.49999994039535520000e-001
cascade_candidate_limit=1.00000000000000000000e+003
cascade_weight_multiplier=4.00000005960464480000e-001
cascade_activation_functions_count=10
cascade_activation_functions=3 5 7 8 10 11 14 15 16 17 
cascade_activation_steepnesses_count=4
cascade_activation_steepnesses=2.50000000000000000000e-001 5.00000000000000000000e-001 7.50000000000000000000e-001 1.00000000000000000000e+000 
layer_sizes=49 24 2 
scale_included=0
neurons (num_inputs, activation_function, activation_steepness)=(0, 0, 0.00000000000000000000e+000) (0, 0, 0.00000000000000000000e+000) (0, 0, 0.00000000000000000000e+000) (0, 0, 0.00000000000000000000e+000) (0, 0, 0.00000000000000000000e+000) (0, 0, 0.00000000000000000000e+000) (0, 0, 0.00000000000000000000e+000) (0, 0, 0.00000000000000000000e+000) (0, 0, 0.00000000000000000000e+000) (0, 0, 0.00000000000000000000e+000) (0, 0, 0.00000000000000000000e+000) (0, 0, 0.00000000000000000000e+000) (0, 0, 0.00000000000000000000e+000) (0, 0, 0.00000000000000000000e+000) (0, 0, 0.00000000000000000000e+000) (0, 0, 0.00000000000000000000e+000) (0, 0, 0.00000000000000000000e+000) (0, 0, 0.00000000000000000000e+000) (0, 0, 0.00000000000000000000e+000) (0, 0, 0.00000000000000000000e+000) (0, 0, 0.00000000000000000000e+000) (0, 0, 0.00000000000000000000e+000) (0, 0, 0.00000000000000000000e+000) (0, 0, 0.00000000000000000000e+000) (0, 0, 0.00000000000000000000e+000) (0, 0, 0.00000000000000000000e+000) (0, 0, 0.00000000000000000000e+000) (0, 0, 0.00000000000000000000e+000) (0, 0, 0.00000000000000000000e+000) (0, 0, 0.00000000000000000000e+000) (0, 0, 0.00000000000000000000e+000) (0, 0, 0.00000000000000000000e+000) (0, 0, 0.00000000000000000000e+000) (0, 0, 0.00000000000000000000e+000) (0, 0, 0.00000000000000000000e+000) (0, 0, 0.00000000000000000000e+000) (0, 0, 0.00000000000000000000e+000) (0, 0, 0.00000000000000000000e+000) (0, 0, 0.00000000000000000000e+000) (0, 0, 0.00000000000000000000e+000) (0, 0, 0.00000000000000000000e+000) (0, 0, 0.00000000000000000000e+000) (0, 0, 0.00000000000000000000e+000) (0, 0, 0.00000000000000000000e+000) (0, 0, 0.00000000000000000000e+000) (0, 0, 0.00000000000000000000e+000) (0, 0, 0.00000000000000000000e+000) (0, 0, 0.00000000000000000000e+000) (0, 0, 0.00000000000000000000e+000) (49, 3, 5.00000000000000000000e-001) (49, 3, 5.00000000000000000000e-001) (49, 3, 5.00000000000000000000e-001) (49, 3, 5.00000000000000000000e-001) (49, 3, 5.00000000000000000000e-001) (49, 3, 5.00000000000000000000e-001) (49, 3, 5.00000000000000000000e-001) (49, 3, 5.00000000000000000000e-001) (49, 3, 5.00000000000000000000e-001) (49, 3, 5.00000000000000000000e-001) (49, 3, 5.00000000000000000000e-001) (49, 3, 5.00000000000000000000e-001) (49, 3, 5.00000000000000000000e-001) (49, 3, 5.00000000000000000000e-001) (49, 3, 5.00000000000000000000e-001) (49, 3, 5.00000000000000000000e-001) (49, 3, 5.00000000000000000000e-001) (49, 3, 5.00000000000000000000e-001) (49, 3, 5.00000000000000000000e-001) (49, 3, 5.00000000000000000000e-001) (49, 3, 5.00000000000000000000e-001) (49, 3, 5.00000000000000000000e-001) (49, 3, 5.00000000000000000000e-001) (0, 3, 5.00000000000000000000e-001) (24, 4, 5.00000000000000000000e-001) (0, 4, 5.00000000000000000000e-001) 
connections (connected_to_neuron, weight)=(0, 1.09905505180358890000e+000) (1, -1.28506278991699220000e+000) (2, 6.97474837303161620000e-001) (3, 1.64649069309234620000e+000) (4, -7.79856324195861820000e-001) (5, 1.51319856643676760000e+001) (6, 1.52537596225738530000e+000) (7, 1.45207075402140620000e-002) (8, -1.50908863544464110000e+000) (9, 1.53717875480651860000e+000) (10, -1.59585885703563690000e-002) (11, -1.29962408542633060000e+000) (12, 1.75478076934814450000e+000) (13, -7.84218609333038330000e-001) (14, -3.00373411178588870000e+000) (15, 1.14308655261993410000e+000) (16, -9.25601065158843990000e-001) (17, -3.36091089248657230000e+000) (18, 1.29101133346557620000e+000) (19, -2.01930582523345950000e-001) (20, -2.72342419624328610000e+000) (21, 9.12825882434844970000e-001) (22, 6.22261703014373780000e-001) (23, -1.26651620864868160000e+000) (24, 1.55046653747558590000e+000) (25, -2.17234954237937930000e-001) (26, 8.71874451637268070000e-001) (27, 4.02747124433517460000e-001) (28, 2.70884931087493900000e-001) (29, 8.44384193420410160000e+000) (30, 1.41652917861938480000e+000) (31, -1.28206208348274230000e-001) (32, -6.56492614746093750000e+000) (33, 7.74820268154144290000e-001) (34, -2.89032578468322750000e-001) (35, -3.47200274467468260000e+000) (36, 2.11433053016662600000e+000) (37, -6.06545321643352510000e-002) (38, -1.35626888275146480000e+000) (39, -1.00348782539367680000e+000) (40, 1.50081324577331540000e+000) (41, -7.57564544677734380000e-001) (42, -9.80480134487152100000e-001) (43, 4.70560216903686520000e+000) (44, 5.63212275505065920000e-001) (45, 2.53280091285705570000e+000) (46, 1.01358270645141600000e+000) (47, -1.79581141471862790000e+000) (48, -2.63758087158203130000e+000) (0, -1.99476063251495360000e+000) (1, 3.46015381813049320000e+000) (2, -8.99375498294830320000e-001) (3, 6.76422238349914550000e-001) (4, 3.62084269523620610000e+000) (5, -1.09114694595336910000e+000) (6, 4.16596412658691410000e+000) (7, 1.00061929225921630000e+000) (8, -6.18983022868633270000e-002) (9, 4.57535457611083980000e+000) (10, 1.48348733782768250000e-001) (11, 2.43137180805206300000e-001) (12, 2.90851163864135740000e+000) (13, 9.85743641853332520000e-001) (14, -5.96800446510314940000e-002) (15, 1.12987399101257320000e+000) (16, 5.15527904033660890000e-001) (17, 2.72961884737014770000e-001) (18, 3.48310446739196780000e+000) (19, -9.88336652517318730000e-002) (20, 2.44513005018234250000e-001) (21, 7.59980964660644530000e+000) (22, 2.39085361361503600000e-001) (23, -6.90319687128067020000e-002) (24, 1.37547135353088380000e+000) (25, -1.12802803516387940000e+000) (26, 2.93761670589447020000e-001) (27, 1.54011309146881100000e-001) (28, -3.24536395072937010000e+000) (29, 7.41026937961578370000e-001) (30, 5.29412555694580080000e+000) (31, 7.81100451946258540000e-001) (32, 1.95316243916749950000e-002) (33, 3.16620278358459470000e+000) (34, 6.82218432426452640000e-001) (35, -1.00516609847545620000e-001) (36, 1.55844271183013920000e+000) (37, -2.84655362367630000000e-001) (38, -8.73092263936996460000e-002) (39, -1.00367462635040280000e+000) (40, -1.55511543154716490000e-001) (41, 1.56524300575256350000e-001) (42, -9.94259357452392580000e+000) (43, -3.63638567924499510000e+000) (44, -8.73287320137023930000e-002) (45, -1.15820445120334630000e-001) (46, -2.32140645384788510000e-001) (47, 2.11831852793693540000e-001) (48, -4.65943440794944760000e-002) (0, -6.36456549167633060000e-001) (1, -8.26057052612304690000e+000) (2, 3.80045557022094730000e+000) (3, 2.09959939122200010000e-001) (4, -1.57808089256286620000e+000) (5, 1.04446232318878170000e+000) (6, 5.18707454204559330000e-001) (7, 7.02082991600036620000e-001) (8, -2.14294528961181640000e+000) (9, 3.56428444385528560000e-001) (10, 2.74436831474304200000e-001) (11, -2.10776329040527340000e+000) (12, -1.26046374440193180000e-001) (13, -3.13063144683837890000e+000) (14, -1.87962901592254640000e+000) (15, -2.92897582054138180000e-001) (16, -4.77607816457748410000e-001) (17, -1.52718234062194820000e+000) (18, 2.88193494081497190000e-001) (19, 1.03316068649291990000e+000) (20, -2.13763904571533200000e+000) (21, -6.34203910827636720000e-001) (22, 7.26951313018798830000e+000) (23, -1.42071747779846190000e+000) (24, 3.47713977098464970000e-001) (25, 1.33063805103302000000e+000) (26, 7.73056554794311520000e+000) (27, -3.19936126470565800000e-001) (28, 1.61282169818878170000e+000) (29, 1.03128194808959960000e+000) (30, 5.22533535957336430000e-001) (31, 5.57118952274322510000e-001) (32, -5.04154264926910400000e-001) (33, 4.53899174928665160000e-001) (34, -1.13206696510314940000e+000) (35, -3.80891382694244380000e-001) (36, 8.54689121246337890000e-001) (37, -3.42733049392700200000e+000) (38, -7.33188241720199580000e-002) (39, -1.35806787014007570000e+000) (40, -5.54467010498046870000e+000) (41, -2.81443521380424500000e-002) (42, -1.55003678798675540000e+000) (43, 1.55656719207763670000e+000) (44, 4.13146346807479860000e-001) (45, 1.39112412929534910000e+000) (46, 1.67336273193359370000e+000) (47, 1.60072252154350280000e-001) (48, -1.41563677787780760000e+000) (0, 9.29986417293548580000e-001) (1, 6.62498855590820310000e+000) (2, 8.11723649501800540000e-001) (3, 6.68348491191864010000e-001) (4, 2.03701567649841310000e+000) (5, 1.50529432296752930000e+000) (6, 6.18673264980316160000e-001) (7, 6.80798888206481930000e-001) (8, 1.64917871356010440000e-001) (9, 1.00132179260253910000e+000) (10, 8.51523876190185550000e-001) (11, -1.10269829630851750000e-001) (12, 9.05839323997497560000e-001) (13, 1.38205277919769290000e+000) (14, 8.09663474559783940000e-001) (15, 9.14813280105590820000e-001) (16, 2.15457129478454590000e+000) (17, 7.87438035011291500000e-001) (18, 3.37640255689620970000e-001) (19, 3.75793457031250000000e-001) (20, 1.99068689346313480000e+000) (21, 1.06918001174926760000e+000) (22, -7.28907406330108640000e-001) (23, 1.78943455219268800000e+000) (24, 5.64302861690521240000e-001) (25, 6.03951752185821530000e-001) (26, 6.25999510288238530000e-001) (27, 7.33853280544281010000e-001) (28, -1.15802824497222900000e+000) (29, 1.74984207153320310000e+001) (30, 6.70245110988616940000e-001) (31, 1.12891459465026860000e+000) (32, -1.21481373906135560000e-001) (33, 7.04757213592529300000e-001) (34, 1.52746486663818360000e+000) (35, 2.58107841014862060000e-001) (36, 3.38011860847473140000e-001) (37, 1.47666430473327640000e+000) (38, 7.27517232298851010000e-002) (39, 7.60402023792266850000e-001) (40, 8.43944311141967770000e-001) (41, -5.83351887762546540000e-002) (42, 8.72560381889343260000e-001) (43, 9.70785692334175110000e-002) (44, 9.10524278879165650000e-002) (45, -4.55304235219955440000e-002) (46, 6.42353582382202150000e+000) (47, 1.03398151695728300000e-001) (48, 1.59534916281700130000e-001) (0, -7.77256202697753910000e+000) (1, 2.12154006958007810000e+000) (2, -3.14172655344009400000e-001) (3, -2.69176816940307620000e+000) (4, 6.37992024421691890000e-001) (5, -3.12071859836578370000e-001) (6, 4.90708351135253910000e+000) (7, 8.01670670509338380000e-001) (8, -1.71229183673858640000e-001) (9, 5.61550569534301760000e+000) (10, 5.79963088035583500000e-001) (11, 1.58698841929435730000e-001) (12, 2.52743101119995120000e+000) (13, 6.94018065929412840000e-001) (14, 6.58092796802520750000e-002) (15, -1.89619076251983640000e+000) (16, 6.44541144371032710000e-001) (17, 4.34323489665985110000e-001) (18, 2.72007179260253910000e+000) (19, 4.01972740888595580000e-001) (20, -2.17032320797443390000e-002) (21, 9.24516868591308590000e+000) (22, -1.46578118205070500000e-001) (23, -2.23853677511215210000e-001) (24, 2.40251088142395020000e+000) (25, 8.74388366937637330000e-002) (26, -3.99606414139270780000e-002) (27, 2.70776023864746090000e+001) (28, -1.16747522354125980000e+000) (29, 3.62070262432098390000e-001) (30, 7.15637350082397460000e+000) (31, 3.17827880382537840000e-001) (32, -1.72265470027923580000e-001) (33, 5.41883087158203130000e+000) (34, 2.78469473123550420000e-001) (35, -1.54414921998977660000e-001) (36, 5.04624307155609130000e-001) (37, 2.08199471235275270000e-001) (38, -6.27748668193817140000e-002) (39, 1.65750255584716800000e+001) (40, 1.60163596272468570000e-001) (41, 1.63131818175315860000e-001) (42, 1.55751810073852540000e+001) (43, -7.83963918685913090000e-001) (44, 2.64979172497987750000e-002) (45, 1.07387697696685790000e+000) (46, 1.10659563541412350000e+000) (47, -1.65475457906723020000e-001) (48, 2.69984722137451170000e-001) (0, 4.94661897420883180000e-001) (1, 4.03089714050292970000e+000) (2, 1.87720966339111330000e+000) (3, 1.32388859987258910000e-001) (4, 2.39049911499023440000e+000) (5, 1.63690638542175290000e+000) (6, 1.80619731545448300000e-001) (7, 2.70079642534255980000e-001) (8, 3.07728797197341920000e-001) (9, 6.85988273471593860000e-003) (10, 5.15713930130004880000e-001) (11, 3.04265737533569340000e-001) (12, 2.28105634450912480000e-001) (13, 1.47655081748962400000e+000) (14, 8.39257597923278810000e-001) (15, 1.93758115172386170000e-001) (16, 1.83514404296875000000e+000) (17, 2.37512254714965820000e+000) (18, 3.05868953466415410000e-001) (19, 5.68406164646148680000e-001) (20, 1.36964201927185060000e+000) (21, 5.76857388019561770000e-001) (22, -4.00751972198486330000e+000) (23, 2.13193416595458980000e+001) (24, 5.31968809664249420000e-002) (25, 3.21069478988647460000e-001) (26, 4.54587668180465700000e-001) (27, 4.15678977966308590000e-001) (28, -1.45579409599304200000e+000) (29, 4.76538133621215820000e+000) (30, 6.14256799221038820000e-001) (31, 2.19244524836540220000e-001) (32, 5.60670197010040280000e-001) (33, 3.32326322793960570000e-001) (34, 1.54446101188659670000e+000) (35, 6.65549039840698240000e-001) (36, 3.35281819105148320000e-001) (37, 1.54426121711730960000e+000) (38, -6.10432922840118410000e-001) (39, 2.57458329200744630000e-001) (40, 2.46006345748901370000e+000) (41, -1.88512995839118960000e-001) (42, 9.88502442836761470000e-001) (43, 5.21108722686767580000e+000) (44, -3.64334404468536380000e-001) (45, -7.12232217192649840000e-002) (46, 4.21735286712646480000e+000) (47, -2.32367232441902160000e-001) (48, 5.47277748584747310000e-001) (0, 2.71762275695800780000e+000) (1, -2.74833416938781740000e+000) (2, 1.06855459213256840000e+001) (3, 5.36743307113647460000e+000) (4, -5.22051274776458740000e-001) (5, 4.59145641326904300000e+000) (6, 6.57150149345397950000e-001) (7, 3.59297305345535280000e-001) (8, -1.22457027435302730000e-001) (9, 8.86208832263946530000e-001) (10, 7.10630714893341060000e-001) (11, 2.90958523750305180000e-001) (12, 1.26947259902954100000e+000) (13, 5.13284020125865940000e-002) (14, 2.20887348055839540000e-001) (15, 5.97952556610107420000e+000) (16, -5.08304953575134280000e-001) (17, 6.75747454166412350000e-001) (18, 8.68667304515838620000e-001) (19, 8.61080288887023930000e-001) (20, 6.89655363559722900000e-001) (21, 5.09354472160339360000e-001) (22, 6.41475796699523930000e-001) (23, -5.18380701541900630000e-001) (24, 1.09487283229827880000e+000) (25, 2.30433344841003420000e+000) (26, 4.66546684503555300000e-001) (27, 9.20474147796630860000e+000) (28, 3.98107194900512700000e+000) (29, 5.64304888248443600000e-001) (30, 5.42095124721527100000e-001) (31, 5.09883522987365720000e-001) (32, 4.01790112257003780000e-001) (33, 7.98479020595550540000e-001) (34, 2.85890817642211910000e-001) (35, 4.79801982641220090000e-001) (36, 7.97739207744598390000e-001) (37, -2.30651780962944030000e-001) (38, 4.00543242692947390000e-001) (39, 3.63261175155639650000e+000) (40, 6.75803005695343020000e-001) (41, 6.33567333221435550000e-001) (42, 7.62793588638305660000e+000) (43, 3.45934605598449710000e+000) (44, 3.23552072048187260000e-001) (45, 3.50684237480163570000e+000) (46, -2.17725634574890140000e-001) (47, 6.19389355182647710000e-001) (48, 2.99333333969116210000e-001) (0, -1.76275157928466800000e+000) (1, 2.23401713371276860000e+000) (2, 1.41602110862731930000e+000) (3, -1.69520246982574460000e+000) (4, 1.50683283805847170000e+000) (5, -7.65666151046752930000e+000) (6, -7.52547979354858400000e-001) (7, -3.21566730737686160000e-001) (8, 5.36494493484497070000e-001) (9, 1.74813449382781980000e-001) (10, -5.96140265464782710000e-001) (11, 6.58706545829772950000e-001) (12, -6.61946356296539310000e-001) (13, 1.12108755111694340000e+000) (14, 8.02500903606414790000e-001) (15, -6.18752479553222660000e-001) (16, 6.62334486842155460000e-002) (17, 1.96575152873992920000e+000) (18, -1.42239367961883540000e+000) (19, -1.86370933055877690000e+000) (20, -6.13277018070220950000e-001) (21, 5.00124275684356690000e-001) (22, -1.04713690280914310000e+000) (23, 5.01816987991333010000e+000) (24, -3.41693115234375000000e+000) (25, -4.25420188903808590000e+000) (26, 2.21039265394210820000e-001) (27, 6.57099299132823940000e-004) (28, -1.37110400199890140000e+000) (29, 1.08394771814346310000e-001) (30, 8.37046861648559570000e-001) (31, 1.41932249069213870000e-001) (32, 2.99938946962356570000e-001) (33, 2.28550001978874210000e-001) (34, 8.35560336709022520000e-002) (35, -9.54425707459449770000e-002) (36, 5.29494285583496090000e-001) (37, 6.02411508560180660000e-001) (38, -6.66263028979301450000e-002) (39, 1.65265452861785890000e+000) (40, -1.18288910388946530000e+000) (41, 3.75990450382232670000e-001) (42, 4.80227231979370120000e+000) (43, -3.71943855285644530000e+000) (44, 5.58970212936401370000e-001) (45, 1.12743578851222990000e-001) (46, 5.04589080810546880000e-002) (47, -4.17873300611972810000e-002) (48, 5.82419395446777340000e-001) (0, 1.44614992141723630000e+001) (1, -1.27854144573211670000e+000) (2, 1.83302345275878910000e+001) (3, 1.42232007980346680000e+001) (4, -1.28814196586608890000e+000) (5, 5.09511137008666990000e+000) (6, 9.63298439979553220000e-001) (7, 5.04237532615661620000e-001) (8, 5.85048496723175050000e-001) (9, 1.08350861072540280000e+000) (10, 8.34580957889556880000e-001) (11, 8.36930930614471440000e-001) (12, 9.88793075084686280000e-001) (13, 3.94794881343841550000e-001) (14, 8.07487428188323970000e-001) (15, 4.21695661544799800000e+000) (16, -3.73211652040481570000e-001) (17, 2.04920911788940430000e+000) (18, 1.46302747726440430000e+000) (19, 6.57937943935394290000e-001) (20, 4.41568434238433840000e-001) (21, 7.13698446750640870000e-001) (22, 1.75459697842597960000e-001) (23, -3.28361004590988160000e-001) (24, 4.38168954849243160000e+000) (25, 8.43292891979217530000e-001) (26, 1.22134399414062500000e+000) (27, 7.00793981552124020000e+000) (28, 2.78394296765327450000e-003) (29, 6.43365025520324710000e-001) (30, 4.71575915813446040000e-001) (31, 3.16739737987518310000e-001) (32, 8.07332694530487060000e-001) (33, 8.67631077766418460000e-001) (34, 5.39823889732360840000e-001) (35, 7.98860549926757810000e-001) (36, 1.11547541618347170000e+000) (37, 3.83548498153686520000e-001) (38, 6.08636498451232910000e-001) (39, 4.49670910835266110000e-001) (40, 9.39555704593658450000e-001) (41, 7.96952605247497560000e-001) (42, 6.75858378410339360000e-001) (43, 7.29350328445434570000e-001) (44, 9.42322611808776860000e-001) (45, 1.41842231750488280000e+001) (46, 9.13004159927368160000e-001) (47, 7.74408996105194090000e-001) (48, 1.33685201406478880000e-001) (0, 1.62809252738952640000e+000) (1, -8.81586134433746340000e-001) (2, -9.61971700191497800000e-001) (3, 9.51321661472320560000e-001) (4, -1.64819598197937010000e-001) (5, -6.83544337749481200000e-001) (6, 8.40301215648651120000e-001) (7, 2.51073151826858520000e-001) (8, 8.91132652759552000000e-001) (9, 5.48318862915039060000e-001) (10, 6.25617384910583500000e-001) (11, 7.66072988510131840000e-001) (12, 2.60079115629196170000e-001) (13, 4.40213054418563840000e-001) (14, 3.93843114376068120000e-001) (15, 1.04585564136505130000e+000) (16, 6.81082010269165040000e-002) (17, -1.06987774372100830000e+000) (18, 6.06209754943847660000e-001) (19, 5.85403740406036380000e-001) (20, 2.04043078422546390000e+000) (21, 6.79637134075164790000e-001) (22, 1.48922786116600040000e-001) (23, -5.10074520111083980000e+000) (24, 2.40337610244750980000e+000) (25, 1.31812691688537600000e+000) (26, 1.94365310668945310000e+000) (27, 1.65574991703033450000e+000) (28, 3.80555868148803710000e+000) (29, -5.26318979263305660000e+000) (30, 1.88967734575271610000e-001) (31, 5.11671662330627440000e-001) (32, 6.95083439350128170000e-001) (33, 3.67820262908935550000e-001) (34, 5.55377006530761720000e-001) (35, 6.77989125251770020000e-001) (36, 5.03758072853088380000e-001) (37, -4.82871830463409420000e-001) (38, 9.77696180343627930000e-001) (39, 4.47125077247619630000e-001) (40, 1.17289757728576660000e+000) (41, 8.48180294036865230000e-001) (42, 1.94592133164405820000e-001) (43, 8.06386947631835940000e-001) (44, 9.65049803256988530000e-001) (45, 3.41257619857788090000e+000) (46, 1.47142052650451660000e-001) (47, 6.35578632354736330000e-001) (48, 1.03134334087371830000e+000) (0, 6.15467011928558350000e-001) (1, 1.23660888671875000000e+001) (2, -5.93167185783386230000e-001) (3, 5.49791872501373290000e-001) (4, 5.13819837570190430000e+000) (5, -7.26926743984222410000e-001) (6, 7.55374550819396970000e-001) (7, 5.92034578323364260000e-001) (8, 1.27122831344604490000e+000) (9, 1.87519371509552000000e+000) (10, 6.35613322257995610000e-001) (11, 4.45586740970611570000e-001) (12, 8.43435347080230710000e-001) (13, 1.11869347095489500000e+000) (14, 8.10250580310821530000e-001) (15, 5.48550009727478030000e-001) (16, 2.58574664592742920000e-001) (17, 3.35064721107482910000e+000) (18, 5.99207282066345210000e-001) (19, 8.97366628050804140000e-002) (20, 2.10483741760253910000e+000) (21, 2.96509933471679690000e+000) (22, 5.90731382369995120000e-001) (23, 1.13559627532958980000e+001) (24, 8.62604916095733640000e-001) (25, -4.94921684265136720000e-001) (26, 2.90046811103820800000e-001) (27, 9.46270167827606200000e-001) (28, -3.34440231323242190000e+000) (29, 6.71580791473388670000e+000) (30, 1.18464231491088870000e+000) (31, 5.01648962497711180000e-001) (32, 4.33518946170806880000e-001) (33, 9.56481099128723140000e-001) (34, 1.22837626934051510000e+000) (35, 1.09378404915332790000e-001) (36, 1.71989178657531740000e+000) (37, 8.56204986572265630000e-001) (38, -8.15269425511360170000e-002) (39, 1.12077331542968750000e+000) (40, -9.63050484657287600000e-001) (41, -2.18114912509918210000e-001) (42, 1.30304920673370360000e+000) (43, -1.98369967937469480000e+000) (44, -3.02424747496843340000e-002) (45, 5.34912645816802980000e-001) (46, 5.09857058525085450000e-001) (47, 1.70567229390144350000e-001) (48, 2.12526619434356690000e-001) (0, -5.14873695373535160000e+000) (1, 1.89098787307739260000e+000) (2, 2.24715209007263180000e+000) (3, 9.11075714975595470000e-003) (4, 3.75861197710037230000e-001) (5, 2.32715272903442380000e+000) (6, 1.54454874992370610000e+000) (7, 7.96518698334693910000e-002) (8, -7.95537326484918590000e-003) (9, 2.64545202255249020000e+000) (10, 3.88961791992187500000e-001) (11, 1.04494579136371610000e-001) (12, 9.63739752769470210000e-001) (13, 3.16156536340713500000e-001) (14, -3.20783779025077820000e-002) (15, 5.56595586240291600000e-002) (16, 2.76557445526123050000e-001) (17, 9.45283710956573490000e-001) (18, 7.53994226455688480000e-001) (19, -6.98649108409881590000e-001) (20, -1.88248023390769960000e-001) (21, 6.59506416320800780000e+000) (22, -2.17658415436744690000e-001) (23, 3.05074095726013180000e-001) (24, 6.43124163150787350000e-001) (25, -2.27588847279548650000e-001) (26, -1.13807880878448490000e+000) (27, -4.99412012100219730000e+000) (28, -8.52276742458343510000e-001) (29, 1.84521782398223880000e+000) (30, 1.94113481044769290000e+000) (31, 7.71683752536773680000e-002) (32, 3.02446428686380390000e-002) (33, 1.12211441993713380000e+000) (34, 1.42824664711952210000e-001) (35, -2.03744709491729740000e-001) (36, -1.61476242542266850000e+000) (37, -1.07101953029632570000e+000) (38, -1.58967792987823490000e-001) (39, 1.04519450664520260000e+000) (40, -3.61836910247802730000e+000) (41, -7.76893272995948790000e-002) (42, 4.87926101684570310000e+000) (43, -3.56175780296325680000e+000) (44, -1.10229991376399990000e-001) (45, -3.65582084655761720000e+000) (46, -1.88036417961120610000e+000) (47, -1.60386577248573300000e-001) (48, -7.50901043415069580000e-001) (0, 4.21603441238403320000e-001) (1, -1.08252296447753910000e+001) (2, -1.22585592269897460000e+001) (3, 5.88461756706237790000e-001) (4, -1.83479475975036620000e+000) (5, -1.60457536578178410000e-001) (6, 3.43000501394271850000e-001) (7, 2.76069575920701030000e-003) (8, -3.64921480417251590000e-001) (9, 5.47674059867858890000e-001) (10, 3.81924796104431150000e+000) (11, 4.35949921607971190000e-001) (12, 2.40432366728782650000e-001) (13, -1.13969933986663820000e+000) (14, -1.24850165843963620000e+000) (15, 3.43979597091674800000e-001) (16, -3.72194260358810420000e-001) (17, -1.23180043697357180000e+000) (18, 4.94264394044876100000e-001) (19, 1.74038410186767580000e+000) (20, -1.47953486442565920000e+000) (21, -1.23683476448059080000e+000) (22, 4.21088838577270510000e+000) (23, -7.22352695465087890000e+000) (24, 4.24729973077774050000e-001) (25, 9.68275165557861330000e+000) (26, -1.22018598020076750000e-001) (27, -2.05197691917419430000e+000) (28, 1.02271175384521480000e+000) (29, 4.73340719938278200000e-001) (30, 1.68577775359153750000e-001) (31, -1.97813630104064940000e-001) (32, 2.24251180887222290000e-001) (33, 3.64590406417846680000e-001) (34, -7.35530257225036620000e-001) (35, 6.19799131527543070000e-003) (36, -4.50834184885025020000e-001) (37, -3.75351786613464360000e+000) (38, 4.93872687220573430000e-002) (39, 1.93074718117713930000e-002) (40, -1.75667357444763180000e+000) (41, 5.74011266231536870000e-001) (42, -1.91070690751075740000e-001) (43, 1.36130833625793460000e+000) (44, 6.39988243579864500000e-001) (45, 3.07719326019287110000e+000) (46, 2.53839064389467240000e-002) (47, -1.53611097484827040000e-002) (48, -1.43992841243743900000e-001) (0, -7.98541456460952760000e-002) (1, -1.00119085311889650000e+001) (2, 1.02351570129394530000e+000) (3, 3.86625975370407100000e-001) (4, -6.14936530590057370000e-001) (5, 2.87969851493835450000e+000) (6, 5.21112501621246340000e-001) (7, -2.54800349473953250000e-001) (8, -6.40596775338053700000e-003) (9, 1.58428087830543520000e-001) (10, 2.20603680610656740000e+000) (11, -3.48328888416290280000e-001) (12, 2.58230149745941160000e-001) (13, -3.28183501958847050000e-001) (14, -1.77830386161804200000e+000) (15, 3.71067792177200320000e-001) (16, -3.62059950828552250000e-001) (17, -5.37620663642883300000e-001) (18, 2.15562239289283750000e-001) (19, 2.86045908927917480000e+000) (20, -2.80777740478515620000e+000) (21, -3.71035099029541020000e-001) (22, 2.64306378364562990000e+000) (23, -5.80102860927581790000e-001) (24, 4.56786334514617920000e-001) (25, 6.32076883316040040000e+000) (26, -5.61967551708221440000e-001) (27, -3.71335721015930180000e+000) (28, 2.15863966941833500000e+000) (29, 4.54224079847335820000e-001) (30, 3.50179135799407960000e-001) (31, -2.19511210918426510000e-001) (32, 2.29331050068140030000e-002) (33, 4.15216624736785890000e-001) (34, -3.67498576641082760000e-001) (35, 7.95154944062232970000e-002) (36, 7.79609978199005130000e-001) (37, -2.38708758354187010000e+000) (38, 1.84208348393440250000e-001) (39, -6.10237240791320800000e-001) (40, -2.29377388954162600000e+000) (41, 2.66011595726013180000e-001) (42, 4.71764206886291500000e-001) (43, 1.17341971397399900000e+000) (44, 4.90077108144760130000e-001) (45, 3.55550074577331540000e+000) (46, 9.27719295024871830000e-001) (47, 1.67401656508445740000e-001) (48, 1.52851670980453490000e-001) (0, 2.32031702995300290000e-001) (1, 1.40499486923217770000e+001) (2, 3.32585883140563960000e+000) (3, 7.50893712043762210000e-001) (4, 1.14791679382324220000e+001) (5, 5.28818655014038090000e+000) (6, 8.59470248222351070000e-001) (7, 5.90608537197113040000e-001) (8, 7.74533092975616460000e-001) (9, 1.53527152538299560000e+000) (10, 5.05048632621765140000e-001) (11, 7.22031474113464360000e-001) (12, 8.19110453128814700000e-001) (13, 2.22460937500000000000e+000) (14, 9.00185048580169680000e-001) (15, 6.09481155872344970000e-001) (16, 1.16795611381530760000e+000) (17, 1.48809194564819340000e+000) (18, 5.99764883518218990000e-001) (19, -4.51581776142120360000e-001) (20, 2.62321257591247560000e+000) (21, 1.69421815872192380000e+000) (22, -3.29078674316406250000e-001) (23, 5.54202556610107420000e+000) (24, 7.77200460433959960000e-002) (25, -6.31079912185668950000e-001) (26, 7.78314173221588130000e-001) (27, 1.04823756217956540000e+000) (28, -2.94456624984741210000e+000) (29, 7.57200479507446290000e+000) (30, 1.74930119514465330000e+000) (31, 1.05349636077880860000e+000) (32, 6.59535050392150880000e-001) (33, 6.35908901691436770000e-001) (34, 1.21417009830474850000e+000) (35, 3.60531240701675420000e-001) (36, 3.59418034553527830000e-001) (37, 8.27106416225433350000e-001) (38, 3.60207259654998780000e-001) (39, 2.47241353988647460000e+000) (40, -1.86066007614135740000e+000) (41, 1.38087600469589230000e-001) (42, 5.11516475677490230000e+000) (43, -6.93100595474243160000e+000) (44, 8.94336327910423280000e-002) (45, 3.75970959663391110000e+000) (46, 6.40635013580322270000e-001) (47, -8.34094732999801640000e-002) (48, 9.26306694746017460000e-002) (0, -5.07871985435485840000e-001) (1, 2.78445988893508910000e-001) (2, -2.09370708465576170000e+000) (3, -1.00280153751373290000e+000) (4, 4.68924313783645630000e-001) (5, -2.01885676383972170000e+000) (6, 1.61547526717185970000e-001) (7, -2.50324346125125890000e-002) (8, 8.97149622440338130000e-001) (9, 4.88971590995788570000e-001) (10, -1.06750512495636940000e-002) (11, 1.00624656677246090000e+000) (12, 2.57618904113769530000e-001) (13, 4.35666322708129880000e-001) (14, 7.40751683712005620000e-001) (15, -2.13944911956787110000e-001) (16, 2.20580279827117920000e-001) (17, -1.57974410057067870000e+000) (18, 1.01279914379119870000e+000) (19, 3.26163560152053830000e-001) (20, 1.03647160530090330000e+000) (21, 1.51198291778564450000e+000) (22, 3.71769331395626070000e-002) (23, -6.11277699470520020000e-001) (24, -1.59153485298156740000e+000) (25, 7.26614117622375490000e-001) (26, 5.03692090511322020000e-001) (27, 1.38260757923126220000e+000) (28, 1.72251486778259280000e+000) (29, -2.90019178390502930000e+000) (30, 6.97176873683929440000e-001) (31, 2.44571775197982790000e-001) (32, -5.26265561580657960000e-001) (33, 4.21982765197753910000e-001) (34, -7.70252868533134460000e-002) (35, -5.39192914962768550000e-001) (36, 2.78000771999359130000e-001) (37, 1.03407949209213260000e-001) (38, -4.85848337411880490000e-001) (39, 1.18409168720245360000e+000) (40, -5.11171460151672360000e-001) (41, -5.41214406490325930000e-001) (42, 1.86174511909484860000e+000) (43, -1.74479556083679200000e+000) (44, -8.15320611000061040000e-001) (45, -2.69407463073730470000e+000) (46, -1.83206394314765930000e-001) (47, -2.20310464501380920000e-001) (48, -1.31757628917694090000e+000) (0, 6.11936926841735840000e-001) (1, -2.54348716735839840000e+001) (2, 2.48451411724090580000e-001) (3, 2.25657925009727480000e-001) (4, -2.46485805511474610000e+000) (5, 1.41275584697723390000e-001) (6, 1.85603737831115720000e-001) (7, 3.68597805500030520000e-002) (8, -3.49965333938598630000e-001) (9, 3.76288861036300660000e-001) (10, 1.16838240623474120000e+000) (11, 3.14754657447338100000e-002) (12, 2.42872208356857300000e-001) (13, -2.67097043991088870000e+000) (14, 8.63319635391235350000e-002) (15, 4.94091928005218510000e-001) (16, -2.06564605236053470000e-001) (17, -1.21583199501037600000e+000) (18, 1.78909450769424440000e-002) (19, 5.97787714004516600000e+000) (20, -1.47397744655609130000e+000) (21, -4.04809325933456420000e-001) (22, 1.27053384780883790000e+001) (23, -1.41862058639526370000e+000) (24, 5.52104711532592770000e-001) (25, 2.63939785957336430000e+000) (26, 2.73240256309509280000e+000) (27, -5.24674713611602780000e-001) (28, 2.12495326995849610000e+000) (29, -1.46661847829818730000e-001) (30, -3.95927056670188900000e-002) (31, 2.39156913757324220000e+000) (32, 1.78811222314834590000e-001) (33, 4.67513442039489750000e-001) (34, -9.88076150417327880000e-001) (35, 7.49628022313117980000e-002) (36, -1.10244810581207280000e+000) (37, -8.49750232696533200000e+000) (38, 2.75469511747360230000e-001) (39, -2.32651263475418090000e-001) (40, 9.24225687980651860000e-001) (41, 1.42618343234062190000e-001) (42, -6.66555166244506840000e-002) (43, 6.68005347251892090000e-001) (44, 2.02958837151527400000e-001) (45, 1.51670885086059570000e+000) (46, -7.43117257952690120000e-002) (47, 5.78570783138275150000e-001) (48, -2.36571691930294040000e-002) (0, -7.70390748977661130000e-001) (1, -7.02604389190673830000e+000) (2, -6.05897903442382810000e+000) (3, 3.05602610111236570000e-001) (4, -1.01839148998260500000e+000) (5, -1.34876513481140140000e+000) (6, 5.97777247428894040000e-001) (7, -1.21232541278004650000e-002) (8, -3.67993146181106570000e-001) (9, 4.27525579929351810000e-001) (10, 2.84925031661987300000e+000) (11, 2.45463065803050990000e-002) (12, -8.70713412761688230000e-001) (13, -6.12034976482391360000e-001) (14, -1.61902225017547610000e+000) (15, 4.39134418964385990000e-001) (16, -8.68687629699707030000e-001) (17, -4.23653078079223630000e+000) (18, 3.07898461818695070000e-001) (19, 1.13849258422851560000e+000) (20, -3.74618816375732420000e+000) (21, -9.36709344387054440000e-001) (22, 1.77832579612731930000e+000) (23, -7.00855302810668950000e+000) (24, 4.44895654916763310000e-001) (25, 3.54238533973693850000e+000) (26, -3.56566429138183590000e-001) (27, -1.23256695270538330000e+000) (28, 1.62007665634155270000e+000) (29, 1.61053724586963650000e-002) (30, 3.83192330598831180000e-001) (31, 4.56653892993927000000e-001) (32, 6.77312985062599180000e-002) (33, 6.55190587043762210000e-001) (34, -7.38090515136718750000e-001) (35, 1.65353238582611080000e-001) (36, 3.97135436534881590000e-001) (37, 1.88803386688232420000e+000) (38, -8.57185572385787960000e-003) (39, 2.46641516685485840000e-001) (40, -1.75432550907135010000e+000) (41, 2.50493854284286500000e-001) (42, -2.02593460679054260000e-001) (43, 1.11390912532806400000e+000) (44, 2.86194294691085820000e-001) (45, 4.49328088760375980000e+000) (46, 3.97271966934204100000e+000) (47, 3.45560073852539060000e-001) (48, -4.28935796022415160000e-001) (0, 6.76815271377563480000e+000) (1, 3.84353899955749510000e+000) (2, -3.59621465206146240000e-001) (3, -1.83314645290374760000e+000) (4, 9.60898876190185550000e-001) (5, 1.55057743191719060000e-001) (6, 2.52533650398254390000e+000) (7, -1.12237751483917240000e-001) (8, -3.74286212027072910000e-002) (9, 2.73533320426940920000e+000) (10, -3.02223950624465940000e-001) (11, 2.08149462938308720000e-001) (12, 4.33884334564208980000e+000) (13, 6.47196054458618160000e-001) (14, -1.85561075806617740000e-001) (15, -2.48148059844970700000e+000) (16, 9.53327417373657230000e-001) (17, 1.67392298579216000000e-001) (18, 4.28201913833618160000e+000) (19, -1.33357775211334230000e+000) (20, 2.12099409103393550000e+000) (21, 8.37310314178466800000e+000) (22, -4.77983802556991580000e-001) (23, 1.28945305943489070000e-001) (24, 1.71445119380950930000e+000) (25, -4.76946830749511720000e+000) (26, 4.13376241922378540000e-002) (27, 1.97200889587402340000e+001) (28, -2.56294417381286620000e+000) (29, -4.34007263183593750000e+000) (30, 5.57002210617065430000e+000) (31, 7.91854500770568850000e-001) (32, -1.90811976790428160000e-001) (33, 1.09654104709625240000e+000) (34, 1.42403221130371090000e+000) (35, -6.76955208182334900000e-002) (36, 5.22432088851928710000e-001) (37, 1.89947354793548580000e+000) (38, -2.42815852165222170000e-001) (39, 2.42115998268127440000e+000) (40, -8.69272768497467040000e-001) (41, 1.63315966725349430000e-001) (42, -3.53147482872009280000e+000) (43, -1.54028975963592530000e+000) (44, -3.38768839836120610000e-001) (45, 4.11350488662719730000e+000) (46, 5.17678439617156980000e-001) (47, 2.79556035995483400000e-001) (48, -6.75119459629058840000e-001) (0, -1.55517208576202390000e+000) (1, 9.89535078406333920000e-002) (2, -2.07447230815887450000e-001) (3, -2.04685956239700320000e-001) (4, -2.58849084377288820000e-001) (5, 2.42163956165313720000e-001) (6, 8.56729149818420410000e-001) (7, 2.32678130269050600000e-001) (8, -8.54117035865783690000e-001) (9, 7.99290418624877930000e-001) (10, 7.69746676087379460000e-003) (11, -1.18896639347076420000e+000) (12, 5.43375968933105470000e-001) (13, -7.77802690863609310000e-002) (14, -1.13801836967468260000e+000) (15, 9.16082382202148440000e-001) (16, 3.94586324691772460000e-002) (17, -1.00685811042785640000e+000) (18, 5.62741756439208980000e-001) (19, -1.59567102789878850000e-001) (20, -5.96407830715179440000e-001) (21, 1.05504369735717770000e+000) (22, 2.15674355626106260000e-001) (23, 4.90069128572940830000e-002) (24, -7.52591609954833980000e-001) (25, 1.22131742537021640000e-002) (26, 1.53106555938720700000e+001) (27, 6.54713869094848630000e-001) (28, 2.57193773984909060000e-001) (29, -3.02900075912475590000e-001) (30, 8.45928564667701720000e-002) (31, -1.47808641195297240000e-001) (32, -1.21987926959991460000e+000) (33, -7.35368192195892330000e-001) (34, -2.21306577324867250000e-001) (35, -1.17167925834655760000e+000) (36, -8.02125513553619380000e-001) (37, -4.41501438617706300000e-002) (38, -2.24263262748718260000e+000) (39, 1.04045212268829350000e+000) (40, -9.30524393916130070000e-002) (41, -2.00081944465637210000e+000) (42, -3.28814893960952760000e-001) (43, 3.81428122520446780000e-001) (44, -2.77289128303527830000e+000) (45, -5.86256837844848630000e+000) (46, 7.32008874416351320000e-001) (47, -1.23391461372375490000e+000) (48, -5.44472408294677730000e+000) (0, 1.24987006187438960000e+000) (1, -3.43357992172241210000e+000) (2, 6.19056940078735350000e+000) (3, 8.75703513622283940000e-001) (4, -3.71510696411132810000e+000) (5, 3.29540367126464840000e+001) (6, 9.30301845073699950000e-001) (7, -1.48394560813903810000e+000) (8, -1.57551825046539310000e+000) (9, 4.85300064086914060000e-001) (10, -1.37756514549255370000e+000) (11, -8.23622286319732670000e-001) (12, 9.37515079975128170000e-001) (13, -3.87721896171569820000e+000) (14, -1.67107903957366940000e+000) (15, 6.34743273258209230000e-001) (16, -2.91157031059265140000e+000) (17, -2.28662419319152830000e+000) (18, 5.60127675533294680000e-001) (19, -1.37597370147705080000e+000) (20, -5.12302589416503910000e+000) (21, 8.00572156906127930000e-001) (22, 6.15516901016235350000e-001) (23, -1.59448266029357910000e+000) (24, 9.22148466110229490000e-001) (25, -8.41777622699737550000e-001) (26, 1.60012302398681640000e+001) (27, -1.78679978847503660000e+000) (28, 7.41578638553619380000e-001) (29, 1.44726018905639650000e+001) (30, 4.90584522485733030000e-001) (31, -1.32658851146698000000e+000) (32, -2.55394291877746580000e+000) (33, 5.26591181755065920000e-001) (34, -3.42263770103454590000e+000) (35, -2.23036241531372070000e+000) (36, 1.01878023147583010000e+000) (37, -2.70797729492187500000e+000) (38, -2.06563472747802730000e+000) (39, -1.16345822811126710000e+000) (40, -2.63337641954422000000e-001) (41, -2.25411438941955570000e+000) (42, -7.56837654113769530000e+000) (43, 9.34089756011962890000e+000) (44, -2.02755784988403320000e+000) (45, 9.37362313270568850000e-002) (46, -7.30165719985961910000e-001) (47, -1.88707613945007320000e+000) (48, -3.42023611068725590000e+000) (0, -3.27322095632553100000e-001) (1, -1.41402225494384770000e+001) (2, -4.08338594436645510000e+000) (3, -3.33281844854354860000e-001) (4, -2.72118425369262700000e+000) (5, 1.16389477252960210000e+000) (6, 4.18586790561676030000e-001) (7, -4.81967836618423460000e-001) (8, 1.53078630566596980000e-001) (9, 1.12218439579010010000e-001) (10, 1.54559957981109620000e+000) (11, 1.51865676045417790000e-001) (12, -2.43413239717483520000e-001) (13, -1.22136163711547850000e+000) (14, -1.47528553009033200000e+000) (15, -2.60391235351562500000e-001) (16, 7.49549716711044310000e-002) (17, -1.14488852024078370000e+000) (18, 3.02562326192855830000e-001) (19, 3.15491485595703130000e+000) (20, -1.39454090595245360000e+000) (21, -3.85820150375366210000e-001) (22, 7.23285627365112300000e+000) (23, -1.64350271224975590000e+000) (24, 3.32039862871170040000e-001) (25, 2.54226374626159670000e+000) (26, -7.15689182281494140000e-001) (27, -1.69634088873863220000e-001) (28, 2.54386067390441890000e+000) (29, -4.58122682571411130000e+000) (30, 1.06591224670410160000e-001) (31, 1.74687850475311280000e+000) (32, 3.26560527086257930000e-001) (33, 6.73813760280609130000e-001) (34, -6.96367144584655760000e-001) (35, 3.99770259857177730000e-001) (36, 1.00267797708511350000e-001) (37, -7.80814981460571290000e+000) (38, 2.54630982875823970000e-001) (39, -1.17453551292419430000e+000) (40, 2.82468652725219730000e+000) (41, 7.37102210521698000000e-001) (42, -1.84154361486434940000e-001) (43, 6.15265011787414550000e-001) (44, 6.99054539203643800000e-001) (45, 1.85870623588562010000e+000) (46, 6.75075352191925050000e-001) (47, -6.12422935664653780000e-002) (48, -4.01763290166854860000e-001) (0, 4.79548782110214230000e-001) (1, 5.56458282470703130000e+000) (2, 2.15498924255371090000e+000) (3, 4.94661331176757810000e-001) (4, 2.62717556953430180000e+000) (5, 1.66752517223358150000e+000) (6, 5.18860518932342530000e-001) (7, 4.94160383939743040000e-001) (8, 4.18907552957534790000e-001) (9, 1.27848494052886960000e+000) (10, 3.84345322847366330000e-001) (11, 2.65928328037261960000e-001) (12, 4.79261398315429690000e-001) (13, 1.79562783241271970000e+000) (14, 6.14901900291442870000e-001) (15, 5.55712699890136720000e-001) (16, 2.49484038352966310000e+000) (17, 2.34337377548217770000e+000) (18, 4.87832307815551760000e-001) (19, 5.42620792984962460000e-002) (20, 2.17925977706909180000e+000) (21, 8.97722184658050540000e-001) (22, -9.75612163543701170000e-001) (23, 6.28872394561767580000e+000) (24, 3.98302152752876280000e-002) (25, -2.94858485460281370000e-001) (26, 6.03286445140838620000e-001) (27, 4.18784230947494510000e-001) (28, -2.06860780715942380000e+000) (29, 4.56106662750244140000e+000) (30, 1.06472694873809810000e+000) (31, 9.02556121349334720000e-001) (32, 1.24790444970130920000e-001) (33, 5.72183370590209960000e-001) (34, 1.53951203823089600000e+000) (35, 2.56579425185918810000e-002) (36, 3.60353261232376100000e-001) (37, 9.36310529708862300000e-001) (38, -1.85600757598876950000e-001) (39, 1.15583157539367680000e+000) (40, 9.27343964576721190000e-003) (41, 5.93983680009841920000e-002) (42, 1.82556736469268800000e+000) (43, -4.97081607580184940000e-001) (44, -7.32079669833183290000e-002) (45, 8.11992287635803220000e-001) (46, 5.88372945785522460000e-001) (47, -3.88081461191177370000e-001) (48, 7.82906487584114070000e-002) (49, 2.20463484525680540000e-001) (50, -1.07393038272857670000e+000) (51, 2.76241569519042970000e+001) (52, -7.23786577582359310000e-002) (53, -1.34107518196105960000e+000) (54, -1.07441000640392300000e-001) (55, 4.34986782073974610000e+000) (56, -7.26932907104492190000e+000) (57, 2.99740076065063480000e+000) (58, 4.42621564865112300000e+000) (59, -2.93022990226745610000e-001) (60, -1.24567308425903320000e+001) (61, 2.11765074729919430000e+000) (62, 3.91900682449340820000e+000) (63, -2.20521077513694760000e-001) (64, -1.06776523590087890000e+001) (65, 1.36565485000610350000e+001) (66, 4.94540643692016600000e+000) (67, -7.81845664978027340000e+000) (68, 3.52665185928344730000e+000) (69, 2.65356516838073730000e+000) (70, 5.51397562026977540000e+000) (71, -1.02202028036117550000e-001) (72, -4.02253687381744380000e-001) 
