FANN_FLO_2.1
num_layers=3
learning_rate=0.700000
connection_rate=1.000000
network_type=0
learning_momentum=0.000000
training_algorithm=2
train_error_function=0
train_stop_function=0
cascade_output_change_fraction=0.010000
quickprop_decay=-0.000100
quickprop_mu=1.750000
rprop_increase_factor=1.200000
rprop_decrease_factor=0.500000
rprop_delta_min=0.000000
rprop_delta_max=50.000000
rprop_delta_zero=0.100000
cascade_output_stagnation_epochs=12
cascade_candidate_change_fraction=0.010000
cascade_candidate_stagnation_epochs=12
cascade_max_out_epochs=150
cascade_min_out_epochs=50
cascade_max_cand_epochs=150
cascade_min_cand_epochs=50
cascade_num_candidate_groups=2
bit_fail_limit=3.49999994039535520000e-001
cascade_candidate_limit=1.00000000000000000000e+003
cascade_weight_multiplier=4.00000005960464480000e-001
cascade_activation_functions_count=10
cascade_activation_functions=3 5 7 8 10 11 14 15 16 17 
cascade_activation_steepnesses_count=4
cascade_activation_steepnesses=2.50000000000000000000e-001 5.00000000000000000000e-001 7.50000000000000000000e-001 1.00000000000000000000e+000 
layer_sizes=49 24 2 
scale_included=0
neurons (num_inputs, activation_function, activation_steepness)=(0, 0, 0.00000000000000000000e+000) (0, 0, 0.00000000000000000000e+000) (0, 0, 0.00000000000000000000e+000) (0, 0, 0.00000000000000000000e+000) (0, 0, 0.00000000000000000000e+000) (0, 0, 0.00000000000000000000e+000) (0, 0, 0.00000000000000000000e+000) (0, 0, 0.00000000000000000000e+000) (0, 0, 0.00000000000000000000e+000) (0, 0, 0.00000000000000000000e+000) (0, 0, 0.00000000000000000000e+000) (0, 0, 0.00000000000000000000e+000) (0, 0, 0.00000000000000000000e+000) (0, 0, 0.00000000000000000000e+000) (0, 0, 0.00000000000000000000e+000) (0, 0, 0.00000000000000000000e+000) (0, 0, 0.00000000000000000000e+000) (0, 0, 0.00000000000000000000e+000) (0, 0, 0.00000000000000000000e+000) (0, 0, 0.00000000000000000000e+000) (0, 0, 0.00000000000000000000e+000) (0, 0, 0.00000000000000000000e+000) (0, 0, 0.00000000000000000000e+000) (0, 0, 0.00000000000000000000e+000) (0, 0, 0.00000000000000000000e+000) (0, 0, 0.00000000000000000000e+000) (0, 0, 0.00000000000000000000e+000) (0, 0, 0.00000000000000000000e+000) (0, 0, 0.00000000000000000000e+000) (0, 0, 0.00000000000000000000e+000) (0, 0, 0.00000000000000000000e+000) (0, 0, 0.00000000000000000000e+000) (0, 0, 0.00000000000000000000e+000) (0, 0, 0.00000000000000000000e+000) (0, 0, 0.00000000000000000000e+000) (0, 0, 0.00000000000000000000e+000) (0, 0, 0.00000000000000000000e+000) (0, 0, 0.00000000000000000000e+000) (0, 0, 0.00000000000000000000e+000) (0, 0, 0.00000000000000000000e+000) (0, 0, 0.00000000000000000000e+000) (0, 0, 0.00000000000000000000e+000) (0, 0, 0.00000000000000000000e+000) (0, 0, 0.00000000000000000000e+000) (0, 0, 0.00000000000000000000e+000) (0, 0, 0.00000000000000000000e+000) (0, 0, 0.00000000000000000000e+000) (0, 0, 0.00000000000000000000e+000) (0, 0, 0.00000000000000000000e+000) (49, 6, 5.00000000000000000000e-001) (49, 6, 5.00000000000000000000e-001) (49, 6, 5.00000000000000000000e-001) (49, 6, 5.00000000000000000000e-001) (49, 6, 5.00000000000000000000e-001) (49, 6, 5.00000000000000000000e-001) (49, 6, 5.00000000000000000000e-001) (49, 6, 5.00000000000000000000e-001) (49, 6, 5.00000000000000000000e-001) (49, 6, 5.00000000000000000000e-001) (49, 6, 5.00000000000000000000e-001) (49, 6, 5.00000000000000000000e-001) (49, 6, 5.00000000000000000000e-001) (49, 6, 5.00000000000000000000e-001) (49, 6, 5.00000000000000000000e-001) (49, 6, 5.00000000000000000000e-001) (49, 6, 5.00000000000000000000e-001) (49, 6, 5.00000000000000000000e-001) (49, 6, 5.00000000000000000000e-001) (49, 6, 5.00000000000000000000e-001) (49, 6, 5.00000000000000000000e-001) (49, 6, 5.00000000000000000000e-001) (49, 6, 5.00000000000000000000e-001) (0, 6, 5.00000000000000000000e-001) (24, 8, 5.00000000000000000000e-001) (0, 8, 5.00000000000000000000e-001) 
connections (connected_to_neuron, weight)=(0, 2.51907300949096680000e+000) (1, 4.21051919460296630000e-001) (2, 5.98162460327148440000e+000) (3, 1.09868450164794920000e+001) (4, 2.42244410514831540000e+000) (5, -6.42427086830139160000e-001) (6, 4.93661850690841670000e-001) (7, -3.56440448760986330000e+000) (8, 3.29833745956420900000e+000) (9, 3.74165558815002440000e+000) (10, 1.53847360610961910000e+000) (11, -5.42793178558349610000e+000) (12, -8.62922191619873050000e+000) (13, -4.61104536056518550000e+000) (14, -2.36683201789855960000e+000) (15, 1.68966925144195560000e+000) (16, 4.56033706665039060000e+000) (17, 7.46598148345947270000e+000) (18, -1.57647550106048580000e+000) (19, -2.81352186203002930000e+000) (20, 5.95298337936401370000e+000) (21, -6.58127665519714360000e-001) (22, -3.65243959426879880000e+000) (23, 6.28083038330078130000e+000) (24, -2.53179907798767090000e+000) (25, 9.00419652462005620000e-001) (26, -1.86267554759979250000e+000) (27, -1.95026183128356930000e+000) (28, -4.44585752487182620000e+000) (29, -5.07387161254882810000e+000) (30, -1.29431515932083130000e-001) (31, -2.53842878341674800000e+000) (32, 4.28376054763793950000e+000) (33, -3.41062641143798830000e+000) (34, 2.79361701011657710000e+000) (35, -7.04767513275146480000e+000) (36, 1.59552776813507080000e+000) (37, 2.22845029830932620000e+000) (38, 8.79473114013671870000e+000) (39, -4.32615280151367190000e-002) (40, -9.25861820578575130000e-002) (41, -5.16649246215820310000e-001) (42, -3.44066545367240910000e-002) (43, 7.41930067539215090000e-001) (44, 4.36663687229156490000e-001) (45, 1.35691547393798830000e+000) (46, -1.15302813053131100000e+000) (47, 8.35438823699951170000e+000) (48, -5.81836843490600590000e+000) (0, 1.49999975585937500000e+003) (1, 4.60206642150878910000e+001) (2, 1.46304702758789060000e+002) (3, 1.49999902343750000000e+003) (4, 2.92898559570312500000e+001) (5, 7.10727081298828130000e+001) (6, 1.49999792480468750000e+003) (7, 4.14972076416015630000e+001) (8, 2.00160808563232420000e+001) (9, 1.49999792480468750000e+003) (10, 8.77762832641601560000e+001) (11, 1.57080450057983400000e+001) (12, 1.49999841308593750000e+003) (13, 4.87290992736816410000e+001) (14, 8.21965179443359380000e+001) (15, 1.49999694824218750000e+003) (16, 3.71314926147460940000e+001) (17, 6.16928443908691410000e+001) (18, 1.49984875488281250000e+003) (19, 4.43138551712036130000e+000) (20, -9.84054756164550780000e+000) (21, 1.35701306152343750000e+003) (22, -3.76199798583984370000e+002) (23, 1.02034156799316410000e+002) (24, -9.81337158203125000000e+002) (25, 1.39537643432617190000e+002) (26, -7.88457775115966800000e+000) (27, 1.10006921386718750000e+003) (28, -1.50000000000000000000e+003) (29, 7.36939086914062500000e+001) (30, 5.52574096679687500000e+002) (31, 1.25070152282714840000e+002) (32, 2.55347766876220700000e+001) (33, 1.49999841308593750000e+003) (34, 3.45125846862792970000e+001) (35, 2.26698646545410160000e+001) (36, 1.49999792480468750000e+003) (37, -4.92377227783203120000e+002) (38, 1.67310836791992190000e+002) (39, 1.22685827636718750000e+003) (40, -7.55122451782226560000e+001) (41, 6.06240692138671880000e+001) (42, 1.35989477539062500000e+003) (43, -3.45074554443359370000e+002) (44, 1.61868804931640620000e+002) (45, 1.49600524902343750000e+003) (46, -1.67130874633789060000e+002) (47, 5.07331634521484370000e+002) (48, 6.25389526367187500000e+002) (0, 2.60118064880371090000e+001) (1, -5.12761688232421870000e+000) (2, 9.11829233169555660000e-001) (3, 7.69398164749145510000e+000) (4, -2.38841891288757320000e+000) (5, -2.65020728111267090000e+000) (6, 5.21468544006347660000e+000) (7, -1.07613027095794680000e+000) (8, 1.00751960277557370000e+000) (9, 3.67337197065353390000e-001) (10, -1.29908761978149410000e+001) (11, 2.96351623535156250000e+000) (12, -3.59176307916641240000e-001) (13, 5.43693637847900390000e+000) (14, -1.41228187084198000000e+000) (15, 1.56979713439941410000e+001) (16, -1.03806960582733150000e+000) (17, 3.77358865737915040000e+000) (18, -5.93928527832031250000e+000) (19, -1.84941697120666500000e+000) (20, -6.27623414993286130000e+000) (21, 1.67863674163818360000e+001) (22, 2.47668242454528810000e+000) (23, -3.58924381434917450000e-002) (24, -2.10404086112976070000e+000) (25, -4.39728164672851560000e+000) (26, 5.57529497146606450000e+000) (27, 2.49422550201416020000e-001) (28, 6.58436870574951170000e+000) (29, 2.42006802558898930000e+000) (30, 5.67287778854370120000e+000) (31, -1.28071099519729610000e-001) (32, 1.19705162048339840000e+001) (33, 4.36096858978271480000e+000) (34, -1.26856410503387450000e+000) (35, 1.07229270935058590000e+001) (36, -1.61287097930908200000e+001) (37, 1.56412010192871090000e+001) (38, 1.17536056041717530000e+000) (39, 1.37692272663116460000e-001) (40, 1.61121273040771480000e+000) (41, 8.29925441741943360000e+000) (42, 1.37850732803344730000e+001) (43, -3.00315570831298830000e+000) (44, -6.77639389038085940000e+000) (45, -1.25652675628662110000e+001) (46, 1.20333175659179690000e+001) (47, 5.00402355194091800000e+000) (48, 3.31209206581115720000e+000) (0, -4.90156364440917970000e+001) (1, 3.28211975097656250000e+001) (2, -6.54716348648071290000e+000) (3, -8.31025886535644530000e+000) (4, -6.97847890853881840000e+000) (5, -2.45445013046264650000e+000) (6, -5.65763950347900390000e+000) (7, -4.72610664367675780000e+000) (8, 7.43427991867065430000e+000) (9, -9.92369556427001950000e+000) (10, -2.63596749305725100000e+000) (11, 9.97674179077148440000e+000) (12, 2.84031143188476560000e+001) (13, -1.19530010223388670000e+001) (14, -1.04902887344360350000e+001) (15, -6.31141777038574220000e+001) (16, 3.45908279418945310000e+001) (17, -1.35293304920196530000e+000) (18, 1.60174312591552730000e+001) (19, 6.41480529785156250000e+002) (20, -2.20378756523132320000e+000) (21, 1.18944557189941410000e+002) (22, 1.40851119995117190000e+002) (23, -2.31973195075988770000e+000) (24, -3.56584205627441410000e+001) (25, 1.50000000000000000000e+003) (26, -4.02811431884765630000e+000) (27, 1.40612350463867190000e+002) (28, 2.37438812255859370000e+002) (29, -8.60680961608886720000e+000) (30, -8.62709617614746090000e+000) (31, -1.23853244781494140000e+001) (32, 1.27153902053833010000e+001) (33, -1.73073101043701170000e+001) (34, 1.33941328525543210000e+000) (35, 2.01229667663574220000e+001) (36, -1.96924804687500000000e+002) (37, 1.53883392333984370000e+002) (38, -2.74603462219238280000e+001) (39, 2.23759651184082030000e+001) (40, -2.00837459564208980000e+001) (41, 7.42077779769897460000e+000) (42, -2.69045959472656250000e+002) (43, -8.09254074096679690000e+001) (44, 2.43453254699707030000e+001) (45, 6.16777038574218750000e+001) (46, 1.58218650817871090000e+001) (47, -4.26337013244628910000e+001) (48, -1.05072891712188720000e+000) (0, -6.72203826904296870000e+000) (1, -5.97072315216064450000e+000) (2, 1.94335823059082030000e+001) (3, -6.25167131423950200000e+000) (4, 4.67127752304077150000e+000) (5, 5.59957599639892580000e+000) (6, 4.73378515243530270000e+000) (7, 2.17444658279418950000e+000) (8, -1.35346555709838870000e+000) (9, 5.32694196701049800000e+000) (10, 3.27986741065979000000e+000) (11, -3.16270494461059570000e+000) (12, 6.62731885910034180000e+000) (13, -1.17150897979736330000e+001) (14, 1.22776975631713870000e+001) (15, 8.95096778869628910000e+000) (16, -5.44404458999633790000e+000) (17, -2.97446703910827640000e+000) (18, -5.21274916827678680000e-002) (19, 1.17282080650329590000e+000) (20, 1.92754340171813960000e+000) (21, -5.32931685447692870000e-001) (22, 1.41890983581542970000e+001) (23, 1.26538622379302980000e+000) (24, 7.14223098754882810000e+000) (25, 1.47516798973083500000e+000) (26, -4.11926221847534180000e+000) (27, -7.42236471176147460000e+000) (28, 5.17995166778564450000e+000) (29, 3.53269577026367190000e+000) (30, -2.52621631622314450000e+001) (31, 3.02523285150527950000e-001) (32, -3.01039385795593260000e+000) (33, 1.23218097686767580000e+001) (34, -1.67515504360198970000e+000) (35, -6.75452947616577150000e+000) (36, 1.98606300354003910000e+000) (37, -1.62504494190216060000e+000) (38, 2.82482481002807620000e+000) (39, 6.24988198280334470000e-001) (40, -1.56513242721557620000e+001) (41, 1.13647437095642090000e+000) (42, 8.60159587860107420000e+000) (43, 4.48127460479736330000e+000) (44, -5.02424716949462890000e+000) (45, 1.24672293663024900000e+000) (46, 5.00449991226196290000e+000) (47, 2.42869257926940920000e+000) (48, -6.23366773128509520000e-001) (0, 3.80886149406433110000e+000) (1, 1.05782115459442140000e+000) (2, -3.41292643547058110000e+000) (3, 1.22681474685668950000e+000) (4, 1.07443802058696750000e-001) (5, 8.65349709987640380000e-001) (6, -8.68485450744628910000e-001) (7, 3.25212645530700680000e+000) (8, 2.84225678443908690000e+000) (9, -3.51196122169494630000e+000) (10, -1.94454360008239750000e+000) (11, -1.92553269863128660000e+000) (12, -3.22081828117370610000e+000) (13, 5.85297250747680660000e+000) (14, -2.14930796623229980000e+000) (15, 7.54638242721557620000e+000) (16, -3.55587840080261230000e+000) (17, -5.42563533782958980000e+000) (18, -3.19920015335083010000e+000) (19, 1.43992567062377930000e+000) (20, -5.84260654449462890000e+000) (21, 2.97944331169128420000e+000) (22, 2.97063112258911130000e+000) (23, -2.14869904518127440000e+000) (24, 3.12943124771118160000e+000) (25, 5.55765807628631590000e-001) (26, -2.27478814125061040000e+000) (27, -4.62587690353393550000e+000) (28, 4.84929561614990230000e-001) (29, -3.78590345382690430000e+000) (30, -1.69253158569335940000e+000) (31, -2.84748959541320800000e+000) (32, 5.02387189865112300000e+000) (33, 1.99473810195922850000e+000) (34, 2.36174845695495610000e+000) (35, 3.46855449676513670000e+000) (36, -3.88364052772521970000e+000) (37, 8.59993743896484370000e+000) (38, -4.24842786788940430000e+000) (39, 3.93181920051574710000e+000) (40, -3.21298986673355100000e-002) (41, 6.59635496139526370000e+000) (42, -1.83733046054840090000e+000) (43, -4.27058649063110350000e+000) (44, 1.63813841342926030000e+000) (45, -1.92682528495788570000e+000) (46, -1.82554221153259280000e+000) (47, 1.89032435417175290000e+000) (48, -8.81930440664291380000e-002) (0, 1.74757709503173830000e+001) (1, -5.46359181404113770000e-001) (2, -2.96501480042934420000e-002) (3, 1.10572481155395510000e+001) (4, -7.01732778549194340000e+000) (5, -2.50816035270690920000e+000) (6, 5.35452985763549800000e+000) (7, -6.12196207046508790000e+000) (8, 8.55903530120849610000e+000) (9, -1.52777743339538570000e+000) (10, 2.26725411415100100000e+000) (11, 9.27044868469238280000e+000) (12, 8.82891654968261720000e+000) (13, 1.67903423309326170000e+000) (14, -2.99483108520507810000e+000) (15, 2.42779693603515630000e+001) (16, -2.01514029502868650000e+000) (17, -2.91296429932117460000e-002) (18, -6.95028448104858400000e+000) (19, -9.83341312408447270000e+000) (20, -5.17400860786437990000e-001) (21, 1.10160627365112300000e+001) (22, 2.93495917320251460000e+000) (23, 5.14541387557983400000e-001) (24, -1.92370378971099850000e+000) (25, -1.00811183452606200000e+000) (26, 1.28914916515350340000e+000) (27, 6.77625703811645510000e+000) (28, 4.89050149917602540000e+000) (29, 1.02735078334808350000e+000) (30, 5.07918214797973630000e+000) (31, -1.45387899875640870000e+000) (32, 3.80593490600585940000e+000) (33, -5.40524530410766600000e+000) (34, -4.09426450729370120000e+000) (35, 1.24125785827636720000e+001) (36, -1.81732196807861330000e+001) (37, 2.04143295288085940000e+001) (38, -1.95860421657562260000e+000) (39, 4.81851959228515630000e+000) (40, 5.84997653961181640000e-001) (41, 7.00847578048706050000e+000) (42, 1.01557750701904300000e+001) (43, 1.39715112745761870000e-002) (44, -7.61874103546142580000e+000) (45, -7.08026599884033200000e+000) (46, 8.45616626739501950000e+000) (47, 1.04051876068115230000e+001) (48, 2.56784963607788090000e+000) (0, -3.29607057571411130000e+000) (1, 5.98318195343017580000e+000) (2, 1.02162706851959230000e+000) (3, 4.75350475311279300000e+000) (4, 3.02785396575927730000e+000) (5, -7.87368059158325200000e+000) (6, 3.06776070594787600000e+000) (7, 3.90678238868713380000e+000) (8, -2.23152422904968260000e+000) (9, 1.34822356700897220000e+000) (10, -2.26493740081787110000e+000) (11, 2.80189204216003420000e+000) (12, -1.06582069396972660000e+001) (13, -1.10556817054748540000e+000) (14, 1.21198773384094240000e+000) (15, 9.46307301521301270000e-001) (16, -5.76325893402099610000e-001) (17, -5.38129949569702150000e+000) (18, -2.23573994636535640000e+000) (19, -4.21597033739089970000e-001) (20, -3.18574118614196780000e+000) (21, 2.94150543212890620000e+000) (22, -1.09398269653320310000e+000) (23, -3.92227911949157710000e+000) (24, 3.87307333946228030000e+000) (25, 6.25777542591094970000e-001) (26, -1.51312243938446040000e+000) (27, -3.21681809425354000000e+000) (28, -1.51261603832244870000e+000) (29, -2.07381176948547360000e+000) (30, -1.56000447273254390000e+000) (31, -3.39307498931884770000e+000) (32, 5.63134098052978520000e+000) (33, 4.74042320251464840000e+000) (34, 3.69349861145019530000e+000) (35, 7.73461055755615230000e+000) (36, 5.99955134093761440000e-002) (37, 6.77409219741821290000e+000) (38, -2.21718147397041320000e-001) (39, -3.68005871772766110000e-001) (40, -1.64793229103088380000e+000) (41, 4.63539886474609380000e+000) (42, 1.32614564895629880000e+000) (43, 2.29501342773437500000e+000) (44, 1.59362241625785830000e-001) (45, -5.26278924942016600000e+000) (46, 1.37527298927307130000e+000) (47, 6.41876101493835450000e-001) (48, -1.43855631351470950000e+000) (0, -4.13579463958740230000e+000) (1, -5.05244541168212890000e+000) (2, -1.29994094371795650000e-001) (3, -5.94473648071289060000e+000) (4, 5.30781745910644530000e+000) (5, 6.34793233871459960000e+000) (6, 4.30012559890747070000e+000) (7, -3.18537950515747070000e+000) (8, 1.31931483745574950000e+000) (9, 4.08364963531494140000e+000) (10, -3.49975132942199710000e+000) (11, -4.10851573944091800000e+000) (12, 8.92713737487792970000e+000) (13, -1.01709461212158200000e+000) (14, 3.73229336738586430000e+000) (15, -8.01156520843505860000e+000) (16, -2.61828947067260740000e+000) (17, -2.58682584762573240000e+000) (18, -2.34151744842529300000e+000) (19, -2.49584031105041500000e+000) (20, 1.21046519279479980000e+000) (21, 2.77262258529663090000e+000) (22, 6.63610744476318360000e+000) (23, 4.90884494781494140000e+000) (24, 8.18266010284423830000e+000) (25, 5.57153448462486270000e-002) (26, -4.32372903823852540000e+000) (27, 8.15164029598236080000e-001) (28, -4.15524148941040040000e+000) (29, 1.88280439376831050000e+000) (30, -1.97989845275878910000e+000) (31, 5.03791093826293950000e+000) (32, -6.96913433074951170000e+000) (33, -1.14752054214477540000e+000) (34, -5.17996609210968020000e-001) (35, -1.43591690063476560000e+000) (36, -4.31907510757446290000e+000) (37, -2.47945785522460940000e+000) (38, 1.77129673957824710000e+000) (39, -5.23051357269287110000e+000) (40, 4.97291982173919680000e-001) (41, -1.77286475896835330000e-001) (42, 3.66078162193298340000e+000) (43, -4.34612691402435300000e-001) (44, 7.68122792243957520000e-001) (45, 8.03863239288330080000e+000) (46, -4.95226442813873290000e-001) (47, 3.28523933887481690000e-001) (48, -1.99578285217285160000e+000) (0, -1.34812717437744140000e+001) (1, 9.52714920043945310000e+000) (2, -1.29222202301025390000e+001) (3, -9.18103039264678960000e-001) (4, -3.74622106552124020000e-001) (5, -1.32380104064941410000e+001) (6, 6.75636625289916990000e+000) (7, -6.78369328379631040000e-002) (8, -3.93890500068664550000e+000) (9, 6.01921129226684570000e+000) (10, 5.97685432434082030000e+000) (11, -1.02602624893188480000e+000) (12, -2.72793722152709960000e+000) (13, 1.01861381530761720000e+001) (14, -3.26950359344482420000e+000) (15, -1.08805522918701170000e+001) (16, -7.36401891708374020000e+000) (17, -9.76721763610839840000e+000) (18, 2.32035374641418460000e+000) (19, 1.08563442230224610000e+001) (20, 8.92625045776367190000e+000) (21, 3.94393849372863770000e+000) (22, -2.48809695243835450000e+000) (23, -8.02438640594482420000e+000) (24, -8.45818901062011720000e+000) (25, 1.33708679676055910000e+000) (26, 6.56617259979248050000e+000) (27, -1.82431197166442870000e+000) (28, 5.36941003799438480000e+000) (29, 6.63692665100097660000e+000) (30, 3.26921510696411130000e+000) (31, -1.44605696201324460000e-001) (32, 6.01769065856933590000e+000) (33, 1.01414704322814940000e+000) (34, 8.77263164520263670000e+000) (35, 4.84580612182617190000e+000) (36, -2.46493205428123470000e-001) (37, -5.83323335647583010000e+000) (38, -5.23977422714233400000e+000) (39, 1.45737466812133790000e+001) (40, 1.89889442920684810000e+000) (41, 2.72904062271118160000e+000) (42, -1.11451759338378910000e+001) (43, -1.11767673492431640000e+001) (44, 9.85217511653900150000e-001) (45, -1.44228899478912350000e+000) (46, -7.65742254257202150000e+000) (47, -1.16581811904907230000e+001) (48, 3.94598245620727540000e+000) (0, 2.34198875427246090000e+001) (1, 1.78764343261718750000e+001) (2, 4.37322556972503660000e-001) (3, -6.12570571899414060000e+000) (4, 1.29525775909423830000e+001) (5, 8.09130954742431640000e+000) (6, -1.24958267211914060000e+001) (7, -6.11254596710205080000e+000) (8, 3.95194435119628910000e+000) (9, 1.00598058700561520000e+001) (10, -6.37344646453857420000e+000) (11, -4.13789415359497070000e+000) (12, 1.38743429183959960000e+001) (13, -2.15707473754882810000e+001) (14, -2.39469985961914060000e+001) (15, -8.45485877990722660000e+000) (16, 9.08808171749114990000e-001) (17, 1.05566177368164060000e+001) (18, -8.67858350276947020000e-001) (19, 4.15559148788452150000e+000) (20, 1.42141332626342770000e+001) (21, 2.13106608390808110000e+000) (22, -5.49035310745239260000e+000) (23, 1.12565813064575200000e+001) (24, -1.01252484321594240000e+000) (25, 3.49967932701110840000e+000) (26, 8.28568744659423830000e+000) (27, -1.35765380859375000000e+001) (28, 1.23584871292114260000e+001) (29, 9.35489177703857420000e+000) (30, 2.33741626739501950000e+001) (31, -3.12863969802856450000e+000) (32, -1.34703655242919920000e+001) (33, -2.14600925445556640000e+001) (34, -2.09060549736022950000e+000) (35, -9.14943337440490720000e-001) (36, 4.93038558959960940000e+000) (37, -2.99679541587829590000e+000) (38, -1.43538248538970950000e+000) (39, -1.67120246887207030000e+001) (40, -1.57432212829589840000e+001) (41, 5.47653341293334960000e+000) (42, 2.84141120910644530000e+001) (43, 6.66020917892456050000e+000) (44, -9.71978962421417240000e-001) (45, -5.25885581970214840000e+000) (46, 4.31017160415649410000e+000) (47, -8.92210006713867190000e-001) (48, -7.34098529815673830000e+000) (0, -1.15438928222656250000e+003) (1, 3.35883102416992190000e+001) (2, 1.49999682617187500000e+003) (3, 8.81072021484375000000e+002) (4, 2.49680747985839840000e+001) (5, 1.49999682617187500000e+003) (6, 1.49897045898437500000e+003) (7, 9.01468181610107420000e+000) (8, 1.48938171386718750000e+003) (9, 1.49997338867187500000e+003) (10, 4.37441968917846680000e+000) (11, 1.47816064453125000000e+003) (12, 1.49893847656250000000e+003) (13, 2.41733455657958980000e+001) (14, 1.49999682617187500000e+003) (15, 1.49502832031250000000e+003) (16, 3.01079502105712890000e+001) (17, 1.49999645996093750000e+003) (18, 1.47130505371093750000e+003) (19, -7.06135192871093750000e+002) (20, 1.49999645996093750000e+003) (21, 1.35344262695312500000e+003) (22, -1.50000000000000000000e+003) (23, 1.49999682617187500000e+003) (24, 4.20677299499511720000e+001) (25, -1.49807507324218750000e+003) (26, 1.49638134765625000000e+003) (27, 4.54886474609375000000e+001) (28, -1.50000000000000000000e+003) (29, 1.49999682617187500000e+003) (30, 1.49089929199218750000e+003) (31, 1.66708164215087890000e+001) (32, 1.48393811035156250000e+003) (33, 1.48705432128906250000e+003) (34, 2.03364238739013670000e+001) (35, 1.44764904785156250000e+003) (36, 1.49261340332031250000e+003) (37, -1.50000000000000000000e+003) (38, 1.18783105468750000000e+003) (39, 1.47510119628906250000e+003) (40, -1.48178735351562500000e+003) (41, 9.32190246582031250000e+001) (42, -4.67876525878906250000e+002) (43, -1.41335522460937500000e+003) (44, 1.49513562011718750000e+003) (45, 1.49721105957031250000e+003) (46, -1.50000000000000000000e+003) (47, 1.24981420898437500000e+003) (48, 2.49383468627929690000e+002) (0, 1.49999975585937500000e+003) (1, -8.64562377929687500000e+001) (2, -1.49999633789062500000e+003) (3, 1.49999914550781250000e+003) (4, 2.09557018280029300000e+001) (5, -1.50000000000000000000e+003) (6, 1.49999841308593750000e+003) (7, 9.12930679321289060000e+000) (8, -1.48918164062500000000e+003) (9, 1.49999841308593750000e+003) (10, 3.58799743652343750000e+000) (11, -5.40215698242187500000e+002) (12, 1.49999841308593750000e+003) (13, 2.07552528381347660000e+001) (14, -1.86671859741210940000e+002) (15, 1.49999792480468750000e+003) (16, 1.80764598846435550000e+001) (17, -1.50000000000000000000e+003) (18, 1.49999291992187500000e+003) (19, -1.50000000000000000000e+003) (20, -5.45319335937500000000e+002) (21, 1.49999743652343750000e+003) (22, -4.27941619873046870000e+002) (23, -4.70064941406250000000e+002) (24, 1.50000000000000000000e+003) (25, -1.50000000000000000000e+003) (26, -4.54120880126953120000e+002) (27, 1.49999523925781250000e+003) (28, -1.50000000000000000000e+003) (29, -5.58084594726562500000e+002) (30, 1.49999816894531250000e+003) (31, 7.71643924713134770000e+000) (32, -5.52515869140625000000e+002) (33, 1.49999841308593750000e+003) (34, 8.72873306274414060000e+000) (35, -5.24078125000000000000e+002) (36, 1.49999401855468750000e+003) (37, -3.49742469787597660000e+001) (38, -4.50495332479476930000e-002) (39, 1.49999841308593750000e+003) (40, 1.03930541992187500000e+002) (41, -4.97737693786621090000e+000) (42, 1.50000000000000000000e+003) (43, -1.49332727050781250000e+003) (44, -1.57736160278320310000e+002) (45, 1.49912707519531250000e+003) (46, -1.31553747558593750000e+003) (47, 1.00612945556640620000e+001) (48, 5.10143356323242190000e+001) (0, 2.56087207794189450000e+000) (1, 1.42122793197631840000e+000) (2, -3.30487704277038570000e+000) (3, -6.70203638076782230000e+000) (4, -1.46524238586425780000e+000) (5, 5.88433408737182620000e+000) (6, 2.17483735084533690000e+000) (7, -6.19929730892181400000e-001) (8, -2.68038439750671390000e+000) (9, 8.00179004669189450000e+000) (10, 4.87421363592147830000e-001) (11, -3.40354323387146000000e+000) (12, 2.42731618881225590000e+000) (13, 9.77442115545272830000e-002) (14, 3.85895705223083500000e+000) (15, -4.16796356439590450000e-001) (16, 3.44658756256103520000e+000) (17, -7.66025018692016600000e+000) (18, -4.00633668899536130000e+000) (19, 6.67392396926879880000e+000) (20, -1.01389139890670780000e-002) (21, 1.56306755542755130000e+000) (22, -5.38317775726318360000e+000) (23, 1.69081068038940430000e+000) (24, 5.53588962554931640000e+000) (25, -6.01060390472412110000e-001) (26, 4.70666790008544920000e+000) (27, 1.76844906806945800000e+000) (28, 2.59731101989746090000e+000) (29, 7.17467641830444340000e+000) (30, 4.00382280349731450000e+000) (31, -1.92380142211914060000e+000) (32, -4.78671836853027340000e+000) (33, -6.73884487152099610000e+000) (34, -1.11445379257202150000e+000) (35, -4.94753885269165040000e+000) (36, -4.64254283905029300000e+000) (37, 2.58857011795043950000e+000) (38, -1.57798206806182860000e+000) (39, -1.48963165283203130000e+000) (40, 3.26777935028076170000e-001) (41, 3.89548420906066890000e+000) (42, 2.62915253639221190000e+000) (43, 3.38477706909179690000e+000) (44, -2.63886928558349610000e+000) (45, 8.39131414890289310000e-001) (46, 2.81093955039978030000e+000) (47, 4.61845070123672490000e-001) (48, -2.41172075271606450000e-001) (0, 6.79003143310546870000e+000) (1, 5.39501905441284180000e+000) (2, -1.98752093315124510000e+000) (3, 8.22855854034423830000e+000) (4, 1.31993913650512700000e+000) (5, 3.19595265388488770000e+000) (6, 3.51425081491470340000e-001) (7, -2.78306126594543460000e+000) (8, -3.04013639688491820000e-001) (9, 4.28950595855712890000e+000) (10, 5.71346664428710940000e+000) (11, -6.57486295700073240000e+000) (12, 2.36877854913473130000e-002) (13, -3.11913466453552250000e+000) (14, -1.09827756881713870000e+000) (15, 1.44617071151733400000e+001) (16, 1.63394107818603520000e+001) (17, 4.82571792602539060000e+000) (18, -1.04798069000244140000e+001) (19, -1.06377553939819340000e+001) (20, -7.76360940933227540000e+000) (21, -5.17231655120849610000e+000) (22, -6.26021432876586910000e+000) (23, 1.09980738162994380000e+000) (24, -3.34752917289733890000e+000) (25, -3.58225321769714360000e+000) (26, 1.82241714000701900000e+000) (27, -2.21843838691711430000e+000) (28, 2.71868562698364260000e+000) (29, -3.19860005378723140000e+000) (30, -4.28182506561279300000e+000) (31, -6.97533559799194340000e+000) (32, -9.62685012817382810000e+000) (33, -3.09936285018920900000e+000) (34, -6.26083087921142580000e+000) (35, -7.87770080566406250000e+000) (36, -1.21176033020019530000e+001) (37, 1.35070533752441410000e+001) (38, 4.71977758407592770000e+000) (39, 6.13177537918090820000e+000) (40, -7.52363729476928710000e+000) (41, 1.71049900054931640000e+001) (42, 1.47250258922576900000e+000) (43, 3.18919825553894040000e+000) (44, 1.47460985183715820000e+000) (45, 5.86539220809936520000e+000) (46, -3.84369230270385740000e+000) (47, 9.03761577606201170000e+000) (48, 5.41672594845294950000e-002) (0, 3.06159118652343750000e+002) (1, -5.76071128845214840000e+001) (2, -6.30173254013061520000e+000) (3, 6.03515197753906250000e+002) (4, -5.55736885070800780000e+001) (5, -1.45222163200378420000e+000) (6, -5.65615882873535160000e+001) (7, -1.62881050109863280000e+001) (8, 2.21465706825256350000e-001) (9, 2.88947677612304690000e+000) (10, -1.06496505737304690000e+001) (11, -5.13813591003417970000e+000) (12, 1.82147308349609370000e+002) (13, 8.70942234992980960000e-001) (14, -8.33292961120605470000e+000) (15, 7.34895874023437500000e+002) (16, -6.81839990615844730000e+000) (17, -1.08883428573608400000e+000) (18, 6.12409851074218750000e+002) (19, -3.22458381652832030000e+001) (20, -2.17470989227294920000e+001) (21, 3.95609161376953120000e+002) (22, 1.64069625854492190000e+002) (23, 1.12522544860839840000e+001) (24, -1.42772338867187500000e+003) (25, -4.16568359375000000000e+002) (26, -8.87056541442871090000e+000) (27, -4.15821441650390620000e+002) (28, 6.10554161071777340000e+001) (29, 1.72856903076171880000e+001) (30, -1.08104963302612300000e+001) (31, -3.15740966796875000000e+000) (32, -3.93636298179626460000e+000) (33, 5.17953063964843750000e+002) (34, -9.19652462005615230000e+000) (35, -9.84454917907714840000e+000) (36, 2.09921386718750000000e+002) (37, -1.13518533706665040000e+001) (38, 7.87536048889160160000e+000) (39, -1.35626037597656250000e+002) (40, -3.07394485473632810000e+001) (41, -1.60984560847282410000e-001) (42, 1.09951928710937500000e+003) (43, -1.27633047103881840000e+001) (44, -1.39205074310302730000e+001) (45, 1.49999987792968750000e+003) (46, 6.85769805908203130000e+001) (47, 2.46125564575195310000e+001) (48, 2.97801551818847660000e+001) (0, 1.52292251586914060000e+001) (1, 3.63085126876831050000e+000) (2, 3.96962189674377440000e+000) (3, 6.63224744796752930000e+000) (4, -6.52061414718627930000e+000) (5, 6.98491382598876950000e+000) (6, -3.03583793640136720000e+001) (7, -3.21343970298767090000e+000) (8, 1.89587247371673580000e+000) (9, -2.14308776855468750000e+001) (10, 8.11993026733398440000e+000) (11, 3.36459875106811520000e+000) (12, -4.04808616638183590000e+000) (13, 3.11763954162597660000e+000) (14, 3.94206333160400390000e+000) (15, 3.73287767171859740000e-001) (16, -4.09216165542602540000e+000) (17, 1.77226305007934570000e+000) (18, 1.70217323303222660000e+001) (19, 3.94260215759277340000e+000) (20, 7.17185449600219730000e+000) (21, -4.62853670120239260000e+000) (22, -3.49839544296264650000e+000) (23, -5.42719984054565430000e+000) (24, -8.54681015014648440000e+000) (25, -3.56795120239257810000e+000) (26, -1.03925075531005860000e+001) (27, -2.85442233085632320000e-001) (28, -8.04952335357666020000e+000) (29, 1.02195787429809570000e+001) (30, 3.37576980590820310000e+001) (31, -1.27593898773193360000e+001) (32, -8.80043888092041020000e+000) (33, 9.12058258056640620000e+000) (34, 7.06970167160034180000e+000) (35, 1.32499730587005620000e+000) (36, 9.68000221252441410000e+000) (37, 4.54071807861328120000e+000) (38, -1.38400955200195310000e+001) (39, -5.38965749740600590000e+000) (40, -1.96648645401000980000e+000) (41, -1.29427776336669920000e+001) (42, 1.08284311294555660000e+001) (43, 7.66386508941650390000e-001) (44, -4.06172513961791990000e+000) (45, 8.67958605289459230000e-001) (46, 1.26243138313293460000e+000) (47, 1.16229467391967770000e+001) (48, 1.63369274139404300000e+000) (0, 1.24808883666992190000e+001) (1, -7.70841687917709350000e-002) (2, -1.62907850742340090000e+000) (3, -7.00022602081298830000e+000) (4, -1.86024451255798340000e+000) (5, -5.45623493194580080000e+000) (6, 1.80440974235534670000e+000) (7, -4.13461923599243160000e+000) (8, -3.39995837211608890000e+000) (9, -1.43894588947296140000e+000) (10, -2.62168407440185550000e+000) (11, -2.21123322844505310000e-001) (12, 3.39882326126098630000e+000) (13, 5.99112367630004880000e+000) (14, 1.97642493247985840000e+000) (15, 8.93775177001953120000e+000) (16, -2.00726723670959470000e+000) (17, -1.84834146499633790000e+000) (18, -4.75931930541992190000e+000) (19, -2.73823118209838870000e+000) (20, 3.50531935691833500000e+000) (21, 2.81885814666748050000e+000) (22, 1.57473430633544920000e+001) (23, -9.32339489459991460000e-001) (24, -3.93569755554199220000e+000) (25, 2.05251097679138180000e+000) (26, -4.35916960239410400000e-001) (27, -2.21017599105834960000e+000) (28, -7.45791435241699220000e-001) (29, -2.43101477622985840000e+000) (30, -8.36397743225097660000e+000) (31, 6.34707927703857420000e+000) (32, 2.27295589447021480000e+000) (33, -5.06293821334838870000e+000) (34, -1.00871670246124270000e+000) (35, 2.56489372253417970000e+000) (36, -4.63498210906982420000e+000) (37, 1.01048221588134770000e+001) (38, 7.17889881134033200000e+000) (39, 2.81237006187438960000e+000) (40, 1.20400500297546390000e+000) (41, 3.48967742919921870000e+000) (42, -1.84173274040222170000e+000) (43, -4.64803981781005860000e+000) (44, 1.19641602039337160000e+000) (45, 4.78990316390991210000e+000) (46, -1.82531762123107910000e+000) (47, 2.21084094047546390000e+000) (48, -5.96774101257324220000e+000) (0, 1.07026684284210210000e+000) (1, -2.65676403045654300000e+000) (2, 2.66421270370483400000e+000) (3, -7.05002069473266600000e+000) (4, 7.72365093231201170000e-001) (5, 3.09177279472351070000e+000) (6, -7.74879264831542970000e+000) (7, -2.39992070198059080000e+000) (8, 1.23639249801635740000e+000) (9, 4.52743768692016600000e+000) (10, -2.89035940170288090000e+000) (11, -3.51956129074096680000e-001) (12, 8.24433803558349610000e+000) (13, -6.75842642784118650000e-001) (14, -2.22970461845397950000e+000) (15, 8.97737216949462890000e+000) (16, 4.53262042999267580000e+000) (17, 4.07323265075683590000e+000) (18, -1.45196855068206790000e+000) (19, 4.96209144592285160000e+000) (20, -2.45842385292053220000e+000) (21, -2.60227394104003910000e+000) (22, -6.73887586593627930000e+000) (23, 5.69552135467529300000e+000) (24, 1.06318497657775880000e+000) (25, -1.45882856845855710000e+000) (26, 1.94770586490631100000e+000) (27, 3.04131317138671870000e+000) (28, 3.68866324424743650000e+000) (29, -2.51604342460632320000e+000) (30, 1.28420698642730710000e+000) (31, 1.17960500717163090000e+000) (32, -4.59578323364257810000e+000) (33, -7.16249227523803710000e+000) (34, -8.65506291389465330000e-001) (35, -5.77681636810302730000e+000) (36, -2.46218395233154300000e+000) (37, -4.74872112274169920000e+000) (38, 1.46967935562133790000e+000) (39, 5.68107509613037110000e+000) (40, -4.63650560379028320000e+000) (41, -3.84596347808837890000e+000) (42, -1.47704136371612550000e+000) (43, -7.40059930831193920000e-003) (44, 6.16602838039398190000e-001) (45, 2.04456043243408200000e+000) (46, 3.05675148963928220000e-001) (47, -2.78430557250976560000e+000) (48, 3.93718338012695310000e+000) (0, -2.59406909942626950000e+001) (1, 1.69725780487060550000e+001) (2, -3.51832199096679690000e+000) (3, 3.02397480010986330000e+001) (4, 2.66181831359863280000e+001) (5, 9.19186687469482420000e+000) (6, -1.56932563781738280000e+001) (7, -1.34778175354003910000e+001) (8, 3.96101531982421870000e+001) (9, 8.98067569732666020000e+000) (10, 8.01072692871093750000e+000) (11, 2.11331558227539060000e+001) (12, -3.89093055725097660000e+001) (13, -2.79353122711181640000e+001) (14, -3.38274307250976560000e+001) (15, -1.11735391616821290000e+000) (16, 4.80258560180664060000e+000) (17, -2.92372703552246090000e+000) (18, 2.19604063034057620000e+000) (19, 3.65670661926269530000e+001) (20, -7.16583013534545900000e+000) (21, 7.84661006927490230000e+000) (22, 4.70290708541870120000e+000) (23, -6.67630958557128910000e+000) (24, -2.24874000549316410000e+001) (25, -1.21369705200195310000e+001) (26, 1.65068101882934570000e+000) (27, 2.23025493621826170000e+001) (28, 3.13511085510253910000e+000) (29, -6.47522830963134770000e+000) (30, -6.03406620025634770000e+000) (31, 3.31622529029846190000e+000) (32, -7.97287750244140620000e+000) (33, -2.24478187561035160000e+001) (34, -9.18567848205566410000e+000) (35, -1.71727409362792970000e+001) (36, -1.40172252655029300000e+001) (37, -8.92328739166259770000e+000) (38, 2.73127615451812740000e-001) (39, 1.77372627258300780000e+001) (40, 1.97130024433135990000e+000) (41, 1.94938545227050780000e+001) (42, -6.54836940765380860000e+000) (43, 9.88270759582519530000e+000) (44, 1.28019294738769530000e+001) (45, 1.42405140399932860000e+000) (46, 2.89379882812500000000e+001) (47, 1.24229106903076170000e+001) (48, 1.56839427947998050000e+001) (0, -4.69699676513671870000e+002) (1, -1.47318286895751950000e+001) (2, 4.18090744018554690000e+001) (3, -4.16599235534667970000e+001) (4, -1.16515483856201170000e+001) (5, 1.58107635498046870000e+002) (6, 1.10718479156494140000e+001) (7, -6.98477792739868160000e+000) (8, 1.96149368286132810000e+002) (9, 1.78268585205078130000e+001) (10, -1.11503210067749020000e+001) (11, 2.93533355712890620000e+002) (12, 1.14061603546142580000e+001) (13, -8.34948348999023440000e+000) (14, 2.87101173400878910000e+001) (15, -6.26444740295410160000e+001) (16, -7.81928968429565430000e+000) (17, 7.23800125122070310000e+001) (18, 4.32410659790039060000e+001) (19, 2.22346023559570310000e+002) (20, 3.78636993408203120000e+002) (21, -4.40796737670898440000e+001) (22, 5.83928527832031250000e+002) (23, 5.11382102966308590000e+001) (24, -2.74211578369140620000e+002) (25, 7.45070266723632810000e+001) (26, 5.68274993896484380000e+001) (27, -1.34932397460937500000e+003) (28, 1.50000000000000000000e+003) (29, 1.84920864105224610000e+001) (30, 2.45402660369873050000e+001) (31, 1.25594930648803710000e+001) (32, 4.25814895629882810000e+001) (33, 1.69203662872314450000e+001) (34, 3.73202552795410160000e+001) (35, 8.27001724243164060000e+001) (36, 2.19395980834960940000e+001) (37, 2.57120635986328120000e+002) (38, 1.03147497177124020000e+001) (39, 7.86226272583007810000e+001) (40, 1.35672424316406250000e+002) (41, 1.43150205612182620000e+001) (42, 9.91194076538085940000e+001) (43, 3.16117034912109370000e+002) (44, 2.38518543243408200000e+001) (45, 3.00392028808593750000e+002) (46, 3.32713531494140620000e+002) (47, 2.25197768211364750000e+000) (48, 7.13006067276000980000e+000) (0, -1.49850072860717770000e+001) (1, 2.85238432884216310000e+000) (2, -1.42754364013671870000e+000) (3, 2.85715084075927730000e+001) (4, 8.88128280639648440000e-001) (5, -1.93228423595428470000e+000) (6, -6.01721858978271480000e+000) (7, -7.91225004196166990000e+000) (8, -1.53009157180786130000e+001) (9, -8.12235641479492190000e+000) (10, 3.10347771644592290000e+000) (11, -1.62066154479980470000e+001) (12, -3.57341480255126950000e+000) (13, 3.12754839658737180000e-001) (14, 1.46312561035156250000e+001) (15, -1.47619953155517580000e+001) (16, -7.54476928710937500000e+000) (17, 2.93631601333618160000e+000) (18, -2.06096124649047850000e+000) (19, -2.48303413391113280000e+000) (20, 6.77589797973632810000e+000) (21, -4.38817167282104490000e+000) (22, -1.97154486179351810000e+000) (23, 1.11078691482543950000e+001) (24, -2.98993229866027830000e+000) (25, 4.98596715927124020000e+000) (26, -5.88804244995117190000e+000) (27, 3.36967754364013670000e+000) (28, 1.62846813201904300000e+001) (29, -8.38795566558837890000e+000) (30, 1.08753690719604490000e+001) (31, 2.95210576057434080000e+000) (32, 5.25750541687011720000e+000) (33, -2.53691029548645020000e+000) (34, 1.09337151050567630000e+000) (35, -1.49092197418212890000e+001) (36, -5.98036909103393550000e+000) (37, 6.82490921020507810000e+000) (38, 1.64024658203125000000e+001) (39, 8.02218377590179440000e-001) (40, 4.34899902343750000000e+000) (41, 9.42599868774414060000e+000) (42, -3.71908473968505860000e+000) (43, -4.00776433944702150000e+000) (44, 7.76358842849731450000e+000) (45, 2.14728927612304690000e+001) (46, 1.08441948890686040000e+000) (47, 5.68993282318115230000e+000) (48, -5.19165277481079100000e+000) (0, -4.81906270980834960000e+000) (1, -1.17224347591400150000e+000) (2, -3.67126560211181640000e+000) (3, 3.77699345350265500000e-001) (4, -5.44976234436035160000e+000) (5, -4.35218238830566410000e+000) (6, 8.22752761840820310000e+000) (7, -4.96393918991088870000e+000) (8, 3.23011255264282230000e+000) (9, 7.39509773254394530000e+000) (10, 6.63352385163307190000e-002) (11, -2.38805007934570310000e+000) (12, -1.95456657409667970000e+001) (13, 9.86552810668945310000e+000) (14, 1.81378765106201170000e+001) (15, 2.32379007339477540000e+000) (16, -3.68530106544494630000e+000) (17, -2.41370511054992680000e+000) (18, 4.24059438705444340000e+000) (19, 2.28043594360351560000e+001) (20, 2.53500747680664060000e+000) (21, 8.04533767700195310000e+000) (22, -5.15464019775390620000e+000) (23, -4.66977071762084960000e+000) (24, 1.58960494995117190000e+001) (25, -3.87718528509140010000e-001) (26, -9.97287482023239140000e-002) (27, -3.78901863098144530000e+000) (28, 2.83369350433349610000e+000) (29, 1.61190929412841800000e+001) (30, 4.40627145767211910000e+000) (31, -9.40030097961425780000e+000) (32, 4.45161390304565430000e+000) (33, -4.69852596521377560000e-001) (34, 4.48796463012695310000e+000) (35, -4.58796930313110350000e+000) (36, 1.40416407585144040000e+000) (37, -3.36269807815551760000e+000) (38, -1.22746629714965820000e+001) (39, -3.72529244422912600000e+000) (40, 1.70705585479736330000e+001) (41, -2.78941452503204350000e-001) (42, 4.77611637115478520000e+000) (43, -5.51235818862915040000e+000) (44, -1.97979605197906490000e+000) (45, -6.61879873275756840000e+000) (46, 1.79553756713867190000e+001) (47, 6.44712400436401370000e+000) (48, -1.97376835346221920000e+000) (49, -7.58306384086608890000e-001) (50, -1.30759984254837040000e-001) (51, -1.57448518276214600000e+000) (52, 1.10869891941547390000e-001) (53, -4.12663489580154420000e-001) (54, -9.50896978378295900000e-001) (55, 1.55950427055358890000e+000) (56, 1.03307235240936280000e+000) (57, 5.02375245094299320000e-001) (58, 3.69790256023406980000e-001) (59, 3.01597237586975100000e-001) (60, -3.14003005623817440000e-002) (61, -1.60513613373041150000e-002) (62, -7.43227720260620120000e-001) (63, 3.86849462985992430000e-001) (64, -3.46468746662139890000e-001) (65, 5.97706735134124760000e-001) (66, 6.32658302783966060000e-001) (67, 8.69538605213165280000e-001) (68, 5.65341293811798100000e-001) (69, 2.29509755969047550000e-001) (70, -3.49254637956619260000e-001) (71, 4.19824481010437010000e-001) (72, 5.51185667514801030000e-001) 
