FANN_FLO_2.1
num_layers=3
learning_rate=0.700000
connection_rate=1.000000
network_type=0
learning_momentum=0.000000
training_algorithm=2
train_error_function=0
train_stop_function=0
cascade_output_change_fraction=0.010000
quickprop_decay=-0.000100
quickprop_mu=1.750000
rprop_increase_factor=1.200000
rprop_decrease_factor=0.500000
rprop_delta_min=0.000000
rprop_delta_max=50.000000
rprop_delta_zero=0.100000
cascade_output_stagnation_epochs=12
cascade_candidate_change_fraction=0.010000
cascade_candidate_stagnation_epochs=12
cascade_max_out_epochs=150
cascade_min_out_epochs=50
cascade_max_cand_epochs=150
cascade_min_cand_epochs=50
cascade_num_candidate_groups=2
bit_fail_limit=3.49999994039535520000e-001
cascade_candidate_limit=1.00000000000000000000e+003
cascade_weight_multiplier=4.00000005960464480000e-001
cascade_activation_functions_count=10
cascade_activation_functions=3 5 7 8 10 11 14 15 16 17 
cascade_activation_steepnesses_count=4
cascade_activation_steepnesses=2.50000000000000000000e-001 5.00000000000000000000e-001 7.50000000000000000000e-001 1.00000000000000000000e+000 
layer_sizes=49 24 2 
scale_included=0
neurons (num_inputs, activation_function, activation_steepness)=(0, 0, 0.00000000000000000000e+000) (0, 0, 0.00000000000000000000e+000) (0, 0, 0.00000000000000000000e+000) (0, 0, 0.00000000000000000000e+000) (0, 0, 0.00000000000000000000e+000) (0, 0, 0.00000000000000000000e+000) (0, 0, 0.00000000000000000000e+000) (0, 0, 0.00000000000000000000e+000) (0, 0, 0.00000000000000000000e+000) (0, 0, 0.00000000000000000000e+000) (0, 0, 0.00000000000000000000e+000) (0, 0, 0.00000000000000000000e+000) (0, 0, 0.00000000000000000000e+000) (0, 0, 0.00000000000000000000e+000) (0, 0, 0.00000000000000000000e+000) (0, 0, 0.00000000000000000000e+000) (0, 0, 0.00000000000000000000e+000) (0, 0, 0.00000000000000000000e+000) (0, 0, 0.00000000000000000000e+000) (0, 0, 0.00000000000000000000e+000) (0, 0, 0.00000000000000000000e+000) (0, 0, 0.00000000000000000000e+000) (0, 0, 0.00000000000000000000e+000) (0, 0, 0.00000000000000000000e+000) (0, 0, 0.00000000000000000000e+000) (0, 0, 0.00000000000000000000e+000) (0, 0, 0.00000000000000000000e+000) (0, 0, 0.00000000000000000000e+000) (0, 0, 0.00000000000000000000e+000) (0, 0, 0.00000000000000000000e+000) (0, 0, 0.00000000000000000000e+000) (0, 0, 0.00000000000000000000e+000) (0, 0, 0.00000000000000000000e+000) (0, 0, 0.00000000000000000000e+000) (0, 0, 0.00000000000000000000e+000) (0, 0, 0.00000000000000000000e+000) (0, 0, 0.00000000000000000000e+000) (0, 0, 0.00000000000000000000e+000) (0, 0, 0.00000000000000000000e+000) (0, 0, 0.00000000000000000000e+000) (0, 0, 0.00000000000000000000e+000) (0, 0, 0.00000000000000000000e+000) (0, 0, 0.00000000000000000000e+000) (0, 0, 0.00000000000000000000e+000) (0, 0, 0.00000000000000000000e+000) (0, 0, 0.00000000000000000000e+000) (0, 0, 0.00000000000000000000e+000) (0, 0, 0.00000000000000000000e+000) (0, 0, 0.00000000000000000000e+000) (49, 6, 5.00000000000000000000e-001) (49, 6, 5.00000000000000000000e-001) (49, 6, 5.00000000000000000000e-001) (49, 6, 5.00000000000000000000e-001) (49, 6, 5.00000000000000000000e-001) (49, 6, 5.00000000000000000000e-001) (49, 6, 5.00000000000000000000e-001) (49, 6, 5.00000000000000000000e-001) (49, 6, 5.00000000000000000000e-001) (49, 6, 5.00000000000000000000e-001) (49, 6, 5.00000000000000000000e-001) (49, 6, 5.00000000000000000000e-001) (49, 6, 5.00000000000000000000e-001) (49, 6, 5.00000000000000000000e-001) (49, 6, 5.00000000000000000000e-001) (49, 6, 5.00000000000000000000e-001) (49, 6, 5.00000000000000000000e-001) (49, 6, 5.00000000000000000000e-001) (49, 6, 5.00000000000000000000e-001) (49, 6, 5.00000000000000000000e-001) (49, 6, 5.00000000000000000000e-001) (49, 6, 5.00000000000000000000e-001) (49, 6, 5.00000000000000000000e-001) (0, 6, 5.00000000000000000000e-001) (24, 8, 5.00000000000000000000e-001) (0, 8, 5.00000000000000000000e-001) 
connections (connected_to_neuron, weight)=(0, 2.24760556221008300000e+000) (1, 4.79189783334732060000e-001) (2, 4.89933347702026370000e+000) (3, 1.07344198226928710000e+001) (4, 2.69649028778076170000e+000) (5, -5.13558745384216310000e-001) (6, 6.30218029022216800000e-001) (7, -3.03316020965576170000e+000) (8, 2.78595161437988280000e+000) (9, 2.33720517158508300000e+000) (10, 1.53679537773132320000e+000) (11, -4.55325937271118160000e+000) (12, -7.52655220031738280000e+000) (13, -4.40031814575195310000e+000) (14, -9.50744509696960450000e-001) (15, 2.07063508033752440000e+000) (16, 3.85326361656188960000e+000) (17, 7.29812431335449220000e+000) (18, -1.63729739189147950000e+000) (19, -3.06203055381774900000e+000) (20, 5.21011257171630860000e+000) (21, -1.05772697925567630000e+000) (22, -3.42957758903503420000e+000) (23, 5.37718772888183590000e+000) (24, -2.56603050231933590000e+000) (25, 7.54970550537109380000e-001) (26, -1.50185680389404300000e+000) (27, -1.92479145526885990000e+000) (28, -4.59869480133056640000e+000) (29, -4.43223428726196290000e+000) (30, -1.25455364584922790000e-001) (31, -2.54222750663757320000e+000) (32, 4.41145372390747070000e+000) (33, -2.88698363304138180000e+000) (34, 2.69871163368225100000e+000) (35, -6.11236238479614260000e+000) (36, 1.69719207286834720000e+000) (37, 1.61186134815216060000e+000) (38, 7.58245325088500980000e+000) (39, 3.40510942041873930000e-002) (40, 3.80421161651611330000e-001) (41, -9.70894023776054380000e-002) (42, -7.73141384124755860000e-002) (43, 8.00063371658325200000e-001) (44, 6.00953876972198490000e-001) (45, 1.45217275619506840000e+000) (46, -1.07523155212402340000e+000) (47, 8.13193416595458980000e+000) (48, -5.91366529464721680000e+000) (0, 1.50000000000000000000e+003) (1, 4.37832565307617190000e+001) (2, 1.44873992919921870000e+002) (3, 1.50000000000000000000e+003) (4, 2.80089893341064450000e+001) (5, 7.01901931762695310000e+001) (6, 1.50000000000000000000e+003) (7, 4.17296028137207030000e+001) (8, 2.00241622924804690000e+001) (9, 1.50000000000000000000e+003) (10, 8.85526580810546880000e+001) (11, 1.61008739471435550000e+001) (12, 1.50000000000000000000e+003) (13, 4.72497711181640630000e+001) (14, 8.02668457031250000000e+001) (15, 1.50000000000000000000e+003) (16, 3.49035301208496090000e+001) (17, 6.04088973999023440000e+001) (18, 1.50000000000000000000e+003) (19, 1.38429288864135740000e+001) (20, -1.01110916137695310000e+001) (21, 1.35945739746093750000e+003) (22, -3.58716857910156250000e+002) (23, 1.00847190856933590000e+002) (24, -1.00547131347656250000e+003) (25, 1.20715469360351560000e+002) (26, -7.36734008789062500000e+000) (27, 1.11542883300781250000e+003) (28, -1.50000000000000000000e+003) (29, 7.19492340087890630000e+001) (30, 5.48620483398437500000e+002) (31, 1.25449211120605470000e+002) (32, 2.53006572723388670000e+001) (33, 1.50000000000000000000e+003) (34, 3.42493209838867190000e+001) (35, 2.24753494262695310000e+001) (36, 1.50000000000000000000e+003) (37, -4.90408782958984370000e+002) (38, 1.65460540771484370000e+002) (39, 1.22121350097656250000e+003) (40, -7.47856750488281250000e+001) (41, 5.90240592956542970000e+001) (42, 1.31753564453125000000e+003) (43, -3.46004821777343750000e+002) (44, 1.58870864868164060000e+002) (45, 1.49498547363281250000e+003) (46, -1.63214355468750000000e+002) (47, 5.04679809570312500000e+002) (48, 6.21821166992187500000e+002) (0, 2.47577190399169920000e+001) (1, -4.50182771682739260000e+000) (2, 1.22066652774810790000e+000) (3, 6.05296230316162110000e+000) (4, -2.19414973258972170000e+000) (5, -2.09080362319946290000e+000) (6, 5.12020587921142580000e+000) (7, -9.59839463233947750000e-001) (8, 6.29257321357727050000e-001) (9, 1.86435610055923460000e-001) (10, -1.21858396530151370000e+001) (11, 2.11064791679382320000e+000) (12, 1.15991032123565670000e+000) (13, 4.38397264480590820000e+000) (14, -1.16356611251831050000e+000) (15, 1.37602739334106450000e+001) (16, -8.85270059108734130000e-001) (17, 3.30600953102111820000e+000) (18, -5.95873022079467770000e+000) (19, -1.73227107524871830000e+000) (20, -5.45191955566406250000e+000) (21, 1.66884536743164060000e+001) (22, 2.26804757118225100000e+000) (23, -3.43308150768280030000e-001) (24, -1.73718535900115970000e+000) (25, -4.10271072387695310000e+000) (26, 5.94569110870361330000e+000) (27, 2.17621192336082460000e-001) (28, 6.24202442169189450000e+000) (29, 2.17936635017395020000e+000) (30, 5.15343236923217770000e+000) (31, -3.65146011114120480000e-001) (32, 1.08181810379028320000e+001) (33, 4.98515939712524410000e+000) (34, -1.04923868179321290000e+000) (35, 9.92988014221191410000e+000) (36, -1.50826377868652340000e+001) (37, 1.49666109085083010000e+001) (38, 1.41528177261352540000e+000) (39, -2.98236578702926640000e-001) (40, 1.59653425216674800000e+000) (41, 6.92687273025512700000e+000) (42, 1.35465116500854490000e+001) (43, -3.35786986351013180000e+000) (44, -6.10427808761596680000e+000) (45, -1.19550447463989260000e+001) (46, 1.19125709533691410000e+001) (47, 5.56669616699218750000e+000) (48, 3.12933874130249020000e+000) (0, -4.65376205444335940000e+001) (1, 3.37441558837890630000e+001) (2, -5.21064376831054690000e+000) (3, -7.39641952514648440000e+000) (4, -5.50745058059692380000e+000) (5, -1.79046666622161870000e+000) (6, -5.80304574966430660000e+000) (7, -3.89315485954284670000e+000) (8, 6.55880212783813480000e+000) (9, -8.57848262786865230000e+000) (10, -1.84377300739288330000e+000) (11, 8.46214103698730470000e+000) (12, 2.47162132263183590000e+001) (13, -9.94491863250732420000e+000) (14, -9.28844451904296870000e+000) (15, -6.30048027038574220000e+001) (16, 3.42308731079101560000e+001) (17, -8.85472655296325680000e-001) (18, 1.34930582046508790000e+001) (19, 6.20714538574218750000e+002) (20, -2.14566278457641600000e+000) (21, 1.14516532897949220000e+002) (22, 1.42105163574218750000e+002) (23, -2.48661875724792480000e+000) (24, -3.07686767578125000000e+001) (25, 1.50000000000000000000e+003) (26, -3.82628035545349120000e+000) (27, 1.41930633544921870000e+002) (28, 2.37462890625000000000e+002) (29, -8.19706726074218750000e+000) (30, -7.87668895721435550000e+000) (31, -1.13118219375610350000e+001) (32, 1.08636236190795900000e+001) (33, -1.55847301483154300000e+001) (34, 1.41745817661285400000e+000) (35, 1.80375289916992190000e+001) (36, -1.95824600219726560000e+002) (37, 1.48499191284179690000e+002) (38, -2.52962303161621090000e+001) (39, 2.15480022430419920000e+001) (40, -1.86546230316162110000e+001) (41, 6.70047140121459960000e+000) (42, -2.68948150634765620000e+002) (43, -7.77675323486328130000e+001) (44, 2.17864971160888670000e+001) (45, 5.93484573364257810000e+001) (46, 1.28940601348876950000e+001) (47, -3.97573356628417970000e+001) (48, -2.47938454151153560000e-001) (0, -7.81936311721801760000e+000) (1, -6.13866996765136720000e+000) (2, 1.76672401428222660000e+001) (3, -5.32016897201538090000e+000) (4, 4.18940114974975590000e+000) (5, 5.68074941635131840000e+000) (6, 5.21363162994384770000e+000) (7, 2.24186277389526370000e+000) (8, -1.37420880794525150000e+000) (9, 3.99519705772399900000e+000) (10, 3.31674194335937500000e+000) (11, -3.09736609458923340000e+000) (12, 6.26674175262451170000e+000) (13, -1.05172271728515620000e+001) (14, 1.16220016479492190000e+001) (15, 9.50479984283447270000e+000) (16, -4.86716365814208980000e+000) (17, -3.12283158302307130000e+000) (18, -3.12451630830764770000e-001) (19, 9.13157641887664790000e-001) (20, 1.98247432708740230000e+000) (21, 3.22596997022628780000e-001) (22, 1.26939163208007810000e+001) (23, 1.79041433334350590000e+000) (24, 6.94364547729492190000e+000) (25, 1.39081871509552000000e+000) (26, -3.14928889274597170000e+000) (27, -7.56859922409057620000e+000) (28, 5.70777463912963870000e+000) (29, 3.83855438232421870000e+000) (30, -2.43402137756347660000e+001) (31, 4.25642818212509160000e-001) (32, -2.92975521087646480000e+000) (33, 1.12601680755615230000e+001) (34, -2.25855779647827150000e+000) (35, -6.28910779953002930000e+000) (36, 2.38660764694213870000e+000) (37, -1.49232149124145510000e+000) (38, 3.15916848182678220000e+000) (39, 1.03177726268768310000e+000) (40, -1.40420866012573240000e+001) (41, 8.53650748729705810000e-001) (42, 7.87402629852294920000e+000) (43, 3.38593411445617680000e+000) (44, -5.01884126663208010000e+000) (45, 1.47489857673645020000e+000) (46, 4.93552780151367190000e+000) (47, 1.89422345161437990000e+000) (48, -7.88138031959533690000e-001) (0, 3.83552908897399900000e+000) (1, 1.03113842010498050000e+000) (2, -3.27102279663085940000e+000) (3, 1.18618273735046390000e+000) (4, 7.80588239431381230000e-002) (5, 5.33350706100463870000e-001) (6, -9.01892602443695070000e-001) (7, 2.62267875671386720000e+000) (8, 2.68752861022949220000e+000) (9, -3.72640085220336910000e+000) (10, -1.24799144268035890000e+000) (11, -1.47593319416046140000e+000) (12, -3.01612877845764160000e+000) (13, 5.57520389556884770000e+000) (14, -2.08168387413024900000e+000) (15, 7.28235197067260740000e+000) (16, -3.31984901428222660000e+000) (17, -4.85844421386718750000e+000) (18, -3.28697824478149410000e+000) (19, 1.45090830326080320000e+000) (20, -5.59450149536132810000e+000) (21, 3.23820090293884280000e+000) (22, 2.79172277450561520000e+000) (23, -2.22553515434265140000e+000) (24, 3.07825303077697750000e+000) (25, 6.95922672748565670000e-001) (26, -2.20015907287597660000e+000) (27, -4.77315139770507810000e+000) (28, 5.13377010822296140000e-001) (29, -3.57891607284545900000e+000) (30, -1.56444799900054930000e+000) (31, -2.22844743728637700000e+000) (32, 4.44953298568725590000e+000) (33, 2.15516757965087890000e+000) (34, 1.88280141353607180000e+000) (35, 3.22197985649108890000e+000) (36, -3.35956001281738280000e+000) (37, 8.00578594207763670000e+000) (38, -3.67016077041625980000e+000) (39, 3.74382233619689940000e+000) (40, -6.16856440901756290000e-002) (41, 5.98590898513793950000e+000) (42, -1.81134080886840820000e+000) (43, -4.27213954925537110000e+000) (44, 1.73921036720275880000e+000) (45, -2.32395815849304200000e+000) (46, -1.49551200866699220000e+000) (47, 1.64638531208038330000e+000) (48, -1.70258700847625730000e-001) (0, 1.61991672515869140000e+001) (1, -8.00858736038208010000e-001) (2, -8.36963728070259090000e-002) (3, 1.06570081710815430000e+001) (4, -6.45136022567749020000e+000) (5, -2.70324468612670900000e+000) (6, 4.16468477249145510000e+000) (7, -5.59930372238159180000e+000) (8, 8.29185867309570310000e+000) (9, -8.86196911334991460000e-001) (10, 2.03946399688720700000e+000) (11, 8.92443370819091800000e+000) (12, 9.23674392700195310000e+000) (13, 1.70024836063385010000e+000) (14, -1.94488930702209470000e+000) (15, 2.16639251708984380000e+001) (16, -1.61055588722229000000e+000) (17, -3.22577655315399170000e-001) (18, -6.68296670913696290000e+000) (19, -9.04972839355468750000e+000) (20, 5.09756326675415040000e-001) (21, 1.14942989349365230000e+001) (22, 2.22845077514648440000e+000) (23, 6.37655973434448240000e-001) (24, -1.89952266216278080000e+000) (25, -1.01160991191864010000e+000) (26, 1.80745196342468260000e+000) (27, 6.47151184082031250000e+000) (28, 4.95224189758300780000e+000) (29, 5.52349448204040530000e-001) (30, 5.28655338287353520000e+000) (31, -1.64412879943847660000e+000) (32, 3.55054807662963870000e+000) (33, -4.31662034988403320000e+000) (34, -3.94659352302551270000e+000) (35, 1.02033052444458010000e+001) (36, -1.69696693420410160000e+001) (37, 1.88775482177734380000e+001) (38, -1.99854838848114010000e+000) (39, 3.84815597534179690000e+000) (40, 8.13588380813598630000e-001) (41, 6.23746967315673830000e+000) (42, 9.93793582916259770000e+000) (43, -5.51864564418792720000e-001) (44, -7.16071128845214840000e+000) (45, -6.94393682479858400000e+000) (46, 8.82311630249023440000e+000) (47, 1.02119178771972660000e+001) (48, 2.45450139045715330000e+000) (0, -3.09802627563476560000e+000) (1, 5.81674003601074220000e+000) (2, 7.78916120529174800000e-001) (3, 4.04312992095947270000e+000) (4, 2.93442201614379880000e+000) (5, -7.15511417388916020000e+000) (6, 3.03844666481018070000e+000) (7, 3.68020796775817870000e+000) (8, -2.16732358932495120000e+000) (9, 1.61583626270294190000e+000) (10, -1.87131214141845700000e+000) (11, 2.65410780906677250000e+000) (12, -9.95164680480957030000e+000) (13, -8.69769990444183350000e-001) (14, 8.76150906085968020000e-001) (15, 9.48421061038970950000e-001) (16, -5.86781024932861330000e-001) (17, -4.70198774337768550000e+000) (18, -2.14186596870422360000e+000) (19, -3.85013133287429810000e-001) (20, -3.08195376396179200000e+000) (21, 2.96263790130615230000e+000) (22, -1.54330122470855710000e+000) (23, -3.50450587272644040000e+000) (24, 3.74055004119873050000e+000) (25, 5.60415983200073240000e-001) (26, -1.73591184616088870000e+000) (27, -3.26545977592468260000e+000) (28, -1.34071516990661620000e+000) (29, -2.49722433090209960000e+000) (30, -1.34368109703063960000e+000) (31, -3.01685976982116700000e+000) (32, 5.46613407135009770000e+000) (33, 4.29051828384399410000e+000) (34, 3.28549027442932130000e+000) (35, 6.97615623474121090000e+000) (36, 1.28076583147048950000e-001) (37, 6.38417720794677730000e+000) (38, 2.68214941024780270000e-001) (39, -7.49746620655059810000e-001) (40, -1.51680207252502440000e+000) (41, 4.19998884201049800000e+000) (42, 1.51053369045257570000e+000) (43, 2.36053538322448730000e+000) (44, 5.95776498317718510000e-001) (45, -5.22007846832275390000e+000) (46, 1.65051376819610600000e+000) (47, 5.38323581218719480000e-001) (48, -1.55798339843750000000e+000) (0, -4.29785966873168950000e+000) (1, -4.75542736053466800000e+000) (2, 2.45109319686889650000e-001) (3, -5.29608631134033200000e+000) (4, 5.06733655929565430000e+000) (5, 5.92049169540405270000e+000) (6, 3.46871829032897950000e+000) (7, -3.38856434822082520000e+000) (8, 9.99464511871337890000e-001) (9, 3.78604698181152340000e+000) (10, -3.59729433059692380000e+000) (11, -4.23298978805541990000e+000) (12, 8.88857460021972660000e+000) (13, -9.44470703601837160000e-001) (14, 3.66724729537963870000e+000) (15, -8.11336517333984380000e+000) (16, -2.71974635124206540000e+000) (17, -2.47335410118103030000e+000) (18, -2.68127942085266110000e+000) (19, -2.10260224342346190000e+000) (20, 6.51584208011627200000e-001) (21, 2.57792639732360840000e+000) (22, 6.41049385070800780000e+000) (23, 4.48147583007812500000e+000) (24, 8.52497482299804690000e+000) (25, 6.57113119959831240000e-002) (26, -4.10724782943725590000e+000) (27, 1.10616064071655270000e+000) (28, -4.29452466964721680000e+000) (29, 1.97296631336212160000e+000) (30, -1.85839438438415530000e+000) (31, 4.75634813308715820000e+000) (32, -6.52035570144653320000e+000) (33, -4.59388792514801030000e-001) (34, -3.59980136156082150000e-001) (35, -1.41170096397399900000e+000) (36, -4.26850891113281250000e+000) (37, -2.13114905357360840000e+000) (38, 2.11781859397888180000e+000) (39, -4.95338821411132810000e+000) (40, 7.79599189758300780000e-001) (41, 4.98412907123565670000e-001) (42, 3.35925602912902830000e+000) (43, -5.56524991989135740000e-001) (44, 1.04742892086505890000e-001) (45, 7.83791208267211910000e+000) (46, -5.53490817546844480000e-001) (47, 4.46640431880950930000e-001) (48, -1.75060892105102540000e+000) (0, -1.29512014389038090000e+001) (1, 8.53862953186035160000e+000) (2, -1.21925458908081050000e+001) (3, -5.86268603801727290000e-001) (4, -1.28011119365692140000e+000) (5, -1.22533550262451170000e+001) (6, 5.69935226440429690000e+000) (7, 3.34301114082336430000e-001) (8, -3.72468566894531250000e+000) (9, 5.47724199295043950000e+000) (10, 6.07081890106201170000e+000) (11, -1.21126878261566160000e+000) (12, -3.45182871818542480000e+000) (13, 9.38987922668457030000e+000) (14, -2.80039334297180180000e+000) (15, -1.01609544754028320000e+001) (16, -6.25629615783691410000e+000) (17, -8.75655841827392580000e+000) (18, 1.40349769592285160000e+000) (19, 1.02973890304565430000e+001) (20, 8.22805595397949220000e+000) (21, 3.72508645057678220000e+000) (22, -1.24605214595794680000e+000) (23, -7.52365303039550780000e+000) (24, -7.24908351898193360000e+000) (25, 1.79703819751739500000e+000) (26, 5.84898090362548830000e+000) (27, -1.67802083492279050000e+000) (28, 4.95791339874267580000e+000) (29, 6.43639707565307620000e+000) (30, 3.17256951332092290000e+000) (31, 2.59888440370559690000e-001) (32, 4.65421581268310550000e+000) (33, 1.20636785030364990000e+000) (34, 8.28596878051757810000e+000) (35, 4.51449251174926760000e+000) (36, -1.79467424750328060000e-001) (37, -4.42248725891113280000e+000) (38, -5.25185537338256840000e+000) (39, 1.44995384216308590000e+001) (40, 8.33663761615753170000e-001) (41, 2.07043981552124020000e+000) (42, -1.05052947998046870000e+001) (43, -1.05283584594726560000e+001) (44, 8.49242150783538820000e-001) (45, -1.30920326709747310000e+000) (46, -8.40304374694824220000e+000) (47, -1.05534706115722660000e+001) (48, 4.16530752182006840000e+000) (0, 2.06389617919921880000e+001) (1, 1.67783050537109370000e+001) (2, 7.32133805751800540000e-001) (3, -6.94019269943237300000e+000) (4, 1.17647256851196290000e+001) (5, 6.62249755859375000000e+000) (6, -1.18784980773925780000e+001) (7, -5.88512611389160160000e+000) (8, 3.20182228088378910000e+000) (9, 1.08085680007934570000e+001) (10, -6.13917589187622070000e+000) (11, -3.85913014411926270000e+000) (12, 1.42608747482299800000e+001) (13, -1.90825824737548830000e+001) (14, -2.19967975616455080000e+001) (15, -6.68452215194702150000e+000) (16, 7.27433085441589360000e-001) (17, 1.04665842056274410000e+001) (18, -9.80708301067352290000e-001) (19, 4.35116529464721680000e+000) (20, 1.26613368988037110000e+001) (21, 3.27076458930969240000e+000) (22, -5.85412025451660160000e+000) (23, 1.10045251846313480000e+001) (24, -1.29938685894012450000e+000) (25, 2.97247743606567380000e+000) (26, 9.19209384918212890000e+000) (27, -1.27567625045776370000e+001) (28, 1.20513277053833010000e+001) (29, 9.54924583435058590000e+000) (30, 2.00808296203613280000e+001) (31, -3.09663677215576170000e+000) (32, -1.28775167465209960000e+001) (33, -2.01707916259765620000e+001) (34, -1.99014925956726070000e+000) (35, -1.67108190059661870000e+000) (36, 5.69641971588134770000e+000) (37, -2.92525315284729000000e+000) (38, -3.80638271570205690000e-001) (39, -1.51212959289550780000e+001) (40, -1.48962326049804690000e+001) (41, 5.36937046051025390000e+000) (42, 2.56160697937011720000e+001) (43, 6.24286746978759770000e+000) (44, -2.16551041603088380000e+000) (45, -5.49894189834594730000e+000) (46, 4.30597352981567380000e+000) (47, -1.43236160278320310000e+000) (48, -7.31931543350219730000e+000) (0, -1.15548425292968750000e+003) (1, 2.88420009613037110000e+001) (2, 1.50000000000000000000e+003) (3, 8.78823303222656250000e+002) (4, 2.08527011871337890000e+001) (5, 1.50000000000000000000e+003) (6, 1.49975610351562500000e+003) (7, 9.30561733245849610000e+000) (8, 1.48909448242187500000e+003) (9, 1.49999621582031250000e+003) (10, 5.14979076385498050000e+000) (11, 1.47885534667968750000e+003) (12, 1.49977600097656250000e+003) (13, 2.15142555236816410000e+001) (14, 1.50000000000000000000e+003) (15, 1.49827905273437500000e+003) (16, 2.54792022705078130000e+001) (17, 1.50000000000000000000e+003) (18, 1.47457592773437500000e+003) (19, -6.65874206542968750000e+002) (20, 1.49998217773437500000e+003) (21, 1.37832983398437500000e+003) (22, -1.50000000000000000000e+003) (23, 1.50000000000000000000e+003) (24, 3.16316089630126950000e+001) (25, -1.50000000000000000000e+003) (26, 1.49675561523437500000e+003) (27, 6.48197555541992190000e+001) (28, -1.50000000000000000000e+003) (29, 1.50000000000000000000e+003) (30, 1.48958447265625000000e+003) (31, 1.70347270965576170000e+001) (32, 1.48457385253906250000e+003) (33, 1.48581542968750000000e+003) (34, 2.06212959289550780000e+001) (35, 1.44794384765625000000e+003) (36, 1.49333898925781250000e+003) (37, -1.50000000000000000000e+003) (38, 1.18781201171875000000e+003) (39, 1.47543750000000000000e+003) (40, -1.47849108886718750000e+003) (41, 9.12878799438476560000e+001) (42, -5.00809448242187500000e+002) (43, -1.40897961425781250000e+003) (44, 1.49388427734375000000e+003) (45, 1.49861621093750000000e+003) (46, -1.50000000000000000000e+003) (47, 1.24840234375000000000e+003) (48, 2.46297515869140620000e+002) (0, 1.50000000000000000000e+003) (1, -9.01979293823242190000e+001) (2, -1.49999060058593750000e+003) (3, 1.50000000000000000000e+003) (4, 1.80111198425292970000e+001) (5, -1.50000000000000000000e+003) (6, 1.50000000000000000000e+003) (7, 8.66374778747558590000e+000) (8, -1.48614929199218750000e+003) (9, 1.50000000000000000000e+003) (10, 3.93863940238952640000e+000) (11, -5.38181274414062500000e+002) (12, 1.50000000000000000000e+003) (13, 1.81091136932373050000e+001) (14, -1.86557373046875000000e+002) (15, 1.50000000000000000000e+003) (16, 1.54197397232055660000e+001) (17, -1.50000000000000000000e+003) (18, 1.50000000000000000000e+003) (19, -1.50000000000000000000e+003) (20, -5.44406555175781250000e+002) (21, 1.50000000000000000000e+003) (22, -4.11601593017578120000e+002) (23, -4.69983673095703120000e+002) (24, 1.50000000000000000000e+003) (25, -1.50000000000000000000e+003) (26, -4.52654815673828120000e+002) (27, 1.50000000000000000000e+003) (28, -1.50000000000000000000e+003) (29, -5.58225524902343750000e+002) (30, 1.50000000000000000000e+003) (31, 6.41893720626831050000e+000) (32, -5.50645690917968750000e+002) (33, 1.50000000000000000000e+003) (34, 7.39415979385375980000e+000) (35, -5.22143920898437500000e+002) (36, 1.50000000000000000000e+003) (37, -3.41004943847656250000e+001) (38, 8.97556006908416750000e-001) (39, 1.50000000000000000000e+003) (40, 1.03387954711914060000e+002) (41, -3.77691555023193360000e+000) (42, 1.50000000000000000000e+003) (43, -1.49218444824218750000e+003) (44, -1.56886047363281250000e+002) (45, 1.49990979003906250000e+003) (46, -1.31070166015625000000e+003) (47, 9.91130924224853520000e+000) (48, 4.88819007873535160000e+001) (0, 2.26882338523864750000e+000) (1, 9.88718867301940920000e-001) (2, -2.55940103530883790000e+000) (3, -6.78260183334350590000e+000) (4, -9.28103625774383540000e-001) (5, 5.24519824981689450000e+000) (6, 2.25658035278320310000e+000) (7, -5.10042548179626460000e-001) (8, -2.55198240280151370000e+000) (9, 7.48605585098266600000e+000) (10, 2.74209320545196530000e-001) (11, -3.38416552543640140000e+000) (12, 2.61776185035705570000e+000) (13, 2.66612917184829710000e-001) (14, 3.22492957115173340000e+000) (15, -2.89515793323516850000e-001) (16, 3.17679023742675780000e+000) (17, -6.86464023590087890000e+000) (18, -3.84109330177307130000e+000) (19, 6.34895610809326170000e+000) (20, -1.59445255994796750000e-001) (21, 1.83113908767700200000e+000) (22, -5.27477884292602540000e+000) (23, 1.82407999038696290000e+000) (24, 5.39024066925048830000e+000) (25, -4.37621206045150760000e-001) (26, 4.94299268722534180000e+000) (27, 1.54349923133850100000e+000) (28, 2.39354991912841800000e+000) (29, 6.52685689926147460000e+000) (30, 4.02827072143554690000e+000) (31, -1.64790439605712890000e+000) (32, -4.45089197158813480000e+000) (33, -6.45807075500488280000e+000) (34, -1.09722626209259030000e+000) (35, -5.00257396697998050000e+000) (36, -4.40326547622680660000e+000) (37, 2.25569701194763180000e+000) (38, -1.10581076145172120000e+000) (39, -1.67229306697845460000e+000) (40, -7.70349875092506410000e-002) (41, 3.26057744026184080000e+000) (42, 2.59644842147827150000e+000) (43, 3.53433918952941890000e+000) (44, -2.56466174125671390000e+000) (45, 7.63928592205047610000e-001) (46, 3.17085099220275880000e+000) (47, 4.85261231660842900000e-001) (48, -4.09394115209579470000e-001) (0, 7.69412374496459960000e+000) (1, 5.08099746704101560000e+000) (2, -1.72859430313110350000e+000) (3, 7.55786514282226560000e+000) (4, 1.27291417121887210000e+000) (5, 2.66857099533081050000e+000) (6, -5.96183717250823970000e-001) (7, -2.18036532402038570000e+000) (8, -5.48390150070190430000e-001) (9, 3.71305656433105470000e+000) (10, 5.70197725296020510000e+000) (11, -5.43806362152099610000e+000) (12, 7.73181974887847900000e-001) (13, -2.74459600448608400000e+000) (14, -6.32078349590301510000e-001) (15, 1.39432840347290040000e+001) (16, 1.48434047698974610000e+001) (17, 5.13408470153808590000e+000) (18, -1.06311044692993160000e+001) (19, -1.05759115219116210000e+001) (20, -7.15547132492065430000e+000) (21, -4.59981870651245120000e+000) (22, -5.02759408950805660000e+000) (23, 3.26450675725936890000e-001) (24, -3.18737721443176270000e+000) (25, -3.18911790847778320000e+000) (26, 1.23078787326812740000e+000) (27, -2.47910499572753910000e+000) (28, 2.34776377677917480000e+000) (29, -3.12661600112915040000e+000) (30, -3.85756254196166990000e+000) (31, -6.70043706893920900000e+000) (32, -8.27923297882080080000e+000) (33, -2.74371099472045900000e+000) (34, -5.98451328277587890000e+000) (35, -6.39523410797119140000e+000) (36, -1.09704713821411130000e+001) (37, 1.23118953704833980000e+001) (38, 2.89284253120422360000e+000) (39, 5.49786233901977540000e+000) (40, -7.67572259902954100000e+000) (41, 1.47123985290527340000e+001) (42, 1.76616096496582030000e+000) (43, 2.92691469192504880000e+000) (44, 2.12110304832458500000e+000) (45, 4.80087566375732420000e+000) (46, -3.17394471168518070000e+000) (47, 8.64571380615234370000e+000) (48, 4.68658864498138430000e-001) (0, 3.05942291259765620000e+002) (1, -5.77322502136230470000e+001) (2, -6.73877096176147460000e+000) (3, 5.99404052734375000000e+002) (4, -5.57778091430664060000e+001) (5, -1.71197998523712160000e+000) (6, -5.66581306457519530000e+001) (7, -1.54692602157592770000e+001) (8, 3.15244019031524660000e-001) (9, 1.59068238735198970000e+000) (10, -9.86628437042236330000e+000) (11, -4.75965118408203120000e+000) (12, 1.83759231567382810000e+002) (13, -5.40666759014129640000e-001) (14, -9.32341480255126950000e+000) (15, 7.33554992675781250000e+002) (16, -7.37125682830810550000e+000) (17, -1.33207309246063230000e+000) (18, 6.13333984375000000000e+002) (19, -3.19669551849365230000e+001) (20, -2.13125839233398440000e+001) (21, 3.98166748046875000000e+002) (22, 1.60147888183593750000e+002) (23, 1.06112813949584960000e+001) (24, -1.42344128417968750000e+003) (25, -4.15966979980468750000e+002) (26, -8.11478710174560550000e+000) (27, -4.17414886474609380000e+002) (28, 6.31258468627929690000e+001) (29, 1.68437309265136720000e+001) (30, -1.12273778915405270000e+001) (31, -2.32159209251403810000e+000) (32, -3.61565589904785160000e+000) (33, 5.15648010253906250000e+002) (34, -8.34393596649169920000e+000) (35, -9.20459079742431640000e+000) (36, 2.06748413085937500000e+002) (37, -1.00897455215454100000e+001) (38, 7.85866641998291020000e+000) (39, -1.27302963256835940000e+002) (40, -2.87912940979003910000e+001) (41, -5.93568533658981320000e-002) (42, 1.09235253906250000000e+003) (43, -1.55621490478515630000e+001) (44, -1.29769487380981450000e+001) (45, 1.50000000000000000000e+003) (46, 6.84649429321289060000e+001) (47, 2.39457702636718750000e+001) (48, 2.91778030395507810000e+001) (0, 1.50164356231689450000e+001) (1, 2.50580191612243650000e+000) (2, 4.32402896881103520000e+000) (3, 7.61452102661132810000e+000) (4, -5.45782375335693360000e+000) (5, 7.10280990600585940000e+000) (6, -3.08373279571533200000e+001) (7, -2.05108571052551270000e+000) (8, 1.84062623977661130000e+000) (9, -2.13340263366699220000e+001) (10, 7.64315080642700200000e+000) (11, 2.91290473937988280000e+000) (12, -4.34503984451293950000e+000) (13, 2.63504528999328610000e+000) (14, 3.55040311813354490000e+000) (15, -9.07196402549743650000e-001) (16, -4.47408771514892580000e+000) (17, 2.60863423347473140000e+000) (18, 1.68271217346191410000e+001) (19, 4.07637882232666020000e+000) (20, 6.28752279281616210000e+000) (21, -4.96844959259033200000e+000) (22, -3.27470922470092770000e+000) (23, -5.30616617202758790000e+000) (24, -8.26239967346191410000e+000) (25, -3.84746766090393070000e+000) (26, -9.82684040069580080000e+000) (27, 2.01430141925811770000e-001) (28, -8.20154666900634770000e+000) (29, 8.99143505096435550000e+000) (30, 3.46967544555664060000e+001) (31, -1.14189548492431640000e+001) (32, -8.12888908386230470000e+000) (33, 9.29232883453369140000e+000) (34, 6.05654811859130860000e+000) (35, 1.38821315765380860000e+000) (36, 9.61905002593994140000e+000) (37, 4.16819095611572270000e+000) (38, -1.37433204650878910000e+001) (39, -4.96476221084594730000e+000) (40, -3.14560890197753910000e+000) (41, -1.31075992584228520000e+001) (42, 1.04741458892822270000e+001) (43, 2.16021776199340820000e+000) (44, -2.82881307601928710000e+000) (45, 7.52265274524688720000e-001) (46, 1.43279230594635010000e+000) (47, 1.07919797897338870000e+001) (48, 1.68369925022125240000e+000) (0, 1.22191381454467770000e+001) (1, -1.77854105830192570000e-001) (2, -1.72703814506530760000e+000) (3, -5.93097352981567380000e+000) (4, -1.83289432525634770000e+000) (5, -5.08597564697265620000e+000) (6, 1.47434234619140630000e+000) (7, -4.00045061111450200000e+000) (8, -2.25548529624938960000e+000) (9, -1.37277638912200930000e+000) (10, -3.16096258163452150000e+000) (11, 9.39063951373100280000e-002) (12, 3.60660958290100100000e+000) (13, 5.81492233276367190000e+000) (14, 1.05509722232818600000e+000) (15, 8.74021720886230470000e+000) (16, -2.07051849365234370000e+000) (17, -1.62248396873474120000e+000) (18, -5.23777008056640620000e+000) (19, -2.40386009216308590000e+000) (20, 3.41361761093139650000e+000) (21, 2.26882243156433110000e+000) (22, 1.61151027679443360000e+001) (23, -1.02109217643737790000e+000) (24, -3.84917068481445310000e+000) (25, 2.10782885551452640000e+000) (26, 4.03197348117828370000e-001) (27, -2.19249296188354490000e+000) (28, -9.89016652107238770000e-001) (29, -2.00796794891357420000e+000) (30, -7.71426868438720700000e+000) (31, 5.94262933731079100000e+000) (32, 1.65906858444213870000e+000) (33, -5.50061559677124020000e+000) (34, -2.06989318132400510000e-001) (35, 2.21161699295043950000e+000) (36, -3.94764256477355960000e+000) (37, 1.00183448791503910000e+001) (38, 6.63863658905029300000e+000) (39, 2.76451921463012700000e+000) (40, 7.92161822319030760000e-001) (41, 3.14999485015869140000e+000) (42, -1.85006678104400630000e+000) (43, -4.23363256454467770000e+000) (44, 1.04903686046600340000e+000) (45, 4.17282390594482420000e+000) (46, -2.06406879425048830000e+000) (47, 2.10301089286804200000e+000) (48, -5.81727361679077150000e+000) (0, 8.99778187274932860000e-001) (1, -2.44570636749267580000e+000) (2, 2.33842873573303220000e+000) (3, -6.39516878128051760000e+000) (4, 8.87058794498443600000e-001) (5, 2.68813204765319820000e+000) (6, -7.86196374893188480000e+000) (7, -2.28681683540344240000e+000) (8, 1.24538218975067140000e+000) (9, 3.99107885360717770000e+000) (10, -2.91994309425354000000e+000) (11, -2.38789126276969910000e-001) (12, 7.78951406478881840000e+000) (13, -4.31820929050445560000e-001) (14, -1.97622656822204590000e+000) (15, 9.10956573486328120000e+000) (16, 4.54709386825561520000e+000) (17, 3.78437900543212890000e+000) (18, -1.14338409900665280000e+000) (19, 4.46095752716064450000e+000) (20, -2.11811709403991700000e+000) (21, -2.29536247253417970000e+000) (22, -6.68739604949951170000e+000) (23, 5.19013166427612300000e+000) (24, 7.85603106021881100000e-001) (25, -1.21256458759307860000e+000) (26, 1.78367769718170170000e+000) (27, 2.85821199417114260000e+000) (28, 3.67453551292419430000e+000) (29, -1.92587351799011230000e+000) (30, 1.36558663845062260000e+000) (31, 1.13439834117889400000e+000) (32, -4.09886693954467770000e+000) (33, -6.96282339096069340000e+000) (34, -8.97503256797790530000e-001) (35, -5.05222606658935550000e+000) (36, -2.34675621986389160000e+000) (37, -4.92893600463867190000e+000) (38, 1.00754761695861820000e+000) (39, 5.46509122848510740000e+000) (40, -4.81750249862670900000e+000) (41, -3.98215818405151370000e+000) (42, -1.33009672164916990000e+000) (43, -1.70490860939025880000e-001) (44, 4.00702834129333500000e-001) (45, 1.97262191772460940000e+000) (46, 5.61065077781677250000e-001) (47, -2.76266694068908690000e+000) (48, 3.78068542480468750000e+000) (0, -2.51453514099121090000e+001) (1, 1.54065856933593750000e+001) (2, -2.32131099700927730000e+000) (3, 2.94095363616943360000e+001) (4, 2.53491477966308590000e+001) (5, 8.18764686584472660000e+000) (6, -1.55890331268310550000e+001) (7, -1.25576438903808590000e+001) (8, 3.60275077819824220000e+001) (9, 8.69080638885498050000e+000) (10, 8.07571315765380860000e+000) (11, 1.85370864868164060000e+001) (12, -3.69950981140136720000e+001) (13, -2.67011337280273440000e+001) (14, -3.30165786743164060000e+001) (15, -1.84647417068481450000e+000) (16, 5.26742362976074220000e+000) (17, -2.02689981460571290000e+000) (18, 2.12591862678527830000e+000) (19, 3.52166938781738280000e+001) (20, -5.82353401184082030000e+000) (21, 7.27331686019897460000e+000) (22, 3.23376965522766110000e+000) (23, -6.17703151702880860000e+000) (24, -2.15617179870605470000e+001) (25, -1.16241531372070310000e+001) (26, 1.71259605884552000000e+000) (27, 2.11538734436035160000e+001) (28, 3.31402659416198730000e+000) (29, -5.70361042022705080000e+000) (30, -5.49726390838623050000e+000) (31, 3.35866236686706540000e+000) (32, -7.25395631790161130000e+000) (33, -2.17346763610839840000e+001) (34, -8.41579246520996090000e+000) (35, -1.54742145538330080000e+001) (36, -1.37686557769775390000e+001) (37, -8.64603710174560550000e+000) (38, 1.39137649536132810000e+000) (39, 1.72122268676757810000e+001) (40, 1.88345253467559810000e+000) (41, 1.76087551116943360000e+001) (42, -6.37116003036499020000e+000) (43, 9.54745006561279300000e+000) (44, 1.27176523208618160000e+001) (45, 2.14621138572692870000e+000) (46, 2.79346179962158200000e+001) (47, 1.21827964782714840000e+001) (48, 1.42135915756225590000e+001) (0, -4.56708221435546870000e+002) (1, -1.21193857192993160000e+001) (2, 3.90745429992675780000e+001) (3, -3.88835983276367190000e+001) (4, -9.13504219055175780000e+000) (5, 1.54035842895507810000e+002) (6, 9.69136238098144530000e+000) (7, -4.99744987487792970000e+000) (8, 1.92966461181640630000e+002) (9, 1.63612499237060550000e+001) (10, -9.35335636138916020000e+000) (11, 2.90217041015625000000e+002) (12, 1.19454202651977540000e+001) (13, -6.18799972534179690000e+000) (14, 2.66172561645507810000e+001) (15, -6.49780120849609380000e+001) (16, -5.12155628204345700000e+000) (17, 6.84834671020507810000e+001) (18, 3.68791198730468750000e+001) (19, 2.18975540161132810000e+002) (20, 3.75841979980468750000e+002) (21, -4.45572853088378910000e+001) (22, 5.29146484375000000000e+002) (23, 4.90248298645019530000e+001) (24, -2.62132568359375000000e+002) (25, 6.26732025146484370000e+001) (26, 5.44503669738769530000e+001) (27, -1.30715625000000000000e+003) (28, 1.50000000000000000000e+003) (29, 1.68640766143798830000e+001) (30, 2.33057117462158200000e+001) (31, 1.29592933654785160000e+001) (32, 4.06643829345703130000e+001) (33, 1.51071052551269530000e+001) (34, 3.77030181884765630000e+001) (35, 8.05941848754882810000e+001) (36, 2.01805171966552730000e+001) (37, 2.54242279052734370000e+002) (38, 9.52993011474609370000e+000) (39, 7.59922180175781250000e+001) (40, 1.33925460815429690000e+002) (41, 1.35372581481933590000e+001) (42, 9.64659957885742190000e+001) (43, 3.10609130859375000000e+002) (44, 2.23549957275390630000e+001) (45, 2.96095520019531250000e+002) (46, 3.25295288085937500000e+002) (47, 2.67045021057128910000e+000) (48, 6.48053884506225590000e+000) (0, -1.40271654129028320000e+001) (1, 3.49434542655944820000e+000) (2, -1.56527650356292720000e+000) (3, 2.68262176513671880000e+001) (4, 8.93605291843414310000e-001) (5, -1.82143425941467290000e+000) (6, -5.54088020324707030000e+000) (7, -7.08533430099487300000e+000) (8, -1.42594184875488280000e+001) (9, -8.09903335571289060000e+000) (10, 1.89727401733398440000e+000) (11, -1.48463239669799800000e+001) (12, -2.71864533424377440000e+000) (13, -1.37607827782630920000e-001) (14, 1.33503284454345700000e+001) (15, -1.47759275436401370000e+001) (16, -7.44348907470703130000e+000) (17, 2.93155431747436520000e+000) (18, -2.15107107162475590000e+000) (19, -2.20353937149047850000e+000) (20, 6.07772254943847660000e+000) (21, -4.93232488632202150000e+000) (22, -1.64151346683502200000e+000) (23, 1.10984773635864260000e+001) (24, -2.44663023948669430000e+000) (25, 5.08838319778442380000e+000) (26, -5.86621427536010740000e+000) (27, 4.40360403060913090000e+000) (28, 1.57562704086303710000e+001) (29, -7.33351898193359370000e+000) (30, 1.00077152252197270000e+001) (31, 2.58810400962829590000e+000) (32, 4.74904155731201170000e+000) (33, -2.41401934623718260000e+000) (34, 1.28201735019683840000e+000) (35, -1.41862668991088870000e+001) (36, -5.18102264404296870000e+000) (37, 7.36270570755004880000e+000) (38, 1.55236883163452150000e+001) (39, 9.69367250800132750000e-002) (40, 2.71265006065368650000e+000) (41, 8.52997016906738280000e+000) (42, -3.28489899635314940000e+000) (43, -2.66909146308898930000e+000) (44, 6.90102148056030270000e+000) (45, 2.03011207580566410000e+001) (46, 5.93769907951354980000e-001) (47, 6.20076322555541990000e+000) (48, -4.65798664093017580000e+000) (0, -5.44319629669189450000e+000) (1, -8.61526489257812500000e-001) (2, -3.47600340843200680000e+000) (3, -1.67302772402763370000e-001) (4, -5.36265134811401370000e+000) (5, -3.22768115997314450000e+000) (6, 7.97802543640136720000e+000) (7, -4.92096662521362300000e+000) (8, 3.32418775558471680000e+000) (9, 6.51554059982299800000e+000) (10, 3.14092040061950680000e-001) (11, -1.48565614223480220000e+000) (12, -1.84008541107177730000e+001) (13, 9.30742549896240230000e+000) (14, 1.65204601287841800000e+001) (15, 3.51883673667907710000e+000) (16, -3.41088628768920900000e+000) (17, -1.76781070232391360000e+000) (18, 4.11780452728271480000e+000) (19, 2.15205345153808590000e+001) (20, 1.43519163131713870000e+000) (21, 7.68708944320678710000e+000) (22, -5.41824007034301760000e+000) (23, -3.94978117942810060000e+000) (24, 1.59886369705200200000e+001) (25, -4.02647584676742550000e-001) (26, 2.40967884659767150000e-001) (27, -3.72926735877990720000e+000) (28, 2.81349802017211910000e+000) (29, 1.42928237915039060000e+001) (30, 3.21664476394653320000e+000) (31, -8.17142868041992190000e+000) (32, 2.92569398880004880000e+000) (33, 4.75704558193683620000e-002) (34, 3.85410642623901370000e+000) (35, -3.73511719703674320000e+000) (36, 1.56893193721771240000e+000) (37, -3.40732240676879880000e+000) (38, -1.12854337692260740000e+001) (39, -3.27731108665466310000e+000) (40, 1.66568660736083980000e+001) (41, 1.91783383488655090000e-001) (42, 4.32835865020751950000e+000) (43, -5.30067396163940430000e+000) (44, -2.37062430381774900000e+000) (45, -6.24716901779174800000e+000) (46, 1.76796188354492190000e+001) (47, 6.25795173645019530000e+000) (48, -2.24916243553161620000e+000) (49, -7.60003626346588130000e-001) (50, -1.31308794021606450000e-001) (51, -1.58698916435241700000e+000) (52, 1.11928842961788180000e-001) (53, -4.11673188209533690000e-001) (54, -9.51196610927581790000e-001) (55, 1.57252776622772220000e+000) (56, 1.03187143802642820000e+000) (57, 5.14196515083312990000e-001) (58, 3.73271614313125610000e-001) (59, 3.03322583436965940000e-001) (60, -2.99496129155159000000e-002) (61, -1.64878498762845990000e-002) (62, -7.56364107131958010000e-001) (63, 3.87865602970123290000e-001) (64, -3.46980482339859010000e-001) (65, 5.91197848320007320000e-001) (66, 6.29768908023834230000e-001) (67, 8.59406948089599610000e-001) (68, 5.60206413269042970000e-001) (69, 2.33537957072258000000e-001) (70, -3.56813341379165650000e-001) (71, 4.23730701208114620000e-001) (72, 5.62338531017303470000e-001) 
