FANN_FLO_2.1
num_layers=3
learning_rate=0.700000
connection_rate=1.000000
network_type=0
learning_momentum=0.000000
training_algorithm=2
train_error_function=1
train_stop_function=1
cascade_output_change_fraction=0.010000
quickprop_decay=-0.000100
quickprop_mu=1.750000
rprop_increase_factor=1.200000
rprop_decrease_factor=0.500000
rprop_delta_min=0.000000
rprop_delta_max=50.000000
rprop_delta_zero=0.100000
cascade_output_stagnation_epochs=12
cascade_candidate_change_fraction=0.010000
cascade_candidate_stagnation_epochs=12
cascade_max_out_epochs=150
cascade_min_out_epochs=50
cascade_max_cand_epochs=150
cascade_min_cand_epochs=50
cascade_num_candidate_groups=2
bit_fail_limit=3.49999994039535520000e-001
cascade_candidate_limit=1.00000000000000000000e+003
cascade_weight_multiplier=4.00000005960464480000e-001
cascade_activation_functions_count=10
cascade_activation_functions=3 5 7 8 10 11 14 15 16 17 
cascade_activation_steepnesses_count=4
cascade_activation_steepnesses=2.50000000000000000000e-001 5.00000000000000000000e-001 7.50000000000000000000e-001 1.00000000000000000000e+000 
layer_sizes=49 24 2 
scale_included=0
neurons (num_inputs, activation_function, activation_steepness)=(0, 0, 0.00000000000000000000e+000) (0, 0, 0.00000000000000000000e+000) (0, 0, 0.00000000000000000000e+000) (0, 0, 0.00000000000000000000e+000) (0, 0, 0.00000000000000000000e+000) (0, 0, 0.00000000000000000000e+000) (0, 0, 0.00000000000000000000e+000) (0, 0, 0.00000000000000000000e+000) (0, 0, 0.00000000000000000000e+000) (0, 0, 0.00000000000000000000e+000) (0, 0, 0.00000000000000000000e+000) (0, 0, 0.00000000000000000000e+000) (0, 0, 0.00000000000000000000e+000) (0, 0, 0.00000000000000000000e+000) (0, 0, 0.00000000000000000000e+000) (0, 0, 0.00000000000000000000e+000) (0, 0, 0.00000000000000000000e+000) (0, 0, 0.00000000000000000000e+000) (0, 0, 0.00000000000000000000e+000) (0, 0, 0.00000000000000000000e+000) (0, 0, 0.00000000000000000000e+000) (0, 0, 0.00000000000000000000e+000) (0, 0, 0.00000000000000000000e+000) (0, 0, 0.00000000000000000000e+000) (0, 0, 0.00000000000000000000e+000) (0, 0, 0.00000000000000000000e+000) (0, 0, 0.00000000000000000000e+000) (0, 0, 0.00000000000000000000e+000) (0, 0, 0.00000000000000000000e+000) (0, 0, 0.00000000000000000000e+000) (0, 0, 0.00000000000000000000e+000) (0, 0, 0.00000000000000000000e+000) (0, 0, 0.00000000000000000000e+000) (0, 0, 0.00000000000000000000e+000) (0, 0, 0.00000000000000000000e+000) (0, 0, 0.00000000000000000000e+000) (0, 0, 0.00000000000000000000e+000) (0, 0, 0.00000000000000000000e+000) (0, 0, 0.00000000000000000000e+000) (0, 0, 0.00000000000000000000e+000) (0, 0, 0.00000000000000000000e+000) (0, 0, 0.00000000000000000000e+000) (0, 0, 0.00000000000000000000e+000) (0, 0, 0.00000000000000000000e+000) (0, 0, 0.00000000000000000000e+000) (0, 0, 0.00000000000000000000e+000) (0, 0, 0.00000000000000000000e+000) (0, 0, 0.00000000000000000000e+000) (0, 0, 0.00000000000000000000e+000) (49, 10, 5.00000000000000000000e-001) (49, 10, 5.00000000000000000000e-001) (49, 10, 5.00000000000000000000e-001) (49, 10, 5.00000000000000000000e-001) (49, 10, 5.00000000000000000000e-001) (49, 10, 5.00000000000000000000e-001) (49, 10, 5.00000000000000000000e-001) (49, 10, 5.00000000000000000000e-001) (49, 10, 5.00000000000000000000e-001) (49, 10, 5.00000000000000000000e-001) (49, 10, 5.00000000000000000000e-001) (49, 10, 5.00000000000000000000e-001) (49, 10, 5.00000000000000000000e-001) (49, 10, 5.00000000000000000000e-001) (49, 10, 5.00000000000000000000e-001) (49, 10, 5.00000000000000000000e-001) (49, 10, 5.00000000000000000000e-001) (49, 10, 5.00000000000000000000e-001) (49, 10, 5.00000000000000000000e-001) (49, 10, 5.00000000000000000000e-001) (49, 10, 5.00000000000000000000e-001) (49, 10, 5.00000000000000000000e-001) (49, 10, 5.00000000000000000000e-001) (0, 10, 5.00000000000000000000e-001) (24, 13, 5.00000000000000000000e-001) (0, 13, 5.00000000000000000000e-001) 
connections (connected_to_neuron, weight)=(0, -9.59222698211669920000e+000) (1, 4.33209991455078120000e+001) (2, -2.84161643981933590000e+001) (3, -7.16223001480102540000e+000) (4, 4.23762969970703130000e+001) (5, -3.34337615966796880000e+001) (6, -3.99499821662902830000e+000) (7, 4.01486587524414060000e+001) (8, -4.63466415405273440000e+001) (9, -2.82675886154174800000e+000) (10, 4.31761169433593750000e+001) (11, -4.90224533081054690000e+001) (12, -1.26003541946411130000e+001) (13, 4.19005012512207030000e+001) (14, -4.03521385192871090000e+001) (15, 7.92286515235900880000e-001) (16, 4.26928215026855470000e+001) (17, -3.29263420104980470000e+001) (18, -1.97099952697753910000e+001) (19, 3.93515739440917970000e+001) (20, -4.46391563415527340000e+001) (21, 1.06216735839843750000e+001) (22, 4.11529045104980470000e+001) (23, -3.51441230773925780000e+001) (24, -2.43518733978271480000e+001) (25, 4.18772506713867190000e+001) (26, -3.89603385925292970000e+001) (27, 1.14393606185913090000e+001) (28, 4.17121200561523440000e+001) (29, -2.72067642211914060000e+001) (30, -5.17247390747070310000e+000) (31, 4.45922126770019530000e+001) (32, -5.11734199523925780000e+001) (33, -2.29060739278793330000e-001) (34, 4.57803306579589840000e+001) (35, -4.85092086791992190000e+001) (36, -2.20038585662841800000e+001) (37, 3.02160320281982420000e+001) (38, -3.77452735900878910000e+001) (39, 1.22640924453735350000e+001) (40, 3.11296329498291020000e+001) (41, -3.81550216674804690000e+001) (42, 1.84931640625000000000e+001) (43, 3.16258544921875000000e+001) (44, -3.94301567077636720000e+001) (45, -3.02616252899169920000e+001) (46, 2.80977745056152340000e+001) (47, -3.92777137756347660000e+001) (48, -2.01231949031353000000e-002) (0, -1.44622707366943360000e+001) (1, 2.36996994018554690000e+002) (2, 1.13739257812500000000e+002) (3, -1.15961885452270510000e+001) (4, 1.90317749023437500000e+002) (5, 7.44327697753906250000e+001) (6, -1.61800727844238280000e+001) (7, 1.05827461242675780000e+002) (8, 2.01648674011230470000e+001) (9, -1.37094011306762700000e+001) (10, 8.82929229736328120000e+001) (11, -1.72837314605712890000e+001) (12, 3.72038483619689940000e+000) (13, 1.63629745483398440000e+002) (14, 5.31123390197753910000e+001) (15, 1.04605846405029300000e+001) (16, 1.56190551757812500000e+002) (17, 9.82304306030273440000e+001) (18, -4.40135307312011720000e+001) (19, 3.11955108642578130000e+001) (20, 1.05537353515625000000e+002) (21, 1.19189613342285160000e+002) (22, 4.18346595764160160000e+001) (23, 1.19061485290527340000e+002) (24, -1.03019958496093750000e+002) (25, 1.58104000091552730000e+001) (26, 1.16029512882232670000e+000) (27, 1.46329467773437500000e+002) (28, -9.65531444549560550000e+000) (29, 1.61144866943359380000e+001) (30, 9.03223323822021480000e+000) (31, 1.19280204772949220000e+002) (32, -4.25396299362182620000e+000) (33, -3.25217208862304690000e+001) (34, 1.38830886840820310000e+002) (35, -1.71602973937988280000e+001) (36, -8.59189453125000000000e+001) (37, 1.19135147094726560000e+002) (38, -1.82139892578125000000e+002) (39, 7.01533660888671880000e+001) (40, 9.52035675048828130000e+001) (41, -1.67513763427734370000e+002) (42, 1.61147796630859370000e+002) (43, 9.99610996246337890000e+000) (44, -2.13310897827148440000e+002) (45, -2.20261322021484370000e+002) (46, 4.59552612304687500000e+001) (47, -1.43665634155273440000e+002) (48, -1.00562237203121190000e-001) (0, -4.23239994049072270000e+000) (1, 2.10252883911132810000e+002) (2, 8.99925689697265630000e+001) (3, 3.56324410438537600000e+000) (4, 1.67875289916992190000e+002) (5, 5.16717681884765630000e+001) (6, 2.76084852218627930000e+000) (7, 9.05745162963867190000e+001) (8, -3.29206418991088870000e+000) (9, 5.79885721206665040000e+000) (10, 7.57515258789062500000e+001) (11, -3.95351715087890630000e+001) (12, 1.28101673126220700000e+001) (13, 1.39702087402343750000e+002) (14, 2.56920375823974610000e+001) (15, 2.94294128417968750000e+001) (16, 1.38235687255859370000e+002) (17, 7.72813110351562500000e+001) (18, -3.07719497680664060000e+001) (19, 2.16456851959228520000e+001) (20, 7.72434616088867190000e+001) (21, 1.16103622436523440000e+002) (22, 3.85930519104003910000e+001) (23, 1.08879478454589840000e+002) (24, -8.78213348388671880000e+001) (25, 4.67735385894775390000e+000) (26, -1.97043457031250000000e+001) (27, 1.35363433837890620000e+002) (28, -2.19107418060302730000e+001) (29, 2.57344436645507810000e+001) (30, 2.48410263061523440000e+001) (31, 1.08739669799804690000e+002) (32, -3.93221359252929690000e+001) (33, -7.34394550323486330000e+000) (34, 1.25083755493164060000e+002) (35, -4.30469322204589840000e+001) (36, -4.54120140075683590000e+001) (37, 1.05287643432617190000e+002) (38, -1.79133468627929690000e+002) (39, 9.20204315185546870000e+001) (40, 6.56762237548828120000e+001) (41, -1.50827957153320310000e+002) (42, 1.73260299682617190000e+002) (43, -8.28211879730224610000e+000) (44, -1.92737976074218750000e+002) (45, -1.49623443603515620000e+002) (46, 4.59977722167968750000e+001) (47, -1.51147659301757810000e+002) (48, -9.35464054346084590000e-002) (0, 3.13923478126525880000e+000) (1, -8.18803882598876950000e+000) (2, -1.25536170959472660000e+002) (3, 1.00284016132354740000e+000) (4, 1.48036229610443120000e+000) (5, -1.25537239074707030000e+002) (6, -1.83554005622863770000e+000) (7, 2.18706665039062500000e+001) (8, -1.30919006347656250000e+002) (9, -3.08253383636474610000e+000) (10, 3.32875938415527340000e+001) (11, -1.27150367736816410000e+002) (12, -1.35124940872192380000e+001) (13, 7.24637079238891600000e+000) (14, -1.23397850036621090000e+002) (15, 8.35323715209960940000e+000) (16, 9.12352371215820310000e+000) (17, -1.34796356201171870000e+002) (18, -1.91457061767578120000e+001) (19, 3.16307086944580080000e+001) (20, -1.35900604248046870000e+002) (21, 2.97499513626098630000e+000) (22, 3.26592407226562500000e+001) (23, -1.42863189697265620000e+002) (24, -8.77083301544189450000e+000) (25, 3.52750701904296880000e+001) (26, -1.07419357299804690000e+002) (27, 6.75294256210327150000e+000) (28, 4.94157905578613280000e+001) (29, -1.20879730224609370000e+002) (30, -1.24754981994628910000e+001) (31, 2.94917087554931640000e+001) (32, -1.25613929748535160000e+002) (33, 3.89244699478149410000e+000) (34, 2.85988101959228520000e+001) (35, -1.27732261657714840000e+002) (36, -2.33165073394775390000e+001) (37, 2.30834445953369140000e+001) (38, -8.72753829956054690000e+001) (39, 1.41491234302520750000e+000) (40, 3.81706962585449220000e+001) (41, -9.43632965087890630000e+001) (42, -9.27416133880615230000e+000) (43, 6.35623741149902340000e+001) (44, -9.23984298706054690000e+001) (45, -2.21901779174804690000e+001) (46, 3.89333724975585940000e+001) (47, -9.14784545898437500000e+001) (48, -3.54646146297454830000e-002) (0, -1.24582266807556150000e+000) (1, 3.25319442749023440000e+001) (2, 1.21158685684204100000e+001) (3, -1.69458523392677310000e-001) (4, 2.70782527923583980000e+001) (5, 6.80061817169189450000e+000) (6, -2.20612734556198120000e-001) (7, 1.78054294586181640000e+001) (8, -2.26015949249267580000e+000) (9, -1.22633501887321470000e-002) (10, 1.55172395706176760000e+001) (11, -7.26082897186279300000e+000) (12, 1.06310456991195680000e-001) (13, 2.30841674804687500000e+001) (14, 2.59975934028625490000e+000) (15, 3.91302490234375000000e+000) (16, 2.32054786682128910000e+001) (17, 9.49284267425537110000e+000) (18, -6.54448509216308590000e+000) (19, 8.55885410308837890000e+000) (20, 6.26229381561279300000e+000) (21, 1.73957214355468750000e+001) (22, 1.04539422988891600000e+001) (23, 1.21281661987304690000e+001) (24, -1.32752742767333980000e+001) (25, 7.35161542892456050000e+000) (26, -3.92969369888305660000e+000) (27, 1.95170688629150390000e+001) (28, 2.59253430366516110000e+000) (29, 4.03255796432495120000e+000) (30, 1.75255382061004640000e+000) (31, 1.97219009399414060000e+001) (32, -7.89115762710571290000e+000) (33, -1.30233645439147950000e+000) (34, 2.20874767303466800000e+001) (35, -7.99609470367431640000e+000) (36, -1.42250633239746090000e+001) (37, 1.48641214370727540000e+001) (38, -2.43814296722412110000e+001) (39, 1.12790117263793950000e+001) (40, 1.47730779647827150000e+001) (41, -2.18813362121582030000e+001) (42, 2.23839435577392580000e+001) (43, 5.83637762069702150000e+000) (44, -2.69110546112060550000e+001) (45, -3.15766048431396480000e+001) (46, 5.23921775817871090000e+000) (47, -2.11110286712646480000e+001) (48, -1.19333816692233090000e-002) (0, -2.20222398638725280000e-001) (1, -3.62548637390136720000e+000) (2, -6.71474361419677730000e+000) (3, -3.17065000534057620000e-001) (4, -2.79381680488586430000e+000) (5, -6.26110029220581050000e+000) (6, -2.74843275547027590000e-001) (7, -1.04776024818420410000e+000) (8, -5.71974897384643550000e+000) (9, -2.89856880903244020000e-001) (10, -3.74389171600341800000e-001) (11, -5.18792533874511720000e+000) (12, -7.81086683273315430000e-001) (13, -2.19866991043090820000e+000) (14, -5.94296169281005860000e+000) (15, -3.68621379137039180000e-001) (16, -2.16710948944091800000e+000) (17, -6.71913766860961910000e+000) (18, -2.93833762407302860000e-001) (19, 5.99978230893611910000e-002) (20, -6.71926307678222660000e+000) (21, -1.58063316345214840000e+000) (22, -1.37667745351791380000e-001) (23, -7.19080305099487300000e+000) (24, 6.38387799263000490000e-001) (25, 5.21086990833282470000e-001) (26, -4.98447227478027340000e+000) (27, -1.88181877136230470000e+000) (28, 1.08615779876708980000e+000) (29, -5.66463851928710940000e+000) (30, -8.01612973213195800000e-001) (31, -8.26250970363616940000e-001) (32, -5.23317575454711910000e+000) (33, 1.70668497681617740000e-001) (34, -1.07600510120391850000e+000) (35, -5.12408161163330080000e+000) (36, 2.01156467199325560000e-001) (37, -2.95483589172363280000e-001) (38, -2.57530832290649410000e+000) (39, -1.13345694541931150000e+000) (40, 1.68557360768318180000e-001) (41, -2.88943982124328610000e+000) (42, -2.37849378585815430000e+000) (43, 2.08629298210144040000e+000) (44, -2.40103769302368160000e+000) (45, 1.74610841274261470000e+000) (46, 1.36044216156005860000e+000) (47, -3.13766765594482420000e+000) (48, -1.00512325298041110000e-003) (0, -2.29783034324646000000e+000) (1, -1.13847129821777340000e+002) (2, -1.68967788696289060000e+002) (3, -5.78268098831176760000e+000) (4, -8.81205825805664060000e+001) (5, -1.52341445922851560000e+002) (6, -4.39924669265747070000e+000) (7, -3.61435356140136720000e+001) (8, -1.31129257202148440000e+002) (9, -5.05345249176025390000e+000) (10, -1.85400524139404300000e+001) (11, -1.12892875671386720000e+002) (12, -1.87626533508300780000e+001) (13, -6.97535705566406250000e+001) (14, -1.40696975708007810000e+002) (15, -1.08228750228881840000e+001) (16, -6.86445465087890630000e+001) (17, -1.67662918090820310000e+002) (18, -9.20270383358001710000e-001) (19, 9.42462980747222900000e-001) (20, -1.66455169677734370000e+002) (21, -5.42866249084472660000e+001) (22, -5.87131071090698240000e+000) (23, -1.83606246948242190000e+002) (24, 3.00216007232666020000e+001) (25, 1.25814189910888670000e+001) (26, -1.09985321044921870000e+002) (27, -6.47790451049804690000e+001) (28, 3.17293243408203120000e+001) (29, -1.32394027709960940000e+002) (30, -2.00227527618408200000e+001) (31, -3.49783287048339840000e+001) (32, -1.13384674072265620000e+002) (33, 8.00363922119140620000e+000) (34, -4.34314651489257810000e+001) (35, -1.10323760986328120000e+002) (36, 1.47156229019165040000e+001) (37, -2.48754062652587890000e+001) (38, -2.71138362884521480000e+001) (39, -3.69353027343750000000e+001) (40, -8.03186321258544920000e+000) (41, -3.76866912841796880000e+001) (42, -7.99270477294921880000e+001) (43, 4.82644615173339840000e+001) (44, -1.91686115264892580000e+001) (45, 6.84037399291992190000e+001) (46, 2.26679439544677730000e+001) (47, -4.38747024536132810000e+001) (48, -2.59322393685579300000e-003) (0, -4.16536283493041990000e+000) (1, 2.04548202514648440000e+002) (2, 1.12947212219238280000e+002) (3, -1.29244387149810790000e+000) (4, 1.67880966186523440000e+002) (5, 8.23174972534179690000e+001) (6, -8.06404972076416020000e+000) (7, 9.78796691894531250000e+001) (8, 3.40005531311035160000e+001) (9, -8.73850154876708980000e+000) (10, 8.36079940795898440000e+001) (11, 3.62760639190673830000e+000) (12, 1.14329137802124020000e+001) (13, 1.43398101806640620000e+002) (14, 5.93066368103027340000e+001) (15, 1.52586679458618160000e+001) (16, 1.41832244873046880000e+002) (17, 1.03519821166992190000e+002) (18, -2.97530231475830080000e+001) (19, 3.78423461914062500000e+001) (20, 1.01358604431152340000e+002) (21, 9.67944717407226560000e+001) (22, 5.11599807739257810000e+001) (23, 1.27633941650390620000e+002) (24, -7.40236511230468750000e+001) (25, 2.14199829101562500000e+001) (26, 1.31746768951416020000e+001) (27, 1.07625465393066410000e+002) (28, -7.87754535675048830000e+000) (29, 5.42983169555664060000e+001) (30, 8.77743721008300780000e+000) (31, 1.07217239379882810000e+002) (32, 8.11016464233398440000e+000) (33, -2.34366455078125000000e+001) (34, 1.23700698852539060000e+002) (35, 2.38633990287780760000e+000) (36, -6.45079879760742190000e+001) (37, 9.44987487792968750000e+001) (38, -1.20434280395507810000e+002) (39, 5.04799194335937500000e+001) (40, 8.13309783935546870000e+001) (41, -1.11293373107910160000e+002) (42, 1.22801856994628910000e+002) (43, 1.81747684478759770000e+001) (44, -1.39822937011718750000e+002) (45, -1.73266571044921880000e+002) (46, 3.10641098022460940000e+001) (47, -9.43122863769531250000e+001) (48, -7.55412280559539790000e-002) (0, -2.51493126153945920000e-001) (1, -6.59798908233642580000e+000) (2, -1.09584026336669920000e+001) (3, -4.37223762273788450000e-001) (4, -5.12486219406127930000e+000) (5, -1.00503845214843750000e+001) (6, -3.60293269157409670000e-001) (7, -2.03504252433776860000e+000) (8, -8.95089912414550780000e+000) (9, -3.92410069704055790000e-001) (10, -9.18317317962646480000e-001) (11, -7.95480871200561520000e+000) (12, -1.22229659557342530000e+000) (13, -4.04379796981811520000e+000) (14, -9.45279121398925780000e+000) (15, -6.31922245025634770000e-001) (16, -3.98459982872009280000e+000) (17, -1.08842620849609370000e+001) (18, -2.66724318265914920000e-001) (19, 2.71130781620740890000e-002) (20, -1.08871059417724610000e+001) (21, -2.97368359565734860000e+000) (22, -3.48093956708908080000e-001) (23, -1.17703351974487300000e+001) (24, 1.45680296421051030000e+000) (25, 7.83257007598876950000e-001) (26, -7.68342971801757810000e+000) (27, -3.55464434623718260000e+000) (28, 1.82700359821319580000e+000) (29, -8.91554450988769530000e+000) (30, -1.28576266765594480000e+000) (31, -1.80523133277893070000e+000) (32, -7.99110460281372070000e+000) (33, 3.98192584514617920000e-001) (34, -2.27415013313293460000e+000) (35, -7.80368804931640630000e+000) (36, 6.27797603607177730000e-001) (37, -1.02049350738525390000e+000) (38, -3.12430620193481450000e+000) (39, -2.08668661117553710000e+000) (40, -1.14091478288173680000e-001) (41, -3.71422290802001950000e+000) (42, -4.45533561706542970000e+000) (43, 3.24335145950317380000e+000) (44, -2.75160026550292970000e+000) (45, 3.55379056930541990000e+000) (46, 1.84225928783416750000e+000) (47, -4.12448024749755860000e+000) (48, -1.04526255745440720000e-003) (0, -2.22045974731445310000e+001) (1, 1.14458885192871090000e+002) (2, 5.14178848266601560000e+001) (3, -1.50437688827514650000e+001) (4, 8.98173370361328120000e+001) (5, 2.72397537231445310000e+001) (6, -1.15929670333862300000e+001) (7, 4.32744407653808590000e+001) (8, -8.65999412536621090000e+000) (9, -8.41206932067871090000e+000) (10, 3.59617881774902340000e+001) (11, -3.18323287963867190000e+001) (12, -5.60505962371826170000e+000) (13, 7.26805496215820310000e+001) (14, 4.93647003173828120000e+000) (15, 8.72324109077453610000e-001) (16, 7.03938140869140630000e+001) (17, 4.71293869018554690000e+001) (18, -3.17702598571777340000e+001) (19, 4.60694837570190430000e+000) (20, 3.20917396545410160000e+001) (21, 5.81119232177734380000e+001) (22, 1.13278398513793950000e+001) (23, 6.55337753295898440000e+001) (24, -6.87924346923828130000e+001) (25, 7.18199396133422850000e+000) (26, -3.38474960327148440000e+001) (27, 6.99654312133789060000e+001) (28, -2.47291336059570310000e+001) (29, 1.09108915328979490000e+001) (30, 3.96754193305969240000e+000) (31, 5.46108398437500000000e+001) (32, -3.16830120086669920000e+001) (33, -1.63236598968505860000e+001) (34, 6.65581893920898440000e+001) (35, -2.91632213592529300000e+001) (36, -4.49943313598632810000e+001) (37, 5.93028869628906250000e+001) (38, -1.21879898071289060000e+002) (39, 4.38090782165527340000e+001) (40, 2.76481380462646480000e+001) (41, -1.01562957763671870000e+002) (42, 9.61282424926757810000e+001) (43, -1.50791788101196290000e+001) (44, -1.27086051940917970000e+002) (45, -1.11836257934570310000e+002) (46, 2.25625019073486330000e+001) (47, -1.11461051940917970000e+002) (48, -6.74635395407676700000e-002) (0, -5.75235557556152340000e+000) (1, -4.31023284912109370000e+002) (2, -6.26523620605468750000e+002) (3, -1.87767086029052730000e+001) (4, -3.33691253662109370000e+002) (5, -5.65367980957031250000e+002) (6, -1.34904499053955080000e+001) (7, -1.36797576904296870000e+002) (8, -4.82983947753906250000e+002) (9, -1.61552524566650390000e+001) (10, -7.09380416870117190000e+001) (11, -4.12370605468750000000e+002) (12, -6.73131408691406250000e+001) (13, -2.64611114501953120000e+002) (14, -5.21726440429687500000e+002) (15, -3.90438461303710940000e+001) (16, -2.60538635253906250000e+002) (17, -6.20733093261718750000e+002) (18, 7.39502966403961180000e-001) (19, 5.13468503952026370000e+000) (20, -6.18892272949218750000e+002) (21, -2.05593811035156250000e+002) (22, -2.03675289154052730000e+001) (23, -6.81143798828125000000e+002) (24, 1.18302124023437500000e+002) (25, 4.77322235107421870000e+001) (26, -4.01247131347656250000e+002) (27, -2.46635177612304690000e+002) (28, 1.21566688537597660000e+002) (29, -4.86808074951171870000e+002) (30, -7.27636108398437500000e+001) (31, -1.34566146850585940000e+002) (32, -4.15661987304687500000e+002) (33, 3.31185379028320310000e+001) (34, -1.66475280761718750000e+002) (35, -4.01351409912109370000e+002) (36, 5.97672729492187500000e+001) (37, -9.98060760498046880000e+001) (38, -8.44297561645507810000e+001) (39, -1.39215942382812500000e+002) (40, -3.47696914672851560000e+001) (41, -1.24529785156250000000e+002) (42, -3.04411560058593750000e+002) (43, 1.77143798828125000000e+002) (44, -5.28456115722656250000e+001) (45, 2.64668395996093750000e+002) (46, 7.84940261840820310000e+001) (47, -1.47750640869140620000e+002) (48, -5.33635029569268230000e-004) (0, -9.15544509887695310000e-001) (1, -5.12750387191772460000e-001) (2, -2.81424026489257810000e+001) (3, -6.78618907928466800000e-001) (4, 1.34711384773254390000e+000) (5, -2.84513721466064450000e+001) (6, 3.82721006870269780000e-001) (7, 5.53667259216308590000e+000) (8, -2.93090705871582030000e+001) (9, 8.67581903934478760000e-001) (10, 7.93030214309692380000e+000) (11, -2.87153549194335940000e+001) (12, -2.79434585571289060000e+000) (13, 2.67910480499267580000e+000) (14, -2.83544273376464840000e+001) (15, 1.09991168975830080000e+000) (16, 2.68740463256835940000e+000) (17, -2.96260585784912110000e+001) (18, -3.22475361824035640000e+000) (19, 8.00024509429931640000e+000) (20, -3.10359172821044920000e+001) (21, -5.64140439033508300000e-001) (22, 7.51675510406494140000e+000) (23, -3.04837665557861330000e+001) (24, -1.29313158988952640000e+000) (25, 9.27395820617675780000e+000) (26, -2.63967857360839840000e+001) (27, -7.80615746974945070000e-001) (28, 1.14448909759521480000e+001) (29, -2.64090118408203120000e+001) (30, -8.78096222877502440000e-001) (31, 7.69484949111938480000e+000) (32, -2.92154064178466800000e+001) (33, 2.74608206748962400000e+000) (34, 7.28151416778564450000e+000) (35, -2.86256637573242190000e+001) (36, -4.42095637321472170000e-001) (37, 8.02256298065185550000e+000) (38, -2.06009502410888670000e+001) (39, 3.07871627807617190000e+000) (40, 6.29768610000610350000e+000) (41, -2.07562465667724610000e+001) (42, 2.72443699836730960000e+000) (43, 1.08781023025512700000e+001) (44, -2.03786201477050780000e+001) (45, 2.36421728134155270000e+000) (46, 1.24551477432250980000e+001) (47, -2.24806404113769530000e+001) (48, -8.31524841487407680000e-003) (0, -6.22751712799072270000e-001) (1, -3.64675426483154300000e+000) (2, -8.43301296234130860000e+000) (3, -7.54354655742645260000e-001) (4, -2.91704416275024410000e+000) (5, -8.00914382934570310000e+000) (6, -6.59119367599487300000e-001) (7, -1.15461444854736330000e+000) (8, -7.72327613830566410000e+000) (9, -6.72407865524291990000e-001) (10, -3.70802700519561770000e-001) (11, -7.29556655883789060000e+000) (12, -1.12015974521636960000e+000) (13, -2.27488017082214360000e+000) (14, -7.66037321090698240000e+000) (15, -7.11516022682189940000e-001) (16, -2.32163882255554200000e+000) (17, -8.58315467834472660000e+000) (18, -7.41812527179718020000e-001) (19, -2.03884899616241460000e-001) (20, -8.16499423980712890000e+000) (21, -1.60958015918731690000e+000) (22, -4.21498954296112060000e-001) (23, -8.94938182830810550000e+000) (24, -3.00723146647214890000e-002) (25, 4.78091686964035030000e-001) (26, -6.84124374389648440000e+000) (27, -1.84061098098754880000e+000) (28, 8.37325751781463620000e-001) (29, -7.75976991653442380000e+000) (30, -1.17871475219726560000e+000) (31, -6.81731820106506350000e-001) (32, -7.33846950531005860000e+000) (33, -1.88155889511108400000e-001) (34, -8.97386550903320310000e-001) (35, -7.31689167022705080000e+000) (36, -3.22991102933883670000e-001) (37, 2.50639259815216060000e-001) (38, -5.16583776473999020000e+000) (39, -1.29967606067657470000e+000) (40, 5.47541499137878420000e-001) (41, -5.44898843765258790000e+000) (42, -2.32536840438842770000e+000) (43, 2.51404309272766110000e+000) (44, -5.17921590805053710000e+000) (45, 7.07103550434112550000e-001) (46, 2.01102685928344730000e+000) (47, -5.72617292404174800000e+000) (48, -2.15945136733353140000e-003) (0, -4.23343062400817870000e-001) (1, -2.46027779579162600000e+000) (2, -8.29485130310058590000e+000) (3, -4.94515895843505860000e-001) (4, -1.51057398319244380000e+000) (5, -7.86898517608642580000e+000) (6, -3.54783028364181520000e-001) (7, 4.56079393625259400000e-001) (8, -7.60198307037353520000e+000) (9, -3.36662352085113530000e-001) (10, 1.27987277507781980000e+000) (11, -7.03018760681152340000e+000) (12, -1.22391188144683840000e+000) (13, -8.36888670921325680000e-001) (14, -7.66106605529785160000e+000) (15, -3.55836153030395510000e-001) (16, -7.71143794059753420000e-001) (17, -8.48933029174804690000e+000) (18, -8.76043677330017090000e-001) (19, 1.82940137386322020000e+000) (20, -8.82015228271484380000e+000) (21, -1.64344072341918950000e+000) (22, 1.64805138111114500000e+000) (23, -9.05737113952636720000e+000) (24, 2.28333637118339540000e-001) (25, 2.31808733940124510000e+000) (26, -6.46852922439575200000e+000) (27, -2.00195050239562990000e+000) (28, 3.09837985038757320000e+000) (29, -6.87051868438720700000e+000) (30, -1.01860213279724120000e+000) (31, 7.28532612323760990000e-001) (32, -7.13763236999511720000e+000) (33, 3.03850680589675900000e-001) (34, 4.39116716384887700000e-001) (35, -6.90781641006469730000e+000) (36, -2.79110789299011230000e-001) (37, 8.56785297393798830000e-001) (38, -3.43052268028259280000e+000) (39, -9.17143821716308590000e-001) (40, 1.25359904766082760000e+000) (41, -3.69608783721923830000e+000) (42, -2.26409125328063960000e+000) (43, 3.49841713905334470000e+000) (44, -3.04119777679443360000e+000) (45, 1.51737809181213380000e+000) (46, 2.75005197525024410000e+000) (47, -4.04330730438232420000e+000) (48, -1.33240665309131150000e-003) (0, -6.85626029968261720000e-001) (1, -4.54832153320312500000e+001) (2, -6.63818740844726560000e+001) (3, -2.03232240676879880000e+000) (4, -3.56675300598144530000e+001) (5, -5.99124984741210940000e+001) (6, -1.49861025810241700000e+000) (7, -1.49458923339843750000e+001) (8, -5.14658470153808590000e+001) (9, -1.76809728145599370000e+000) (10, -8.08343601226806640000e+000) (11, -4.42919692993164060000e+001) (12, -7.05789518356323240000e+000) (13, -2.83772335052490230000e+001) (14, -5.54424781799316410000e+001) (15, -4.10219287872314450000e+000) (16, -2.79385261535644530000e+001) (17, -6.60611190795898440000e+001) (18, 2.21286416053771970000e-002) (19, -4.22154128551483150000e-001) (20, -6.57279129028320310000e+001) (21, -2.11758289337158200000e+001) (22, -3.11650586128234860000e+000) (23, -7.17232437133789060000e+001) (24, 1.21155118942260740000e+001) (25, 4.19259929656982420000e+000) (26, -4.33747062683105470000e+001) (27, -2.55124893188476560000e+001) (28, 1.16031188964843750000e+001) (29, -5.18396339416503910000e+001) (30, -7.63897132873535160000e+000) (31, -1.45590887069702150000e+001) (32, -4.45271339416503910000e+001) (33, 3.35026931762695310000e+000) (34, -1.79530544281005860000e+001) (35, -4.31758079528808590000e+001) (36, 6.16563272476196290000e+000) (37, -1.05734310150146480000e+001) (38, -1.06037588119506840000e+001) (39, -1.45800867080688480000e+001) (40, -3.82480382919311520000e+000) (41, -1.47136497497558590000e+001) (42, -3.17296810150146480000e+001) (43, 1.82692127227783200000e+001) (44, -7.47620201110839840000e+000) (45, 2.71047954559326170000e+001) (46, 8.12772274017333980000e+000) (47, -1.72697563171386720000e+001) (48, -9.38441138714551930000e-004) (0, -2.95552790164947510000e-001) (1, -9.48359584808349610000e+000) (2, -1.53949604034423830000e+001) (3, -5.71711003780364990000e-001) (4, -7.39173316955566410000e+000) (5, -1.40686569213867190000e+001) (6, -4.60745453834533690000e-001) (7, -2.93454670906066890000e+000) (8, -1.23827419281005860000e+001) (9, -5.12674212455749510000e-001) (10, -1.36415898799896240000e+000) (11, -1.08687601089477540000e+001) (12, -1.69815540313720700000e+000) (13, -5.86054897308349610000e+000) (14, -1.31088428497314450000e+001) (15, -9.06083941459655760000e-001) (16, -5.76385831832885740000e+000) (17, -1.53243207931518550000e+001) (18, -2.68035620450973510000e-001) (19, 1.06742925941944120000e-001) (20, -1.52601137161254880000e+001) (21, -4.40919733047485350000e+000) (22, -4.39621210098266600000e-001) (23, -1.66013793945312500000e+001) (24, 2.26932907104492190000e+000) (25, 1.16502678394317630000e+000) (26, -1.05129394531250000000e+001) (27, -5.28514862060546870000e+000) (28, 2.72368311882019040000e+000) (29, -1.23898010253906250000e+001) (30, -1.80404698848724370000e+000) (31, -2.68515539169311520000e+000) (32, -1.09354801177978520000e+001) (33, 6.23858749866485600000e-001) (34, -3.39991426467895510000e+000) (35, -1.06394071578979490000e+001) (36, 1.02605772018432620000e+000) (37, -1.66288864612579350000e+000) (38, -3.74202442169189450000e+000) (39, -3.04722714424133300000e+000) (40, -3.05157333612442020000e-001) (41, -4.60454034805297850000e+000) (42, -6.58236265182495120000e+000) (43, 4.54565238952636720000e+000) (44, -3.13588619232177730000e+000) (45, 5.37490892410278320000e+000) (46, 2.46056079864501950000e+000) (47, -5.18743896484375000000e+000) (48, -1.08691083732992410000e-003) (0, -8.86223793029785160000e-001) (1, -6.76224136352539060000e+001) (2, -9.78361206054687500000e+001) (3, -2.89594316482543950000e+000) (4, -5.24507942199707030000e+001) (5, -8.78592453002929690000e+001) (6, -2.08815670013427730000e+000) (7, -2.23809127807617190000e+001) (8, -7.56142959594726560000e+001) (9, -2.49421811103820800000e+000) (10, -1.22147989273071290000e+001) (11, -6.48608856201171880000e+001) (12, -1.03129816055297850000e+001) (13, -4.22546081542968750000e+001) (14, -8.15861892700195310000e+001) (15, -6.00722360610961910000e+000) (16, -4.13094673156738280000e+001) (17, -9.67721633911132810000e+001) (18, 2.56710946559906010000e-001) (19, -7.55326807498931880000e-001) (20, -9.63388824462890630000e+001) (21, -3.15088901519775390000e+001) (22, -4.70103263854980470000e+000) (23, -1.05439689636230470000e+002) (24, 1.82617721557617190000e+001) (25, 6.03692817687988280000e+000) (26, -6.33672409057617190000e+001) (27, -3.78960838317871090000e+001) (28, 1.70678100585937500000e+001) (29, -7.62109069824218750000e+001) (30, -1.12097663879394530000e+001) (31, -2.18610115051269530000e+001) (32, -6.50648956298828130000e+001) (33, 5.07981109619140620000e+000) (34, -2.69492282867431640000e+001) (35, -6.31226730346679690000e+001) (36, 9.35386753082275390000e+000) (37, -1.60119533538818360000e+001) (38, -1.46964073181152340000e+001) (39, -2.15716857910156250000e+001) (40, -6.02988147735595700000e+000) (41, -2.08441905975341800000e+001) (42, -4.69334640502929690000e+001) (43, 2.67313480377197270000e+001) (44, -1.00779304504394530000e+001) (45, 4.07859382629394530000e+001) (46, 1.16252155303955080000e+001) (47, -2.46562500000000000000e+001) (48, -8.21235065814107660000e-004) (0, -7.71476149559021000000e-001) (1, -5.61920700073242190000e+001) (2, -8.11874694824218750000e+001) (3, -2.42681837081909180000e+000) (4, -4.37372093200683590000e+001) (5, -7.33522262573242190000e+001) (6, -1.76680254936218260000e+000) (7, -1.84590778350830080000e+001) (8, -6.28166122436523440000e+001) (9, -2.09810066223144530000e+000) (10, -9.98270702362060550000e+000) (11, -5.40757522583007810000e+001) (12, -8.58615207672119140000e+000) (13, -3.48928413391113280000e+001) (14, -6.78120117187500000000e+001) (15, -4.97489929199218750000e+000) (16, -3.42296295166015630000e+001) (17, -8.05201492309570310000e+001) (18, 1.10280141234397890000e-001) (19, -5.54806470870971680000e-001) (20, -8.01778793334960940000e+001) (21, -2.60419082641601560000e+001) (22, -3.84870600700378420000e+000) (23, -8.81045761108398440000e+001) (24, 1.49714632034301760000e+001) (25, 5.08516788482666020000e+000) (26, -5.28278541564941410000e+001) (27, -3.12623901367187500000e+001) (28, 1.41617641448974610000e+001) (29, -6.35563201904296880000e+001) (30, -9.29941463470458980000e+000) (31, -1.79993858337402340000e+001) (32, -5.43879661560058590000e+001) (33, 4.16461992263793950000e+000) (34, -2.20634765625000000000e+001) (35, -5.28278884887695310000e+001) (36, 7.65113878250122070000e+000) (37, -1.30668096542358400000e+001) (38, -1.26533718109130860000e+001) (39, -1.78389873504638670000e+001) (40, -4.82658529281616210000e+000) (41, -1.77593975067138670000e+001) (42, -3.87335166931152340000e+001) (43, 2.23177947998046870000e+001) (44, -8.88581085205078130000e+000) (45, 3.34787216186523440000e+001) (46, 9.83993339538574220000e+000) (47, -2.08591327667236330000e+001) (48, -9.34341514948755500000e-004) (0, -1.65953254699707030000e+001) (1, -3.94733459472656250000e+002) (2, -6.52960510253906250000e+002) (3, -2.90687522888183590000e+001) (4, -3.03396606445312500000e+002) (5, -5.98390869140625000000e+002) (6, -1.69261322021484370000e+001) (7, -1.15277946472167970000e+002) (8, -5.28756286621093750000e+002) (9, -1.49619798660278320000e+001) (10, -4.75534591674804690000e+001) (11, -4.64063812255859370000e+002) (12, -7.41984024047851560000e+001) (13, -2.37819305419921870000e+002) (14, -5.63885437011718750000e+002) (15, -3.57486648559570310000e+001) (16, -2.39371032714843750000e+002) (17, -6.47942749023437500000e+002) (18, -1.26117553710937500000e+001) (19, 1.36010580062866210000e+001) (20, -6.58139099121093750000e+002) (21, -1.81721069335937500000e+002) (22, -1.85944232940673830000e+001) (23, -6.95467529296875000000e+002) (24, 9.25334548950195310000e+001) (25, 4.51332511901855470000e+001) (26, -4.49908264160156250000e+002) (27, -2.26056838989257810000e+002) (28, 1.06432655334472660000e+002) (29, -5.21584228515625000000e+002) (30, -6.72162475585937500000e+001) (31, -1.10433547973632810000e+002) (32, -4.67427490234375000000e+002) (33, 3.47536659240722660000e+001) (34, -1.40215377807617190000e+002) (35, -4.53763427734375000000e+002) (36, 4.03247642517089840000e+001) (37, -9.52730941772460940000e+001) (38, -1.48098968505859370000e+002) (39, -1.12910774230957030000e+002) (40, -1.26879587173461910000e+001) (41, -2.07491653442382810000e+002) (42, -2.58112640380859370000e+002) (43, 1.87566360473632810000e+002) (44, -1.48703781127929690000e+002) (45, 2.21964187622070310000e+002) (46, 6.35126075744628910000e+001) (47, -2.24421585083007810000e+002) (48, -3.25755141675472260000e-002) (0, -8.30861568450927730000e-001) (1, -5.54665031433105470000e+001) (2, -8.04880218505859370000e+001) (3, -2.47636556625366210000e+000) (4, -4.30713615417480470000e+001) (5, -7.27036895751953130000e+001) (6, -1.82509338855743410000e+000) (7, -1.80947513580322270000e+001) (8, -6.23902664184570310000e+001) (9, -2.15656614303588870000e+000) (10, -9.68674564361572270000e+000) (11, -5.35772094726562500000e+001) (12, -8.57725906372070310000e+000) (13, -3.43930892944335940000e+001) (14, -6.71092987060546880000e+001) (15, -4.99538326263427730000e+000) (16, -3.36569404602050780000e+001) (17, -8.00063934326171880000e+001) (18, 2.14206408709287640000e-002) (19, -3.02677989006042480000e-001) (20, -7.95762710571289060000e+001) (21, -2.59543800354003910000e+001) (22, -3.55086636543273930000e+000) (23, -8.72077255249023440000e+001) (24, 1.48039331436157230000e+001) (25, 5.29650688171386720000e+000) (26, -5.22903556823730470000e+001) (27, -3.11187686920166020000e+001) (28, 1.43561830520629880000e+001) (29, -6.30622520446777340000e+001) (30, -9.31931495666503910000e+000) (31, -1.76826267242431640000e+001) (32, -5.39033317565917970000e+001) (33, 4.08167409896850590000e+000) (34, -2.17316188812255860000e+001) (35, -5.23006896972656250000e+001) (36, 7.49904537200927730000e+000) (37, -1.27804098129272460000e+001) (38, -1.23959074020385740000e+001) (39, -1.77493438720703130000e+001) (40, -4.66452836990356450000e+000) (41, -1.75005531311035160000e+001) (42, -3.85060424804687500000e+001) (43, 2.22719192504882810000e+001) (44, -8.59684181213378910000e+000) (45, 3.31831245422363280000e+001) (46, 9.91268825531005860000e+000) (47, -2.05301742553710940000e+001) (48, -8.52558354381471870000e-004) (0, -1.53450119495391850000e+000) (1, -1.24942665100097660000e+002) (2, -1.79741851806640620000e+002) (3, -5.21441698074340820000e+000) (4, -9.73119888305664060000e+001) (5, -1.61808227539062500000e+002) (6, -3.70928430557250980000e+000) (7, -4.16073608398437500000e+001) (8, -1.38434722900390620000e+002) (9, -4.45417451858520510000e+000) (10, -2.29398536682128910000e+001) (11, -1.18499687194824220000e+002) (12, -1.87972145080566410000e+001) (13, -7.85504837036132810000e+001) (14, -1.49684326171875000000e+002) (15, -1.11042556762695310000e+001) (16, -7.67499542236328130000e+001) (17, -1.78220687866210940000e+002) (18, 7.19682574272155760000e-001) (19, -1.42942345142364500000e+000) (20, -1.77644973754882810000e+002) (21, -5.84067382812500000000e+001) (22, -8.84269809722900390000e+000) (23, -1.94587875366210940000e+002) (24, 3.39377937316894530000e+001) (25, 1.10834798812866210000e+001) (26, -1.16113548278808590000e+002) (27, -7.01184005737304690000e+001) (28, 3.13361110687255860000e+001) (29, -1.39947875976562500000e+002) (30, -2.04993934631347660000e+001) (31, -4.07212791442871090000e+001) (32, -1.19345825195312500000e+002) (33, 9.49181842803955080000e+000) (34, -5.00292778015136720000e+001) (35, -1.15637367248535160000e+002) (36, 1.75155143737792970000e+001) (37, -2.97751102447509770000e+001) (38, -2.61916885375976560000e+001) (39, -3.97995910644531250000e+001) (40, -1.15261678695678710000e+001) (41, -3.75006027221679690000e+001) (42, -8.63542404174804690000e+001) (43, 4.88459663391113280000e+001) (44, -1.76158294677734380000e+001) (45, 7.59898681640625000000e+001) (46, 2.11037750244140630000e+001) (47, -4.46010513305664060000e+001) (48, -9.54169663600623610000e-004) (0, -3.08924484252929690000e+000) (1, -2.67656250000000000000e+002) (2, -3.86304779052734380000e+002) (3, -1.11615085601806640000e+001) (4, -2.07608047485351560000e+002) (5, -3.48232360839843750000e+002) (6, -7.92430591583251950000e+000) (7, -8.69978332519531250000e+001) (8, -2.96497711181640620000e+002) (9, -9.55441474914550780000e+000) (10, -4.67672653198242190000e+001) (11, -2.53718978881835940000e+002) (12, -4.08943672180175780000e+001) (13, -1.65352890014648440000e+002) (14, -3.21191650390625000000e+002) (15, -2.38171653747558590000e+001) (16, -1.61917114257812500000e+002) (17, -3.82478179931640630000e+002) (18, 1.27862727642059330000e+000) (19, -2.57543504238128660000e-001) (20, -3.82323211669921870000e+002) (21, -1.25813270568847660000e+002) (22, -1.61188793182373050000e+001) (23, -4.18222808837890620000e+002) (24, 7.36567535400390620000e+001) (25, 2.63608436584472660000e+001) (26, -2.48134643554687500000e+002) (27, -1.51908126831054690000e+002) (28, 7.12904739379882810000e+001) (29, -2.99731597900390620000e+002) (30, -4.42612533569335940000e+001) (31, -8.60500259399414060000e+001) (32, -2.55656967163085940000e+002) (33, 2.06258659362792970000e+001) (34, -1.06102531433105470000e+002) (35, -2.47853134155273440000e+002) (36, 3.75951232910156250000e+001) (37, -6.37167625427246090000e+001) (38, -5.28306427001953130000e+001) (39, -8.56500930786132810000e+001) (40, -2.36051158905029300000e+001) (41, -7.75264511108398440000e+001) (42, -1.87460342407226560000e+002) (43, 1.06858551025390620000e+002) (44, -3.37574729919433590000e+001) (45, 1.63712219238281250000e+002) (46, 4.61666221618652340000e+001) (47, -9.23413467407226560000e+001) (48, -8.61870648805052040000e-004) (0, -1.13979518413543700000e+000) (1, -3.94795837402343750000e+001) (2, -6.85618667602539060000e+001) (3, -2.41845226287841800000e+000) (4, -2.95429382324218750000e+001) (5, -6.26348609924316410000e+001) (6, -1.89189815521240230000e+000) (7, -9.05968189239501950000e+000) (8, -5.49415206909179690000e+001) (9, -2.13943719863891600000e+000) (10, -1.95306301116943360000e+000) (11, -4.78005104064941410000e+001) (12, -8.03812122344970700000e+000) (13, -2.23086280822753910000e+001) (14, -5.83722724914550780000e+001) (15, -3.86456918716430660000e+000) (16, -2.18774299621582030000e+001) (17, -6.84841156005859380000e+001) (18, -1.51722776889801030000e+000) (19, 5.41048717498779300000e+000) (20, -6.88438796997070310000e+001) (21, -2.04393596649169920000e+001) (22, 2.98745489120483400000e+000) (23, -7.45231246948242190000e+001) (24, 1.07158975601196290000e+001) (25, 9.74325656890869140000e+000) (26, -4.55782890319824220000e+001) (27, -2.44364185333251950000e+001) (28, 1.81149959564208980000e+001) (29, -5.39777793884277340000e+001) (30, -8.24345684051513670000e+000) (31, -8.37180519104003910000e+000) (32, -4.83594589233398440000e+001) (33, 3.24264216423034670000e+000) (34, -1.18044795989990230000e+001) (35, -4.68425369262695310000e+001) (36, 4.40380954742431640000e+000) (37, -5.23558807373046870000e+000) (38, -1.32977647781372070000e+001) (39, -1.37849845886230470000e+001) (40, 1.36304140090942380000e+000) (41, -1.72467365264892580000e+001) (42, -3.05328884124755860000e+001) (43, 2.37519893646240230000e+001) (44, -9.69894409179687500000e+000) (45, 2.53157119750976560000e+001) (46, 1.35324010848999020000e+001) (47, -1.95918674468994140000e+001) (48, -2.19374080188572410000e-003) (49, 1.36429682374000550000e-001) (50, -6.13106131553649900000e-001) (51, 4.14291806519031520000e-002) (52, 6.66689336299896240000e-001) (53, 5.06651680916547780000e-003) (54, 1.12877981737256050000e-002) (55, 3.86576235294342040000e-001) (56, -1.05379104614257810000e+000) (57, 2.11432091891765590000e-002) (58, 2.91021578013896940000e-002) (59, 1.48535478115081790000e+000) (60, 4.30241636931896210000e-002) (61, 8.57674982398748400000e-003) (62, 1.96357555687427520000e-002) (63, 1.50713413953781130000e-001) (64, 3.16139012575149540000e-002) (65, 2.23783999681472780000e-001) (66, 1.84884011745452880000e-001) (67, 1.30057954788208010000e+000) (68, 1.84104189276695250000e-001) (69, 4.12992984056472780000e-001) (70, 9.05604660511016850000e-001) (71, 1.63080662488937380000e-001) (72, 1.53078722953796390000e+000) 
