FANN_FLO_2.1
num_layers=27
learning_rate=0.700000
connection_rate=1.000000
network_type=1
learning_momentum=0.000000
training_algorithm=2
train_error_function=1
train_stop_function=0
cascade_output_change_fraction=0.010000
quickprop_decay=-0.000100
quickprop_mu=1.750000
rprop_increase_factor=1.200000
rprop_decrease_factor=0.500000
rprop_delta_min=0.000000
rprop_delta_max=50.000000
rprop_delta_zero=0.100000
cascade_output_stagnation_epochs=12
cascade_candidate_change_fraction=0.010000
cascade_candidate_stagnation_epochs=12
cascade_max_out_epochs=150
cascade_min_out_epochs=50
cascade_max_cand_epochs=150
cascade_min_cand_epochs=50
cascade_num_candidate_groups=2
bit_fail_limit=3.49999994039535520000e-001
cascade_candidate_limit=1.00000000000000000000e+003
cascade_weight_multiplier=4.00000005960464480000e-001
cascade_activation_functions_count=10
cascade_activation_functions=3 5 7 8 10 11 14 15 16 17 
cascade_activation_steepnesses_count=4
cascade_activation_steepnesses=2.50000000000000000000e-001 5.00000000000000000000e-001 7.50000000000000000000e-001 1.00000000000000000000e+000 
layer_sizes=49 1 1 1 1 1 1 1 1 1 1 1 1 1 1 1 1 1 1 1 1 1 1 1 1 1 1 
scale_included=0
neurons (num_inputs, activation_function, activation_steepness)=(0, 0, 0.00000000000000000000e+000) (0, 0, 0.00000000000000000000e+000) (0, 0, 0.00000000000000000000e+000) (0, 0, 0.00000000000000000000e+000) (0, 0, 0.00000000000000000000e+000) (0, 0, 0.00000000000000000000e+000) (0, 0, 0.00000000000000000000e+000) (0, 0, 0.00000000000000000000e+000) (0, 0, 0.00000000000000000000e+000) (0, 0, 0.00000000000000000000e+000) (0, 0, 0.00000000000000000000e+000) (0, 0, 0.00000000000000000000e+000) (0, 0, 0.00000000000000000000e+000) (0, 0, 0.00000000000000000000e+000) (0, 0, 0.00000000000000000000e+000) (0, 0, 0.00000000000000000000e+000) (0, 0, 0.00000000000000000000e+000) (0, 0, 0.00000000000000000000e+000) (0, 0, 0.00000000000000000000e+000) (0, 0, 0.00000000000000000000e+000) (0, 0, 0.00000000000000000000e+000) (0, 0, 0.00000000000000000000e+000) (0, 0, 0.00000000000000000000e+000) (0, 0, 0.00000000000000000000e+000) (0, 0, 0.00000000000000000000e+000) (0, 0, 0.00000000000000000000e+000) (0, 0, 0.00000000000000000000e+000) (0, 0, 0.00000000000000000000e+000) (0, 0, 0.00000000000000000000e+000) (0, 0, 0.00000000000000000000e+000) (0, 0, 0.00000000000000000000e+000) (0, 0, 0.00000000000000000000e+000) (0, 0, 0.00000000000000000000e+000) (0, 0, 0.00000000000000000000e+000) (0, 0, 0.00000000000000000000e+000) (0, 0, 0.00000000000000000000e+000) (0, 0, 0.00000000000000000000e+000) (0, 0, 0.00000000000000000000e+000) (0, 0, 0.00000000000000000000e+000) (0, 0, 0.00000000000000000000e+000) (0, 0, 0.00000000000000000000e+000) (0, 0, 0.00000000000000000000e+000) (0, 0, 0.00000000000000000000e+000) (0, 0, 0.00000000000000000000e+000) (0, 0, 0.00000000000000000000e+000) (0, 0, 0.00000000000000000000e+000) (0, 0, 0.00000000000000000000e+000) (0, 0, 0.00000000000000000000e+000) (0, 0, 0.00000000000000000000e+000) (49, 8, 2.50000000000000000000e-001) (50, 15, 5.00000000000000000000e-001) (51, 5, 2.50000000000000000000e-001) (52, 15, 1.00000000000000000000e+000) (53, 17, 2.50000000000000000000e-001) (54, 15, 1.00000000000000000000e+000) (55, 15, 5.00000000000000000000e-001) (56, 7, 2.50000000000000000000e-001) (57, 15, 1.00000000000000000000e+000) (58, 3, 2.50000000000000000000e-001) (59, 3, 5.00000000000000000000e-001) (60, 15, 5.00000000000000000000e-001) (61, 3, 1.00000000000000000000e+000) (62, 3, 5.00000000000000000000e-001) (63, 3, 2.50000000000000000000e-001) (64, 3, 2.50000000000000000000e-001) (65, 3, 5.00000000000000000000e-001) (66, 3, 1.00000000000000000000e+000) (67, 3, 2.50000000000000000000e-001) (68, 15, 7.50000000000000000000e-001) (69, 15, 5.00000000000000000000e-001) (70, 7, 1.00000000000000000000e+000) (71, 15, 2.50000000000000000000e-001) (72, 3, 2.50000000000000000000e-001) (73, 15, 2.50000000000000000000e-001) (74, 4, 5.00000000000000000000e-001) 
connections (connected_to_neuron, weight)=(0, -1.30000019073486330000e+000) (1, -8.12014043331146240000e-001) (2, 3.44576263427734380000e+000) (3, 1.29367625713348390000e+000) (4, -1.38956630229949950000e+000) (5, 7.59649932384490970000e-001) (6, 2.06191468238830570000e+000) (7, -6.83523297309875490000e-001) (8, 1.52445149421691890000e+000) (9, 9.90475559234619140000e+000) (10, 5.38251340389251710000e-001) (11, 2.30659127235412600000e+000) (12, -2.57735061645507810000e+000) (13, 6.09874092042446140000e-002) (14, 9.70468938350677490000e-001) (15, 1.77247917652130130000e+000) (16, -3.08504891395568850000e+000) (17, -8.95066440105438230000e-001) (18, 1.31401026248931880000e+000) (19, -1.94470211863517760000e-001) (20, -2.00525745749473570000e-001) (21, 1.33339595794677730000e+000) (22, 1.92319726943969730000e+000) (23, -2.27347135543823240000e+000) (24, 2.21819043159484860000e+000) (25, 5.26718330383300780000e+000) (26, 3.95962208509445190000e-001) (27, 2.27412804961204530000e-001) (28, -8.51939582824707030000e+000) (29, -4.15008306503295900000e-001) (30, 1.02092635631561280000e+000) (31, 1.53540968894958500000e+000) (32, -5.62040150165557860000e-001) (33, -3.15558969974517820000e-001) (34, 2.11668515205383300000e+000) (35, 6.83983445167541500000e-001) (36, -6.32794737815856930000e-001) (37, 1.61099207401275630000e+000) (38, 1.95330774784088130000e+000) (39, -1.89029172062873840000e-001) (40, 1.19769096374511720000e+000) (41, 7.19529199600219730000e+000) (42, 2.45061829686164860000e-001) (43, 1.93177115917205810000e+000) (44, -1.68827176094055180000e+000) (45, 1.12967824935913090000e+000) (46, 1.81989347934722900000e+000) (47, -3.05068660527467730000e-002) (48, -5.16362619400024410000e+000) (0, -1.70460677146911620000e+000) (1, 4.31672716140747070000e+000) (2, -6.26554441452026370000e+000) (3, 5.26639446616172790000e-002) (4, 3.59708690643310550000e+000) (5, 1.37719404697418210000e+000) (6, 1.32740783691406250000e+000) (7, 1.34435617923736570000e+000) (8, 1.82357823848724370000e+000) (9, 1.19365203380584720000e+000) (10, -5.21035194396972660000e-002) (11, 1.62165153026580810000e+000) (12, -1.18228125572204590000e+000) (13, 3.45043659210205080000e+000) (14, 1.06599879264831540000e+000) (15, 3.36242288351058960000e-001) (16, -1.54136490821838380000e+000) (17, 1.86557447910308840000e+000) (18, 1.28312341985292730000e-004) (19, 5.71487881243228910000e-002) (20, 1.53359377384185790000e+000) (21, 7.29998946189880370000e-001) (22, 3.63223016262054440000e-001) (23, 1.89927709102630620000e+000) (24, 1.16424310207366940000e+000) (25, 1.56577616930007930000e-001) (26, 1.47154703736305240000e-001) (27, 2.02414035797119140000e+000) (28, -6.68696880340576170000e-001) (29, 3.55495834350585940000e+000) (30, 4.21844840049743650000e-001) (31, 2.08952069282531740000e-001) (32, -5.45789241790771480000e-001) (33, 6.88538122177124020000e+000) (34, -2.88063602056354280000e-005) (35, -8.15038740634918210000e-001) (36, 1.47290086746215820000e+000) (37, 9.03942942619323730000e-001) (38, 7.46362984180450440000e-001) (39, 1.80277955532073970000e+000) (40, 1.30615830421447750000e+000) (41, -5.46709418296813960000e-001) (42, 1.92634785175323490000e+000) (43, 8.25550794601440430000e-001) (44, 9.35912057757377620000e-002) (45, 3.50218963623046870000e+000) (46, 5.73232412338256840000e-001) (47, 1.35484278202056880000e+000) (48, 7.24147915840148930000e-001) (49, 3.40466052293777470000e-001) (0, -4.03499174118041990000e+000) (1, -7.06819295883178710000e+000) (2, 2.99277186393737790000e-001) (3, 1.35063600540161130000e+000) (4, 1.19164776802062990000e+000) (5, 5.26112690567970280000e-003) (6, 8.21808099746704100000e-001) (7, 3.85595631599426270000e+000) (8, 1.13113379478454590000e+000) (9, 9.12780284881591800000e-001) (10, 1.73253834247589110000e+000) (11, 8.16237568855285640000e-001) (12, -2.21503332257270810000e-001) (13, 2.21647381782531740000e+000) (14, -3.74553114175796510000e-001) (15, 8.84462237358093260000e-001) (16, -3.00727128982543950000e+000) (17, -8.20614719390869140000e+000) (18, -1.12908230221364650000e-004) (19, -4.01301056146621700000e-001) (20, 5.73427796363830570000e-001) (21, 4.61751639842987060000e-001) (22, 1.79265153408050540000e+000) (23, 2.55721473693847660000e+000) (24, -6.43657818436622620000e-002) (25, 4.94504511356353760000e-001) (26, 4.28107118606567380000e+000) (27, -2.94953465461730960000e-001) (28, -7.25574865937232970000e-002) (29, 5.66158533096313480000e-001) (30, -5.93500196933746340000e-001) (31, 9.86069917678833010000e-001) (32, -3.13260483741760250000e+000) (33, -7.32904100418090820000e+000) (34, 1.23368881759233770000e-004) (35, -3.84499996900558470000e-001) (36, 9.37275290489196780000e-001) (37, 5.84686279296875000000e-001) (38, 4.47007209062576290000e-001) (39, 2.15169596672058110000e+000) (40, -1.82494568824768070000e+000) (41, 1.48434829711914060000e+000) (42, 2.73771905899047850000e+000) (43, -1.11222290992736820000e+000) (44, 1.21819758415222170000e+000) (45, 1.38651132583618160000e+000) (46, 9.90704536437988280000e-001) (47, 8.50964844226837160000e-001) (48, 5.10679721832275390000e+000) (49, 5.01426262781023980000e-003) (50, 2.04785540699958800000e-002) (0, 1.77187180519104000000e+000) (1, 3.69963788986206050000e+000) (2, -1.03141270577907560000e-001) (3, 1.84741747379302980000e+000) (4, 2.11889815330505370000e+000) (5, 7.61556625366210940000e-001) (6, 1.09345412254333500000e+000) (7, 1.36643123626708980000e+000) (8, 1.73591697216033940000e+000) (9, 1.05971813201904300000e+000) (10, 7.89346039295196530000e-001) (11, -8.38030576705932620000e-001) (12, 1.45509529113769530000e+000) (13, 1.87208127975463870000e+000) (14, -8.59299376606941220000e-002) (15, 1.33311700820922850000e+000) (16, 1.33303475379943850000e+000) (17, 3.11612915992736820000e+000) (18, 4.89375124743673950000e-005) (19, 1.71921992301940920000e+000) (20, 1.66126441955566410000e+000) (21, 6.89329430460929870000e-002) (22, 1.07806432247161870000e+000) (23, 1.67493164539337160000e+000) (24, 1.62084257602691650000e+000) (25, 2.41196438670158390000e-001) (26, 9.27719831466674800000e-001) (27, 1.58871614933013920000e+000) (28, 4.60511827468872070000e+000) (29, 4.99013178050518040000e-002) (30, -5.08133947849273680000e-001) (31, 1.46344590187072750000e+000) (32, 3.16470086574554440000e-001) (33, -3.86146813631057740000e-001) (34, -1.12684159830678250000e-004) (35, 4.89902257919311520000e-001) (36, -2.04521611332893370000e-001) (37, 7.56604447960853580000e-002) (38, 1.35716915130615230000e+000) (39, 6.90905869007110600000e-001) (40, 2.11625361442565920000e+000) (41, 2.07022595405578610000e+000) (42, 1.75079286098480220000e-001) (43, 9.85039174556732180000e-001) (44, 1.94300425052642820000e+000) (45, 5.26698827743530270000e-001) (46, -7.55815863609313960000e-001) (47, 1.35202467441558840000e+000) (48, 4.73083686828613280000e+000) (49, 2.59577560424804690000e+000) (50, -4.16280239820480350000e-001) (51, 1.32377386093139650000e+001) (0, -3.06969046592712400000e+000) (1, -1.56650155782699580000e-001) (2, 2.07938027381896970000e+000) (3, 2.00320675969123840000e-001) (4, -5.74797868728637700000e-001) (5, 5.20042479038238530000e-001) (6, 3.75143975019454960000e-001) (7, 1.16256296634674070000e+000) (8, -1.39497172832489010000e+000) (9, 2.02857828140258790000e+000) (10, -6.82077586650848390000e-001) (11, -3.20817530155181880000e-001) (12, -2.33654938638210300000e-002) (13, -5.81027209758758540000e-001) (14, -2.95625686645507810000e-001) (15, 1.78821241855621340000e+000) (16, -1.89474236965179440000e+000) (17, 3.34422588348388670000e-001) (18, 5.41582485311664640000e-005) (19, -1.09858453273773190000e+000) (20, 1.67887878417968750000e+000) (21, -2.26866692304611210000e-001) (22, -8.45924206078052520000e-003) (23, 2.24975466728210450000e+000) (24, -6.71549618244171140000e-001) (25, 2.62615633010864260000e+000) (26, 2.10872530937194820000e+000) (27, -2.38301992416381840000e+000) (28, -9.20493245124816890000e-001) (29, 1.21926224231719970000e+000) (30, -2.33190134167671200000e-001) (31, 1.88530600070953370000e+000) (32, -1.65364205837249760000e+000) (33, 1.58384931087493900000e+000) (34, 9.42597907851450150000e-005) (35, 1.36078611016273500000e-001) (36, 1.70028591156005860000e+000) (37, -8.50460156798362730000e-002) (38, 1.90199804306030270000e+000) (39, 7.38699972629547120000e-001) (40, -1.67262470722198490000e+000) (41, 2.70605635643005370000e+000) (42, 1.12394738197326660000e+000) (43, -1.58126258850097660000e+000) (44, 6.74518764019012450000e-001) (45, 1.02493941783905030000e+000) (46, -1.65082013607025150000e+000) (47, 1.61984133720397950000e+000) (48, 1.66977715492248540000e+000) (49, 1.20641613006591800000e+000) (50, 6.28974497318267820000e-001) (51, -1.58512127399444580000e+000) (52, 1.20803821086883540000e+000) (0, 1.21350014209747310000e+000) (1, 2.48476743698120120000e-001) (2, 1.52876245975494380000e+000) (3, -8.91746655106544490000e-002) (4, 1.45374691486358640000e+000) (5, 1.81900799274444580000e+000) (6, -1.32170855998992920000e-001) (7, 1.49099424481391910000e-001) (8, 3.91374439001083370000e-001) (9, 1.60276448726654050000e+000) (10, -2.97401905059814450000e-001) (11, 1.94054603576660160000e+000) (12, -2.21671175956726070000e+000) (13, 6.41078591346740720000e-001) (14, 7.48411536216735840000e-001) (15, 7.23031163215637210000e-001) (16, 1.22404849529266360000e+000) (17, 1.44521617889404300000e+000) (18, -9.91118213278241460000e-005) (19, 6.42746508121490480000e-001) (20, 1.13117468357086180000e+000) (21, 1.63553452491760250000e+000) (22, -7.60010704398155210000e-002) (23, 1.21630084514617920000e+000) (24, 1.83896636962890620000e+000) (25, 4.06105756759643550000e-001) (26, 1.22894108295440670000e+000) (27, 2.00035119056701660000e+000) (28, 1.47029495239257810000e+000) (29, -1.86055868864059450000e-001) (30, 1.35690629482269290000e+000) (31, -7.61058107018470760000e-002) (32, 1.16179060935974120000e+000) (33, 5.11834621429443360000e-001) (34, 5.97908547206316140000e-005) (35, 9.98346090316772460000e-001) (36, 3.95429819822311400000e-001) (37, 3.18160682916641240000e-001) (38, 1.39961922168731690000e+000) (39, 2.51606374979019170000e-001) (40, 2.19147086143493650000e+000) (41, 5.93561947345733640000e-001) (42, 3.43047767877578740000e-001) (43, 2.27092480659484860000e+000) (44, -4.50723990797996520000e-003) (45, 8.98078829050064090000e-002) (46, 5.19074440002441410000e-001) (47, 1.55765485763549800000e+000) (48, -7.75698006153106690000e-001) (49, 9.19186353683471680000e-001) (50, 3.46730685234069820000e+000) (51, -8.96647453308105470000e+000) (52, 1.30718851089477540000e+000) (53, 7.02618885040283200000e+000) (0, 1.46588730812072750000e+000) (1, 3.40847945213317870000e+000) (2, 1.44341647624969480000e+000) (3, -7.66499638557434080000e-002) (4, 1.24737334251403810000e+000) (5, 1.94506943225860600000e+000) (6, 7.80823290348052980000e-001) (7, 1.94982159137725830000e+000) (8, 2.09613895416259770000e+000) (9, 1.62157595157623290000e-001) (10, 1.42540967464447020000e+000) (11, 1.78744018077850340000e+000) (12, 6.20043802261352540000e+000) (13, 2.35044932365417480000e+000) (14, 2.80408358573913570000e+000) (15, 1.14181220531463620000e+000) (16, -1.85409277677536010000e-001) (17, 2.10322475433349610000e+000) (18, 1.38993986183777450000e-004) (19, 1.14928650856018070000e+000) (20, 1.38379573822021480000e+000) (21, 9.89564836025238040000e-001) (22, 3.63890677690505980000e-001) (23, 7.92830109596252440000e-001) (24, 9.28957104682922360000e-001) (25, -2.44079664349555970000e-001) (26, 2.08743739128112790000e+000) (27, 1.73729789257049560000e+000) (28, 2.76962578296661380000e-001) (29, 1.00902509689331050000e+000) (30, 4.46733379364013670000e+000) (31, -2.36418873071670530000e-001) (32, 3.39880734682083130000e-001) (33, 1.18654596805572510000e+000) (34, 1.50156440213322640000e-004) (35, 1.27517116069793700000e+000) (36, 6.65136873722076420000e-001) (37, 6.13398194313049320000e-001) (38, 6.54394403100013730000e-002) (39, 1.26598036289215090000e+000) (40, 1.36338746547698970000e+000) (41, 3.64983603358268740000e-002) (42, 2.27715706825256350000e+000) (43, 1.11792325973510740000e+000) (44, 6.80302560329437260000e-001) (45, 1.28543090820312500000e+000) (46, 7.71985054016113280000e-001) (47, -5.05469702184200290000e-002) (48, -3.33132982254028320000e-001) (49, 5.85056006908416750000e-001) (50, -5.41575717926025390000e+000) (51, 1.41108026504516600000e+001) (52, 8.20280015468597410000e-001) (53, -2.48778171539306640000e+001) (54, -1.67289268970489500000e+000) (0, 1.76194620132446290000e+000) (1, 4.04756164550781250000e+000) (2, -3.17802667617797850000e-001) (3, 2.24229335784912110000e+000) (4, 4.44357776641845700000e+000) (5, -6.35119259357452390000e-001) (6, 5.52017116546630860000e+000) (7, 2.07925581932067870000e+000) (8, -2.94286310672760010000e-001) (9, 1.26395645141601560000e+001) (10, 2.69457077980041500000e+000) (11, 1.00641512870788570000e+000) (12, -9.00532627105712890000e+000) (13, 1.50712323188781740000e+000) (14, -5.17802655696868900000e-001) (15, 6.01497220993041990000e+000) (16, 2.38313984870910640000e+000) (17, 3.61558985710144040000e+000) (18, -1.78151994943618770000e-001) (19, 1.13924634456634520000e+000) (20, 2.23855757713317870000e+000) (21, 6.57477602362632750000e-002) (22, 1.04284298419952390000e+000) (23, 3.27570700645446780000e+000) (24, 3.38609665632247920000e-001) (25, 1.56730353832244870000e+000) (26, 1.42978358268737790000e+000) (27, 9.46723163127899170000e-001) (28, -1.24235935211181640000e+001) (29, 2.64766097068786620000e+000) (30, -8.11784744262695310000e-001) (31, 1.19354021549224850000e+000) (32, 2.50008273124694820000e+000) (33, 6.07597494125366210000e+000) (34, 5.92991888523101810000e-001) (35, 3.16990065574646000000e+000) (36, 4.55968761444091800000e+000) (37, 9.66540217399597170000e-001) (38, 1.18691921234130860000e+000) (39, 2.63207483291625980000e+000) (40, 1.20931971073150630000e+000) (41, 2.06852197647094730000e+000) (42, 3.39084887504577640000e+000) (43, 9.04063701629638670000e-001) (44, -3.20484817028045650000e-001) (45, 1.47266519069671630000e+000) (46, 1.93298146128654480000e-001) (47, 1.61137282848358150000e+000) (48, 1.10920572280883790000e+000) (49, -4.34112882614135740000e+000) (50, -8.04684734344482420000e+000) (51, -4.45672893524169920000e+000) (52, 6.94806337356567380000e+000) (53, -2.61278972625732420000e+001) (54, 1.62734818458557130000e+000) (55, 5.92241573333740230000e+000) (0, 9.09573733806610110000e-001) (1, 3.48603248596191410000e+000) (2, 1.47806179523468020000e+000) (3, 1.21901237964630130000e+000) (4, 4.18414020538330080000e+000) (5, 2.22078990936279300000e+000) (6, 7.58741557598114010000e-001) (7, 3.14740061759948730000e+000) (8, 2.13961601257324220000e+000) (9, -2.40329235792160030000e-001) (10, 1.12455940246582030000e+000) (11, 6.46749079227447510000e-001) (12, 1.50839805603027340000e-001) (13, 2.49915146827697750000e+000) (14, 2.39406180381774900000e+000) (15, 6.03198051452636720000e-001) (16, 8.12105834484100340000e-001) (17, 1.69390946626663210000e-001) (18, -1.40565243782475590000e-004) (19, 1.33219611644744870000e+000) (20, 1.34329402446746830000e+000) (21, 2.11614489555358890000e+000) (22, -1.14178270101547240000e-001) (23, 1.02653253078460690000e+000) (24, 2.34471416473388670000e+000) (25, 3.85288178920745850000e-001) (26, 5.02258479595184330000e-001) (27, 7.39370763301849370000e-001) (28, -4.00404512882232670000e-001) (29, 8.77055823802948000000e-001) (30, 2.81865000724792480000e+000) (31, -3.78491610288620000000e-001) (32, 9.03395831584930420000e-001) (33, -9.10988748073577880000e-001) (34, 1.08898195321671660000e-004) (35, 1.38240493834018710000e-002) (36, 5.83286762237548830000e-001) (37, 6.98482096195220950000e-001) (38, 1.45498096942901610000e-001) (39, 2.41729751229286190000e-001) (40, 1.12699687480926510000e+000) (41, 1.03712201118469240000e+000) (42, 4.79064047336578370000e-001) (43, 9.91826474666595460000e-001) (44, 5.33559024333953860000e-001) (45, 6.27067863941192630000e-001) (46, 2.34182405471801760000e+000) (47, -1.39282807707786560000e-001) (48, 3.96010428667068480000e-001) (49, 7.07462608814239500000e-001) (50, 2.26145362854003910000e+000) (51, -9.38368892669677730000e+000) (52, -6.56783640384674070000e-001) (53, 8.34498310089111330000e+000) (54, 1.04835033416748050000e-001) (55, -1.23913519084453580000e-001) (56, 2.17842216491699220000e+001) (0, 6.65844909667968750000e+002) (1, 3.46561765670776370000e+000) (2, -6.65097961425781250000e+002) (3, 6.65882873535156250000e+002) (4, 8.43748321533203120000e+001) (5, -6.63215942382812500000e+002) (6, 6.65642822265625000000e+002) (7, 6.67651550292968750000e+002) (8, -6.63484375000000000000e+002) (9, 6.67191467285156250000e+002) (10, 6.66109558105468750000e+002) (11, -6.64385742187500000000e+002) (12, 6.65753173828125000000e+002) (13, 1.99972183227539060000e+002) (14, -6.63731445312500000000e+002) (15, 6.67349182128906250000e+002) (16, 6.66027038574218750000e+002) (17, 8.26130218505859370000e+001) (18, -5.81786676775664090000e-004) (19, 6.66332824707031250000e+002) (20, 1.98689437866210940000e+002) (21, -6.63194213867187500000e+002) (22, 6.67575561523437500000e+002) (23, 6.66029479980468750000e+002) (24, -6.64166198730468750000e+002) (25, 6.67022216796875000000e+002) (26, 6.67355346679687500000e+002) (27, -6.65114379882812500000e+002) (28, 6.66153015136718750000e+002) (29, 9.06003784179687500000e+002) (30, -6.63397033691406250000e+002) (31, 6.67491821289062500000e+002) (32, 6.67579345703125000000e+002) (33, 6.67697509765625000000e+002) (34, -1.87907752990722660000e+001) (35, 6.67193664550781250000e+002) (36, 6.67142578125000000000e+002) (37, -6.63116943359375000000e+002) (38, 6.65954162597656250000e+002) (39, 6.67528991699218750000e+002) (40, -6.65128173828125000000e+002) (41, 6.66473754882812500000e+002) (42, 6.66107177734375000000e+002) (43, -6.63086914062500000000e+002) (44, 6.67255371093750000000e+002) (45, 6.66299316406250000000e+002) (46, -6.65012695312500000000e+002) (47, 6.67669006347656250000e+002) (48, -6.65119445800781250000e+002) (49, 1.14574243164062500000e+003) (50, -6.64513122558593750000e+002) (51, 2.24210596084594730000e+000) (52, -6.63625549316406250000e+002) (53, -6.64520263671875000000e+002) (54, -6.62518798828125000000e+002) (55, 4.25505187988281250000e+002) (56, -6.63231933593750000000e+002) (57, 2.25287508964538570000e+000) (0, 1.39484643554687500000e+003) (1, 4.34886718750000000000e+002) (2, -1.39300122070312500000e+003) (3, 1.39611462402343750000e+003) (4, 9.16136779785156250000e+002) (5, -1.39442236328125000000e+003) (6, 1.39680322265625000000e+003) (7, 1.39626574707031250000e+003) (8, -1.39287658691406250000e+003) (9, 1.39516931152343750000e+003) (10, 1.39593298339843750000e+003) (11, -1.39271838378906250000e+003) (12, 1.39571618652343750000e+003) (13, 1.39676916503906250000e+003) (14, -1.39319140625000000000e+003) (15, 1.39497912597656250000e+003) (16, 1.39672583007812500000e+003) (17, 9.14826721191406250000e+002) (18, 9.26818756852298970000e-007) (19, 1.39482299804687500000e+003) (20, 1.39526855468750000000e+003) (21, -1.39297424316406250000e+003) (22, 1.39609204101562500000e+003) (23, 1.39527770996093750000e+003) (24, -1.39344348144531250000e+003) (25, 1.39606677246093750000e+003) (26, 1.39645007324218750000e+003) (27, -1.39377270507812500000e+003) (28, 1.39623083496093750000e+003) (29, 1.39620849609375000000e+003) (30, -1.39444213867187500000e+003) (31, 1.39496020507812500000e+003) (32, 1.39572229003906250000e+003) (33, 1.39647924804687500000e+003) (34, -1.18869237899780270000e+001) (35, 1.39639599609375000000e+003) (36, 1.39602124023437500000e+003) (37, -1.39304406738281250000e+003) (38, 1.39653601074218750000e+003) (39, 1.39580163574218750000e+003) (40, -1.39365405273437500000e+003) (41, 1.39478320312500000000e+003) (42, 1.39536743164062500000e+003) (43, -1.39377282714843750000e+003) (44, 1.39542614746093750000e+003) (45, 1.39511889648437500000e+003) (46, -1.39421154785156250000e+003) (47, 1.39602917480468750000e+003) (48, -1.39274816894531250000e+003) (49, 1.15579235839843750000e+003) (50, -1.39327575683593750000e+003) (51, 2.28700590133666990000e+000) (52, -1.39268676757812500000e+003) (53, -1.39420141601562500000e+003) (54, -1.15353649902343750000e+003) (55, 9.15210571289062500000e+002) (56, -1.39319262695312500000e+003) (57, 1.67074704170227050000e+000) (58, 3.63591480255126950000e+000) (0, 1.88582837581634520000e+000) (1, -4.33794528245925900000e-001) (2, 1.40186023712158200000e+000) (3, 1.93936586380004880000e+000) (4, -1.73912510275840760000e-001) (5, 1.23311138153076170000e+000) (6, 4.51939791440963750000e-001) (7, 1.62358057498931880000e+000) (8, 6.98226749897003170000e-001) (9, 1.09588003158569340000e+000) (10, 1.27913486957550050000e+000) (11, 2.27264189720153810000e+000) (12, 1.90725970268249510000e+000) (13, 1.57911372184753420000e+000) (14, 3.13334226608276370000e-001) (15, 1.72289943695068360000e+000) (16, 1.71611440181732180000e+000) (17, 1.40794441103935240000e-001) (18, 5.40272740181535480000e-005) (19, 2.06121039390563960000e+000) (20, 1.96751558780670170000e+000) (21, 2.82198727130889890000e-001) (22, 6.34802401065826420000e-001) (23, 1.88644862174987790000e+000) (24, 6.86231911182403560000e-001) (25, 2.47203782200813290000e-001) (26, 1.39422833919525150000e+000) (27, 4.84288305044174190000e-001) (28, 1.54068970680236820000e+000) (29, 1.12806999683380130000e+000) (30, 3.03891420364379880000e-001) (31, 1.90043914318084720000e+000) (32, -2.13713645935058590000e+000) (33, 3.30464154481887820000e-001) (34, -9.27773144212551410000e-005) (35, 1.06904733180999760000e+000) (36, 1.98783206939697270000e+000) (37, 1.69876635074615480000e-001) (38, 3.70694518089294430000e-001) (39, 1.91742098331451420000e+000) (40, 1.51493692398071290000e+000) (41, 4.28945690393447880000e-001) (42, 1.34864723682403560000e+000) (43, 1.15662977099418640000e-001) (44, 8.91759037971496580000e-001) (45, 7.39669680595397950000e-001) (46, -1.43560218811035160000e+000) (47, 2.92986720800399780000e-001) (48, -6.11801892518997190000e-002) (49, -5.85325598716735840000e-001) (50, 5.40065670013427730000e+000) (51, 3.86266589164733890000e+000) (52, 4.17561101913452150000e+000) (53, 1.87457108497619630000e+000) (54, 1.38812243938446040000e+000) (55, 9.29341316223144530000e-001) (56, -9.90818309783935550000e+000) (57, 1.49238574504852290000e+000) (58, 6.60304931640625000000e+002) (59, 4.33377122879028320000e+000) (0, 1.14678320312500000000e+003) (1, 1.14475085449218750000e+003) (2, -1.14377392578125000000e+003) (3, 1.14482751464843750000e+003) (4, 1.14537084960937500000e+003) (5, -1.14372839355468750000e+003) (6, 1.14592895507812500000e+003) (7, 1.14576074218750000000e+003) (8, -1.14365258789062500000e+003) (9, 1.14581457519531250000e+003) (10, 1.14573339843750000000e+003) (11, -1.14341052246093750000e+003) (12, 1.14641650390625000000e+003) (13, 1.14603393554687500000e+003) (14, -1.14272766113281250000e+003) (15, 1.14627050781250000000e+003) (16, 1.14488000488281250000e+003) (17, 1.14577282714843750000e+003) (18, -5.19223749637603760000e-001) (19, 1.14502050781250000000e+003) (20, 1.14575891113281250000e+003) (21, -1.14365454101562500000e+003) (22, 1.14632836914062500000e+003) (23, 1.14644641113281250000e+003) (24, -1.14375256347656250000e+003) (25, 1.14673815917968750000e+003) (26, 1.14673522949218750000e+003) (27, -1.14325512695312500000e+003) (28, 1.14538403320312500000e+003) (29, 1.14502209472656250000e+003) (30, -1.14344714355468750000e+003) (31, 1.14511657714843750000e+003) (32, 1.14546887207031250000e+003) (33, 1.14498449707031250000e+003) (34, 2.59501975961029530000e-004) (35, 1.14609289550781250000e+003) (36, 1.14654455566406250000e+003) (37, -1.14445727539062500000e+003) (38, 1.14526855468750000000e+003) (39, 1.14597631835937500000e+003) (40, -1.14368103027343750000e+003) (41, 1.14551647949218750000e+003) (42, 1.14545385742187500000e+003) (43, -1.14464599609375000000e+003) (44, 1.14590771484375000000e+003) (45, 1.14544958496093750000e+003) (46, -1.14272460937500000000e+003) (47, 1.14643920898437500000e+003) (48, -1.14331652832031250000e+003) (49, 4.27664855957031250000e+002) (50, -1.14381115722656250000e+003) (51, 1.14573010253906250000e+003) (52, -8.17103424072265620000e+001) (53, -1.14380249023437500000e+003) (54, -4.23196472167968750000e+002) (55, 9.05161132812500000000e+002) (56, -1.14265673828125000000e+003) (57, 3.95292663574218750000e+002) (58, 2.66368389129638670000e+000) (59, 1.74391021728515630000e+002) (60, 6.65197570800781250000e+002) (0, 1.50000000000000000000e+003) (1, 1.50000000000000000000e+003) (2, -1.50000000000000000000e+003) (3, 1.50000000000000000000e+003) (4, 1.50000000000000000000e+003) (5, -1.50000000000000000000e+003) (6, 1.50000000000000000000e+003) (7, 1.50000000000000000000e+003) (8, -1.50000000000000000000e+003) (9, 1.50000000000000000000e+003) (10, 1.50000000000000000000e+003) (11, -1.50000000000000000000e+003) (12, 1.50000000000000000000e+003) (13, 1.50000000000000000000e+003) (14, -1.50000000000000000000e+003) (15, 1.50000000000000000000e+003) (16, 1.50000000000000000000e+003) (17, 1.50000000000000000000e+003) (18, 2.73816185654141010000e-005) (19, 1.50000000000000000000e+003) (20, 1.50000000000000000000e+003) (21, -1.50000000000000000000e+003) (22, 1.50000000000000000000e+003) (23, 1.50000000000000000000e+003) (24, -1.50000000000000000000e+003) (25, 1.50000000000000000000e+003) (26, 1.50000000000000000000e+003) (27, -1.50000000000000000000e+003) (28, 1.50000000000000000000e+003) (29, 1.50000000000000000000e+003) (30, -1.50000000000000000000e+003) (31, 1.50000000000000000000e+003) (32, 1.50000000000000000000e+003) (33, 1.50000000000000000000e+003) (34, -1.46959997558593750000e+003) (35, 1.50000000000000000000e+003) (36, 1.50000000000000000000e+003) (37, -1.50000000000000000000e+003) (38, 1.50000000000000000000e+003) (39, 1.50000000000000000000e+003) (40, -1.50000000000000000000e+003) (41, 1.50000000000000000000e+003) (42, 1.50000000000000000000e+003) (43, -1.50000000000000000000e+003) (44, 1.50000000000000000000e+003) (45, 1.50000000000000000000e+003) (46, -1.50000000000000000000e+003) (47, 1.50000000000000000000e+003) (48, -1.50000000000000000000e+003) (49, 1.50000000000000000000e+003) (50, -1.50000000000000000000e+003) (51, 1.37255299091339110000e+000) (52, -1.50000000000000000000e+003) (53, 1.50000000000000000000e+003) (54, -1.50000000000000000000e+003) (55, 1.50000000000000000000e+003) (56, -1.50000000000000000000e+003) (57, 1.50000000000000000000e+003) (58, 2.73678398132324220000e+000) (59, 1.50000000000000000000e+003) (60, 1.50000000000000000000e+003) (61, 1.03654296875000000000e+003) (0, 1.44488732910156250000e+003) (1, 1.44478833007812500000e+003) (2, -1.44405139160156250000e+003) (3, 1.44518676757812500000e+003) (4, 1.44660107421875000000e+003) (5, -1.44430224609375000000e+003) (6, 1.44607250976562500000e+003) (7, 1.44581384277343750000e+003) (8, -1.44280688476562500000e+003) (9, 1.44570947265625000000e+003) (10, 1.44571887207031250000e+003) (11, -1.44416662597656250000e+003) (12, 1.44615771484375000000e+003) (13, 1.44630371093750000000e+003) (14, -1.44267590332031250000e+003) (15, 1.44580419921875000000e+003) (16, 1.44490502929687500000e+003) (17, 1.44653356933593750000e+003) (18, -3.99089294433593750000e+002) (19, 1.44612109375000000000e+003) (20, 1.44635681152343750000e+003) (21, -1.44354980468750000000e+003) (22, 1.44587463378906250000e+003) (23, 1.44648217773437500000e+003) (24, -1.44278808593750000000e+003) (25, 1.44543957519531250000e+003) (26, 1.44639721679687500000e+003) (27, -1.44349401855468750000e+003) (28, 1.44587878417968750000e+003) (29, 1.44594409179687500000e+003) (30, -1.44376660156250000000e+003) (31, 1.44555981445312500000e+003) (32, 1.44635766601562500000e+003) (33, 1.44639941406250000000e+003) (34, 1.31721462821587920000e-004) (35, 1.44544482421875000000e+003) (36, 1.44531726074218750000e+003) (37, -1.44348376464843750000e+003) (38, 1.44539794921875000000e+003) (39, 1.44554699707031250000e+003) (40, -1.44429174804687500000e+003) (41, 1.44668212890625000000e+003) (42, 1.44645312500000000000e+003) (43, -1.44324609375000000000e+003) (44, 1.44639929199218750000e+003) (45, 1.44566076660156250000e+003) (46, -1.44305920410156250000e+003) (47, 1.44539086914062500000e+003) (48, -1.44664636230468750000e+003) (49, 7.25420043945312500000e+002) (50, -1.44297631835937500000e+003) (51, 1.44603125000000000000e+003) (52, -7.22254699707031250000e+002) (53, 1.20402221679687500000e+003) (54, -9.62230285644531250000e+002) (55, 1.20454614257812500000e+003) (56, -1.44292895507812500000e+003) (57, 9.65014892578125000000e+002) (58, 4.49135255813598630000e+000) (59, 3.17529479980468750000e+002) (60, 1.20518786621093750000e+003) (61, 5.90572570800781250000e+002) (62, 3.16416503906250000000e+002) (0, 1.50000000000000000000e+003) (1, 1.50000000000000000000e+003) (2, -1.50000000000000000000e+003) (3, 1.50000000000000000000e+003) (4, 1.50000000000000000000e+003) (5, -1.50000000000000000000e+003) (6, 1.50000000000000000000e+003) (7, 1.50000000000000000000e+003) (8, -1.50000000000000000000e+003) (9, 1.50000000000000000000e+003) (10, 1.50000000000000000000e+003) (11, -1.50000000000000000000e+003) (12, 1.50000000000000000000e+003) (13, 1.50000000000000000000e+003) (14, -1.50000000000000000000e+003) (15, 1.50000000000000000000e+003) (16, 1.50000000000000000000e+003) (17, 1.50000000000000000000e+003) (18, -9.29658490349538620000e-005) (19, 1.50000000000000000000e+003) (20, 1.50000000000000000000e+003) (21, -1.50000000000000000000e+003) (22, 1.50000000000000000000e+003) (23, 1.50000000000000000000e+003) (24, -1.50000000000000000000e+003) (25, 1.50000000000000000000e+003) (26, 1.50000000000000000000e+003) (27, -1.50000000000000000000e+003) (28, 1.50000000000000000000e+003) (29, 1.50000000000000000000e+003) (30, -1.50000000000000000000e+003) (31, 1.50000000000000000000e+003) (32, 1.50000000000000000000e+003) (33, 1.50000000000000000000e+003) (34, -3.53499674797058110000e+000) (35, 1.50000000000000000000e+003) (36, 1.50000000000000000000e+003) (37, -1.50000000000000000000e+003) (38, 1.50000000000000000000e+003) (39, 1.50000000000000000000e+003) (40, -1.50000000000000000000e+003) (41, 1.50000000000000000000e+003) (42, 1.50000000000000000000e+003) (43, -1.50000000000000000000e+003) (44, 1.50000000000000000000e+003) (45, 1.50000000000000000000e+003) (46, -1.50000000000000000000e+003) (47, 1.50000000000000000000e+003) (48, -1.50000000000000000000e+003) (49, 1.50000000000000000000e+003) (50, -1.50000000000000000000e+003) (51, 3.11708188056945800000e+000) (52, -1.50000000000000000000e+003) (53, 1.50000000000000000000e+003) (54, -1.50000000000000000000e+003) (55, 1.50000000000000000000e+003) (56, -1.50000000000000000000e+003) (57, 4.16064786911010740000e+000) (58, 1.41166305541992190000e+000) (59, 9.27338886260986330000e+000) (60, 1.50000000000000000000e+003) (61, 1.07589599609375000000e+003) (62, 9.30708599090576170000e+000) (63, 1.07698315429687500000e+003) (0, 1.14568481445312500000e+003) (1, 1.14610913085937500000e+003) (2, -1.14264233398437500000e+003) (3, 1.14483569335937500000e+003) (4, 1.14561718750000000000e+003) (5, -1.14282849121093750000e+003) (6, 1.14586425781250000000e+003) (7, 1.14518981933593750000e+003) (8, -1.14382690429687500000e+003) (9, 1.14599145507812500000e+003) (10, 1.14568945312500000000e+003) (11, -1.14270043945312500000e+003) (12, 1.14524938964843750000e+003) (13, 1.14531372070312500000e+003) (14, -1.14443566894531250000e+003) (15, 1.14577026367187500000e+003) (16, 1.14602685546875000000e+003) (17, 1.14507861328125000000e+003) (18, 2.75979400612413880000e-004) (19, 1.14481152343750000000e+003) (20, 1.14519897460937500000e+003) (21, -1.14370312500000000000e+003) (22, 1.14673315429687500000e+003) (23, 1.14490380859375000000e+003) (24, -1.14320275878906250000e+003) (25, 1.14569238281250000000e+003) (26, 1.14556811523437500000e+003) (27, -1.14406762695312500000e+003) (28, 1.14574291992187500000e+003) (29, 1.14526416015625000000e+003) (30, -1.14356127929687500000e+003) (31, 1.14487036132812500000e+003) (32, 1.14660131835937500000e+003) (33, 1.14481213378906250000e+003) (34, -9.46719825267791750000e-001) (35, 9.10549987792968750000e+002) (36, 1.14478662109375000000e+003) (37, -1.14417102050781250000e+003) (38, 1.14616040039062500000e+003) (39, 1.14644750976562500000e+003) (40, -1.14373962402343750000e+003) (41, 1.14536914062500000000e+003) (42, 1.14656457519531250000e+003) (43, -1.14455480957031250000e+003) (44, 1.14668994140625000000e+003) (45, 1.14615417480468750000e+003) (46, -1.14293029785156250000e+003) (47, 1.14644946289062500000e+003) (48, -1.14416113281250000000e+003) (49, 1.66560001373291020000e+001) (50, -1.14359619140625000000e+003) (51, 3.91209959983825680000e+000) (52, -8.17431488037109370000e+001) (53, 9.05246337890625000000e+002) (54, -9.03261474609375000000e+002) (55, 9.05333374023437500000e+002) (56, -1.14383300781250000000e+003) (57, 4.26489837646484370000e+002) (58, 1.47259259223937990000e+000) (59, 5.33962488174438480000e+000) (60, 9.05986145019531250000e+002) (61, 1.28819839477539060000e+002) (62, 4.66488695144653320000e+000) (63, 1.29231781005859380000e+002) (64, 2.54218626022338870000e+000) (0, 1.19524633789062500000e+003) (1, 2.39486709594726560000e+002) (2, -9.53261596679687500000e+002) (3, 1.19487939453125000000e+003) (4, 2.37689193725585940000e+002) (5, -9.53234985351562500000e+002) (6, 7.14445312500000000000e+002) (7, 4.75309997558593750000e+002) (8, -7.14274047851562500000e+002) (9, 4.75720489501953120000e+002) (10, 9.57486816406250000000e+002) (11, -7.14008483886718750000e+002) (12, 1.19641577148437500000e+003) (13, 4.75966064453125000000e+002) (14, -7.13098144531250000000e+002) (15, 4.76015197753906250000e+002) (16, 7.16097473144531250000e+002) (17, 4.26068725585937500000e+001) (18, 1.45207915920764210000e-004) (19, 7.16727172851562500000e+002) (20, 1.01410240173339840000e+002) (21, -7.12549133300781250000e+002) (22, 7.14421997070312500000e+002) (23, 7.16143249511718750000e+002) (24, -7.13011535644531250000e+002) (25, 4.75848541259765620000e+002) (26, 7.15211853027343750000e+002) (27, -7.12557373046875000000e+002) (28, 1.19664611816406250000e+003) (29, 2.37637649536132810000e+002) (30, -4.73479309082031250000e+002) (31, 7.15572570800781250000e+002) (32, 1.19601635742187500000e+003) (33, 1.19501892089843750000e+003) (34, -1.10154342651367190000e+001) (35, 1.17749509811401370000e+001) (36, 1.19593103027343750000e+003) (37, -1.19263720703125000000e+003) (38, 1.19602490234375000000e+003) (39, 7.14313964843750000000e+002) (40, -1.19281298828125000000e+003) (41, 1.19484130859375000000e+003) (42, 1.19518676757812500000e+003) (43, -1.19285180664062500000e+003) (44, 1.19494885253906250000e+003) (45, 4.76705993652343750000e+002) (46, -1.19348010253906250000e+003) (47, 1.19504711914062500000e+003) (48, -7.14354553222656250000e+002) (49, 1.01223640441894530000e+002) (50, -1.19335546875000000000e+003) (51, 1.07252609729766850000e+000) (52, -5.42394542694091800000e+000) (53, 9.55739379882812500000e+002) (54, -3.93352737426757810000e+001) (55, 9.55618774414062500000e+002) (56, -1.19402453613281250000e+003) (57, 9.56364013671875000000e+002) (58, 4.24983835220336910000e+000) (59, 1.84923362731933590000e+001) (60, 7.14594665527343750000e+002) (61, 1.49509368896484370000e+002) (62, 1.87685623168945310000e+001) (63, 1.49603378295898440000e+002) (64, 4.39705610275268550000e+000) (65, 1.76247291564941410000e+001) (0, 1.14642175292968750000e+003) (1, 8.85684661865234380000e+001) (2, -1.14330004882812500000e+003) (3, 9.05656005859375000000e+002) (4, 8.89664916992187500000e+001) (5, -1.14369995117187500000e+003) (6, 2.04401626586914060000e+002) (7, 1.14539575195312500000e+003) (8, -1.14358569335937500000e+003) (9, 8.95092620849609380000e+001) (10, 1.14577648925781250000e+003) (11, -1.14325500488281250000e+003) (12, 1.14621069335937500000e+003) (13, 8.84788665771484380000e+001) (14, -2.03242019653320310000e+002) (15, 8.80716247558593750000e+001) (16, 1.14635876464843750000e+003) (17, 4.55878875732421870000e+002) (18, -2.02663928270339970000e-001) (19, 1.14608129882812500000e+003) (20, 4.56901733398437500000e+002) (21, -1.14346655273437500000e+003) (22, 4.56779022216796870000e+002) (23, 2.12981643676757810000e+002) (24, -1.14369946289062500000e+003) (25, 4.57398895263671880000e+002) (26, 1.14661279296875000000e+003) (27, -1.14466992187500000000e+003) (28, 1.14573889160156250000e+003) (29, 2.12507949829101560000e+002) (30, -4.37244201660156250000e+002) (31, 4.56129119873046870000e+002) (32, 1.14504638671875000000e+003) (33, 1.14628808593750000000e+003) (34, -9.58663132041692730000e-003) (35, 1.14534375000000000000e+003) (36, 1.14660717773437500000e+003) (37, -1.14456555175781250000e+003) (38, 1.14648315429687500000e+003) (39, 1.14521093750000000000e+003) (40, -1.14317565917968750000e+003) (41, 1.14618969726562500000e+003) (42, 1.14486132812500000000e+003) (43, -1.14324731445312500000e+003) (44, 1.14625415039062500000e+003) (45, 4.57136901855468750000e+002) (46, -1.14308691406250000000e+003) (47, 1.14508325195312500000e+003) (48, -2.03440750122070310000e+002) (49, 2.08938908576965330000e+000) (50, -1.14442700195312500000e+003) (51, 2.11165115356445310000e+002) (52, -1.48955035209655760000e+000) (53, 9.04196289062500000000e+002) (54, -8.27654266357421870000e+001) (55, 9.05029663085937500000e+002) (56, -1.14340307617187500000e+003) (57, 1.14509619140625000000e+003) (58, 3.23343801498413090000e+000) (59, 3.62386322021484370000e+000) (60, 9.05267822265625000000e+002) (61, 3.43731689453125000000e+000) (62, 4.38313436508178710000e+000) (63, 3.47087764739990230000e+000) (64, 3.69034028053283690000e+000) (65, 3.14982604980468750000e+000) (66, 2.44498634338378910000e+000) (0, -2.02146947383880620000e-001) (1, 7.60218441486358640000e-001) (2, 9.47852671146392820000e-001) (3, 2.54682135581970210000e+000) (4, 1.74081659317016600000e+000) (5, 3.95465523004531860000e-001) (6, 1.01176607608795170000e+000) (7, 1.09745669364929200000e+000) (8, 1.66787338256835940000e+000) (9, 1.36999666690826420000e+000) (10, 2.28954648971557620000e+000) (11, 1.06027650833129880000e+000) (12, 2.28924703598022460000e+000) (13, 2.02734041213989260000e+000) (14, 4.78918552398681640000e-001) (15, 1.48972845077514650000e+000) (16, 2.15811085700988770000e+000) (17, 8.77463281154632570000e-001) (18, -1.85699900612235070000e-005) (19, 1.32854342460632320000e+000) (20, 5.99162578582763670000e-001) (21, 1.20352697372436520000e+000) (22, 4.89127397537231450000e-001) (23, 2.04176568984985350000e+000) (24, 1.70167493820190430000e+000) (25, 2.46263527870178220000e+000) (26, 4.23193305730819700000e-001) (27, 1.32625126838684080000e+000) (28, 1.04797697067260740000e+000) (29, 1.45336255431175230000e-001) (30, 1.87855648994445800000e+000) (31, 1.58467817306518550000e+000) (32, 9.35664296150207520000e-001) (33, -2.80571913719177250000e+000) (34, -1.96417968254536390000e-005) (35, 1.85448181629180910000e+000) (36, 3.45972627401351930000e-001) (37, 8.25517922639846800000e-002) (38, 1.30726265907287600000e+000) (39, 5.06442964076995850000e-001) (40, 7.97928452491760250000e-001) (41, 2.45078802108764650000e+000) (42, 1.68941473960876460000e+000) (43, 1.56605648994445800000e+000) (44, 1.40926384925842290000e+000) (45, 2.32920551300048830000e+000) (46, 9.90141153335571290000e-001) (47, 1.34984076023101810000e+000) (48, 7.30929493904113770000e-001) (49, 7.27618265151977540000e+000) (50, 2.96649694442749020000e+000) (51, -2.41852259635925290000e+000) (52, 1.97142553329467770000e+000) (53, 1.05694580078125000000e+001) (54, 1.72796976566314700000e+000) (55, 4.86922073364257810000e+000) (56, -6.46048831939697270000e+000) (57, 1.12701475620269780000e+000) (58, 2.25155120849609370000e+002) (59, 2.79527759552001950000e+000) (60, 2.19646036624908450000e-001) (61, 1.66961407661437990000e+000) (62, 2.50232291221618650000e+000) (63, 1.89234471321105960000e+000) (64, 2.25451873779296870000e+002) (65, 4.08839368820190430000e+000) (66, 2.85524845123291020000e+000) (67, 2.24453979492187500000e+002) (0, 1.21099984645843510000e+000) (1, -2.32327818870544430000e+000) (2, 2.28449916839599610000e+000) (3, 2.07975435256958010000e+000) (4, -9.00149270892143250000e-002) (5, 7.36403107643127440000e-001) (6, 1.73695385456085210000e+000) (7, 8.84660840034484860000e-001) (8, 8.12426686286926270000e-001) (9, 1.66753506660461430000e+000) (10, 1.26630246639251710000e-001) (11, 1.86962082982063290000e-001) (12, 1.33054816722869870000e+000) (13, -2.44748854637146000000e+000) (14, -1.02432656288146970000e+000) (15, 1.05294394493103030000e+000) (16, 8.20123732089996340000e-001) (17, -1.05515933036804200000e+000) (18, 3.26759254676289860000e-005) (19, 1.84612736105918880000e-001) (20, -8.85821402072906490000e-001) (21, 1.97368681430816650000e+000) (22, 1.16979467868804930000e+000) (23, 1.07813227176666260000e+000) (24, 1.48051559925079350000e+000) (25, 1.20365858078002930000e+000) (26, 7.36829459667205810000e-001) (27, 2.66812443733215330000e+000) (28, 1.68646144866943360000e+000) (29, -9.18697595596313480000e-001) (30, -6.46250724792480470000e-001) (31, 9.30495202541351320000e-001) (32, 1.24922692775726320000e+000) (33, 3.58392620086669920000e+000) (34, 5.76957318116910760000e-005) (35, 1.34614098072052000000e+000) (36, 1.54999434947967530000e+000) (37, 1.29839622974395750000e+000) (38, 1.99425232410430910000e+000) (39, 6.29719853401184080000e-001) (40, 6.54175579547882080000e-001) (41, 1.52669620513916020000e+000) (42, 1.93284809589385990000e+000) (43, 4.13424730300903320000e+000) (44, 3.94594955444335940000e+000) (45, -4.57258164882659910000e-001) (46, 8.17045748233795170000e-001) (47, 4.18593585491180420000e-002) (48, 1.96205809712409970000e-001) (49, -1.26368367671966550000e+000) (50, 2.41087222099304200000e+000) (51, 7.13209772109985350000e+000) (52, 4.59319278597831730000e-002) (53, -5.40022563934326170000e+000) (54, -9.24506902694702150000e-001) (55, -1.22839379310607910000e+000) (56, -1.17285537719726560000e+001) (57, 4.53654623031616210000e+000) (58, 7.85047302246093750000e+001) (59, 4.33173990249633790000e+000) (60, 1.82870626449584960000e-001) (61, 3.17757081985473630000e+000) (62, 4.59891462326049800000e+000) (63, 4.24859285354614260000e+000) (64, 8.00279312133789060000e+001) (65, 4.11168813705444340000e+000) (66, 4.44405794143676760000e+000) (67, 7.97393264770507810000e+001) (68, 2.35884094238281250000e+000) (0, 8.37489128112792970000e+000) (1, 6.54230690002441410000e+000) (2, 7.90938186645507810000e+000) (3, 7.88913202285766600000e+000) (4, 6.40658378601074220000e+000) (5, 8.78140258789062500000e+000) (6, 1.49412240982055660000e+001) (7, 1.12549114227294920000e+001) (8, 8.21442413330078130000e+000) (9, 1.58293943405151370000e+001) (10, 6.73671340942382810000e+000) (11, 8.50143432617187500000e+000) (12, 1.24072618484497070000e+001) (13, 5.66114330291748050000e+000) (14, 7.11605358123779300000e+000) (15, 1.22697114944458010000e+001) (16, 7.31804370880126950000e+000) (17, 6.15159463882446290000e+000) (18, 7.98879289627075200000e+000) (19, 7.62684822082519530000e+000) (20, 4.59147596359252930000e+000) (21, 8.85002422332763670000e+000) (22, 1.41719484329223630000e+001) (23, 6.50513982772827150000e+000) (24, 7.24451494216918950000e+000) (25, 1.35654582977294920000e+001) (26, 5.76532077789306640000e+000) (27, 7.70740270614624020000e+000) (28, 1.34557065963745120000e+001) (29, 5.40708589553833010000e+000) (30, 6.60826015472412110000e+000) (31, 1.36858978271484370000e+001) (32, 8.06310367584228520000e+000) (33, 5.71181583404541020000e+000) (34, 7.03666019439697270000e+000) (35, 8.17623043060302730000e+000) (36, 4.56706905364990230000e+000) (37, 7.10288810729980470000e+000) (38, 8.86792945861816410000e+000) (39, 1.07566843032836910000e+001) (40, 7.29420232772827150000e+000) (41, 7.98966503143310550000e+000) (42, 6.08758497238159180000e+000) (43, 7.12420511245727540000e+000) (44, 1.01931915283203120000e+001) (45, 5.32748270034790040000e+000) (46, 1.30125141143798830000e+001) (47, 9.81776237487792970000e+000) (48, 9.06578731536865230000e+000) (49, 2.77728962898254390000e+000) (50, 4.18258285522460940000e+000) (51, 2.65580058097839360000e+000) (52, 6.72917222976684570000e+000) (53, 8.31503009796142580000e+000) (54, 6.39469146728515630000e+000) (55, 5.98338174819946290000e+000) (56, 6.30613183975219730000e+000) (57, 2.33862185478210450000e+000) (58, 1.50000000000000000000e+003) (59, 1.50000000000000000000e+003) (60, 5.98675459623336790000e-002) (61, 1.50000000000000000000e+003) (62, 1.50000000000000000000e+003) (63, 1.50000000000000000000e+003) (64, 1.50000000000000000000e+003) (65, 1.50000000000000000000e+003) (66, 1.50000000000000000000e+003) (67, 1.50000000000000000000e+003) (68, 5.73203754425048830000e+000) (69, 8.28527927398681640000e-001) (0, 2.92454147338867190000e+000) (1, 3.89020705223083500000e+000) (2, 2.85588765144348140000e+000) (3, 4.61836910247802730000e+000) (4, 1.51762083172798160000e-001) (5, 1.02381908893585210000e+000) (6, 3.73023152351379390000e+000) (7, 1.45779156684875490000e+000) (8, 2.03369641304016110000e+000) (9, 4.94285440444946290000e+000) (10, 1.65792047977447510000e+000) (11, 1.54054772853851320000e+000) (12, 3.46071457862854000000e+000) (13, 2.30105829238891600000e+000) (14, 1.34789359569549560000e+000) (15, 4.76192712783813480000e+000) (16, -5.05147457122802730000e-001) (17, 2.74611949920654300000e+000) (18, -6.51351510896347460000e-005) (19, 5.41740536689758300000e-001) (20, -1.06531798839569090000e-001) (21, 9.38307583332061770000e-001) (22, 8.99724721908569340000e-001) (23, 2.19493317604064940000e+000) (24, 1.34327173233032230000e+000) (25, 2.41742461919784550000e-001) (26, 9.97449219226837160000e-001) (27, 1.49922597408294680000e+000) (28, 2.37054681777954100000e+000) (29, 1.10079550743103030000e+000) (30, 6.43640279769897460000e-001) (31, 3.95639538764953610000e-001) (32, -6.40303134918212890000e-001) (33, 2.68153152465820310000e+001) (34, -6.21442668489180510000e-005) (35, 1.94756007194519040000e+000) (36, 1.22724425792694090000e+000) (37, 3.50744545459747310000e-001) (38, 1.82500553131103520000e+000) (39, 2.93205022811889650000e-001) (40, 5.76388299465179440000e-001) (41, 1.32594406604766850000e+000) (42, 1.51582944393157960000e+000) (43, 1.72011649608612060000e+000) (44, 1.54984271526336670000e+000) (45, 1.34555852413177490000e+000) (46, 2.09122180938720700000e+000) (47, 1.58940029144287110000e+000) (48, 1.23327040672302250000e+000) (49, 9.90461921691894530000e+000) (50, -1.24151649475097660000e+001) (51, -2.02463169097900390000e+001) (52, -1.98233687877655030000e+000) (53, 6.34549474716186520000e+000) (54, -1.08997082710266110000e+000) (55, 5.97702383995056150000e-001) (56, 1.41551254272460940000e+002) (57, 4.92053651809692380000e+000) (58, 2.28832855224609380000e+001) (59, 3.83316946029663090000e+000) (60, 5.59559392929077150000e+000) (61, 2.02277064323425290000e+000) (62, 3.38627958297729490000e+000) (63, 2.06959390640258790000e+000) (64, 2.26699295043945310000e+001) (65, 3.48199534416198730000e+000) (66, 2.26640415191650390000e+000) (67, 2.41350898742675780000e+001) (68, -4.84687137603759770000e+000) (69, 2.70845532417297360000e-001) (70, 1.22671270370483400000e+001) (0, 1.69674301147460940000e+000) (1, 2.30746231079101560000e+001) (2, 1.27531707286834720000e+000) (3, 1.22520422935485840000e+000) (4, 3.97464013099670410000e+000) (5, 1.38265192508697510000e+000) (6, 2.07928562164306640000e+000) (7, 2.82401108741760250000e+000) (8, -4.78515401482582090000e-002) (9, 8.05438160896301270000e-001) (10, 2.73760604858398440000e+000) (11, 7.36226201057434080000e-001) (12, 1.71819806098937990000e+000) (13, 4.82822418212890620000e+000) (14, -2.68053878098726270000e-002) (15, 9.64304506778717040000e-001) (16, 2.23840221762657170000e-001) (17, 2.32845973968505860000e+001) (18, 1.22646260261535640000e+000) (19, 7.61298477649688720000e-001) (20, 3.15456795692443850000e+000) (21, -4.22851204872131350000e-001) (22, 7.37866699695587160000e-001) (23, 2.46132755279541020000e+000) (24, 2.58319854736328130000e-001) (25, 1.69844102859497070000e+000) (26, 2.01554059982299800000e+000) (27, -4.59941625595092770000e-001) (28, 1.82449901103973390000e+000) (29, 3.57434082031250000000e+000) (30, -1.10079872608184810000e+000) (31, 3.18069756031036380000e-001) (32, -3.14086303114891050000e-002) (33, 2.34280719757080080000e+001) (34, 1.54452419281005860000e+000) (35, 1.28264093399047850000e+000) (36, 3.83973097801208500000e+000) (37, -4.84842687845230100000e-001) (38, 1.91370689868927000000e+000) (39, 1.87519502639770510000e+000) (40, 7.40766644477844240000e-001) (41, 1.43797230720520020000e+000) (42, 2.04757237434387210000e+000) (43, -5.46276345849037170000e-002) (44, 1.60092890262603760000e+000) (45, 2.93832921981811520000e+000) (46, -9.19500946998596190000e-001) (47, 1.65209329128265380000e+000) (48, 2.97812074422836300000e-001) (49, 1.09684591293334960000e+001) (50, 6.24282979965209960000e+000) (51, -1.72394676208496090000e+001) (52, 4.71261501312255860000e+000) (53, 5.49148035049438480000e+000) (54, -3.12371969223022460000e+000) (55, 6.30694448947906490000e-001) (56, -1.50000000000000000000e+003) (57, 1.33837175369262700000e+001) (58, 1.50000000000000000000e+003) (59, 1.50000000000000000000e+003) (60, -1.95717322826385500000e+000) (61, 1.50000000000000000000e+003) (62, 1.50000000000000000000e+003) (63, 1.50000000000000000000e+003) (64, 1.50000000000000000000e+003) (65, 1.50000000000000000000e+003) (66, 1.50000000000000000000e+003) (67, 1.50000000000000000000e+003) (68, -3.37832832336425780000e+000) (69, 2.01851308345794680000e-001) (70, -1.41545974731445310000e+002) (71, -3.21997189521789550000e+000) (0, 1.94631695747375490000e+000) (1, 6.67247819900512700000e+000) (2, 2.16740274429321290000e+000) (3, 2.23762083053588870000e+000) (4, 4.47593402862548830000e+000) (5, 1.72891366481781010000e+000) (6, 1.05469763278961180000e+000) (7, 1.30781722068786620000e+000) (8, 1.82164263725280760000e+000) (9, 6.45836114883422850000e-001) (10, 1.50786900520324710000e+000) (11, 6.52777671813964840000e-001) (12, 1.83177423477172850000e+000) (13, 2.73381185531616210000e+000) (14, 9.30946636199951170000e+000) (15, 2.44733858108520510000e+000) (16, 1.55640447139739990000e+000) (17, 1.36846199035644530000e+001) (18, 1.11736197140999140000e-004) (19, 1.52877092361450200000e+000) (20, 3.02292943000793460000e+000) (21, 2.66193985939025880000e+000) (22, 3.98856312036514280000e-001) (23, 5.65034031867980960000e-001) (24, 2.21601986885070800000e+000) (25, 4.93092805147171020000e-001) (26, 8.85334908962249760000e-001) (27, 1.09134507179260250000e+000) (28, 5.07724642753601070000e-001) (29, 2.97821640968322750000e+000) (30, 7.37481403350830080000e+000) (31, 4.40558791160583500000e-001) (32, 1.79468667507171630000e+000) (33, 5.67276859283447270000e+000) (34, -1.05456136225257070000e-004) (35, 4.80434685945510860000e-001) (36, 3.55197334289550780000e+000) (37, -4.16500151157379150000e-001) (38, 1.31793010234832760000e+000) (39, 8.43103229999542240000e-001) (40, -2.33545809984207150000e-001) (41, 8.91704380512237550000e-001) (42, 1.52193272113800050000e+000) (43, -1.70639038085937500000e-001) (44, 1.15891385078430180000e+000) (45, 4.92488479614257810000e+000) (46, 3.09865140914916990000e+000) (47, 2.18650817871093750000e+000) (48, 1.14398322999477390000e-001) (49, -8.28830432891845700000e+000) (50, 1.54706220626831050000e+001) (51, 7.77272033691406250000e+000) (52, 6.46326303482055660000e+000) (53, 2.67815589904785160000e+001) (54, 2.11643052101135250000e+000) (55, 3.54901504516601560000e+000) (56, -3.58627281188964840000e+001) (57, 2.03837609291076660000e+000) (58, 1.50000000000000000000e+003) (59, 3.73824238777160640000e+000) (60, 3.57182931900024410000e+000) (61, 3.31347537040710450000e+000) (62, 4.51028871536254880000e+000) (63, 4.12160921096801760000e+000) (64, 1.50000000000000000000e+003) (65, 5.60503101348876950000e+000) (66, 5.58799219131469730000e+000) (67, 1.50000000000000000000e+003) (68, 3.78011584281921390000e+000) (69, 5.92115592956542970000e+000) (70, -2.40159320831298830000e+001) (71, -2.03455734252929690000e+000) (72, -1.17932617187500000000e+002) (0, 7.83046674728393550000e+000) (1, -3.95045967102050780000e+001) (2, -7.15476799011230470000e+000) (3, 2.13175940513610840000e+000) (4, -2.02872028350830080000e+001) (5, -1.47182884216308590000e+001) (6, -7.54191017150878910000e+000) (7, 7.93429470062255860000e+000) (8, -4.75257366895675660000e-001) (9, -2.14934616088867190000e+001) (10, 1.27508783340454100000e+001) (11, -2.10357522964477540000e+000) (12, 3.09783983230590820000e+000) (13, -1.69940996170043950000e+000) (14, 8.64572525024414060000e+000) (15, -9.41761970520019530000e+000) (16, 7.55891370773315430000e+000) (17, -2.24511394500732420000e+001) (18, -2.06999167799949650000e-001) (19, 6.92491102218627930000e+000) (20, -6.43794393539428710000e+000) (21, 3.64365339279174800000e+000) (22, -7.03029453754425050000e-001) (23, 5.01027202606201170000e+000) (24, 3.57654285430908200000e+000) (25, -4.09870147705078120000e+000) (26, 1.08430919647216800000e+001) (27, 2.20925426483154300000e+000) (28, 1.78806471824646000000e+000) (29, -6.79975971579551700000e-002) (30, 1.46828737258911130000e+001) (31, 3.56143563985824580000e-002) (32, 1.63243579864501950000e+001) (33, -3.43968296051025390000e+000) (34, -4.05706977471709250000e-003) (35, 7.92935705184936520000e+000) (36, -6.21330067515373230000e-002) (37, 6.12914705276489260000e+000) (38, 1.68560719490051270000e+000) (39, 5.64747047424316410000e+000) (40, 3.08406591415405270000e-001) (41, -1.43125581741333010000e+000) (42, 2.44651508331298830000e+001) (43, -3.46126389503479000000e+000) (44, -3.91600906848907470000e-001) (45, 4.26841306686401370000e+000) (46, 1.86718158721923830000e+001) (47, 5.89576005935668950000e+000) (48, 7.09322404861450200000e+000) (49, 1.17362861633300780000e+001) (50, -1.87414665222167970000e+001) (51, 8.44361724853515630000e+001) (52, 6.92582750320434570000e+000) (53, -5.92875900268554690000e+001) (54, 4.35685873031616210000e+000) (55, 2.36967182159423830000e+000) (56, -1.47075744628906250000e+003) (57, 6.77481412887573240000e+000) (58, 1.50000000000000000000e+003) (59, 1.50000000000000000000e+003) (60, 2.61102128028869630000e+000) (61, 1.50000000000000000000e+003) (62, 1.50000000000000000000e+003) (63, 1.50000000000000000000e+003) (64, 1.50000000000000000000e+003) (65, 1.50000000000000000000e+003) (66, 1.50000000000000000000e+003) (67, 1.50000000000000000000e+003) (68, 3.40044808387756350000e+000) (69, 2.78704786300659180000e+000) (70, 2.92411785125732420000e+001) (71, 1.97840237617492680000e+000) (72, -7.67094573974609380000e+001) (73, 1.60895335674285890000e+000) 
