FANN_FLO_2.1
num_layers=42
learning_rate=0.700000
connection_rate=1.000000
network_type=1
learning_momentum=0.000000
training_algorithm=2
train_error_function=1
train_stop_function=0
cascade_output_change_fraction=0.010000
quickprop_decay=-0.000100
quickprop_mu=1.750000
rprop_increase_factor=1.200000
rprop_decrease_factor=0.500000
rprop_delta_min=0.000000
rprop_delta_max=50.000000
rprop_delta_zero=0.100000
cascade_output_stagnation_epochs=12
cascade_candidate_change_fraction=0.010000
cascade_candidate_stagnation_epochs=12
cascade_max_out_epochs=150
cascade_min_out_epochs=50
cascade_max_cand_epochs=150
cascade_min_cand_epochs=50
cascade_num_candidate_groups=2
bit_fail_limit=3.49999994039535520000e-001
cascade_candidate_limit=1.00000000000000000000e+003
cascade_weight_multiplier=4.00000005960464480000e-001
cascade_activation_functions_count=10
cascade_activation_functions=3 5 7 8 10 11 14 15 16 17 
cascade_activation_steepnesses_count=4
cascade_activation_steepnesses=2.50000000000000000000e-001 5.00000000000000000000e-001 7.50000000000000000000e-001 1.00000000000000000000e+000 
layer_sizes=49 1 1 1 1 1 1 1 1 1 1 1 1 1 1 1 1 1 1 1 1 1 1 1 1 1 1 1 1 1 1 1 1 1 1 1 1 1 1 1 1 1 
scale_included=0
neurons (num_inputs, activation_function, activation_steepness)=(0, 0, 0.00000000000000000000e+000) (0, 0, 0.00000000000000000000e+000) (0, 0, 0.00000000000000000000e+000) (0, 0, 0.00000000000000000000e+000) (0, 0, 0.00000000000000000000e+000) (0, 0, 0.00000000000000000000e+000) (0, 0, 0.00000000000000000000e+000) (0, 0, 0.00000000000000000000e+000) (0, 0, 0.00000000000000000000e+000) (0, 0, 0.00000000000000000000e+000) (0, 0, 0.00000000000000000000e+000) (0, 0, 0.00000000000000000000e+000) (0, 0, 0.00000000000000000000e+000) (0, 0, 0.00000000000000000000e+000) (0, 0, 0.00000000000000000000e+000) (0, 0, 0.00000000000000000000e+000) (0, 0, 0.00000000000000000000e+000) (0, 0, 0.00000000000000000000e+000) (0, 0, 0.00000000000000000000e+000) (0, 0, 0.00000000000000000000e+000) (0, 0, 0.00000000000000000000e+000) (0, 0, 0.00000000000000000000e+000) (0, 0, 0.00000000000000000000e+000) (0, 0, 0.00000000000000000000e+000) (0, 0, 0.00000000000000000000e+000) (0, 0, 0.00000000000000000000e+000) (0, 0, 0.00000000000000000000e+000) (0, 0, 0.00000000000000000000e+000) (0, 0, 0.00000000000000000000e+000) (0, 0, 0.00000000000000000000e+000) (0, 0, 0.00000000000000000000e+000) (0, 0, 0.00000000000000000000e+000) (0, 0, 0.00000000000000000000e+000) (0, 0, 0.00000000000000000000e+000) (0, 0, 0.00000000000000000000e+000) (0, 0, 0.00000000000000000000e+000) (0, 0, 0.00000000000000000000e+000) (0, 0, 0.00000000000000000000e+000) (0, 0, 0.00000000000000000000e+000) (0, 0, 0.00000000000000000000e+000) (0, 0, 0.00000000000000000000e+000) (0, 0, 0.00000000000000000000e+000) (0, 0, 0.00000000000000000000e+000) (0, 0, 0.00000000000000000000e+000) (0, 0, 0.00000000000000000000e+000) (0, 0, 0.00000000000000000000e+000) (0, 0, 0.00000000000000000000e+000) (0, 0, 0.00000000000000000000e+000) (0, 0, 0.00000000000000000000e+000) (49, 15, 5.00000000000000000000e-001) (50, 8, 2.50000000000000000000e-001) (51, 3, 7.50000000000000000000e-001) (52, 15, 2.50000000000000000000e-001) (53, 8, 2.50000000000000000000e-001) (54, 7, 1.00000000000000000000e+000) (55, 15, 5.00000000000000000000e-001) (56, 8, 2.50000000000000000000e-001) (57, 8, 5.00000000000000000000e-001) (58, 15, 2.50000000000000000000e-001) (59, 15, 7.50000000000000000000e-001) (60, 15, 7.50000000000000000000e-001) (61, 15, 2.50000000000000000000e-001) (62, 3, 1.00000000000000000000e+000) (63, 7, 2.50000000000000000000e-001) (64, 3, 2.50000000000000000000e-001) (65, 3, 5.00000000000000000000e-001) (66, 3, 1.00000000000000000000e+000) (67, 3, 1.00000000000000000000e+000) (68, 3, 7.50000000000000000000e-001) (69, 3, 1.00000000000000000000e+000) (70, 7, 7.50000000000000000000e-001) (71, 3, 7.50000000000000000000e-001) (72, 3, 2.50000000000000000000e-001) (73, 3, 2.50000000000000000000e-001) (74, 3, 7.50000000000000000000e-001) (75, 7, 2.50000000000000000000e-001) (76, 3, 1.00000000000000000000e+000) (77, 7, 2.50000000000000000000e-001) (78, 15, 1.00000000000000000000e+000) (79, 3, 2.50000000000000000000e-001) (80, 3, 2.50000000000000000000e-001) (81, 15, 2.50000000000000000000e-001) (82, 15, 2.50000000000000000000e-001) (83, 7, 2.50000000000000000000e-001) (84, 7, 7.50000000000000000000e-001) (85, 3, 2.50000000000000000000e-001) (86, 15, 7.50000000000000000000e-001) (87, 15, 5.00000000000000000000e-001) (88, 15, 5.00000000000000000000e-001) (89, 4, 5.00000000000000000000e-001) 
connections (connected_to_neuron, weight)=(0, -9.51767086982727050000e-001) (1, 2.69655275344848630000e+000) (2, -2.46858909726142880000e-001) (3, -1.51149034500122070000e-001) (4, 3.57989382743835450000e+000) (5, -2.24282190203666690000e-001) (6, -4.59365218877792360000e-001) (7, 3.18597269058227540000e+000) (8, 2.19198155403137210000e+000) (9, 2.33783468604087830000e-001) (10, 1.09427821636199950000e+000) (11, 1.94598090648651120000e+000) (12, 6.05159923434257510000e-002) (13, 4.19952726364135740000e+000) (14, 1.10323600471019740000e-001) (15, 3.38534593582153320000e-001) (16, -1.56698668003082280000e+000) (17, 1.72711014747619630000e+000) (18, -1.25464808661490680000e-004) (19, 6.75278425216674800000e-001) (20, 2.53108239173889160000e+000) (21, -4.54145729541778560000e-001) (22, 1.61566650867462160000e+000) (23, 2.52876901626586910000e+000) (24, 2.55937504768371580000e+000) (25, -2.67810344696044920000e-001) (26, 1.57992243766784670000e+000) (27, 1.75756132602691650000e+000) (28, 1.56283795833587650000e+000) (29, 4.37056016921997070000e+000) (30, 1.99673557281494140000e+000) (31, 3.57852697372436520000e-001) (32, 2.64158654212951660000e+000) (33, 3.26692414283752440000e+000) (34, 1.26621991512365640000e-004) (35, -2.87502288818359380000e+000) (36, 1.88126385211944580000e+000) (37, 3.63015271723270420000e-002) (38, 2.01866865158081050000e+000) (39, 2.69822025299072270000e+000) (40, 2.21186876296997070000e+000) (41, -7.77957558631896970000e-001) (42, 2.19714713096618650000e+000) (43, 1.20809841156005860000e+000) (44, 1.43149328231811520000e+000) (45, 2.99623584747314450000e+000) (46, 2.06180405616760250000e+000) (47, -2.23591661453247070000e+000) (48, 5.32437801361083980000e+000) (0, -9.66506898403167720000e-001) (1, -3.43730282783508300000e+000) (2, 1.57781636714935300000e+000) (3, 8.61707568168640140000e-001) (4, -2.26958370208740230000e+000) (5, 1.79266825318336490000e-001) (6, 2.32833337783813480000e+000) (7, 1.18136131763458250000e+000) (8, 1.51008582115173340000e+000) (9, 3.80507802963256840000e+000) (10, 1.77845194935798650000e-001) (11, 1.80361241102218630000e-001) (12, -1.29603922367095950000e+000) (13, 4.41393494606018070000e-001) (14, 1.05606429278850560000e-001) (15, 1.20515859127044680000e+000) (16, -1.74652993679046630000e+000) (17, -2.85572552680969240000e+000) (18, 2.12835431098937990000e+000) (19, -7.46177971363067630000e-001) (20, -1.26636028289794920000e+000) (21, 5.09331405162811280000e-001) (22, 2.32415580749511720000e+000) (23, 1.56151950359344480000e+000) (24, 1.63528919219970700000e+000) (25, 2.67952013015747070000e+000) (26, 1.09723150730133060000e+000) (27, -8.76501202583312990000e-003) (28, -8.91699492931365970000e-001) (29, 1.05539739131927490000e+000) (30, 3.86560738086700440000e-001) (31, 1.05745446681976320000e+000) (32, 1.79805994033813480000e-001) (33, -6.02712333202362060000e-001) (34, 1.96376693248748780000e+000) (35, 1.85931265354156490000e-001) (36, -1.54836320877075200000e+000) (37, 9.42826628684997560000e-001) (38, 1.95475447177886960000e+000) (39, 1.19064247608184810000e+000) (40, 6.53588414192199710000e-001) (41, 3.49048972129821780000e+000) (42, 3.46626907587051390000e-001) (43, 9.95331168174743650000e-001) (44, -1.15605807304382320000e+000) (45, -1.54224053025245670000e-001) (46, 1.32072424888610840000e+000) (47, 8.90702366828918460000e-001) (48, 2.19357445836067200000e-001) (49, -2.30650067329406740000e+000) (0, -7.29945540428161620000e-001) (1, 2.87526397705078120000e+002) (2, 1.20340383052825930000e+000) (3, 4.01489019393920900000e-001) (4, 4.08323001861572270000e+000) (5, 7.64785170555114750000e-001) (6, 2.31087160110473630000e+000) (7, 1.11622560024261470000e+000) (8, 1.17860901355743410000e+000) (9, 1.27632367610931400000e+000) (10, -1.95285453796386720000e+001) (11, 5.95507144927978520000e-001) (12, -4.82709455490112300000e+000) (13, 1.97826111316680910000e+000) (14, 1.27434253692626950000e+000) (15, 7.99098849296569820000e-001) (16, 9.43272769451141360000e-001) (17, 1.98491821289062500000e+001) (18, 3.39834380149841310000e+000) (19, 1.56446444988250730000e+000) (20, 5.13223457336425780000e+000) (21, 8.47736120223999020000e-001) (22, -5.73093473911285400000e-001) (23, -7.50059261918067930000e-002) (24, 2.26917338371276860000e+000) (25, 1.04809474945068360000e+000) (26, -5.31994400024414060000e+001) (27, 1.96911501884460450000e+000) (28, -5.14707279205322270000e+000) (29, 1.45404636859893800000e+000) (30, 1.38829660415649410000e+000) (31, 2.32595658302307130000e+000) (32, -3.84606271982192990000e-001) (33, 6.89339523315429690000e+001) (34, 5.73882281780242920000e-001) (35, 1.75318312644958500000e+000) (36, 3.34706568717956540000e+000) (37, 1.14905774593353270000e+000) (38, 7.04868957400321960000e-002) (39, 1.86711621284484860000e+000) (40, 1.21222364902496340000e+000) (41, 2.34295988082885740000e+000) (42, -9.13368320465087890000e+000) (43, 7.38837659358978270000e-001) (44, -2.93413162231445310000e-001) (45, 1.81932067871093750000e+000) (46, 6.61211550235748290000e-001) (47, 1.86787629127502440000e+000) (48, 1.03239927291870120000e+001) (49, 1.06582250595092770000e+001) (50, 3.29698634147644040000e+000) (0, -3.43410819768905640000e-001) (1, 1.30841565132141110000e+000) (2, -1.47730331420898440000e+001) (3, 1.33449661731719970000e+000) (4, 1.35622859001159670000e+000) (5, -4.55926990509033200000e+000) (6, 1.97745132446289060000e+000) (7, -2.59531944990158080000e-001) (8, -4.19571697711944580000e-001) (9, 1.66922819614410400000e+000) (10, -1.06558823585510250000e+000) (11, -7.45838105678558350000e-001) (12, 1.58215606212615970000e+000) (13, 1.54097282886505130000e+000) (14, -1.51993503570556640000e+001) (15, 3.18968743085861210000e-001) (16, -3.14115071296691890000e+000) (17, -1.54270935058593750000e+000) (18, -3.60919511877000330000e-005) (19, 6.08144760131835940000e-001) (20, 2.29508399963378910000e+000) (21, -1.48804116249084470000e+000) (22, 3.41491818428039550000e+000) (23, -5.63290238380432130000e-001) (24, 1.97443461418151860000e+000) (25, 1.21547091007232670000e+000) (26, 2.17242455482482910000e+000) (27, 1.94250628352165220000e-001) (28, 3.04581832885742190000e+000) (29, 9.99964118003845210000e-001) (30, 3.21674299240112300000e+000) (31, 2.73197561502456670000e-001) (32, 3.27523517608642580000e+000) (33, -3.67754101753234860000e+000) (34, 5.92271426285151390000e-005) (35, -5.77005326747894290000e-001) (36, 4.38225030899047850000e+000) (37, 1.38590264320373540000e+000) (38, 5.80744695663452150000e+000) (39, -4.82285141944885250000e-001) (40, 3.00499343872070310000e+000) (41, 1.04366302490234370000e+000) (42, 3.18567728996276860000e+000) (43, -9.16749656200408940000e-001) (44, 3.53917431831359860000e+000) (45, 1.76542744040489200000e-001) (46, 3.06641650199890140000e+000) (47, 3.14728468656539920000e-001) (48, 1.65763607025146480000e+001) (49, 2.83384656906127930000e+000) (50, -3.08719897270202640000e+000) (51, -5.14953660964965820000e+000) (0, 9.85076606273651120000e-001) (1, 3.65489393472671510000e-001) (2, 1.35138869285583500000e+000) (3, 2.32340678572654720000e-001) (4, 5.90389907360076900000e-001) (5, 1.01360976696014400000e+000) (6, -5.69435879588127140000e-002) (7, -2.97606915235519410000e-001) (8, 1.80576813220977780000e+000) (9, 1.05183804035186770000e+000) (10, 1.69272983074188230000e+000) (11, 1.11825692653656010000e+000) (12, 1.80432295799255370000e+000) (13, 2.57087320089340210000e-001) (14, 7.20750093460083010000e-001) (15, 8.52867126464843750000e-001) (16, 1.62063574790954590000e+000) (17, 7.14146196842193600000e-002) (18, 1.34534227848052980000e+000) (19, -6.46161288022995000000e-002) (20, 3.32298636436462400000e-001) (21, 6.57407522201538090000e-001) (22, 7.95899093151092530000e-001) (23, 1.86093556880950930000e+000) (24, 2.29215598106384280000e+000) (25, 1.47505331039428710000e+000) (26, 2.26162767410278320000e+000) (27, 2.40811967849731450000e+000) (28, 6.46964609622955320000e-002) (29, -3.68892759084701540000e-001) (30, 1.26185989379882810000e+000) (31, 1.06134867668151860000e+000) (32, 9.49713215231895450000e-003) (33, -1.37700557708740230000e-001) (34, 1.47369003295898440000e+000) (35, 2.66099542379379270000e-001) (36, -1.69520601630210880000e-001) (37, 1.23857808113098140000e+000) (38, 7.95954346656799320000e-001) (39, 6.31093382835388180000e-001) (40, 1.34250748157501220000e+000) (41, -5.49498870968818660000e-002) (42, 1.01229679584503170000e+000) (43, 2.36763787269592290000e+000) (44, -1.58192574977874760000e-001) (45, -7.14334785938262940000e-001) (46, 2.15644383430480960000e+000) (47, -1.29202172160148620000e-001) (48, -9.89117920398712160000e-001) (49, 8.12784099578857420000e+000) (50, 2.83123016357421880000e-001) (51, -1.30275881290435790000e+000) (52, 2.42267274856567380000e+000) (0, -1.22145088389515880000e-002) (1, 1.87060391902923580000e+000) (2, 1.10841047763824460000e+000) (3, 2.12852880358695980000e-001) (4, 6.45474195480346680000e-001) (5, 2.23813772201538090000e+000) (6, 9.34534788131713870000e-001) (7, 4.86185431480407710000e-001) (8, 2.40328836441040040000e+000) (9, 1.44780963659286500000e-001) (10, 8.82776319980621340000e-001) (11, 4.19125080108642580000e+000) (12, 1.00694870948791500000e+000) (13, 1.95753228664398190000e+000) (14, 2.10111165046691890000e+000) (15, 1.90754091739654540000e+000) (16, 1.61623656749725340000e+000) (17, 9.11749660968780520000e-001) (18, -2.84509944915771480000e+000) (19, 1.28100052475929260000e-001) (20, 1.51906418800354000000e+000) (21, 2.38646221160888670000e+000) (22, -2.44881406426429750000e-001) (23, 3.70958328247070310000e-001) (24, 8.28639686107635500000e-001) (25, 1.38804957270622250000e-001) (26, 1.13646197319030760000e+000) (27, 1.79485726356506350000e+000) (28, -1.78529858589172360000e-001) (29, 1.53736114501953130000e+000) (30, 7.84490227699279790000e-001) (31, -1.35284185409545900000e-001) (32, 3.03699803352355960000e+000) (33, -8.82916450500488280000e-002) (34, 1.75503492355346680000e+000) (35, 1.24320602416992190000e+000) (36, 3.40984821319580080000e-001) (37, 8.60513627529144290000e-001) (38, -8.99419654160737990000e-003) (39, 6.46894812583923340000e-001) (40, 3.05660748481750490000e+000) (41, 2.45705954730510710000e-002) (42, 1.42421409487724300000e-001) (43, 4.99805784225463870000e+000) (44, 1.64782035350799560000e+000) (45, 1.38553798198699950000e+000) (46, 9.59165692329406740000e-001) (47, 8.11240494251251220000e-001) (48, 4.29180294275283810000e-001) (49, 1.45094525814056400000e+000) (50, 2.30491495132446290000e+000) (51, 1.09549760818481450000e+001) (52, 1.33451238274574280000e-001) (53, 2.68399739265441890000e+000) (0, 6.29885971546173100000e-001) (1, 5.27626466751098630000e+000) (2, 1.14956891536712650000e+000) (3, 5.39561271667480470000e-001) (4, 3.50265359878540040000e+000) (5, 1.53288888931274410000e+000) (6, 1.83523535728454590000e+000) (7, 3.05666255950927730000e+000) (8, 4.34667140245437620000e-001) (9, 1.12529420852661130000e+000) (10, 1.57652771472930910000e+000) (11, 1.36061329394578930000e-002) (12, -1.48485803604125980000e+000) (13, 3.53426337242126460000e+000) (14, 7.20153450965881350000e-002) (15, -1.37102566659450530000e-002) (16, -9.70950663089752200000e-001) (17, -1.58077704906463620000e+000) (18, -6.64508479530923070000e-005) (19, -1.61558806896209720000e+000) (20, 2.64247179031372070000e+000) (21, 8.07764828205108640000e-001) (22, 1.25222361087799070000e+000) (23, 2.86948394775390620000e+000) (24, 2.15977144241333010000e+000) (25, 2.26143264770507810000e+000) (26, 2.16469240188598630000e+000) (27, -2.13706493377685550000e-001) (28, 2.46569395065307620000e+000) (29, 1.55857324600219730000e+000) (30, 1.15847229957580570000e+000) (31, 1.09503138065338130000e+000) (32, 1.77605831623077390000e+000) (33, 2.85511064529418950000e+000) (34, 5.84767840337008240000e-005) (35, -1.49202501773834230000e+000) (36, 2.19163179397583010000e+000) (37, 1.56613409519195560000e+000) (38, 2.66695070266723630000e+000) (39, 2.02823519706726070000e+000) (40, 1.86730098724365230000e+000) (41, 1.76763665676116940000e+000) (42, 2.09578609466552730000e+000) (43, 1.16212928295135500000e+000) (44, 2.04923820495605470000e+000) (45, 3.30901384353637700000e+000) (46, 1.73788332939147950000e+000) (47, 1.65970540046691890000e+000) (48, -1.69024932384490970000e+000) (49, 2.34236240386962890000e-001) (50, 2.72733616828918460000e+000) (51, 1.24640953540802000000e+000) (52, 1.60173583030700680000e+000) (53, 1.66024589538574220000e+000) (54, 6.82732534408569340000e+000) (0, 1.53267288208007810000e+000) (1, 2.37659788131713870000e+000) (2, 1.24588716030120850000e+000) (3, 1.19528698921203610000e+000) (4, 6.59699499607086180000e-001) (5, 1.81904470920562740000e+000) (6, -1.27948909997940060000e-001) (7, 1.14654016494750980000e+000) (8, 1.01745963096618650000e+000) (9, -2.85536122322082520000e+000) (10, -1.56521335244178770000e-001) (11, 2.13358950614929200000e+000) (12, 2.53575229644775390000e+000) (13, -1.43661305308341980000e-001) (14, 1.92044711112976070000e+000) (15, 6.35936200618743900000e-001) (16, 3.13562512397766110000e+000) (17, 2.27098178863525390000e+000) (18, 1.68405890464782710000e+000) (19, 2.76919054985046390000e+000) (20, 8.84703040122985840000e-001) (21, 1.74931335449218750000e+000) (22, 1.76090881228446960000e-001) (23, 6.30079686641693120000e-001) (24, 8.07785868644714360000e-001) (25, -4.11124140024185180000e-001) (26, 6.13657057285308840000e-001) (27, 1.03574216365814210000e+000) (28, 3.42272353172302250000e+000) (29, -1.77684500813484190000e-001) (30, 7.11355984210968020000e-001) (31, 1.61513400077819820000e+000) (32, 1.02058553695678710000e+000) (33, -6.87952697277069090000e-001) (34, 1.52579700946807860000e+000) (35, 3.56942892074584960000e-001) (36, -5.90365491807460780000e-002) (37, 1.00166583061218260000e+000) (38, 1.12058508396148680000e+000) (39, 4.45440202951431270000e-001) (40, 5.40531396865844730000e-001) (41, 4.27647024393081670000e-001) (42, 1.19194388389587400000e+000) (43, 2.06408071517944340000e+000) (44, 1.20284414291381840000e+000) (45, 3.13090860843658450000e-001) (46, 2.04585218429565430000e+000) (47, 1.93380210548639300000e-002) (48, -8.23475956916809080000e-001) (49, 8.10161054134368900000e-001) (50, 1.24598014354705810000e+000) (51, 3.91282534599304200000e+000) (52, 2.80952882766723630000e+000) (53, 2.26303958892822270000e+000) (54, -6.78497123718261720000e+000) (55, 4.40046262741088870000e+000) (0, 1.56636774539947510000e-001) (1, -3.33498328924179080000e-001) (2, 1.22062230110168460000e+000) (3, 1.37517496943473820000e-001) (4, -5.28049421310424800000e+000) (5, 1.17154073715209960000e+000) (6, 1.17427182197570800000e+000) (7, -1.07395148277282710000e+000) (8, -5.11160314083099370000e-001) (9, -7.64015316963195800000e-002) (10, 7.57329523563385010000e-001) (11, -1.15159511566162110000e-001) (12, -1.12340867519378660000e+000) (13, 4.00209069252014160000e-001) (14, 5.25418110191822050000e-002) (15, 8.08683156967163090000e-001) (16, 3.72532069683074950000e-001) (17, 6.16150140762329100000e-001) (18, 5.16165494918823240000e-001) (19, 1.08073675632476810000e+000) (20, -5.60394227504730220000e-001) (21, 9.90123271942138670000e-001) (22, -4.35992240905761720000e-001) (23, -3.78501899540424350000e-002) (24, 8.46105873584747310000e-001) (25, -7.37346410751342770000e-002) (26, 1.02662384510040280000e+000) (27, 1.79224029183387760000e-001) (28, -3.34776425361633300000e+000) (29, 1.36559891700744630000e+000) (30, 1.33449780941009520000e+000) (31, 1.50549399852752690000e+000) (32, 5.43351531028747560000e-001) (33, 6.25529766082763670000e+000) (34, 2.26407575607299800000e+000) (35, 9.71819400787353520000e-001) (36, 9.68350172042846680000e-001) (37, 6.24209463596343990000e-001) (38, 3.09968262910842900000e-001) (39, 3.46413761377334590000e-001) (40, 3.68654549121856690000e-001) (41, 9.23665702342987060000e-001) (42, 9.49938535690307620000e-001) (43, 3.51974815130233760000e-001) (44, 2.89841026067733760000e-001) (45, -1.26919522881507870000e-001) (46, 1.28879809379577640000e+000) (47, 1.16433799266815190000e+000) (48, -3.55411976575851440000e-001) (49, -7.51067698001861570000e-003) (50, 1.50082051753997800000e+000) (51, 1.50000000000000000000e+003) (52, 1.46027946472167970000e+000) (53, 1.07235300540924070000e+000) (54, 2.11503744125366210000e+000) (55, -1.78113269805908200000e+000) (56, -6.48457780480384830000e-002) (0, 1.26315641403198240000e+000) (1, -9.79859054088592530000e-001) (2, 1.64748275279998780000e+000) (3, 1.23384952545166020000e+000) (4, 7.58701637387275700000e-002) (5, -9.84101276844739910000e-003) (6, 2.51039773225784300000e-001) (7, 1.92244434356689450000e+000) (8, -1.03251254186034200000e-002) (9, 5.18081843852996830000e-001) (10, 2.63703584671020510000e+000) (11, 6.82442569732666020000e+000) (12, -4.13494259119033810000e-002) (13, 9.06091332435607910000e-001) (14, 3.14196556806564330000e-001) (15, 1.16100955009460450000e+000) (16, 1.37526226043701170000e+000) (17, -1.29555978775024410000e+001) (18, -1.18668547656852750000e-004) (19, 9.68167841434478760000e-001) (20, 4.31689691543579100000e+000) (21, 6.68142270296812060000e-003) (22, 3.16295742988586430000e+000) (23, 8.40404212474823000000e-001) (24, 2.66318225860595700000e+000) (25, 3.65926176309585570000e-001) (26, 3.08337974548339840000e+000) (27, 8.61038625240325930000e-001) (28, 2.81172299385070800000e+000) (29, 8.14796805381774900000e-001) (30, 3.89027857780456540000e+000) (31, 5.25569677352905270000e-001) (32, 3.36768531799316410000e+000) (33, -1.27842702865600590000e+001) (34, 1.51732092490419750000e-004) (35, 1.83646094799041750000e+000) (36, 3.54349327087402340000e+000) (37, 1.28076836466789250000e-001) (38, 2.33315300941467290000e+000) (39, 1.35627222061157230000e+000) (40, 2.86632132530212400000e+000) (41, 1.32502722740173340000e+000) (42, 2.75979399681091310000e+000) (43, 3.65013539791107180000e-001) (44, 3.50923418998718260000e+000) (45, -3.61350566148757930000e-001) (46, 3.66819882392883300000e+000) (47, 1.75767123699188230000e+000) (48, -6.05791378021240230000e+000) (49, 1.03784761428833010000e+001) (50, 4.46451520919799800000e+000) (51, -6.59877586364746090000e+000) (52, -1.51631677150726320000e+000) (53, 3.24644231796264650000e+000) (54, 3.80847573280334470000e+000) (55, 2.89911746978759770000e+000) (56, -4.88543796539306640000e+000) (57, 3.47785234451293950000e+000) (0, 6.25880289077758790000e+000) (1, 1.38338518142700200000e+000) (2, 7.39582836627960210000e-001) (3, 1.72638642787933350000e+000) (4, -3.63637566566467290000e-001) (5, 4.40307855606079100000e-001) (6, 1.32196259498596190000e+000) (7, 6.56814873218536380000e-001) (8, 1.88734745979309080000e+000) (9, 1.15025925636291500000e+000) (10, 4.07389342784881590000e-001) (11, 9.98414456844329830000e-001) (12, 1.81424677371978760000e+000) (13, -2.66913533210754390000e-001) (14, 3.42909479141235350000e+000) (15, 9.89840686321258540000e-001) (16, 2.68162880092859270000e-002) (17, -1.26503109931945800000e-001) (18, -2.37553031183779240000e-005) (19, -6.83692917227745060000e-002) (20, 4.02707719802856450000e+000) (21, 2.39400553703308110000e+000) (22, 2.87524008750915530000e+000) (23, 3.01728636026382450000e-001) (24, 3.07674479484558110000e+000) (25, 7.88160264492034910000e-001) (26, 3.88199949264526370000e+000) (27, 2.66012287139892580000e+000) (28, 3.04197192192077640000e+000) (29, -7.72512555122375490000e-002) (30, 2.52897572517395020000e+000) (31, -1.82721987366676330000e-001) (32, 3.49720454216003420000e+000) (33, -1.52488917112350460000e-001) (34, -1.14419162855483590000e-006) (35, 4.42002527415752410000e-002) (36, 3.92231321334838870000e+000) (37, 9.92081880569458010000e-001) (38, 3.19004344940185550000e+000) (39, 1.07991941273212430000e-001) (40, 3.55568981170654300000e+000) (41, 6.34356915950775150000e-001) (42, 3.85894489288330080000e+000) (43, 1.63477778434753420000e+000) (44, 3.13731098175048830000e+000) (45, 5.44911682605743410000e-001) (46, 4.50481128692626950000e+000) (47, 2.44999960064888000000e-001) (48, -1.08538305759429930000e+000) (49, 1.31598985195159910000e+000) (50, 8.18610250949859620000e-001) (51, 3.97201508283615110000e-001) (52, 2.50893998146057130000e+000) (53, 3.36916542053222660000e+000) (54, 5.23791790008544920000e+000) (55, 1.61426675319671630000e+000) (56, 7.56786167621612550000e-001) (57, -4.71029520034790040000e-001) (58, 2.22827959060668950000e+000) (0, 5.22653341293334960000e-001) (1, 2.19594907760620120000e+000) (2, -4.26617813110351560000e+000) (3, 7.87400841712951660000e-001) (4, 1.55792689323425290000e+000) (5, -1.91118133068084720000e+000) (6, 1.88226556777954100000e+000) (7, 1.50912249088287350000e+000) (8, 1.60459890961647030000e-001) (9, 1.85266375541687010000e+000) (10, 1.03099393844604490000e+000) (11, 1.57127642631530760000e+000) (12, 1.95347940921783450000e+000) (13, 1.76774883270263670000e+000) (14, 6.53023064136505130000e-001) (15, 1.74683856964111330000e+000) (16, 1.91178166866302490000e+000) (17, 1.30820798873901370000e+000) (18, 8.03282237029634420000e-005) (19, 1.47874307632446290000e+000) (20, 5.31896543502807620000e+000) (21, 1.72512602806091310000e+000) (22, 3.57977819442749020000e+000) (23, 1.04135036468505860000e+000) (24, 5.18121623992919920000e+000) (25, 1.94145691394805910000e+000) (26, 3.68173456192016600000e+000) (27, 2.08387637138366700000e+000) (28, 3.81578302383422850000e+000) (29, 2.66234683990478520000e+000) (30, 4.70359325408935550000e+000) (31, 7.40469098091125490000e-001) (32, 4.77390289306640620000e+000) (33, 5.36544847488403320000e+000) (34, 1.03342536021955310000e-005) (35, 1.05745613574981690000e+000) (36, 4.58161258697509770000e+000) (37, 2.48818540573120120000e+000) (38, 5.40374851226806640000e+000) (39, 1.28335630893707280000e+000) (40, 4.89978075027465820000e+000) (41, 8.11667323112487790000e-001) (42, 5.62422990798950200000e+000) (43, 9.25282287597656250000e+000) (44, 5.55872392654418950000e+000) (45, 1.41986048221588130000e+000) (46, 4.88344764709472660000e+000) (47, 7.43526995182037350000e-001) (48, -5.41657149791717530000e-001) (49, -1.58007666468620300000e-001) (50, -5.09294390678405760000e-001) (51, -8.65930080413818360000e-001) (52, 4.83694285154342650000e-001) (53, 1.53179609775543210000e+000) (54, 5.63278007507324220000e+000) (55, 1.43426680564880370000e+000) (56, 1.43006706237792970000e+000) (57, 5.88580012321472170000e-001) (58, -3.67408215999603270000e-001) (59, -4.79531675577163700000e-001) (0, -4.07235050201416020000e+000) (1, -3.14141416549682620000e+000) (2, 1.11910524368286130000e+001) (3, 1.43083918094635010000e+000) (4, -2.99221426248550420000e-001) (5, 5.21187782287597660000e+000) (6, 5.98753738403320310000e+000) (7, 1.55782938003540040000e+000) (8, 2.35679173469543460000e+000) (9, 1.15392427444458010000e+001) (10, 3.05291461944580080000e+000) (11, 3.20150852203369140000e+000) (12, -1.57477128505706790000e+000) (13, -1.59501373767852780000e+000) (14, 3.75024080276489260000e-001) (15, 1.59204208850860600000e+000) (16, 1.75882852077484130000e+000) (17, -1.17277860641479490000e+001) (18, -1.16583636554423720000e-004) (19, 4.13816332817077640000e-001) (20, 3.15331578254699710000e+000) (21, 4.95476531982421870000e+000) (22, 2.23475599288940430000e+000) (23, -5.80723524093627930000e-001) (24, 3.17031550407409670000e+000) (25, 1.59502756595611570000e+000) (26, 3.32625269889831540000e+000) (27, -8.62623095512390140000e-001) (28, 2.67374491691589360000e+000) (29, -1.99566316604614260000e+000) (30, 3.04262590408325200000e+000) (31, 3.40084481239318850000e+000) (32, 2.53404045104980470000e+000) (33, -7.38702201843261720000e+000) (34, 9.08758593141101300000e-005) (35, 1.39955735206604000000e+000) (36, 2.83057737350463870000e+000) (37, 4.36039447784423830000e+000) (38, 3.63039422035217290000e+000) (39, -4.90691691637039180000e-001) (40, 3.06167197227478030000e+000) (41, 8.60820674896240230000e+000) (42, 3.66381859779357910000e+000) (43, 1.11786723136901860000e+000) (44, 2.40430641174316410000e+000) (45, -2.01020979881286620000e+000) (46, 3.38319516181945800000e+000) (47, 7.03720140457153320000e+000) (48, -7.98303508758544920000e+000) (49, 1.87206923961639400000e+000) (50, 1.00775909423828120000e+001) (51, -7.68748855590820310000e+000) (52, 1.65337526798248290000e+000) (53, 1.54065299034118650000e+000) (54, -1.16392316818237300000e+001) (55, 4.20792531967163090000e+000) (56, -8.51994609832763670000e+000) (57, -7.20969200134277340000e-001) (58, 3.57697510719299320000e+000) (59, -1.31085097789764400000e+000) (60, -2.79174995422363280000e+000) (0, 1.14584973144531250000e+003) (1, -9.04073852539062500000e+002) (2, -1.14303857421875000000e+003) (3, 1.14568737792968750000e+003) (4, -9.02998962402343750000e+002) (5, -1.14434692382812500000e+003) (6, 1.14645776367187500000e+003) (7, 1.14655627441406250000e+003) (8, -1.14303771972656250000e+003) (9, 1.14553247070312500000e+003) (10, 1.14490136718750000000e+003) (11, -1.14375415039062500000e+003) (12, 1.14509204101562500000e+003) (13, 8.48621368408203130000e+001) (14, -1.14345971679687500000e+003) (15, 1.14540026855468750000e+003) (16, 1.14604138183593750000e+003) (17, -9.02911499023437500000e+002) (18, 3.94085727748461070000e-005) (19, 1.14512951660156250000e+003) (20, -9.03384765625000000000e+002) (21, -1.14360668945312500000e+003) (22, 2.16004657745361330000e+000) (23, 1.14483422851562500000e+003) (24, -1.14326147460937500000e+003) (25, 1.14587280273437500000e+003) (26, 1.76147222518920900000e+000) (27, -1.14331896972656250000e+003) (28, 4.64553028345108030000e-001) (29, -9.03110473632812500000e+002) (30, -1.14323486328125000000e+003) (31, 1.14667871093750000000e+003) (32, 1.49468898773193360000e+000) (33, -9.04182617187500000000e+002) (34, -8.39610517024993900000e-001) (35, 1.14616967773437500000e+003) (36, 7.74774193763732910000e-001) (37, -1.14350695800781250000e+003) (38, 1.04360508918762210000e+000) (39, 1.14475512695312500000e+003) (40, 1.86814916133880620000e+000) (41, 1.14587780761718750000e+003) (42, 2.08391833305358890000e+000) (43, -1.14357470703125000000e+003) (44, 1.45555722713470460000e+000) (45, -9.03851440429687500000e+002) (46, 2.49913454055786130000e+000) (47, 1.14626086425781250000e+003) (48, -1.14588354492187500000e+003) (49, 9.06383789062500000000e+002) (50, 4.25324676513671870000e+002) (51, -1.14326745605468750000e+003) (52, -1.14279101562500000000e+003) (53, -9.03449096679687500000e+002) (54, 9.06455322265625000000e+002) (55, 9.06470703125000000000e+002) (56, -9.03934753417968750000e+002) (57, 9.05531372070312500000e+002) (58, 1.14556420898437500000e+003) (59, -1.14315270996093750000e+003) (60, -1.14400402832031250000e+003) (61, 1.14499218750000000000e+003) (0, 2.12751030921936040000e+000) (1, 2.16260814666748050000e+000) (2, 1.36825144290924070000e+000) (3, 1.52487885951995850000e+000) (4, 2.11837315559387210000e+000) (5, 1.04008221626281740000e+000) (6, 1.32711744308471680000e+000) (7, 1.50420558452606200000e+000) (8, -1.85810387134552000000e-001) (9, 3.64261984825134280000e+000) (10, 1.43775498867034910000e+000) (11, -5.11051356792449950000e-001) (12, 6.26594662666320800000e-001) (13, 2.39817357063293460000e+000) (14, -1.73712217807769780000e+000) (15, 1.54216718673706050000e+000) (16, 1.38106155395507810000e+000) (17, 1.62134277820587160000e+000) (18, -2.53394842147827150000e-001) (19, 2.81644296646118160000e+000) (20, 2.86851501464843750000e+000) (21, 6.88734531402587890000e-001) (22, 1.59464490413665770000e+000) (23, 1.92859339714050290000e+000) (24, 6.19918763637542720000e-001) (25, 1.63556981086730960000e+000) (26, 1.76257050037384030000e+000) (27, 8.73941302299499510000e-001) (28, 1.50353193283081050000e+000) (29, 1.70256328582763670000e+000) (30, -6.77370429039001460000e-001) (31, 2.83288049697875980000e+000) (32, 1.23720669746398930000e+000) (33, 2.04285240173339840000e+000) (34, 1.46699213981628420000e+000) (35, 1.71565258502960210000e+000) (36, 1.56128644943237300000e+000) (37, 1.05068039894104000000e+000) (38, 2.50509500503540040000e+000) (39, 2.23124289512634280000e+000) (40, 5.06108820438385010000e-001) (41, 2.25350427627563480000e+000) (42, 1.48255300521850590000e+000) (43, -1.73721998929977420000e-001) (44, 2.58556270599365230000e+000) (45, 2.85036587715148930000e+000) (46, 1.55428993701934810000e+000) (47, 1.90397608280181880000e+000) (48, 1.49461317062377930000e+000) (49, 8.17879581451416020000e+000) (50, -1.80345880985260010000e+000) (51, -2.45956707000732420000e+000) (52, 3.30100584030151370000e+000) (53, 5.89120817184448240000e+000) (54, -1.77935390472412110000e+001) (55, 2.13026094436645510000e+000) (56, 7.54304453730583190000e-002) (57, 2.98616361618041990000e+000) (58, 4.90331125259399410000e+000) (59, 4.23426103591918950000e+000) (60, -2.24605369567871090000e+000) (61, 1.43285739421844480000e+000) (62, 1.50000000000000000000e+003) (0, 1.14585107421875000000e+003) (1, -9.03234863281250000000e+002) (2, -1.14282678222656250000e+003) (3, 1.14650769042968750000e+003) (4, 2.08313131332397460000e+000) (5, -1.14334301757812500000e+003) (6, 1.14668237304687500000e+003) (7, 1.14672570800781250000e+003) (8, -1.14282055664062500000e+003) (9, 1.14481945800781250000e+003) (10, 1.14642407226562500000e+003) (11, -1.14282336425781250000e+003) (12, 1.14544897460937500000e+003) (13, 2.02944900512695310000e+002) (14, -1.14277465820312500000e+003) (15, 1.14527392578125000000e+003) (16, 1.14651855468750000000e+003) (17, -9.03959472656250000000e+002) (18, -1.53296859934926030000e-002) (19, 1.14679711914062500000e+003) (20, 9.49241459369659420000e-001) (21, -1.14325720214843750000e+003) (22, 1.14575988769531250000e+003) (23, 1.14565563964843750000e+003) (24, -1.99694686889648440000e+002) (25, 1.14628515625000000000e+003) (26, 1.14604492187500000000e+003) (27, -1.14458764648437500000e+003) (28, 1.14671240234375000000e+003) (29, 1.14605493164062500000e+003) (30, -1.14394812011718750000e+003) (31, 1.14492663574218750000e+003) (32, 1.14564050292968750000e+003) (33, -3.06066818237304690000e+001) (34, -3.34094278514385220000e-003) (35, 1.14643408203125000000e+003) (36, 1.42908489704132080000e+000) (37, -1.98713027954101560000e+002) (38, 1.14672607421875000000e+003) (39, 1.14623706054687500000e+003) (40, -8.23815002441406250000e+001) (41, 1.14604553222656250000e+003) (42, 1.14566418457031250000e+003) (43, -1.99475997924804690000e+002) (44, 1.14523474121093750000e+003) (45, 1.14650378417968750000e+003) (46, -1.14384301757812500000e+003) (47, 1.14651611328125000000e+003) (48, -1.14466418457031250000e+003) (49, 9.06498779296875000000e+002) (50, -6.62216369628906250000e+002) (51, -1.14370141601562500000e+003) (52, -9.03093872070312500000e+002) (53, -9.03534057617187500000e+002) (54, 9.06212768554687500000e+002) (55, 9.05466186523437500000e+002) (56, -9.03971801757812500000e+002) (57, 1.14545971679687500000e+003) (58, 1.14573986816406250000e+003) (59, -1.14331457519531250000e+003) (60, -6.64284973144531250000e+002) (61, 9.05606872558593750000e+002) (62, 4.55061006546020510000e+000) (63, 9.05591735839843750000e+002) (0, 1.14569238281250000000e+003) (1, -9.02763793945312500000e+002) (2, -1.14443005371093750000e+003) (3, 1.14626391601562500000e+003) (4, 4.25025970458984370000e+002) (5, -1.14378283691406250000e+003) (6, 1.14497875976562500000e+003) (7, 1.14483496093750000000e+003) (8, -1.14465747070312500000e+003) (9, 1.14589233398437500000e+003) (10, 1.14594750976562500000e+003) (11, -1.14413867187500000000e+003) (12, 1.14653308105468750000e+003) (13, 1.14561901855468750000e+003) (14, -1.14406347656250000000e+003) (15, 1.14479565429687500000e+003) (16, 1.14598669433593750000e+003) (17, -9.03221923828125000000e+002) (18, -1.15350820124149320000e-004) (19, 1.14654772949218750000e+003) (20, 4.24805603027343750000e+002) (21, -1.14467260742187500000e+003) (22, 1.14602722167968750000e+003) (23, 1.14538403320312500000e+003) (24, -1.14335522460937500000e+003) (25, 1.14578796386718750000e+003) (26, 1.14533422851562500000e+003) (27, -1.14358239746093750000e+003) (28, 1.14616625976562500000e+003) (29, 9.09207885742187500000e+002) (30, -1.14434997558593750000e+003) (31, 1.14648742675781250000e+003) (32, 1.14665686035156250000e+003) (33, -9.02971862792968750000e+002) (34, -8.36536788940429690000e+000) (35, 1.14517883300781250000e+003) (36, 4.24715240478515620000e+002) (37, -1.14422851562500000000e+003) (38, 1.14666601562500000000e+003) (39, 1.14586376953125000000e+003) (40, -1.14321289062500000000e+003) (41, 1.14589819335937500000e+003) (42, 9.09455444335937500000e+002) (43, -1.14405334472656250000e+003) (44, 9.06762390136718750000e+002) (45, 1.14680786132812500000e+003) (46, -1.14393505859375000000e+003) (47, 1.14573095703125000000e+003) (48, -1.14385229492187500000e+003) (49, 9.06419372558593750000e+002) (50, -1.50792574882507320000e+000) (51, -1.14390014648437500000e+003) (52, -9.04288940429687500000e+002) (53, -9.02345520019531250000e+002) (54, 1.14659252929687500000e+003) (55, 9.05741455078125000000e+002) (56, -9.03556945800781250000e+002) (57, 9.05711914062500000000e+002) (58, 9.06075927734375000000e+002) (59, -1.14463061523437500000e+003) (60, -1.14312451171875000000e+003) (61, 9.05511535644531250000e+002) (62, 1.47644252777099610000e+001) (63, 9.06643737792968750000e+002) (64, 3.84021329879760740000e+000) (0, 1.14533764648437500000e+003) (1, -3.35964441299438480000e-001) (2, -1.14319140625000000000e+003) (3, 1.14568432617187500000e+003) (4, 6.66137939453125000000e+002) (5, -1.14297485351562500000e+003) (6, 1.14578662109375000000e+003) (7, 1.14610351562500000000e+003) (8, -1.14379345703125000000e+003) (9, 1.14636779785156250000e+003) (10, 1.14630419921875000000e+003) (11, -1.14445678710937500000e+003) (12, 1.14493579101562500000e+003) (13, 1.14533056640625000000e+003) (14, -1.14342553710937500000e+003) (15, 1.14683935546875000000e+003) (16, 1.14666723632812500000e+003) (17, -4.22018249511718750000e+002) (18, -1.42325207591056820000e-001) (19, 1.14592456054687500000e+003) (20, 3.65146522521972660000e+001) (21, -1.14285046386718750000e+003) (22, 1.14599072265625000000e+003) (23, 1.14661035156250000000e+003) (24, -1.14456860351562500000e+003) (25, 1.14680310058593750000e+003) (26, 1.14541491699218750000e+003) (27, -1.14414257812500000000e+003) (28, 1.14593078613281250000e+003) (29, 1.14557531738281250000e+003) (30, -1.14302600097656250000e+003) (31, 1.14561755371093750000e+003) (32, 1.14659838867187500000e+003) (33, -3.73028087615966800000e+000) (34, 3.69809204130433500000e-005) (35, 1.14530883789062500000e+003) (36, 3.56516227722167970000e+001) (37, -1.14279199218750000000e+003) (38, 1.14600610351562500000e+003) (39, 1.14567846679687500000e+003) (40, -1.14450219726562500000e+003) (41, 1.14564941406250000000e+003) (42, 1.14543103027343750000e+003) (43, -1.14444738769531250000e+003) (44, 9.06214843750000000000e+002) (45, 4.26092193603515620000e+002) (46, -1.14396765136718750000e+003) (47, 9.05953491210937500000e+002) (48, -1.14584204101562500000e+003) (49, 9.05405944824218750000e+002) (50, 1.53820544481277470000e-001) (51, -1.14401232910156250000e+003) (52, -6.63752014160156250000e+002) (53, -9.03574218750000000000e+002) (54, 1.14527075195312500000e+003) (55, 9.05924743652343750000e+002) (56, -1.14272277832031250000e+003) (57, 9.05966674804687500000e+002) (58, 9.06232177734375000000e+002) (59, -1.14340429687500000000e+003) (60, -1.14302722167968750000e+003) (61, 9.06382690429687500000e+002) (62, 2.00055191040039060000e+002) (63, 9.05342407226562500000e+002) (64, 1.02399933338165280000e+000) (65, 2.40912175178527830000e+000) (0, 1.50000000000000000000e+003) (1, -1.35421630859375000000e+003) (2, -1.50000000000000000000e+003) (3, 1.50000000000000000000e+003) (4, 1.75820767879486080000e+000) (5, -1.50000000000000000000e+003) (6, 1.50000000000000000000e+003) (7, 1.50000000000000000000e+003) (8, -1.50000000000000000000e+003) (9, 1.50000000000000000000e+003) (10, 1.50000000000000000000e+003) (11, -1.50000000000000000000e+003) (12, 1.50000000000000000000e+003) (13, 1.11625805664062500000e+003) (14, -1.50000000000000000000e+003) (15, 1.50000000000000000000e+003) (16, 1.50000000000000000000e+003) (17, -1.35438049316406250000e+003) (18, -9.17739889700897040000e-005) (19, 1.50000000000000000000e+003) (20, 1.26130282878875730000e+000) (21, -1.50000000000000000000e+003) (22, 1.50000000000000000000e+003) (23, 1.50000000000000000000e+003) (24, -1.50000000000000000000e+003) (25, 1.50000000000000000000e+003) (26, 1.50000000000000000000e+003) (27, -1.50000000000000000000e+003) (28, 1.50000000000000000000e+003) (29, 8.92643034458160400000e-001) (30, -1.50000000000000000000e+003) (31, 1.50000000000000000000e+003) (32, 1.50000000000000000000e+003) (33, -1.35329125976562500000e+003) (34, -3.01454901695251460000e+000) (35, 1.50000000000000000000e+003) (36, 1.07198417186737060000e+000) (37, -1.50000000000000000000e+003) (38, 1.50000000000000000000e+003) (39, 1.50000000000000000000e+003) (40, -1.11390478515625000000e+003) (41, 1.50000000000000000000e+003) (42, 2.79739189147949220000e+000) (43, -1.50000000000000000000e+003) (44, 5.44355964660644530000e+000) (45, 1.50000000000000000000e+003) (46, -1.50000000000000000000e+003) (47, 1.50000000000000000000e+003) (48, -1.50000000000000000000e+003) (49, 1.50000000000000000000e+003) (50, 6.39108300209045410000e-001) (51, -1.50000000000000000000e+003) (52, -1.35298608398437500000e+003) (53, -1.35293261718750000000e+003) (54, 1.50000000000000000000e+003) (55, 1.50000000000000000000e+003) (56, -1.50000000000000000000e+003) (57, 1.50000000000000000000e+003) (58, 1.50000000000000000000e+003) (59, -1.50000000000000000000e+003) (60, -1.35415771484375000000e+003) (61, 1.50000000000000000000e+003) (62, 8.72628688812255860000e+000) (63, 1.35627270507812500000e+003) (64, 2.43340158462524410000e+000) (65, 4.40672063827514650000e+000) (66, 3.59502899169921870000e+002) (0, 1.50000000000000000000e+003) (1, -1.50000000000000000000e+003) (2, -1.50000000000000000000e+003) (3, 1.50000000000000000000e+003) (4, -1.50000000000000000000e+003) (5, -1.50000000000000000000e+003) (6, 1.50000000000000000000e+003) (7, 1.50000000000000000000e+003) (8, -1.50000000000000000000e+003) (9, 1.50000000000000000000e+003) (10, 1.50000000000000000000e+003) (11, -1.50000000000000000000e+003) (12, 1.50000000000000000000e+003) (13, -1.50000000000000000000e+003) (14, -1.50000000000000000000e+003) (15, 1.50000000000000000000e+003) (16, 1.50000000000000000000e+003) (17, -1.50000000000000000000e+003) (18, 1.35533395223319530000e-004) (19, 1.50000000000000000000e+003) (20, 1.74611556529998780000e+000) (21, -1.50000000000000000000e+003) (22, 1.50000000000000000000e+003) (23, 1.50000000000000000000e+003) (24, -1.50000000000000000000e+003) (25, 1.50000000000000000000e+003) (26, 1.50000000000000000000e+003) (27, -1.50000000000000000000e+003) (28, 4.54217910766601560000e+000) (29, -1.50000000000000000000e+003) (30, -1.50000000000000000000e+003) (31, 1.50000000000000000000e+003) (32, 1.50000000000000000000e+003) (33, -1.50000000000000000000e+003) (34, -1.11091546714305880000e-001) (35, 1.50000000000000000000e+003) (36, 7.06976056098937990000e-001) (37, -1.50000000000000000000e+003) (38, 1.50000000000000000000e+003) (39, 3.98567342758178710000e+000) (40, -1.50000000000000000000e+003) (41, 1.50000000000000000000e+003) (42, 4.02023839950561520000e+000) (43, -1.50000000000000000000e+003) (44, 7.34985780715942380000e+000) (45, -1.50000000000000000000e+003) (46, -1.50000000000000000000e+003) (47, 1.50000000000000000000e+003) (48, -1.50000000000000000000e+003) (49, 1.50000000000000000000e+003) (50, -2.57961058616638180000e+000) (51, -1.50000000000000000000e+003) (52, -1.50000000000000000000e+003) (53, -1.50000000000000000000e+003) (54, 1.50000000000000000000e+003) (55, 1.50000000000000000000e+003) (56, -1.50000000000000000000e+003) (57, 1.50000000000000000000e+003) (58, 1.50000000000000000000e+003) (59, -1.50000000000000000000e+003) (60, -1.50000000000000000000e+003) (61, 1.50000000000000000000e+003) (62, 4.25434303283691410000e+000) (63, 1.50000000000000000000e+003) (64, 3.10505962371826170000e+000) (65, 3.18663287162780760000e+000) (66, 1.00457177734375000000e+003) (67, 1.78518235683441160000e+000) (0, 1.29567297363281250000e+003) (1, 3.74769270420074460000e-001) (2, -1.29450109863281250000e+003) (3, 1.29545690917968750000e+003) (4, 8.16058105468750000000e+002) (5, -1.29422875976562500000e+003) (6, 1.29652709960937500000e+003) (7, 1.29608581542968750000e+003) (8, -1.29322705078125000000e+003) (9, 1.29632641601562500000e+003) (10, 1.29586376953125000000e+003) (11, -1.29276428222656250000e+003) (12, 1.29617358398437500000e+003) (13, 1.29602929687500000000e+003) (14, -1.29310473632812500000e+003) (15, 1.29571899414062500000e+003) (16, 1.29532336425781250000e+003) (17, -1.05373547363281250000e+003) (18, -4.44155011791735890000e-005) (19, 1.29510034179687500000e+003) (20, 8.15073242187500000000e+002) (21, -1.29267431640625000000e+003) (22, 1.29522094726562500000e+003) (23, 1.29642565917968750000e+003) (24, -1.29453356933593750000e+003) (25, 1.29610046386718750000e+003) (26, 1.29650219726562500000e+003) (27, -1.29309204101562500000e+003) (28, 1.29644128417968750000e+003) (29, 1.29580273437500000000e+003) (30, -1.29367553710937500000e+003) (31, 1.29551416015625000000e+003) (32, 1.29542626953125000000e+003) (33, -1.05252880859375000000e+003) (34, -3.98709607124328610000e+000) (35, 1.29500610351562500000e+003) (36, 8.14465515136718750000e+002) (37, -1.29320361328125000000e+003) (38, 1.29572656250000000000e+003) (39, 1.29513208007812500000e+003) (40, -1.29282727050781250000e+003) (41, 1.29566918945312500000e+003) (42, 1.29558081054687500000e+003) (43, -1.29384460449218750000e+003) (44, 7.71246910095214840000e+000) (45, 1.29610021972656250000e+003) (46, -1.29440832519531250000e+003) (47, 1.29473901367187500000e+003) (48, -1.29607519531250000000e+003) (49, 1.29564440917968750000e+003) (50, 3.14564034342765810000e-002) (51, -1.29387915039062500000e+003) (52, 6.14879012107849120000e-001) (53, -1.05342370605468750000e+003) (54, 1.29547729492187500000e+003) (55, 1.29547680664062500000e+003) (56, -1.29309716796875000000e+003) (57, 1.29552429199218750000e+003) (58, 1.29486303710937500000e+003) (59, -1.29310876464843750000e+003) (60, -1.29440087890625000000e+003) (61, 1.05578051757812500000e+003) (62, 8.61246871948242190000e+000) (63, 1.05509790039062500000e+003) (64, 3.13583874702453610000e+000) (65, 3.10633921623229980000e+000) (66, 3.00045654296875000000e+002) (67, 2.50718212127685550000e+000) (68, 9.70137119293212890000e+000) (0, 1.76022398471832280000e+000) (1, 2.27557778358459470000e+000) (2, 1.30951678752899170000e+000) (3, 1.65716612339019780000e+000) (4, 1.11919796466827390000e+000) (5, 1.83662974834442140000e+000) (6, 2.33644318580627440000e+000) (7, 2.46902918815612790000e+000) (8, 5.18911123275756840000e-001) (9, 6.96241736412048340000e-001) (10, 2.60096907615661620000e+000) (11, 1.91468250751495360000e+000) (12, 2.38741636276245120000e+000) (13, 2.26563715934753420000e+000) (14, 1.42946541309356690000e+000) (15, 2.41352677345275880000e+000) (16, 1.52632486820220950000e+000) (17, 7.07518041133880620000e-001) (18, 1.62553262710571290000e+000) (19, 1.01517140865325930000e+000) (20, 2.62552189826965330000e+000) (21, 1.16794323921203610000e+000) (22, 1.90747702121734620000e+000) (23, 2.62733101844787600000e+000) (24, 1.05842423439025880000e+000) (25, 9.81379032135009770000e-001) (26, 2.22317671775817870000e+000) (27, 1.95699763298034670000e+000) (28, 2.33727002143859860000e+000) (29, 9.43678617477416990000e-001) (30, 5.68636059761047360000e-002) (31, 1.48116028308868410000e+000) (32, 7.20271170139312740000e-001) (33, 6.52627944946289060000e-001) (34, 1.52118253707885740000e+000) (35, 8.36387336254119870000e-001) (36, 2.00736927986145020000e+000) (37, 1.67244172096252440000e+000) (38, 1.94546949863433840000e+000) (39, 1.11732423305511470000e+000) (40, 1.28999631851911540000e-003) (41, 1.54525649547576900000e+000) (42, 8.28310728073120120000e-001) (43, 3.05617272853851320000e-001) (44, 1.53575837612152100000e+000) (45, 1.55584466457366940000e+000) (46, 1.63461518287658690000e+000) (47, 6.76276266574859620000e-001) (48, -1.54347145557403560000e+000) (49, 2.09761571884155270000e+000) (50, 1.47215890884399410000e+000) (51, -1.09649307250976560000e+002) (52, 6.82053446769714360000e-001) (53, 5.73049163818359380000e+000) (54, -1.14278796386718750000e+003) (55, 1.94566071033477780000e+000) (56, 2.35874414443969730000e+000) (57, 6.60759449005126950000e-001) (58, 6.36968374252319340000e-001) (59, 1.79375708103179930000e+000) (60, 9.65082287788391110000e-001) (61, 2.06973731517791750000e-001) (62, 1.14508044433593750000e+003) (63, -3.25790634155273440000e+001) (64, 1.14619262695312500000e+003) (65, 1.14532226562500000000e+003) (66, 1.14535717773437500000e+003) (67, 1.14486193847656250000e+003) (68, 1.14540893554687500000e+003) (69, 1.14550366210937500000e+003) (0, 1.50000000000000000000e+003) (1, 9.39060077071189880000e-002) (2, -1.50000000000000000000e+003) (3, 1.50000000000000000000e+003) (4, 1.50000000000000000000e+003) (5, -1.50000000000000000000e+003) (6, 1.50000000000000000000e+003) (7, 1.50000000000000000000e+003) (8, -1.50000000000000000000e+003) (9, 1.50000000000000000000e+003) (10, 1.50000000000000000000e+003) (11, -1.50000000000000000000e+003) (12, 1.50000000000000000000e+003) (13, 1.50000000000000000000e+003) (14, -1.50000000000000000000e+003) (15, 1.50000000000000000000e+003) (16, 1.50000000000000000000e+003) (17, -1.50000000000000000000e+003) (18, -1.04038429260253910000e+001) (19, 1.50000000000000000000e+003) (20, 1.50000000000000000000e+003) (21, -1.50000000000000000000e+003) (22, 1.50000000000000000000e+003) (23, 1.50000000000000000000e+003) (24, -1.50000000000000000000e+003) (25, 1.50000000000000000000e+003) (26, 1.50000000000000000000e+003) (27, -1.50000000000000000000e+003) (28, 1.50000000000000000000e+003) (29, 1.50000000000000000000e+003) (30, -1.50000000000000000000e+003) (31, 1.50000000000000000000e+003) (32, 1.50000000000000000000e+003) (33, -1.50000000000000000000e+003) (34, -1.34437985252588990000e-004) (35, 1.50000000000000000000e+003) (36, 1.50000000000000000000e+003) (37, -1.50000000000000000000e+003) (38, 1.50000000000000000000e+003) (39, 1.50000000000000000000e+003) (40, -1.50000000000000000000e+003) (41, 1.50000000000000000000e+003) (42, 1.50000000000000000000e+003) (43, -1.50000000000000000000e+003) (44, 4.57576131820678710000e+000) (45, 1.50000000000000000000e+003) (46, -1.50000000000000000000e+003) (47, 1.50000000000000000000e+003) (48, -1.50000000000000000000e+003) (49, 1.50000000000000000000e+003) (50, 2.45622575283050540000e-001) (51, -1.50000000000000000000e+003) (52, 8.58805105090141300000e-002) (53, -1.50000000000000000000e+003) (54, 1.50000000000000000000e+003) (55, 1.50000000000000000000e+003) (56, -1.50000000000000000000e+003) (57, 1.50000000000000000000e+003) (58, 1.50000000000000000000e+003) (59, -1.50000000000000000000e+003) (60, -1.50000000000000000000e+003) (61, 1.50000000000000000000e+003) (62, 6.16768676757812500000e+002) (63, 1.50000000000000000000e+003) (64, 1.65237116813659670000e+000) (65, 2.26741218566894530000e+000) (66, 2.01578598022460940000e+001) (67, 2.56762361526489260000e+000) (68, 6.16249267578125000000e+002) (69, 2.74036478996276860000e+000) (70, 1.50000000000000000000e+003) (0, 1.14544763183593750000e+003) (1, -1.95341262817382810000e+002) (2, -1.14273168945312500000e+003) (3, 1.14675268554687500000e+003) (4, 4.68715858459472660000e+000) (5, -1.14287548828125000000e+003) (6, 1.14580993652343750000e+003) (7, 1.14549804687500000000e+003) (8, -1.14323608398437500000e+003) (9, 1.14480078125000000000e+003) (10, 1.14521289062500000000e+003) (11, -1.14292749023437500000e+003) (12, 1.14621179199218750000e+003) (13, 1.14566516113281250000e+003) (14, -1.14358264160156250000e+003) (15, 1.14528198242187500000e+003) (16, 1.14572387695312500000e+003) (17, -9.01349731445312500000e+002) (18, -3.60937230288982390000e-002) (19, 1.14671545410156250000e+003) (20, 4.26210418701171870000e+002) (21, -1.14359277343750000000e+003) (22, 1.14484680175781250000e+003) (23, 1.14601562500000000000e+003) (24, -6.63603027343750000000e+002) (25, 1.14678601074218750000e+003) (26, 1.14475146484375000000e+003) (27, -1.14402368164062500000e+003) (28, 1.14675000000000000000e+003) (29, 1.14681616210937500000e+003) (30, -1.14311975097656250000e+003) (31, 1.14641235351562500000e+003) (32, 1.14499951171875000000e+003) (33, -4.21087890625000000000e+002) (34, -1.68202980421483520000e-003) (35, 1.14564270019531250000e+003) (36, 3.22322845458984380000e+000) (37, -9.03187866210937500000e+002) (38, 1.14560302734375000000e+003) (39, 1.14640112304687500000e+003) (40, -1.09068334102630620000e-001) (41, 1.14578527832031250000e+003) (42, 1.14586657714843750000e+003) (43, -9.04069824218750000000e+002) (44, 1.14633227539062500000e+003) (45, 1.14544641113281250000e+003) (46, -1.14332031250000000000e+003) (47, 1.14557824707031250000e+003) (48, -1.14407177734375000000e+003) (49, 1.14505700683593750000e+003) (50, -6.62992553710937500000e+002) (51, -1.14319409179687500000e+003) (52, -9.02478881835937500000e+002) (53, -6.63390869140625000000e+002) (54, 9.05708984375000000000e+002) (55, 1.14616430664062500000e+003) (56, -6.62983581542968750000e+002) (57, 1.14494433593750000000e+003) (58, 1.14581555175781250000e+003) (59, -6.62656127929687500000e+002) (60, -6.63600708007812500000e+002) (61, 6.65818054199218750000e+002) (62, 2.97752404212951660000e+000) (63, 9.04541992187500000000e+002) (64, 5.24767923355102540000e+000) (65, 4.86894226074218750000e+000) (66, 1.68228816986083980000e+000) (67, 4.32896280288696290000e+000) (68, 4.42379188537597660000e+000) (69, 3.83843612670898440000e+000) (70, 9.04652709960937500000e+002) (71, 5.01710939407348630000e+000) (0, 1.46047520637512210000e+000) (1, 7.86597518920898440000e+001) (2, 4.22160434722900390000e+000) (3, 5.70761561393737790000e-001) (4, 2.45988321304321290000e+000) (5, 3.26728606224060060000e+000) (6, 3.47381621599197390000e-001) (7, 1.42450809478759770000e+000) (8, 3.82892489433288570000e+000) (9, 7.96602964401245120000e-001) (10, 2.74780511856079100000e+000) (11, 1.99326992034912110000e+000) (12, -1.28170120716094970000e+000) (13, 1.71564269065856930000e+000) (14, 3.95741701126098630000e+000) (15, 1.52550220489501950000e+000) (16, 3.30011516809463500000e-001) (17, 1.07476631164550780000e+002) (18, 3.98937106132507320000e+000) (19, -3.89354735612869260000e-001) (20, 3.42125248908996580000e+000) (21, 4.01990795135498050000e+000) (22, 6.97677671909332280000e-001) (23, 2.31380271911621090000e+000) (24, 4.37158966064453130000e+000) (25, 1.13502061367034910000e+000) (26, 1.14140462875366210000e+000) (27, 3.90555071830749510000e+000) (28, -2.84561371803283690000e+000) (29, 1.75243544578552250000e+000) (30, 4.34405040740966800000e+000) (31, 1.26516044139862060000e+000) (32, 1.59944021701812740000e+000) (33, 3.73912567138671870000e+002) (34, 4.08104228973388670000e+000) (35, 1.28097951412200930000e+000) (36, 2.63669514656066890000e+000) (37, 3.25392174720764160000e+000) (38, 2.17262816429138180000e+000) (39, 2.35005021095275880000e+000) (40, 3.49759936332702640000e+000) (41, 1.30385589599609370000e+000) (42, 9.60848271846771240000e-001) (43, 3.14550971984863280000e+000) (44, -6.48503482341766360000e-001) (45, 2.92770624160766600000e+000) (46, 3.12869930267333980000e+000) (47, 1.43456852436065670000e+000) (48, 4.50391387939453120000e+000) (49, -2.02496623992919920000e+000) (50, 2.66627082824707030000e+001) (51, 7.86772489547729490000e+000) (52, 3.80484604835510250000e+000) (53, 7.25748205184936520000e+000) (54, -1.50000000000000000000e+003) (55, 1.72599258422851560000e+001) (56, 1.25700082778930660000e+001) (57, -1.87793445587158200000e+000) (58, -1.86565303802490230000e+001) (59, -2.86070132255554200000e+000) (60, 1.08676719665527340000e+001) (61, -1.11906111240386960000e+000) (62, 1.50000000000000000000e+003) (63, -1.50000000000000000000e+003) (64, 1.50000000000000000000e+003) (65, 1.50000000000000000000e+003) (66, 1.50000000000000000000e+003) (67, 1.50000000000000000000e+003) (68, 1.50000000000000000000e+003) (69, 1.50000000000000000000e+003) (70, -1.50000000000000000000e+003) (71, 1.50000000000000000000e+003) (72, 1.50000000000000000000e+003) (0, 1.14664111328125000000e+003) (1, -8.69575262069702150000e-001) (2, -1.14357788085937500000e+003) (3, 1.14536828613281250000e+003) (4, 6.65217712402343750000e+002) (5, -1.14338659667968750000e+003) (6, 1.14537036132812500000e+003) (7, 1.14631018066406250000e+003) (8, -1.14279431152343750000e+003) (9, 1.14680200195312500000e+003) (10, 1.14549987792968750000e+003) (11, -1.14446691894531250000e+003) (12, 1.14614318847656250000e+003) (13, 1.14517004394531250000e+003) (14, -1.14335021972656250000e+003) (15, 1.14685180664062500000e+003) (16, 1.14622656250000000000e+003) (17, -9.03383178710937500000e+002) (18, -9.99346229946240780000e-006) (19, 1.14653784179687500000e+003) (20, 6.65259887695312500000e+002) (21, -1.14339367675781250000e+003) (22, 1.14670935058593750000e+003) (23, 1.14605908203125000000e+003) (24, -1.14462402343750000000e+003) (25, 1.14664514160156250000e+003) (26, 1.14572924804687500000e+003) (27, -1.14388305664062500000e+003) (28, 9.57308101654052730000e+000) (29, 1.14561877441406250000e+003) (30, -1.14267504882812500000e+003) (31, 1.14488708496093750000e+003) (32, 1.14631176757812500000e+003) (33, -9.03325500488281250000e+002) (34, -1.84555625915527340000e+000) (35, 1.14531103515625000000e+003) (36, 1.98968734741210940000e+002) (37, -1.14405200195312500000e+003) (38, 1.14571630859375000000e+003) (39, 1.14547705078125000000e+003) (40, -6.63126708984375000000e+002) (41, 1.14653210449218750000e+003) (42, 7.21422863006591800000e+000) (43, -6.62944824218750000000e+002) (44, 7.87590360641479490000e+000) (45, 1.14644274902343750000e+003) (46, -1.14339404296875000000e+003) (47, 1.14684851074218750000e+003) (48, -1.14643090820312500000e+003) (49, 9.05797119140625000000e+002) (50, -2.98395776748657230000e+000) (51, -1.14410534667968750000e+003) (52, 8.36621551513671880000e+001) (53, -9.04443115234375000000e+002) (54, 9.04813720703125000000e+002) (55, 9.06184326171875000000e+002) (56, -9.03494567871093750000e+002) (57, 9.05660644531250000000e+002) (58, 9.05343933105468750000e+002) (59, -1.14308239746093750000e+003) (60, -1.14334289550781250000e+003) (61, 9.06350097656250000000e+002) (62, 6.44833517074584960000e+000) (63, 9.05415283203125000000e+002) (64, 3.73868823051452640000e+000) (65, 3.03240466117858890000e+000) (66, 1.96639892578125000000e+002) (67, 4.37715244293212890000e+000) (68, 7.29350233078002930000e+000) (69, 4.08550930023193360000e+000) (70, 9.04924438476562500000e+002) (71, 3.81649422645568850000e+000) (72, 3.43401288986206050000e+000) (73, -1.14309094238281250000e+003) (0, 2.29659843444824220000e+000) (1, 2.02483034133911130000e+000) (2, 1.63105022907257080000e+000) (3, 1.52051043510437010000e+000) (4, 7.87445306777954100000e-001) (5, -2.84754186868667600000e-001) (6, 1.90134787559509280000e+000) (7, 3.01578974723815920000e+000) (8, 1.34192788600921630000e+000) (9, 8.77293825149536130000e-001) (10, 5.69202566146850590000e+000) (11, 7.78040945529937740000e-001) (12, 9.75775337219238280000e+000) (13, 1.14327216148376460000e+000) (14, 4.81325477361679080000e-001) (15, 2.97528952360153200000e-001) (16, 2.09561061859130860000e+000) (17, 1.08437049388885500000e+000) (18, 9.12848711013793950000e-001) (19, 1.46797049045562740000e+000) (20, 1.30310046672821040000e+000) (21, 6.30460917949676510000e-001) (22, 6.73972070217132570000e-001) (23, 1.98793613910675050000e+000) (24, -1.28386944532394410000e-001) (25, 1.58815586566925050000e+000) (26, 2.38625121116638180000e+000) (27, 1.72997713088989260000e+000) (28, 1.54940176010131840000e+000) (29, 1.60608887672424320000e+000) (30, 1.53421199321746830000e+000) (31, 8.62118840217590330000e-001) (32, 2.96856701374053960000e-001) (33, 2.22498917579650880000e+000) (34, 3.38939219713211060000e-001) (35, 1.43144583702087400000e+000) (36, 2.72775673866271970000e+000) (37, 1.18622410297393800000e+000) (38, 1.89497959613800050000e+000) (39, 2.22287440299987790000e+000) (40, 3.07169169187545780000e-001) (41, 1.64091145992279050000e+000) (42, 2.01384639739990230000e+000) (43, -4.81430441141128540000e-001) (44, 5.97009539604187010000e-001) (45, 1.32635366916656490000e+000) (46, 3.50388526916503910000e-001) (47, 1.59317207336425780000e+000) (48, -1.49732446670532230000e+000) (49, 7.37721562385559080000e-001) (50, 8.60949218273162840000e-001) (51, -1.50000000000000000000e+003) (52, 8.53338897228240970000e-001) (53, 6.98883295059204100000e+000) (54, -1.50000000000000000000e+003) (55, 3.60438442230224610000e+000) (56, 5.50634622573852540000e-001) (57, 1.17549622058868410000e+000) (58, 3.51042962074279790000e+000) (59, 2.30867290496826170000e+000) (60, -2.71156454086303710000e+000) (61, 4.16564226150512700000e+000) (62, 1.50000000000000000000e+003) (63, -1.50000000000000000000e+003) (64, 1.50000000000000000000e+003) (65, 1.50000000000000000000e+003) (66, 1.50000000000000000000e+003) (67, 1.50000000000000000000e+003) (68, 1.50000000000000000000e+003) (69, 1.50000000000000000000e+003) (70, 1.35685567855834960000e+001) (71, 1.50000000000000000000e+003) (72, 1.50000000000000000000e+003) (73, -1.50000000000000000000e+003) (74, 1.50000000000000000000e+003) (0, 1.14615014648437500000e+003) (1, -9.03501647949218750000e+002) (2, -1.14307250976562500000e+003) (3, 1.14480346679687500000e+003) (4, 5.72093129158020020000e-001) (5, -1.14363781738281250000e+003) (6, 1.14648156738281250000e+003) (7, 1.14586413574218750000e+003) (8, -1.14380236816406250000e+003) (9, 1.14548779296875000000e+003) (10, 1.14675891113281250000e+003) (11, -1.14292321777343750000e+003) (12, 1.14556896972656250000e+003) (13, 1.99578750610351560000e+002) (14, -1.14404321289062500000e+003) (15, 1.14489270019531250000e+003) (16, 1.14611108398437500000e+003) (17, -9.03706787109375000000e+002) (18, 3.17180019919760530000e-005) (19, 1.14600097656250000000e+003) (20, 1.52117121219635010000e+000) (21, -1.14289990234375000000e+003) (22, 1.14571997070312500000e+003) (23, 1.14547229003906250000e+003) (24, -1.14389001464843750000e+003) (25, 1.14550146484375000000e+003) (26, 1.14681677246093750000e+003) (27, -1.14357763671875000000e+003) (28, 1.41968011856079100000e+000) (29, 1.05220961570739750000e+000) (30, -1.14292199707031250000e+003) (31, 1.07770519256591800000e+001) (32, 1.14503979492187500000e+003) (33, -9.03906250000000000000e+002) (34, -5.03988564014434810000e-001) (35, 1.14551818847656250000e+003) (36, 2.62090516090393070000e+000) (37, -6.63777832031250000000e+002) (38, 1.14660375976562500000e+003) (39, 2.09787487983703610000e+000) (40, -6.63219665527343750000e+002) (41, 1.14626123046875000000e+003) (42, 2.43622732162475590000e+000) (43, -6.63846496582031250000e+002) (44, 1.83526718616485600000e+000) (45, 1.14494189453125000000e+003) (46, -1.14336267089843750000e+003) (47, 9.05728088378906250000e+002) (48, -1.14295703125000000000e+003) (49, 9.05289062500000000000e+002) (50, -2.08702445030212400000e+000) (51, -1.14451733398437500000e+003) (52, 4.78971302509307860000e-001) (53, -9.03692504882812500000e+002) (54, 9.05880065917968750000e+002) (55, 6.65643615722656250000e+002) (56, -6.63514831542968750000e+002) (57, 6.65495361328125000000e+002) (58, 6.65466552734375000000e+002) (59, 3.55240726470947270000e+000) (60, -1.14384814453125000000e+003) (61, 6.65827026367187500000e+002) (62, 2.54188346862792970000e+000) (63, 9.04357971191406250000e+002) (64, 1.19322121143341060000e+000) (65, 6.08126044273376460000e-001) (66, 3.14920288085937500000e+002) (67, 1.14730966091156010000e+000) (68, 3.03710460662841800000e+000) (69, 1.78617441654205320000e+000) (70, 9.05078125000000000000e+002) (71, 7.40340769290924070000e-001) (72, 1.61161983013153080000e+000) (73, -1.14312133789062500000e+003) (74, 5.93579888343811040000e-001) (75, 9.05177856445312500000e+002) (0, 9.80897903442382810000e-001) (1, 2.75582385063171390000e+000) (2, -4.24960225820541380000e-001) (3, 2.78184890747070310000e-001) (4, 2.77186203002929690000e+000) (5, -1.65430521965026860000e+000) (6, 2.49535489082336430000e+000) (7, 2.66778111457824710000e+000) (8, -2.03590297698974610000e+000) (9, 1.51545858383178710000e+000) (10, 2.45684719085693360000e+000) (11, -2.71331620216369630000e+000) (12, -1.13822352886199950000e+000) (13, 8.15643131732940670000e-001) (14, 1.06183111667633060000e+000) (15, 1.06656062602996830000e+000) (16, 1.17489886283874510000e+000) (17, 3.68814301490783690000e+000) (18, -5.22504329681396480000e-001) (19, 1.31416797637939450000e+000) (20, 2.25035476684570310000e+000) (21, -1.25110614299774170000e+000) (22, 7.95411348342895510000e-001) (23, 2.47205662727355960000e+000) (24, 4.03658658266067500000e-001) (25, 8.09322118759155270000e-001) (26, 2.78766369819641110000e+000) (27, -6.40925318002700810000e-002) (28, -1.12643551826477050000e+000) (29, 2.55461096763610840000e+000) (30, 6.31280481815338130000e-001) (31, 1.86354935169219970000e+000) (32, 1.50348687171936040000e+000) (33, 2.19901885986328120000e+001) (34, -4.93639022111892700000e-001) (35, 1.38024449348449710000e+000) (36, 1.72585165500640870000e+000) (37, -4.28797602653503420000e-001) (38, 2.27335810661315920000e+000) (39, 2.57210135459899900000e+000) (40, 1.34425902366638180000e+000) (41, 3.57775807380676270000e-001) (42, 2.72950100898742680000e+000) (43, 1.31369042396545410000e+000) (44, 3.62427592277526860000e-001) (45, 2.20541906356811520000e+000) (46, 1.14460325241088870000e+000) (47, 2.20756006240844730000e+000) (48, -1.12518751621246340000e+000) (49, 1.25859749317169190000e+000) (50, 7.73663616180419920000e+000) (51, 3.39634799957275390000e+000) (52, -2.19267916679382320000e+000) (53, 3.11828947067260740000e+000) (54, 9.90680408477783200000e+000) (55, 7.16968059539794920000e+000) (56, 1.97336816787719730000e+000) (57, -2.33856940269470210000e+000) (58, -7.78269171714782710000e-001) (59, -4.40475606918334960000e+000) (60, 1.53425848484039310000e+000) (61, -2.65525126457214360000e+000) (62, 1.50000000000000000000e+003) (63, -1.45445747375488280000e+001) (64, 1.50000000000000000000e+003) (65, 1.50000000000000000000e+003) (66, 1.50000000000000000000e+003) (67, 1.50000000000000000000e+003) (68, 1.50000000000000000000e+003) (69, 1.50000000000000000000e+003) (70, 4.51733283996582030000e+001) (71, 1.50000000000000000000e+003) (72, 1.50000000000000000000e+003) (73, -2.22973922729492190000e+002) (74, 1.50000000000000000000e+003) (75, -1.50000000000000000000e+003) (76, 1.50000000000000000000e+003) (0, 4.27204906940460210000e-001) (1, 1.07331466674804690000e+000) (2, 1.78596436977386470000e+000) (3, 8.16766917705535890000e-002) (4, -1.47695019841194150000e-002) (5, 3.44902545213699340000e-001) (6, 3.28612118959426880000e-001) (7, 6.60562753677368160000e-001) (8, 2.06146383285522460000e+000) (9, 3.05741071701049800000e-001) (10, 2.80386537313461300000e-001) (11, 1.44272172451019290000e+000) (12, -4.96288299560546880000e-001) (13, 1.01784515380859370000e+000) (14, 8.69770884513854980000e-001) (15, 2.15430334210395810000e-001) (16, 3.23328047990798950000e-001) (17, 2.74857687950134280000e+000) (18, 1.12939203972928230000e-004) (19, 6.14733040332794190000e-001) (20, 1.32172358036041260000e+000) (21, 2.36884260177612300000e+000) (22, 1.20537090301513670000e+000) (23, 5.19850790500640870000e-001) (24, 8.81376862525939940000e-001) (25, -4.53999303281307220000e-002) (26, 1.46505606174468990000e+000) (27, 1.36395597457885740000e+000) (28, 1.72728374600410460000e-001) (29, 1.92549097537994380000e+000) (30, 1.06596243381500240000e+000) (31, 6.38210892677307130000e-001) (32, 1.78585660457611080000e+000) (33, 3.07171130180358890000e+000) (34, 2.50428347499109800000e-005) (35, 1.87393558025360110000e+000) (36, 6.62187933921813960000e-001) (37, 1.39499318599700930000e+000) (38, 1.41010284423828130000e+000) (39, 2.67014360427856450000e+000) (40, 4.41703319549560550000e-001) (41, 5.25428533554077150000e-001) (42, 1.33034312725067140000e+000) (43, 1.84458136558532710000e+000) (44, 1.16632938385009770000e+000) (45, 1.17100858688354490000e+000) (46, 1.20196914672851560000e+000) (47, 1.91520559787750240000e+000) (48, -7.74884581565856930000e-001) (49, 1.63894808292388920000e+000) (50, 5.83844780921936040000e-002) (51, -1.09610998630523680000e+000) (52, 3.08122324943542480000e+000) (53, 1.16007888317108150000e+000) (54, -1.48567712306976320000e+000) (55, 2.78295230865478520000e+000) (56, 6.77866101264953610000e-001) (57, 9.66860234737396240000e-001) (58, 7.60980784893035890000e-001) (59, 8.65830361843109130000e-001) (60, 2.25795054435729980000e+000) (61, 4.63806837797164920000e-001) (62, 2.21802544593811040000e+000) (63, 1.03986663818359370000e+001) (64, 1.50000000000000000000e+003) (65, 1.50000000000000000000e+003) (66, 2.50753259658813480000e+000) (67, 1.50000000000000000000e+003) (68, 1.59827053546905520000e+000) (69, 1.50000000000000000000e+003) (70, -9.73886102437973020000e-002) (71, 1.50000000000000000000e+003) (72, 1.50000000000000000000e+003) (73, 7.75873517990112300000e+000) (74, 1.50000000000000000000e+003) (75, 1.29314243793487550000e+000) (76, 1.17231166362762450000e+000) (77, 2.63157343864440920000e+000) (0, 1.93534600734710690000e+000) (1, 1.10058565139770510000e+001) (2, 1.27387952804565430000e+000) (3, 1.53795421123504640000e+000) (4, 2.58932161331176760000e+000) (5, 4.38755273818969730000e-001) (6, 2.82097434997558590000e+000) (7, 2.12942504882812500000e+000) (8, 7.03948557376861570000e-001) (9, 3.25909996032714840000e+000) (10, 1.31010043621063230000e+000) (11, 2.03443408012390140000e+000) (12, 1.45972943305969240000e+000) (13, 1.72267484664916990000e+000) (14, 1.40819692611694340000e+000) (15, 1.47865390777587890000e+000) (16, 1.82221412658691410000e+000) (17, 3.60889434814453130000e+001) (18, 1.96051454544067380000e+000) (19, 9.47378098964691160000e-001) (20, 4.66849327087402340000e+000) (21, 1.49571621417999270000e+000) (22, 2.18977117538452150000e+000) (23, 2.88739633560180660000e+000) (24, 1.85051226615905760000e+000) (25, 1.17739355564117430000e+000) (26, 2.66693019866943360000e+000) (27, 1.27950620651245120000e+000) (28, 6.39807999134063720000e-001) (29, 2.09454846382141110000e+000) (30, 1.85151386260986330000e+000) (31, 1.84405934810638430000e+000) (32, 1.12374055385589600000e+000) (33, 9.28387069702148440000e+001) (34, 1.52378761768341060000e+000) (35, 1.04219639301300050000e+000) (36, 2.32740402221679690000e+000) (37, 1.67502689361572270000e+000) (38, 2.21083903312683110000e+000) (39, 1.55848515033721920000e+000) (40, 1.37588143348693850000e+000) (41, 1.58051145076751710000e+000) (42, 1.58139193058013920000e+000) (43, 2.57443994283676150000e-001) (44, -5.23821413516998290000e-001) (45, 3.66051959991455080000e+000) (46, 1.97670793533325200000e+000) (47, 2.90280699729919430000e+000) (48, 1.08120024204254150000e+000) (49, -8.82732009887695310000e+000) (50, 9.63008499145507810000e+000) (51, 5.99275064468383790000e+000) (52, 1.21595323085784910000e+000) (53, 5.21637856960296630000e-001) (54, -1.50000000000000000000e+003) (55, 7.55487871170043950000e+000) (56, 5.23757600784301760000e+000) (57, -5.64083671569824220000e+000) (58, 1.21847659349441530000e-001) (59, -4.21842336654663090000e+000) (60, 7.83575534820556640000e+000) (61, -1.37667965888977050000e+000) (62, 1.50000000000000000000e+003) (63, -1.50000000000000000000e+003) (64, 1.50000000000000000000e+003) (65, 1.50000000000000000000e+003) (66, 1.50000000000000000000e+003) (67, 1.50000000000000000000e+003) (68, 1.50000000000000000000e+003) (69, 1.50000000000000000000e+003) (70, 6.13846893310546870000e+001) (71, 1.50000000000000000000e+003) (72, 1.50000000000000000000e+003) (73, -8.61818313598632810000e+001) (74, 1.50000000000000000000e+003) (75, -1.50000000000000000000e+003) (76, 1.50000000000000000000e+003) (77, -2.45112800598144530000e+001) (78, 5.16383111476898190000e-001) (0, 4.27541473388671870000e+002) (1, 4.28323089599609370000e+002) (2, -4.24877716064453120000e+002) (3, 4.27407989501953120000e+002) (4, 4.27120666503906250000e+002) (5, -4.24700134277343750000e+002) (6, 4.28805694580078120000e+002) (7, 4.28344207763671870000e+002) (8, -4.23831573486328120000e+002) (9, 4.28099487304687500000e+002) (10, 4.28358062744140620000e+002) (11, -4.25138732910156250000e+002) (12, 4.27616638183593750000e+002) (13, 4.28146057128906250000e+002) (14, -4.25046203613281250000e+002) (15, 4.27407989501953120000e+002) (16, 4.27915985107421870000e+002) (17, 4.27267333984375000000e+002) (18, 6.54323957860469820000e-005) (19, 4.27243499755859370000e+002) (20, 4.27035369873046870000e+002) (21, -4.23958496093750000000e+002) (22, 4.28874267578125000000e+002) (23, 4.27076202392578120000e+002) (24, -4.23625427246093750000e+002) (25, 4.28755676269531250000e+002) (26, 4.27649505615234370000e+002) (27, -4.24976318359375000000e+002) (28, 4.27568176269531250000e+002) (29, 4.28392272949218750000e+002) (30, -4.23936889648437500000e+002) (31, 4.27021301269531250000e+002) (32, 4.26803924560546870000e+002) (33, 5.29790115356445310000e+000) (34, -1.81304669380187990000e+000) (35, 4.27088317871093750000e+002) (36, 8.49440002441406250000e+001) (37, -9.05921508789062500000e+002) (38, 4.27070007324218750000e+002) (39, 4.28781219482421870000e+002) (40, -8.21156616210937500000e+001) (41, 4.28823669433593750000e+002) (42, 4.28648498535156250000e+002) (43, -1.14346752929687500000e+003) (44, 9.21487998962402340000e+000) (45, 4.27718353271484370000e+002) (46, -4.24708740234375000000e+002) (47, 4.28065551757812500000e+002) (48, -4.23918243408203120000e+002) (49, 4.27469726562500000000e+002) (50, -8.07581024169921870000e+001) (51, -4.24008331298828130000e+002) (52, 8.32354431152343750000e+001) (53, -1.95913742065429690000e+002) (54, 1.98712966918945310000e+002) (55, 4.28667388916015620000e+002) (56, -4.23722320556640620000e+002) (57, 4.26918945312500000000e+002) (58, 4.27306274414062500000e+002) (59, -1.23461866378784180000e+001) (60, -4.24134979248046870000e+002) (61, 1.99372604370117190000e+002) (62, 6.90757846832275390000e+000) (63, 1.96847732543945310000e+002) (64, 4.97206306457519530000e+000) (65, 5.20720911026000980000e+000) (66, 3.52483062744140620000e+002) (67, 4.12342786788940430000e+000) (68, 7.41101646423339840000e+000) (69, 4.84983444213867190000e+000) (70, -4.24288604736328120000e+002) (71, 4.82919168472290040000e+000) (72, 4.56356954574584960000e+000) (73, -4.25446685791015620000e+002) (74, 4.34424734115600590000e+000) (75, 1.97722244262695310000e+002) (76, 6.62333297729492190000e+000) (77, -4.24659576416015620000e+002) (78, 2.39922237396240230000e+000) (79, -4.24714599609375000000e+002) (0, 1.55651164054870610000e+000) (1, -2.74735540151596070000e-002) (2, 1.40707659721374510000e+000) (3, 1.60087609291076660000e+000) (4, 4.55712020397186280000e-001) (5, -6.69815182685852050000e-001) (6, 3.85052514076232910000e+000) (7, 1.54158234596252440000e+000) (8, 1.02084267139434810000e+000) (9, 2.33193826675415040000e+000) (10, 5.13286018371582030000e+000) (11, 4.76866662502288820000e-001) (12, 3.80056500434875490000e+000) (13, 1.72686719894409180000e+000) (14, -1.43665045499801640000e-001) (15, 8.65588545799255370000e-001) (16, 4.65919405221939090000e-001) (17, -6.86839056015014650000e+000) (18, -3.76976822735741730000e-006) (19, 1.05365467071533200000e+000) (20, 1.45987244322896000000e-002) (21, 9.57711160182952880000e-001) (22, 6.47233963012695310000e-001) (23, 2.18750476837158200000e+000) (24, 1.49113571643829350000e+000) (25, 2.89871811866760250000e+000) (26, 9.70494866371154790000e-001) (27, 1.55338907241821290000e+000) (28, 1.80997252464294430000e+000) (29, -6.62871122360229490000e-001) (30, -3.91223043203353880000e-001) (31, 1.07485342025756840000e+000) (32, 1.17295432090759280000e+000) (33, -7.14434003829956050000e+000) (34, 9.82288256636820730000e-005) (35, 8.39794993400573730000e-001) (36, -1.10378241539001460000e+000) (37, 4.11931574344635010000e-001) (38, 2.50845026969909670000e+000) (39, 6.90630435943603520000e-001) (40, 2.05320096015930180000e+000) (41, 2.10259652137756350000e+000) (42, 3.72805547714233400000e+000) (43, 1.57022583484649660000e+000) (44, 1.13466715812683110000e+000) (45, 1.33758738636970520000e-001) (46, 1.66344439983367920000e+000) (47, 6.34628057479858400000e-001) (48, 4.76381257176399230000e-002) (49, -6.40264153480529790000e-002) (50, 1.41307821273803710000e+001) (51, -6.63501501083374020000e+000) (52, -2.16418528556823730000e+000) (53, 4.32757472991943360000e+000) (54, -1.61057987213134770000e+001) (55, 7.65790796279907230000e+000) (56, -1.68041789531707760000e+000) (57, 5.40360689163208010000e-001) (58, 1.12315845489501950000e+000) (59, -2.44175839424133300000e+000) (60, 4.48404932022094730000e+000) (61, 4.30601739883422850000e+000) (62, 3.58798861503601070000e+000) (63, -2.27143230438232420000e+001) (64, 1.50000000000000000000e+003) (65, 1.50000000000000000000e+003) (66, 3.31726145744323730000e+000) (67, 1.50000000000000000000e+003) (68, 3.25038886070251460000e+000) (69, 1.50000000000000000000e+003) (70, 1.54397940635681150000e+000) (71, 1.50000000000000000000e+003) (72, 1.50000000000000000000e+003) (73, -5.07577743530273440000e+001) (74, 1.50000000000000000000e+003) (75, 5.92655515670776370000e+000) (76, 2.30600857734680180000e+000) (77, -4.39070129394531250000e+001) (78, 1.13144934177398680000e+000) (79, -5.78256082534790040000e+000) (80, 2.21869277954101560000e+000) (0, 3.48282599449157710000e+000) (1, 7.55615293979644780000e-001) (2, 2.13128352165222170000e+000) (3, 5.89876711368560790000e-001) (4, 8.89413893222808840000e-001) (5, 1.10220110416412350000e+000) (6, 5.41168642044067380000e+000) (7, 1.56152617931365970000e+000) (8, 3.62697035074234010000e-001) (9, 2.99637079238891600000e+000) (10, 2.74080724921077490000e-004) (11, 1.22944617271423340000e+000) (12, 5.15095281600952150000e+000) (13, 1.13484358787536620000e+000) (14, 2.50033593177795410000e+000) (15, 1.74136793613433840000e+000) (16, 1.56973755359649660000e+000) (17, 9.85315263271331790000e-001) (18, 5.83395667490549390000e-005) (19, 1.40697729587554930000e+000) (20, -4.17029559612274170000e-001) (21, 6.01597726345062260000e-001) (22, 8.16293001174926760000e-001) (23, 4.04137998819351200000e-001) (24, 7.31998145580291750000e-001) (25, 1.02070927619934080000e+000) (26, 6.51222243905067440000e-002) (27, 1.19767320156097410000e+000) (28, -2.64083176851272580000e-001) (29, 1.60469603538513180000e+000) (30, 2.10468482971191410000e+000) (31, 1.99255120754241940000e+000) (32, 1.53383612632751460000e+000) (33, 1.83724164962768550000e+000) (34, -4.44001052528619770000e-005) (35, -2.46513381600379940000e-001) (36, 1.19212496280670170000e+000) (37, 2.45404887199401860000e+000) (38, 1.58545541763305660000e+000) (39, 1.29909920692443850000e+000) (40, 1.90643930435180660000e+000) (41, 1.91378104686737060000e+000) (42, 1.58150339126586910000e+000) (43, 2.51203846931457520000e+000) (44, 1.56295657157897950000e+000) (45, 2.02124285697937010000e+000) (46, 7.21397459506988530000e-001) (47, 4.19750690460205080000e-001) (48, 2.77801823616027830000e+000) (49, 1.02664909362792970000e+001) (50, 8.15077495574951170000e+000) (51, -1.43844060897827150000e+001) (52, -2.05522084236145020000e+000) (53, 5.21221971511840820000e+000) (54, 6.91830873489379880000e+000) (55, 1.95680570602416990000e+000) (56, -3.98864078521728520000e+000) (57, -5.87921082973480220000e-001) (58, 4.95458364486694340000e+000) (59, -2.32949972152709960000e+000) (60, -4.56962013244628910000e+000) (61, -4.61247062683105470000e+000) (62, 5.20541954040527340000e+000) (63, -5.29290008544921880000e+001) (64, 1.50000000000000000000e+003) (65, 1.50000000000000000000e+003) (66, 1.40430390834808350000e+000) (67, 1.50000000000000000000e+003) (68, 4.93757104873657230000e+000) (69, 1.50000000000000000000e+003) (70, -2.17069473266601560000e+001) (71, 1.50000000000000000000e+003) (72, 1.50000000000000000000e+003) (73, 3.43638000488281250000e+001) (74, 1.50000000000000000000e+003) (75, -3.93717265129089360000e+000) (76, 3.71021461486816410000e+000) (77, -3.96918449401855470000e+001) (78, 2.63143801689147950000e+000) (79, 7.73990249633789060000e+000) (80, 3.75996351242065430000e+000) (81, 6.65872955322265620000e+000) (0, 3.70852184295654300000e+000) (1, 2.64364242553710940000e+000) (2, 1.92054986953735350000e+000) (3, 3.97772359848022460000e+000) (4, 4.43731737136840820000e+000) (5, 1.06389021873474120000e+000) (6, 3.21239662170410160000e+000) (7, 3.83726692199707030000e+000) (8, 1.90105915069580080000e+000) (9, 2.29947209358215330000e+000) (10, 4.07431221008300780000e+000) (11, 1.46785843372344970000e+000) (12, -2.31073307991027830000e+000) (13, 3.35966682434082030000e+000) (14, 2.72688269615173340000e+000) (15, 2.87906742095947270000e+000) (16, 2.24079442024230960000e+000) (17, 2.90872573852539060000e+000) (18, 1.09857201576232910000e+000) (19, 1.98199629783630370000e+000) (20, 3.52681946754455570000e+000) (21, 8.13521087169647220000e-001) (22, 2.20733857154846190000e+000) (23, 3.43775510787963870000e+000) (24, 1.69076073169708250000e+000) (25, 3.68283319473266600000e+000) (26, 3.07181787490844730000e+000) (27, 2.12981343269348140000e+000) (28, 1.88309204578399660000e+000) (29, 3.59245586395263670000e+000) (30, 1.80944311618804930000e+000) (31, 3.19006848335266110000e+000) (32, 3.65752148628234860000e+000) (33, 1.31384267807006840000e+001) (34, 3.04174971580505370000e+000) (35, 4.04572820663452150000e+000) (36, 3.61907434463500980000e+000) (37, 1.38878059387207030000e+000) (38, 2.97031068801879880000e+000) (39, 2.85087847709655760000e+000) (40, 1.39786243438720700000e+000) (41, 4.22589778900146480000e+000) (42, 2.65329647064208980000e+000) (43, 2.06457304954528810000e+000) (44, 1.57906866073608400000e+000) (45, 3.26070499420166020000e+000) (46, 2.26303911209106450000e+000) (47, 3.18505954742431640000e+000) (48, 9.75396692752838130000e-001) (49, 1.05439453125000000000e+001) (50, 5.40546560287475590000e+000) (51, -1.03988428115844730000e+001) (52, 1.04728567600250240000e+000) (53, 9.76023006439208980000e+000) (54, 1.59383058547973630000e+001) (55, 1.49946463108062740000e+000) (56, 2.91676163673400880000e+000) (57, 7.23613500595092770000e-001) (58, 1.19410014152526860000e+000) (59, 4.40509170293807980000e-001) (60, 4.33229064941406250000e+000) (61, -1.24205851554870610000e+000) (62, 1.50000000000000000000e+003) (63, -1.50000000000000000000e+003) (64, 1.50000000000000000000e+003) (65, 1.50000000000000000000e+003) (66, 1.50000000000000000000e+003) (67, 1.50000000000000000000e+003) (68, 1.50000000000000000000e+003) (69, 1.50000000000000000000e+003) (70, -1.50000000000000000000e+003) (71, 1.50000000000000000000e+003) (72, 1.50000000000000000000e+003) (73, -2.61316084861755370000e+000) (74, 1.50000000000000000000e+003) (75, -1.50000000000000000000e+003) (76, 1.50000000000000000000e+003) (77, -5.58931350708007810000e+001) (78, 4.23554849624633790000e+000) (79, -5.60962829589843750000e+001) (80, 1.50000000000000000000e+003) (81, 3.20465970039367680000e+000) (82, 1.25441193580627440000e+000) (0, 1.38649415969848630000e+000) (1, 1.76645934581756590000e+000) (2, 5.51656723022460940000e-001) (3, 1.14643216133117680000e+000) (4, 1.66233861446380620000e+000) (5, 1.38370740413665770000e+000) (6, 1.88402366638183590000e+000) (7, 2.10689115524291990000e+000) (8, 9.90138411521911620000e-001) (9, 2.38465118408203120000e+000) (10, 1.57264482975006100000e+000) (11, 1.83844351768493650000e+000) (12, 1.00529801845550540000e+000) (13, 2.29881238937377930000e+000) (14, 9.95132327079772950000e-003) (15, 1.88787508010864260000e+000) (16, 1.49642443656921390000e+000) (17, 2.23418569564819340000e+000) (18, 8.50179374217987060000e-001) (19, 2.11416339874267580000e+000) (20, 2.20898795127868650000e+000) (21, 7.73410677909851070000e-001) (22, 7.09481418132781980000e-001) (23, 1.56141674518585210000e+000) (24, 6.11322045326232910000e-001) (25, 8.93177568912506100000e-001) (26, 1.44678628444671630000e+000) (27, -1.00067090243101120000e-002) (28, 1.41381645202636720000e+000) (29, 2.73017835617065430000e+000) (30, 7.80900359153747560000e-001) (31, 2.22037267684936520000e+000) (32, 2.40498256683349610000e+000) (33, 6.24722719192504880000e-001) (34, 1.07702505588531490000e+000) (35, 1.88607692718505860000e+000) (36, 9.51054275035858150000e-001) (37, 1.43364632129669190000e+000) (38, 6.66788756847381590000e-001) (39, 9.72465932369232180000e-001) (40, 2.07292723655700680000e+000) (41, 2.65526366233825680000e+000) (42, 2.67038249969482420000e+000) (43, 3.31162244081497190000e-001) (44, 1.11003589630126950000e+000) (45, 1.58929121494293210000e+000) (46, 1.35216021537780760000e+000) (47, 1.85826802253723140000e+000) (48, 3.93358528614044190000e-001) (49, 1.13581860065460210000e+000) (50, 1.95960187911987300000e+000) (51, 4.92233008146286010000e-001) (52, 2.59468078613281250000e+000) (53, 5.69503450393676760000e+000) (54, 2.82633352279663090000e+000) (55, 2.92891073226928710000e+000) (56, 3.90192818641662600000e+000) (57, 1.04647779464721680000e+000) (58, 5.59227883815765380000e-001) (59, 1.27919363975524900000e+000) (60, 1.72061395645141600000e+000) (61, 1.26859784126281740000e+000) (62, 1.14516809082031250000e+003) (63, -3.47766151428222660000e+001) (64, 1.14485437011718750000e+003) (65, 1.14577514648437500000e+003) (66, 1.14488769531250000000e+003) (67, 1.14474035644531250000e+003) (68, 1.14623620605468750000e+003) (69, 1.14680932617187500000e+003) (70, -5.15368156433105470000e+001) (71, 1.14645031738281250000e+003) (72, 1.14544726562500000000e+003) (73, 3.24476790428161620000e+000) (74, 1.14663671875000000000e+003) (75, -5.14283996582031250000e+002) (76, 1.14510449218750000000e+003) (77, 4.98011970520019530000e+000) (78, 8.65917682647705080000e-001) (79, -1.29083843231201170000e+001) (80, 1.14482373046875000000e+003) (81, 2.35474944114685060000e+000) (82, 3.15583199262619020000e-001) (83, 2.77583527565002440000e+000) (0, 5.18285393714904790000e-001) (1, 1.16053276062011720000e+002) (2, 7.65608310699462890000e-001) (3, 1.18248593807220460000e+000) (4, 2.84759116172790530000e+000) (5, 8.48022043704986570000e-001) (6, -3.00048559904098510000e-001) (7, 3.12726926803588870000e+000) (8, 1.02660906314849850000e+000) (9, -9.67254638671875000000e-001) (10, 2.27095818519592290000e+000) (11, 9.03542995452880860000e-001) (12, -1.55353951454162600000e+000) (13, 2.55656552314758300000e+000) (14, 2.05914068222045900000e+000) (15, 9.68931138515472410000e-001) (16, 1.30831950809806590000e-003) (17, 4.93336853027343750000e+002) (18, 1.50287449359893800000e+000) (19, -1.20907239615917210000e-001) (20, 3.38120198249816890000e+000) (21, 8.48122894763946530000e-001) (22, 5.41786134243011470000e-001) (23, 2.32246661186218260000e+000) (24, 2.18864583969116210000e+000) (25, -7.40787923336029050000e-001) (26, 1.94234931468963620000e+000) (27, 2.05755496025085450000e+000) (28, 3.87670308351516720000e-001) (29, 2.91214847564697270000e+000) (30, 5.05517065525054930000e-001) (31, 1.94325053691864010000e+000) (32, 2.10027146339416500000e+000) (33, 3.13075065612792970000e+001) (34, 1.82702767848968510000e+000) (35, 3.46123784780502320000e-001) (36, 3.37351298332214360000e+000) (37, 2.03422379493713380000e+000) (38, -2.59412837028503420000e+000) (39, 2.89173722267150880000e+000) (40, 3.30251336097717290000e-001) (41, -1.49367415904998780000e+000) (42, 2.06832933425903320000e+000) (43, 6.56890511512756350000e-001) (44, -1.33111631870269780000e+000) (45, 2.52880573272705080000e+000) (46, 1.40042054653167720000e+000) (47, 8.51100981235504150000e-001) (48, 2.03806948661804200000e+000) (49, -5.09710454940795900000e+000) (50, 5.85164546966552730000e+000) (51, -2.78672847747802730000e+001) (52, 4.11087656021118160000e+000) (53, 4.46146430969238280000e+001) (54, -1.50000000000000000000e+003) (55, 3.02013874053955080000e+000) (56, 3.10954265594482420000e+001) (57, 9.89060401916503910000e-001) (58, 1.18644177913665770000e+000) (59, -1.45207710266113280000e+001) (60, -3.42064929008483890000e+000) (61, -4.46669280529022220000e-001) (62, 1.50000000000000000000e+003) (63, -1.50000000000000000000e+003) (64, 1.50000000000000000000e+003) (65, 1.50000000000000000000e+003) (66, 1.50000000000000000000e+003) (67, 1.50000000000000000000e+003) (68, 1.50000000000000000000e+003) (69, 1.50000000000000000000e+003) (70, 1.03217094421386720000e+002) (71, 1.50000000000000000000e+003) (72, 1.50000000000000000000e+003) (73, -1.42913837432861330000e+001) (74, 1.50000000000000000000e+003) (75, -1.50000000000000000000e+003) (76, 1.50000000000000000000e+003) (77, -9.70297698974609380000e+001) (78, 9.43975830078125000000e+000) (79, -3.12983760833740230000e+001) (80, 1.50000000000000000000e+003) (81, -4.21738481521606450000e+000) (82, 2.64961647987365720000e+000) (83, -1.15496730804443360000e+001) (84, -6.54335250854492190000e+001) (0, 1.46724832057952880000e+000) (1, 3.81093740463256840000e+000) (2, 1.19387185573577880000e+000) (3, 2.05524778366088870000e+000) (4, 2.59239482879638670000e+000) (5, 7.24538028240203860000e-001) (6, -2.29723423719406130000e-001) (7, 2.13713693618774410000e+000) (8, -3.84013026952743530000e-001) (9, -6.61462172865867610000e-002) (10, 1.28192472457885740000e+000) (11, -2.17712998390197750000e-001) (12, 2.02540993690490720000e+000) (13, 2.19613146781921390000e+000) (14, 1.27258801460266110000e+000) (15, 5.47296762466430660000e-001) (16, 1.82479941844940190000e+000) (17, 3.72386622428894040000e+000) (18, 1.54297042172402140000e-004) (19, 2.23819851875305180000e+000) (20, 2.95070505142211910000e+000) (21, 1.42590001225471500000e-001) (22, 1.52544903755187990000e+000) (23, 1.55009078979492190000e+000) (24, 1.07282972335815430000e+000) (25, 2.79733347892761230000e+000) (26, 2.49829554557800290000e+000) (27, 4.72228437662124630000e-001) (28, 2.65298247337341310000e+000) (29, 1.13175547122955320000e+000) (30, 1.68879878520965580000e+000) (31, 2.56388735771179200000e+000) (32, 4.43541717529296870000e+000) (33, 1.76067960262298580000e+000) (34, -1.41488824738189580000e-004) (35, 2.06903433799743650000e+000) (36, 1.80073654651641850000e+000) (37, 8.66796493530273440000e-001) (38, 1.14708900451660160000e+000) (39, 1.39340972900390620000e+000) (40, 8.33997547626495360000e-001) (41, 2.25996088981628420000e+000) (42, 2.88524699211120610000e+000) (43, 1.75920397043228150000e-001) (44, 2.75089812278747560000e+000) (45, 1.38029432296752930000e+000) (46, 4.40719574689865110000e-001) (47, 2.35548138618469240000e+000) (48, 1.84548294544219970000e+000) (49, 2.94879704713821410000e-001) (50, 6.76912069320678710000e-001) (51, 1.16577684879302980000e+000) (52, 2.26684522628784180000e+000) (53, 1.18711984157562260000e+000) (54, 4.90806722640991210000e+000) (55, 3.32639527320861820000e+000) (56, 3.77413415908813480000e+000) (57, 1.77635446190834050000e-001) (58, 3.42866420745849610000e+000) (59, 1.67119753360748290000e+000) (60, 2.04402136802673340000e+000) (61, 7.97640442848205570000e-001) (62, 8.03856372833251950000e-001) (63, -1.42935323715209960000e+001) (64, 1.50000000000000000000e+003) (65, 1.50000000000000000000e+003) (66, 1.99782001972198490000e+000) (67, 1.50000000000000000000e+003) (68, 1.38353598117828370000e+000) (69, 1.50000000000000000000e+003) (70, 9.19535517692565920000e-001) (71, 1.50000000000000000000e+003) (72, 1.50000000000000000000e+003) (73, -1.00657825469970700000e+001) (74, 1.50000000000000000000e+003) (75, -1.06286869049072270000e+001) (76, 1.00788712501525880000e+000) (77, 1.65806961059570310000e+001) (78, 7.42120862007141110000e-001) (79, -5.06689033508300780000e+001) (80, 2.03125143051147460000e+000) (81, 2.45268940925598140000e+000) (82, 3.65202260017395020000e+000) (83, -1.41490669250488280000e+001) (84, 1.50679552555084230000e+000) (85, -3.08946442604064940000e+000) (0, 4.68804568052291870000e-001) (1, 7.24692121148109440000e-002) (2, 2.55317282676696780000e+000) (3, 2.35574230551719670000e-001) (4, 2.69897222518920900000e-001) (5, 5.57152032852172850000e-001) (6, 1.63884687423706050000e+000) (7, 1.60875380039215090000e+000) (8, 2.10281729698181150000e+000) (9, 9.57535028457641600000e-001) (10, 5.22354543209075930000e-001) (11, 1.86446464061737060000e+000) (12, 2.72135548293590550000e-002) (13, 9.18362975120544430000e-001) (14, 3.66085147857666020000e+000) (15, 7.01672434806823730000e-001) (16, 1.06688797473907470000e+000) (17, -2.04926872253417970000e+000) (18, -3.64060106221586470000e-005) (19, 1.48200988769531250000e+000) (20, 1.19938993453979490000e+000) (21, 1.79114222526550290000e+000) (22, 2.36614513397216800000e+000) (23, 1.98528349399566650000e+000) (24, 1.21938753128051760000e+000) (25, 1.10166323184967040000e+000) (26, 1.19080841541290280000e+000) (27, 4.75292563438415530000e-001) (28, 1.22985124588012700000e+000) (29, 2.08294320106506350000e+000) (30, 5.09824395179748540000e-001) (31, 2.43224263191223140000e+000) (32, 4.98310518264770510000e+000) (33, -3.93314957618713380000e-001) (34, 4.49543367722071710000e-005) (35, 2.58638572692871090000e+000) (36, 1.11234582960605620000e-001) (37, 2.36585378646850590000e+000) (38, 2.49209022521972660000e+000) (39, 1.08504068851470950000e+000) (40, 1.97523295879364010000e+000) (41, 2.52877092361450200000e+000) (42, 2.08534932136535640000e+000) (43, 7.39954531192779540000e-001) (44, 3.15364909172058110000e+000) (45, 4.55846369266510010000e-001) (46, 2.11883783340454100000e+000) (47, 2.08048796653747560000e+000) (48, -1.50658512115478520000e+000) (49, 3.88224172592163090000e+000) (50, 1.28391194343566890000e+000) (51, -5.91507148742675780000e+000) (52, 8.78364384174346920000e-001) (53, 1.82812452316284180000e+000) (54, 8.78283786773681640000e+000) (55, 9.47189033031463620000e-001) (56, 1.07139897346496580000e+000) (57, -9.16086360812187190000e-002) (58, 2.20922708511352540000e+000) (59, 2.07704377174377440000e+000) (60, 6.71636044979095460000e-001) (61, 5.23803293704986570000e-001) (62, 2.26238131523132320000e+000) (63, 6.78541231155395510000e+000) (64, 1.50000000000000000000e+003) (65, 1.50000000000000000000e+003) (66, 3.34402728080749510000e+000) (67, 1.50000000000000000000e+003) (68, 2.13016629219055180000e+000) (69, 1.50000000000000000000e+003) (70, -7.83252000808715820000e-001) (71, 1.50000000000000000000e+003) (72, 1.50000000000000000000e+003) (73, 3.37424707412719730000e+000) (74, 1.50000000000000000000e+003) (75, 1.58400831222534180000e+001) (76, 1.05504906177520750000e+000) (77, -3.01746425628662110000e+001) (78, -2.03736972808837890000e+000) (79, 6.85634918212890620000e+001) (80, 7.56618142127990720000e-001) (81, -3.75283807516098020000e-001) (82, 4.08296775817871090000e+000) (83, 5.13816795349121090000e+001) (84, 5.27462768554687500000e+000) (85, 2.38342494964599610000e+001) (86, 1.30655765533447270000e+000) (0, 7.40529000759124760000e-001) (1, 6.21432363986968990000e-001) (2, 1.28691256046295170000e+000) (3, 1.34485006332397460000e+000) (4, 1.92980170249938960000e+000) (5, 6.79616183042526250000e-002) (6, 1.00757205486297610000e+000) (7, 6.34733319282531740000e-001) (8, 1.89998972415924070000e+000) (9, 9.75099325180053710000e-001) (10, 1.31647396087646480000e+000) (11, 1.32589638233184810000e+000) (12, 3.57106178998947140000e-001) (13, 5.04892349243164060000e-001) (14, 4.39366936683654790000e-001) (15, 1.26039290428161620000e+000) (16, 1.76817727088928220000e+000) (17, 4.53188598155975340000e-001) (18, 1.53350934851914640000e-004) (19, 8.30933917313814160000e-004) (20, 1.02619564533233640000e+000) (21, 1.26471126079559330000e+000) (22, 2.24118971824646000000e+000) (23, 5.36366462707519530000e-001) (24, 3.97586643695831300000e-001) (25, 8.93514811992645260000e-001) (26, 3.07684034109115600000e-001) (27, 1.59020161628723140000e+000) (28, 3.42277616262435910000e-001) (29, 1.90368711948394780000e+000) (30, 3.25450450181961060000e-001) (31, 3.63694369792938230000e-001) (32, 1.52902805805206300000e+000) (33, 3.76627445220947270000e+000) (34, 5.66541057196445760000e-005) (35, 1.57348632812500000000e+000) (36, 1.84286725521087650000e+000) (37, 2.14873194694519040000e+000) (38, 2.72475433349609370000e+000) (39, 4.41089332103729250000e-001) (40, 6.79323256015777590000e-001) (41, 1.20868515968322750000e+000) (42, 2.04707652330398560000e-001) (43, 1.92438793182373050000e+000) (44, 1.55297219753265380000e+000) (45, 1.13523793220520020000e+000) (46, 1.99910938739776610000e+000) (47, 6.22303903102874760000e-001) (48, -5.52756845951080320000e-001) (49, -2.35972952842712400000e+000) (50, 9.88312363624572750000e-001) (51, 1.47086668014526370000e+001) (52, -3.87068414688110350000e+000) (53, -7.07655191421508790000e-001) (54, 3.69944357872009280000e+000) (55, -4.83863592147827150000e+000) (56, 5.41528034210205080000e+000) (57, 4.09801244735717770000e-001) (58, 1.08380532264709470000e+000) (59, 3.87196135520935060000e+000) (60, 2.32268095016479490000e+000) (61, 2.33693742752075200000e+000) (62, 2.66764020919799800000e+000) (63, 1.78171691894531250000e+001) (64, 1.50000000000000000000e+003) (65, 1.50000000000000000000e+003) (66, 2.75017929077148440000e+000) (67, 1.50000000000000000000e+003) (68, 2.07595610618591310000e+000) (69, 1.50000000000000000000e+003) (70, -2.38554077148437500000e+001) (71, 1.50000000000000000000e+003) (72, 1.50000000000000000000e+003) (73, 3.04689254760742190000e+001) (74, 1.50000000000000000000e+003) (75, -1.33898973464965820000e+000) (76, 1.78868162631988530000e+000) (77, 2.26830406188964840000e+001) (78, 7.57737815380096440000e-001) (79, 5.03353595733642580000e+000) (80, 1.62891912460327150000e+000) (81, 2.56954884529113770000e+000) (82, -3.21562528610229490000e-001) (83, -2.12164169311523440000e+002) (84, -5.75150299072265630000e+000) (85, -3.84093880653381350000e+000) (86, 4.38185548782348630000e+000) (87, 1.66032755374908450000e+000) (0, -1.30750436782836910000e+001) (1, -6.01059303283691410000e+001) (2, -5.49156284332275390000e+000) (3, 1.12376999855041500000e+000) (4, -1.05545911788940430000e+001) (5, -4.42277860641479490000e+000) (6, 1.78137040138244630000e+000) (7, 1.86088447570800780000e+001) (8, 5.20917272567749020000e+000) (9, 1.15069484710693360000e+000) (10, 3.82867927551269530000e+001) (11, -3.27644288539886470000e-001) (12, 2.58267331123352050000e+000) (13, 2.68601298332214360000e-001) (14, -1.15457093715667720000e+000) (15, -8.48278713226318360000e+000) (16, -1.70528864860534670000e+000) (17, -4.21441001892089840000e+001) (18, -2.24301993846893310000e-001) (19, 4.09115552902221680000e+000) (20, -8.28999900817871090000e+000) (21, 8.05105781555175780000e+000) (22, 9.06117796897888180000e-001) (23, 1.29368581771850590000e+001) (24, 8.29887962341308590000e+000) (25, -5.84035813808441160000e-001) (26, 2.31772212982177730000e+001) (27, -3.02052521705627440000e+000) (28, 1.14634728431701660000e+000) (29, 7.09229707717895510000e-001) (30, 5.34262609481811520000e+000) (31, 1.16660141944885250000e+000) (32, -1.63785958290100100000e+000) (33, -3.28787574768066410000e+001) (34, -4.59772199392318730000e-001) (35, 3.06361556053161620000e+000) (36, -3.37895989418029790000e+000) (37, 1.24617729187011720000e+001) (38, 5.22700500488281250000e+000) (39, 1.38232069015502930000e+001) (40, 1.90965461730957030000e+000) (41, -6.42582356929779050000e-001) (42, 3.80320510864257810000e+001) (43, -3.21360435485839840000e+001) (44, -3.91158342361450200000e+000) (45, 6.06555557250976560000e+000) (46, 7.01347970962524410000e+000) (47, 7.64172220230102540000e+000) (48, 3.59426269531250000000e+001) (49, 1.94765698909759520000e+000) (50, 1.03085927963256840000e+001) (51, -8.29866790771484370000e+000) (52, -3.90383744239807130000e+000) (53, 1.89171180129051210000e-001) (54, 8.64313602447509770000e+000) (55, 2.72437357902526860000e+000) (56, -2.10824298858642580000e+000) (57, 3.96496415138244630000e+000) (58, 