FANN_FLO_2.1
num_layers=3
learning_rate=0.700000
connection_rate=1.000000
network_type=0
learning_momentum=0.000000
training_algorithm=2
train_error_function=0
train_stop_function=0
cascade_output_change_fraction=0.010000
quickprop_decay=-0.000100
quickprop_mu=1.750000
rprop_increase_factor=1.200000
rprop_decrease_factor=0.500000
rprop_delta_min=0.000000
rprop_delta_max=50.000000
rprop_delta_zero=0.100000
cascade_output_stagnation_epochs=12
cascade_candidate_change_fraction=0.010000
cascade_candidate_stagnation_epochs=12
cascade_max_out_epochs=150
cascade_min_out_epochs=50
cascade_max_cand_epochs=150
cascade_min_cand_epochs=50
cascade_num_candidate_groups=2
bit_fail_limit=3.49999994039535520000e-001
cascade_candidate_limit=1.00000000000000000000e+003
cascade_weight_multiplier=4.00000005960464480000e-001
cascade_activation_functions_count=10
cascade_activation_functions=3 5 7 8 10 11 14 15 16 17 
cascade_activation_steepnesses_count=4
cascade_activation_steepnesses=2.50000000000000000000e-001 5.00000000000000000000e-001 7.50000000000000000000e-001 1.00000000000000000000e+000 
layer_sizes=49 24 2 
scale_included=0
neurons (num_inputs, activation_function, activation_steepness)=(0, 0, 0.00000000000000000000e+000) (0, 0, 0.00000000000000000000e+000) (0, 0, 0.00000000000000000000e+000) (0, 0, 0.00000000000000000000e+000) (0, 0, 0.00000000000000000000e+000) (0, 0, 0.00000000000000000000e+000) (0, 0, 0.00000000000000000000e+000) (0, 0, 0.00000000000000000000e+000) (0, 0, 0.00000000000000000000e+000) (0, 0, 0.00000000000000000000e+000) (0, 0, 0.00000000000000000000e+000) (0, 0, 0.00000000000000000000e+000) (0, 0, 0.00000000000000000000e+000) (0, 0, 0.00000000000000000000e+000) (0, 0, 0.00000000000000000000e+000) (0, 0, 0.00000000000000000000e+000) (0, 0, 0.00000000000000000000e+000) (0, 0, 0.00000000000000000000e+000) (0, 0, 0.00000000000000000000e+000) (0, 0, 0.00000000000000000000e+000) (0, 0, 0.00000000000000000000e+000) (0, 0, 0.00000000000000000000e+000) (0, 0, 0.00000000000000000000e+000) (0, 0, 0.00000000000000000000e+000) (0, 0, 0.00000000000000000000e+000) (0, 0, 0.00000000000000000000e+000) (0, 0, 0.00000000000000000000e+000) (0, 0, 0.00000000000000000000e+000) (0, 0, 0.00000000000000000000e+000) (0, 0, 0.00000000000000000000e+000) (0, 0, 0.00000000000000000000e+000) (0, 0, 0.00000000000000000000e+000) (0, 0, 0.00000000000000000000e+000) (0, 0, 0.00000000000000000000e+000) (0, 0, 0.00000000000000000000e+000) (0, 0, 0.00000000000000000000e+000) (0, 0, 0.00000000000000000000e+000) (0, 0, 0.00000000000000000000e+000) (0, 0, 0.00000000000000000000e+000) (0, 0, 0.00000000000000000000e+000) (0, 0, 0.00000000000000000000e+000) (0, 0, 0.00000000000000000000e+000) (0, 0, 0.00000000000000000000e+000) (0, 0, 0.00000000000000000000e+000) (0, 0, 0.00000000000000000000e+000) (0, 0, 0.00000000000000000000e+000) (0, 0, 0.00000000000000000000e+000) (0, 0, 0.00000000000000000000e+000) (0, 0, 0.00000000000000000000e+000) (49, 0, 5.00000000000000000000e-001) (49, 0, 5.00000000000000000000e-001) (49, 0, 5.00000000000000000000e-001) (49, 0, 5.00000000000000000000e-001) (49, 0, 5.00000000000000000000e-001) (49, 0, 5.00000000000000000000e-001) (49, 0, 5.00000000000000000000e-001) (49, 0, 5.00000000000000000000e-001) (49, 0, 5.00000000000000000000e-001) (49, 0, 5.00000000000000000000e-001) (49, 0, 5.00000000000000000000e-001) (49, 0, 5.00000000000000000000e-001) (49, 0, 5.00000000000000000000e-001) (49, 0, 5.00000000000000000000e-001) (49, 0, 5.00000000000000000000e-001) (49, 0, 5.00000000000000000000e-001) (49, 0, 5.00000000000000000000e-001) (49, 0, 5.00000000000000000000e-001) (49, 0, 5.00000000000000000000e-001) (49, 0, 5.00000000000000000000e-001) (49, 0, 5.00000000000000000000e-001) (49, 0, 5.00000000000000000000e-001) (49, 0, 5.00000000000000000000e-001) (0, 0, 5.00000000000000000000e-001) (24, 3, 5.00000000000000000000e-001) (0, 3, 5.00000000000000000000e-001) 
connections (connected_to_neuron, weight)=(0, 1.27600178122520450000e-001) (1, -1.60971105098724370000e+000) (2, 4.40909177064895630000e-001) (3, 1.35266199707984920000e-001) (4, -1.77674815058708190000e-001) (5, 3.13101559877395630000e-001) (6, 1.96893379092216490000e-001) (7, 1.56331205368041990000e+000) (8, 4.68472659587860110000e-001) (9, 3.97766828536987300000e-002) (10, 1.48746371269226070000e+000) (11, 2.98239499330520630000e-001) (12, 1.61846995353698730000e-001) (13, 1.53293490409851070000e+000) (14, 2.89371073246002200000e-001) (15, -2.62764066457748410000e-001) (16, 1.53895902633666990000e+000) (17, 4.57382559776306150000e-001) (18, 1.26171961426734920000e-001) (19, 6.33449316024780270000e-001) (20, 4.50528323650360110000e-001) (21, -4.16715323925018310000e-001) (22, 8.15496623516082760000e-001) (23, 3.56454819440841670000e-001) (24, 3.46070080995559690000e-002) (25, 7.07381248474121090000e-001) (26, 3.82388651371002200000e-001) (27, -5.27384221553802490000e-001) (28, 4.61075514554977420000e-001) (29, 4.28177237510681150000e-001) (30, 1.08953937888145450000e-001) (31, -1.53287386894226070000e+000) (32, 3.02957504987716670000e-001) (33, 2.05658033490180970000e-001) (34, -1.53439974784851070000e+000) (35, 3.86801511049270630000e-001) (36, 1.81225657463073730000e-001) (37, -1.63723182678222660000e+000) (38, 4.08182114362716670000e-001) (39, -1.55757218599319460000e-001) (40, -5.48637807369232180000e-002) (41, 4.03573960065841670000e-001) (42, 5.07630109786987300000e-002) (43, 1.05432853102684020000e-001) (44, 3.90909165143966670000e-001) (45, -4.89579081535339360000e-001) (46, -7.60632157325744630000e-001) (47, 3.55258524417877200000e-001) (48, -1.58695101737976070000e+000) (0, -3.60948264598846440000e-001) (1, 4.12721544504165650000e-001) (2, 2.74869501590728760000e-001) (3, -2.72172629833221440000e-001) (4, -1.51581689715385440000e-001) (5, 4.05692249536514280000e-001) (6, -4.08104062080383300000e-001) (7, -3.16488623619079590000e-001) (8, 2.76212275028228760000e-001) (9, -3.75291526317596440000e-001) (10, -3.18673700094223020000e-001) (11, 4.05777692794799800000e-001) (12, -2.68461704254150390000e-001) (13, -4.19363379478454590000e-001) (14, 4.29428786039352420000e-001) (15, -1.50622382760047910000e-001) (16, -3.32168549299240110000e-001) (17, 4.27634388208389280000e-001) (18, -2.63487339019775390000e-001) (19, 2.14219674468040470000e-001) (20, 3.39676618576049800000e-001) (21, 1.53579160571098330000e-001) (22, -1.68906450271606450000e-002) (23, 3.02756458520889280000e-001) (24, -3.83171200752258300000e-001) (25, 2.20054611563682560000e-001) (26, 2.90207624435424800000e-001) (27, 7.26831555366516110000e-002) (28, 2.36135616898536680000e-001) (29, 2.67166823148727420000e-001) (30, -3.44645798206329350000e-001) (31, 4.95924681425094600000e-001) (32, 2.75577485561370850000e-001) (33, -3.65324497222900390000e-001) (34, 5.58040142059326170000e-001) (35, 3.47702741622924800000e-001) (36, -4.33171212673187260000e-001) (37, 4.44240093231201170000e-001) (38, 3.56442958116531370000e-001) (39, -1.10961720347404480000e-001) (40, -2.93748438358306880000e-001) (41, 3.82913917303085330000e-001) (42, -3.65464866161346440000e-001) (43, -3.09153735637664790000e-001) (44, 2.75199085474014280000e-001) (45, 2.11141407489776610000e-001) (46, 3.03001910448074340000e-001) (47, 3.69815766811370850000e-001) (48, 5.30073821544647220000e-001) (0, 9.28407683968544010000e-002) (1, 1.51009559631347660000e+000) (2, 6.88873603940010070000e-003) (3, 6.29762709140777590000e-002) (4, 4.87298488616943360000e-001) (5, -7.43429735302925110000e-002) (6, 5.32167442142963410000e-002) (7, -1.53559601306915280000e+000) (8, -1.22395947575569150000e-001) (9, 2.34955012798309330000e-001) (10, -1.58795201778411870000e+000) (11, -1.60585656762123110000e-001) (12, 1.85400590300560000000e-001) (13, -1.59721708297729490000e+000) (14, -8.16863775253295900000e-003) (15, 3.68017673492431640000e-001) (16, -1.60837435722351070000e+000) (17, -6.08786121010780330000e-002) (18, 2.39514350891113280000e-001) (19, -4.15080904960632320000e-001) (20, -1.11763641238212590000e-001) (21, 7.92800903320312500000e-001) (22, -7.13936269283294680000e-001) (23, -8.46762135624885560000e-002) (24, 8.44179093837738040000e-002) (25, -3.99425387382507320000e-001) (26, -2.25302018225193020000e-002) (27, 7.54592895507812500000e-001) (28, -2.49540686607360840000e-001) (29, -6.93380609154701230000e-002) (30, 1.57122999429702760000e-001) (31, 1.60122716426849370000e+000) (32, 4.00787964463233950000e-003) (33, 9.27126035094261170000e-002) (34, 1.57998692989349370000e+000) (35, -1.46217986941337590000e-001) (36, 5.71901313960552220000e-002) (37, 1.62927889823913570000e+000) (38, -7.44894519448280330000e-002) (39, 4.06298905611038210000e-001) (40, 1.46157577633857730000e-001) (41, -1.35817572474479680000e-001) (42, 1.84533879160881040000e-001) (43, 1.26119747757911680000e-001) (44, -4.77507524192333220000e-003) (45, 9.11709666252136230000e-001) (46, 8.44442903995513920000e-001) (47, -1.30434289574623110000e-001) (48, 1.45330846309661870000e+000) (0, 2.24920868873596190000e-001) (1, 1.61363554000854490000e+000) (2, -1.17659613490104680000e-001) (3, 1.22046090662479400000e-001) (4, 4.22833144664764400000e-001) (5, -2.62960828840732570000e-002) (6, 6.65468275547027590000e-002) (7, -1.51217687129974370000e+000) (8, -9.03952121734619140000e-002) (9, 5.47487251460552220000e-002) (10, -1.56243932247161870000e+000) (11, -8.88327062129974370000e-002) (12, 2.16168403625488280000e-001) (13, -1.60036039352416990000e+000) (14, -4.79391589760780330000e-002) (15, 4.80157554149627690000e-001) (16, -1.55892360210418700000e+000) (17, -1.59944787621498110000e-001) (18, 6.80299848318099980000e-002) (19, -4.32134151458740230000e-001) (20, -1.53255328536033630000e-001) (21, 7.56881713867187500000e-001) (22, -7.09822595119476320000e-001) (23, -1.31526812911033630000e-001) (24, 6.46852552890777590000e-002) (25, -3.68077695369720460000e-001) (26, -6.92962110042572020000e-003) (27, 8.00668358802795410000e-001) (28, -2.31706202030181880000e-001) (29, 4.97833266854286190000e-003) (30, 6.27138167619705200000e-002) (31, 1.46276891231536870000e+000) (32, -1.07472836971282960000e-001) (33, 8.33803117275238040000e-002) (34, 1.51226234436035160000e+000) (35, -1.74721404910087590000e-001) (36, 9.42384824156761170000e-002) (37, 1.59384799003601070000e+000) (38, -8.64523425698280330000e-002) (39, 3.70337009429931640000e-001) (40, 2.49587759375572200000e-001) (41, -7.27133229374885560000e-002) (42, 9.48183164000511170000e-002) (43, 1.37014523148536680000e-001) (44, -8.42550769448280330000e-002) (45, 8.55307042598724370000e-001) (46, 9.03946101665496830000e-001) (47, -9.70846712589263920000e-002) (48, 1.56955599784851070000e+000) (0, 7.14831292629241940000e-001) (1, -3.52609217166900630000e-001) (2, -1.85178041458129880000e-001) (3, 7.60680913925170900000e-001) (4, 3.34867715835571290000e-001) (5, -8.21352005004882810000e-004) (6, 6.32177531719207760000e-001) (7, 4.90590214729309080000e-001) (8, -1.36124089360237120000e-001) (9, 6.37444853782653810000e-001) (10, 4.14308458566665650000e-001) (11, -3.86387258768081670000e-002) (12, 7.77471721172332760000e-001) (13, 4.81660753488540650000e-001) (14, -1.57565757632255550000e-001) (15, 5.02662181854248050000e-001) (16, 4.33772563934326170000e-001) (17, -3.66123616695404050000e-002) (18, 6.32159173488616940000e-001) (19, 2.03944072127342220000e-002) (20, -3.77293080091476440000e-002) (21, 1.36238634586334230000e-001) (22, 2.82288223505020140000e-001) (23, -2.17319875955581670000e-002) (24, 7.61712431907653810000e-001) (25, 7.21888467669487000000e-002) (26, -3.74493002891540530000e-003) (27, 1.33925408124923710000e-001) (28, 2.28217691183090210000e-002) (29, -1.90769582986831670000e-002) (30, 7.73669183254241940000e-001) (31, -3.76449555158615110000e-001) (32, -1.44510313868522640000e-001) (33, 6.49798333644866940000e-001) (34, -3.44821155071258540000e-001) (35, 2.12664902210235600000e-003) (36, 7.20532000064849850000e-001) (37, -2.94772326946258540000e-001) (38, -1.74778401851654050000e-002) (39, 4.89966899156570430000e-001) (40, 4.74857300519943240000e-001) (41, -6.09226673841476440000e-002) (42, 6.39288127422332760000e-001) (43, 4.45365101099014280000e-001) (44, -1.13394588232040410000e-001) (45, 6.16050884127616880000e-003) (46, 7.24270343780517580000e-002) (47, -2.23301351070404050000e-002) (48, -4.29623395204544070000e-001) (0, 7.68743693828582760000e-001) (1, -2.78646826744079590000e-001) (2, -8.25901478528976440000e-002) (3, 6.84875249862670900000e-001) (4, 3.50340127944946290000e-001) (5, -1.63065031170845030000e-001) (6, 6.21362090110778810000e-001) (7, 4.50715929269790650000e-001) (8, -4.71538305282592770000e-003) (9, 7.23406732082366940000e-001) (10, 4.69264507293701170000e-001) (11, -1.02273985743522640000e-001) (12, 6.45434319972991940000e-001) (13, 4.04237657785415650000e-001) (14, -7.78904408216476440000e-002) (15, 3.40839713811874390000e-001) (16, 5.29371917247772220000e-001) (17, -1.78903639316558840000e-001) (18, 6.00756585597991940000e-001) (19, 6.35401681065559390000e-002) (20, -3.63316088914871220000e-002) (21, 1.06587752699851990000e-001) (22, 2.46338501572608950000e-001) (23, -3.53123098611831670000e-002) (24, 7.55364775657653810000e-001) (25, 1.66781127452850340000e-001) (26, -1.70017629861831670000e-002) (27, 1.70625850558280940000e-001) (28, -3.54541791602969170000e-003) (29, -1.14719063043594360000e-001) (30, 6.55450224876403810000e-001) (31, -3.18142682313919070000e-001) (32, -1.94937556982040410000e-001) (33, 6.21221661567687990000e-001) (34, -4.00491297245025630000e-001) (35, -6.37669116258621220000e-002) (36, 6.88348174095153810000e-001) (37, -4.22744750976562500000e-001) (38, -1.17490053176879880000e-001) (39, 4.14350450038909910000e-001) (40, 4.10984009504318240000e-001) (41, -4.41074818372726440000e-002) (42, 7.54150152206420900000e-001) (43, 3.82071644067764280000e-001) (44, 8.69333744049072270000e-004) (45, 8.54390859603881840000e-002) (46, 8.27175378799438480000e-002) (47, -4.06773090362548830000e-002) (48, -3.82962018251419070000e-001) (0, 4.54825550317764280000e-001) (1, -2.09839776158332820000e-001) (2, -1.56794086098670960000e-001) (3, 3.85709315538406370000e-001) (4, 3.63370448350906370000e-001) (5, -1.07508944347500800000e-003) (6, 5.72806537151336670000e-001) (7, 4.30641293525695800000e-001) (8, -6.53267949819564820000e-002) (9, 4.74826782941818240000e-001) (10, 4.22725021839141850000e-001) (11, -1.13648355007171630000e-001) (12, 4.68857496976852420000e-001) (13, 2.94642776250839230000e-001) (14, 4.75376797839999200000e-003) (15, 4.00093257427215580000e-001) (16, 3.71925473213195800000e-001) (17, -4.04000431299209590000e-002) (18, 4.89517897367477420000e-001) (19, 5.26909641921520230000e-002) (20, -3.02210496738553050000e-003) (21, -6.94735944271087650000e-002) (22, 2.35262557864189150000e-001) (23, -2.48360782861709590000e-002) (24, 5.08695185184478760000e-001) (25, 1.90349653363227840000e-001) (26, 2.01590508222579960000e-002) (27, -1.12491182982921600000e-001) (28, 7.94007033109664920000e-002) (29, -9.05892550945281980000e-002) (30, 4.57968860864639280000e-001) (31, -6.46799057722091670000e-002) (32, -8.66890996694564820000e-002) (33, 5.50675213336944580000e-001) (34, -2.33271196484565730000e-001) (35, -7.77596682310104370000e-002) (36, 4.19187098741531370000e-001) (37, -2.39106133580207820000e-001) (38, -1.63399875164031980000e-002) (39, 3.51411640644073490000e-001) (40, 6.96862578392028810000e-001) (41, -8.57021007686853410000e-003) (42, 5.61331927776336670000e-001) (43, 7.37719476222991940000e-001) (44, -4.44588810205459590000e-002) (45, 3.53115499019622800000e-002) (46, 4.05355244874954220000e-002) (47, -1.54126837849617000000e-001) (48, -2.31611028313636780000e-001) (0, 6.68945074081420900000e-001) (1, -2.77743518352508540000e-001) (2, -3.18088978528976440000e-002) (3, 6.98034405708312990000e-001) (4, 2.36399695277214050000e-001) (5, -6.40903860330581670000e-002) (6, 6.51580572128295900000e-001) (7, 3.82710546255111690000e-001) (8, -8.09605121612548830000e-002) (9, 6.29845976829528810000e-001) (10, 4.06087011098861690000e-001) (11, -1.48910954594612120000e-001) (12, 6.97179913520812990000e-001) (13, 5.03560125827789310000e-001) (14, -1.09634831547737120000e-001) (15, 3.47761094570159910000e-001) (16, 4.42457884550094600000e-001) (17, -1.26541569828987120000e-001) (18, 6.89361333847045900000e-001) (19, -8.76343168783932920000e-004) (20, -6.27354085445404050000e-002) (21, 9.10787284374237060000e-002) (22, 2.38190278410911560000e-001) (23, -3.02525013685226440000e-002) (24, 7.48522698879241940000e-001) (25, 1.11757934093475340000e-001) (26, -7.35264271497726440000e-002) (27, 1.49690791964530940000e-001) (28, -3.41723812744021420000e-003) (29, -2.45396047830581670000e-002) (30, 6.05615019798278810000e-001) (31, -3.07955920696258540000e-001) (32, -1.76089912652969360000e-001) (33, 7.22167730331420900000e-001) (34, -2.92788684368133540000e-001) (35, -6.75388723611831670000e-002) (36, 6.88708245754241940000e-001) (37, -4.32168573141098020000e-001) (38, -1.40579655766487120000e-001) (39, 4.66736912727355960000e-001) (40, 4.17130261659622190000e-001) (41, -9.05796438455581670000e-002) (42, 5.91918706893920900000e-001) (43, 5.30954718589782710000e-001) (44, -1.04050114750862120000e-001) (45, -9.97718796133995060000e-003) (46, -4.56454604864120480000e-002) (47, -7.63828754425048830000e-002) (48, -4.19515967369079590000e-001) (0, -4.14335727691650390000e-001) (1, 5.31837761402130130000e-001) (2, 2.64560639858245850000e-001) (3, -2.54179477691650390000e-001) (4, -1.51398584246635440000e-001) (5, 2.96707868576049800000e-001) (6, -4.17851388454437260000e-001) (7, -3.91116321086883540000e-001) (8, 4.53549891710281370000e-001) (9, -3.93364071846008300000e-001) (10, -4.29226666688919070000e-001) (11, 4.00601893663406370000e-001) (12, -4.48979377746582030000e-001) (13, -3.70077490806579590000e-001) (14, 2.99497187137603760000e-001) (15, -1.37951478362083440000e-001) (16, -3.68807971477508540000e-001) (17, 4.23361927270889280000e-001) (18, -2.77952671051025390000e-001) (19, 1.48924261331558230000e-001) (20, 3.33194702863693240000e-001) (21, 2.65371143817901610000e-001) (22, 1.49147799238562580000e-002) (23, 2.73068964481353760000e-001) (24, -2.93144345283508300000e-001) (25, 5.27084358036518100000e-002) (26, 2.67398774623870850000e-001) (27, 2.65761792659759520000e-001) (28, 1.32681027054786680000e-001) (29, 3.01084101200103760000e-001) (30, -3.69712948799133300000e-001) (31, 4.98945921659469600000e-001) (32, 3.09329956769943240000e-001) (33, -3.73826682567596440000e-001) (34, 5.41682720184326170000e-001) (35, 3.13046991825103760000e-001) (36, -3.50187778472900390000e-001) (37, 5.74769854545593260000e-001) (38, 3.76938581466674800000e-001) (39, -1.60180494189262390000e-001) (40, -2.28507995605468750000e-001) (41, 2.71268427371978760000e-001) (42, -2.93180942535400390000e-001) (43, -2.06675708293914790000e-001) (44, 3.15738648176193240000e-001) (45, 2.27718561887741090000e-001) (46, 1.92253634333610530000e-001) (47, 3.24271351099014280000e-001) (48, 3.82600694894790650000e-001) (0, 4.71597999334335330000e-001) (1, -9.73336845636367800000e-002) (2, -1.39313623309135440000e-001) (3, 4.37931030988693240000e-001) (4, 2.83872187137603760000e-001) (5, -6.73897862434387210000e-002) (6, 4.06180530786514280000e-001) (7, 3.67164731025695800000e-001) (8, -1.04676187038421630000e-001) (9, 5.41660308837890630000e-001) (10, 2.97444283962249760000e-001) (11, -2.82052159309387210000e-002) (12, 3.78012806177139280000e-001) (13, 4.88044857978820800000e-001) (14, -8.98812413215637210000e-002) (15, 3.82863074541091920000e-001) (16, 3.60347092151641850000e-001) (17, -1.57296359539031980000e-002) (18, 5.45426189899444580000e-001) (19, 9.60686430335044860000e-002) (20, -6.90987706184387210000e-002) (21, -5.54965473711490630000e-002) (22, 2.22317010164260860000e-001) (23, -1.78310321643948550000e-003) (24, 5.73325335979461670000e-001) (25, 2.35826954245567320000e-001) (26, -5.65499365329742430000e-002) (27, -9.50534418225288390000e-002) (28, 6.55884593725204470000e-002) (29, -6.61263614892959590000e-002) (30, 4.39908534288406370000e-001) (31, -8.96615833044052120000e-002) (32, -1.34705483913421630000e-001) (33, 4.44950073957443240000e-001) (34, -2.10859075188636780000e-001) (35, -2.86019444465637210000e-002) (36, 5.26193976402282710000e-001) (37, -2.34333202242851260000e-001) (38, 2.45413631200790410000e-002) (39, 2.65632838010787960000e-001) (40, 7.36309587955474850000e-001) (41, -5.12703955173492430000e-002) (42, 4.96543079614639280000e-001) (43, 7.08483636379241940000e-001) (44, 2.08121240139007570000e-002) (45, 8.66482257843017580000e-002) (46, 1.05757668614387510000e-001) (47, 1.06131425127387050000e-002) (48, -1.61219179630279540000e-001) (0, 1.83453559875488280000e-001) (1, 1.46117579936981200000e+000) (2, -7.68393054604530330000e-002) (3, 9.08083096146583560000e-002) (4, 4.18401986360549930000e-001) (5, -1.45052209496498110000e-001) (6, 1.98346138000488280000e-001) (7, -1.47231471538543700000e+000) (8, -1.01241141557693480000e-001) (9, 2.17376887798309330000e-001) (10, -1.50963783264160160000e+000) (11, -1.62117645144462590000e-001) (12, 1.59308046102523800000e-001) (13, -1.63548004627227780000e+000) (14, -1.17977008223533630000e-001) (15, 4.93896573781967160000e-001) (16, -1.54334747791290280000e+000) (17, -8.00497606396675110000e-002) (18, 5.76051734387874600000e-002) (19, -4.15898799896240230000e-001) (20, -7.51181021332740780000e-002) (21, 7.96731591224670410000e-001) (22, -7.16518104076385500000e-001) (23, -1.56929656863212590000e-001) (24, 9.81691554188728330000e-002) (25, -3.02721261978149410000e-001) (26, -1.13167449831962590000e-001) (27, 7.88296520709991460000e-001) (28, -3.16447436809539790000e-001) (29, -1.29854455590248110000e-001) (30, 1.98095902800560000000e-001) (31, 1.47266876697540280000e+000) (32, -1.11360803246498110000e-001) (33, 9.58314910531044010000e-002) (34, 1.53789091110229490000e+000) (35, -1.36543914675712590000e-001) (36, 2.22540497779846190000e-001) (37, 1.61646151542663570000e+000) (38, -8.49752798676490780000e-002) (39, 3.82238864898681640000e-001) (40, 1.91921740770339970000e-001) (41, -1.50106810033321380000e-002) (42, 1.11071981489658360000e-001) (43, 8.97733047604560850000e-002) (44, -1.56014129519462590000e-001) (45, 8.37655663490295410000e-001) (46, 9.75692927837371830000e-001) (47, -2.88107134401798250000e-002) (48, 1.59433627128601070000e+000) (0, 3.99637550115585330000e-001) (1, -2.20441594719886780000e-001) (2, -4.40150545910000800000e-003) (3, 4.90573853254318240000e-001) (4, 2.91525989770889280000e-001) (5, -1.90079721505753700000e-004) (6, 5.73368072509765630000e-001) (7, 4.41499471664428710000e-001) (8, -1.02039456367492680000e-001) (9, 3.96836012601852420000e-001) (10, 3.22505295276641850000e-001) (11, -1.47896865382790570000e-002) (12, 4.90915626287460330000e-001) (13, 4.33082699775695800000e-001) (14, -5.73207484558224680000e-003) (15, 2.61073529720306400000e-001) (16, 4.68312203884124760000e-001) (17, 2.88748592138290410000e-002) (18, 5.17252326011657710000e-001) (19, 2.30315476655960080000e-001) (20, -1.20795547962188720000e-001) (21, -5.41293509304523470000e-002) (22, 3.81148785352706910000e-001) (23, -7.23519474267959590000e-002) (24, 4.83042091131210330000e-001) (25, 6.51360228657722470000e-002) (26, 2.24783867597579960000e-002) (27, 3.98281514644622800000e-002) (28, 1.26501545310020450000e-001) (29, 1.01370653137564660000e-002) (30, 4.67111915349960330000e-001) (31, -2.38312676548957820000e-001) (32, 9.41075291484594350000e-003) (33, 4.26871448755264280000e-001) (34, -1.25776067376136780000e-001) (35, 2.72740377113223080000e-003) (36, 4.35105115175247190000e-001) (37, -1.57898873090744020000e-001) (38, -5.00313937664031980000e-002) (39, 3.32356482744216920000e-001) (40, 6.85436785221099850000e-001) (41, 1.84866786003112790000e-002) (42, 4.40775245428085330000e-001) (43, 7.00646758079528810000e-001) (44, -8.63228887319564820000e-002) (45, -3.19247692823410030000e-002) (46, 7.68636465072631840000e-002) (47, -3.54073643684387210000e-002) (48, -1.65497750043869020000e-001) (0, 5.87676763534545900000e-001) (1, -4.36776727437973020000e-001) (2, -9.12266224622726440000e-002) (3, 6.20867669582366940000e-001) (4, 3.28990012407302860000e-001) (5, -1.09622627496719360000e-001) (6, 7.44866728782653810000e-001) (7, 5.72529911994934080000e-001) (8, -1.78726613521575930000e-001) (9, 7.65734612941741940000e-001) (10, 3.97481054067611690000e-001) (11, -8.88481736183166500000e-004) (12, 6.28185808658599850000e-001) (13, 4.60237413644790650000e-001) (14, -1.53458073735237120000e-001) (15, 4.74750846624374390000e-001) (16, 5.52589714527130130000e-001) (17, -6.31565600633621220000e-002) (18, 6.16576910018920900000e-001) (19, 6.91859200596809390000e-002) (20, -1.39438316226005550000e-001) (21, 1.55037447810173030000e-001) (22, 1.41937851905822750000e-001) (23, -1.19852110743522640000e-001) (24, 7.26934552192687990000e-001) (25, 2.41358652710914610000e-002) (26, -1.82895332574844360000e-001) (27, -1.72769911587238310000e-002) (28, 1.18189200758934020000e-001) (29, -1.57779380679130550000e-001) (30, 7.29668974876403810000e-001) (31, -4.10201996564865110000e-001) (32, -1.07742741703987120000e-001) (33, 6.18072271347045900000e-001) (34, -3.40902686119079590000e-001) (35, -1.69449284672737120000e-001) (36, 6.15521013736724850000e-001) (37, -4.22854602336883540000e-001) (38, -1.96841865777969360000e-001) (39, 3.97779405117034910000e-001) (40, 4.05521363019943240000e-001) (41, -1.05057194828987120000e-001) (42, 5.97643792629241940000e-001) (43, 4.83841627836227420000e-001) (44, -1.43649742007255550000e-001) (45, 1.64076790213584900000e-001) (46, 2.92263478040695190000e-002) (47, -8.05088430643081670000e-002) (48, -4.03506457805633540000e-001) (0, 6.70794427394866940000e-001) (1, -3.31472754478454590000e-001) (2, -6.76853656768798830000e-002) (3, 6.21630609035491940000e-001) (4, 3.43290567398071290000e-001) (5, -1.94540828466415410000e-001) (6, 6.02557122707366940000e-001) (7, 4.60103124380111690000e-001) (8, -1.31656333804130550000e-001) (9, 7.20080316066741940000e-001) (10, 4.73109722137451170000e-001) (11, -1.96140706539154050000e-002) (12, 6.87518060207366940000e-001) (13, 4.89851683378219600000e-001) (14, -1.63914114236831670000e-002) (15, 5.39606809616088870000e-001) (16, 5.68410038948059080000e-001) (17, -1.57486394047737120000e-001) (18, 5.87316632270812990000e-001) (19, 1.52175426483154300000e-001) (20, -4.95518147945404050000e-002) (21, -4.75868210196495060000e-003) (22, 2.12305292487144470000e-001) (23, -1.65744468569755550000e-001) (24, 6.54394268989562990000e-001) (25, 1.16054818034172060000e-001) (26, -1.12509593367576600000e-001) (27, 1.26015245914459230000e-001) (28, -5.36247640848159790000e-002) (29, -8.06980580091476440000e-002) (30, 7.05932378768920900000e-001) (31, -3.39010596275329590000e-001) (32, -8.89439135789871220000e-002) (33, 6.67590081691741940000e-001) (34, -3.16281110048294070000e-001) (35, -1.35605290532112120000e-001) (36, 6.09130620956420900000e-001) (37, -4.43868994712829590000e-001) (38, -4.89048510789871220000e-002) (39, 5.06202220916748050000e-001) (40, 5.02774775028228760000e-001) (41, -1.96880102157592770000e-003) (42, 6.16619646549224850000e-001) (43, 4.03794020414352420000e-001) (44, -1.90708637237548830000e-002) (45, -8.40857997536659240000e-003) (46, 7.91836380958557130000e-002) (47, -1.36551335453987120000e-001) (48, -2.90774524211883540000e-001) (0, 1.50640934705734250000e-001) (1, -1.60428500175476070000e+000) (2, 4.20297592878341670000e-001) (3, 1.52111887931823730000e-001) (4, -1.19203135371208190000e-001) (5, 2.88620352745056150000e-001) (6, 1.83776929974555970000e-001) (7, 1.56369054317474370000e+000) (8, 2.80118137598037720000e-001) (9, 7.87476301193237300000e-002) (10, 1.61188995838165280000e+000) (11, 4.11703854799270630000e-001) (12, 1.28997877240180970000e-001) (13, 1.60548734664916990000e+000) (14, 4.59640860557556150000e-001) (15, -6.72196224331855770000e-002) (16, 1.62294960021972660000e+000) (17, 4.24576163291931150000e-001) (18, 7.38953351974487300000e-002) (19, 5.21834313869476320000e-001) (20, 3.52212876081466670000e-001) (21, -5.06906926631927490000e-001) (22, 8.95159661769866940000e-001) (23, 3.29080551862716670000e-001) (24, 1.65301591157913210000e-001) (25, 5.19374608993530270000e-001) (26, 2.84744620323181150000e-001) (27, -5.01242876052856450000e-001) (28, 5.38278937339782710000e-001) (29, 4.63821768760681150000e-001) (30, 1.97699055075645450000e-001) (31, -1.57852208614349370000e+000) (32, 3.55289041996002200000e-001) (33, 1.71038895845413210000e-001) (34, -1.60335719585418700000e+000) (35, 3.29135477542877200000e-001) (36, 9.68933850526809690000e-002) (37, -1.45932650566101070000e+000) (38, 4.40896958112716670000e-001) (39, -1.76887601613998410000e-001) (40, 4.83405739068984990000e-002) (41, 3.61801505088806150000e-001) (42, 2.10650712251663210000e-001) (43, 7.78271304443478580000e-003) (44, 2.80545383691787720000e-001) (45, -5.76877653598785400000e-001) (46, -7.58581399917602540000e-001) (47, 2.73782670497894290000e-001) (48, -1.55189847946166990000e+000) (0, 4.96060878038406370000e-001) (1, -2.15186461806297300000e-001) (2, -1.80751131847500800000e-003) (3, 5.21799445152282710000e-001) (4, 3.98349702358245850000e-001) (5, -7.48971104621887210000e-002) (6, 5.18436431884765630000e-001) (7, 4.68855440616607670000e-001) (8, -4.79684025049209590000e-002) (9, 4.54752296209335330000e-001) (10, 4.02827620506286620000e-001) (11, 3.86465936899185180000e-002) (12, 4.77445155382156370000e-001) (13, 3.42689633369445800000e-001) (14, -7.14608430862426760000e-002) (15, 2.56874293088912960000e-001) (16, 3.21400582790374760000e-001) (17, -1.60840705037117000000e-001) (18, 5.04697382450103760000e-001) (19, 2.32213675975799560000e-001) (20, -7.66488313674926760000e-002) (21, 3.61599326133728030000e-002) (22, 3.25289428234100340000e-001) (23, 5.91173244174569850000e-004) (24, 4.96952027082443240000e-001) (25, 7.87224546074867250000e-002) (26, -4.47396337985992430000e-002) (27, -9.74704325199127200000e-002) (28, 2.10376054048538210000e-001) (29, -2.26571261882781980000e-002) (30, 4.04691249132156370000e-001) (31, -5.57321086525917050000e-002) (32, -6.29403293132781980000e-002) (33, 4.33817237615585330000e-001) (34, -1.64331972599029540000e-001) (35, -8.43148380517959590000e-002) (36, 4.71988648176193240000e-001) (37, -9.85421836376190190000e-002) (38, -2.99569219350814820000e-002) (39, 3.53114515542984010000e-001) (40, 7.54070818424224850000e-001) (41, -1.01624429225921630000e-001) (42, 5.08170306682586670000e-001) (43, 6.83935284614562990000e-001) (44, -1.12525284290313720000e-001) (45, 3.54702323675155640000e-002) (46, 2.90425978600978850000e-002) (47, -1.17102921009063720000e-001) (48, -1.58588558435440060000e-001) (0, 4.10971790552139280000e-001) (1, -1.19342967867851260000e-001) (2, -1.34595602750778200000e-001) (3, 5.26535749435424800000e-001) (4, 4.53220307826995850000e-001) (5, -1.13045880571007730000e-002) (6, 4.36673671007156370000e-001) (7, 3.06141793727874760000e-001) (8, 7.06089986488223080000e-003) (9, 4.60373610258102420000e-001) (10, 3.59675705432891850000e-001) (11, -1.10559970140457150000e-001) (12, 5.33591449260711670000e-001) (13, 3.30989181995391850000e-001) (14, -1.53540924191474910000e-001) (15, 2.95570582151412960000e-001) (16, 4.05146956443786620000e-001) (17, -4.33724522590637210000e-002) (18, 4.41355079412460330000e-001) (19, 6.94084838032722470000e-002) (20, 2.72391289472579960000e-002) (21, -9.26730707287788390000e-002) (22, 3.75728875398635860000e-001) (23, -7.97738283872604370000e-002) (24, 4.36771363019943240000e-001) (25, 1.28228068351745610000e-001) (26, 4.42418409511446950000e-003) (27, 4.82143759727478030000e-002) (28, 1.35064780712127690000e-001) (29, -1.05872452259063720000e-001) (30, 5.53610980510711670000e-001) (31, -2.15613707900047300000e-001) (32, -9.79134738445281980000e-002) (33, 5.44571697711944580000e-001) (34, -2.00165703892707820000e-001) (35, -1.08014792203903200000e-001) (36, 5.62345087528228760000e-001) (37, -2.04450383782386780000e-001) (38, 2.34244316816329960000e-002) (39, 3.92500519752502440000e-001) (40, 7.17626690864562990000e-001) (41, 2.14163661003112790000e-002) (42, 4.21237915754318240000e-001) (43, 6.28130853176116940000e-001) (44, -8.52181613445281980000e-002) (45, -5.62655813992023470000e-002) (46, 1.24251335859298710000e-001) (47, -1.34357571601867680000e-001) (48, -1.97223797440528870000e-001) (0, -4.36582267284393310000e-001) (1, -1.61042451858520510000e-001) (2, 3.12054514884948730000e-001) (3, -5.37992179393768310000e-001) (4, -2.83124744892120360000e-001) (5, 3.40240538120269780000e-001) (6, -5.45298039913177490000e-001) (7, 2.84255832433700560000e-001) (8, 3.60418796539306640000e-001) (9, -5.77512443065643310000e-001) (10, 3.81600797176361080000e-001) (11, 3.09368968009948730000e-001) (12, -5.76517522335052490000e-001) (13, 2.22683563828468320000e-001) (14, 3.91131669282913210000e-001) (15, -1.20497748255729680000e-001) (16, 3.53335410356521610000e-001) (17, 3.50122153759002690000e-001) (18, -5.64511954784393310000e-001) (19, 2.69421488046646120000e-002) (20, 3.73889237642288210000e-001) (21, 1.36145099997520450000e-001) (22, 2.48358517885208130000e-001) (23, 4.73956406116485600000e-001) (24, -4.61838603019714360000e-001) (25, -2.27536214515566830000e-003) (26, 3.21020573377609250000e-001) (27, 2.86133624613285060000e-002) (28, 3.62636893987655640000e-002) (29, 3.48236143589019780000e-001) (30, -5.96067130565643310000e-001) (31, -2.87426412105560300000e-002) (32, 4.37835782766342160000e-001) (33, -5.35929143428802490000e-001) (34, -1.25953331589698790000e-001) (35, 3.69781583547592160000e-001) (36, -4.22525823116302490000e-001) (37, -1.84406712651252750000e-001) (38, 3.71484458446502690000e-001) (39, 6.55304268002510070000e-003) (40, -7.80700504779815670000e-001) (41, 3.95263761281967160000e-001) (42, -5.66220939159393310000e-001) (43, -8.20330679416656490000e-001) (44, 3.19574058055877690000e-001) (45, 2.66480185091495510000e-002) (46, 1.00556135177612300000e-001) (47, 4.29138273000717160000e-001) (48, -9.81213077902793880000e-002) (0, 1.86450392007827760000e-001) (1, 1.46956813335418700000e+000) (2, 9.11042466759681700000e-003) (3, 2.09710896015167240000e-001) (4, 4.00927633047103880000e-001) (5, -1.18929162621498110000e-001) (6, 2.24664509296417240000e-001) (7, -1.54270660877227780000e+000) (8, -8.37301686406135560000e-002) (9, 4.97438423335552220000e-002) (10, -1.57313263416290280000e+000) (11, -1.37337371706962590000e-001) (12, 1.76574900746345520000e-001) (13, -1.54568517208099370000e+000) (14, -6.13485649228096010000e-002) (15, 4.93628025054931640000e-001) (16, -1.49437284469604490000e+000) (17, -4.25619557499885560000e-002) (18, 2.05145463347435000000e-001) (19, -2.78386533260345460000e-001) (20, -1.08528777956962590000e-001) (21, 8.00979614257812500000e-001) (22, -5.65517127513885500000e-001) (23, -1.28456756472587590000e-001) (24, 5.03908209502696990000e-002) (25, -3.18401187658309940000e-001) (26, -5.08383288979530330000e-002) (27, 7.40542650222778320000e-001) (28, -3.46372961997985840000e-001) (29, -5.40976002812385560000e-002) (30, 2.13684260845184330000e-001) (31, 1.49498319625854490000e+000) (32, -1.78536102175712590000e-001) (33, 7.69350081682205200000e-002) (34, 1.51909208297729490000e+000) (35, -4.35141101479530330000e-002) (36, 2.03112989664077760000e-001) (37, 1.58721959590911870000e+000) (38, -8.85833799839019780000e-003) (39, 4.11370933055877690000e-001) (40, 2.64089703559875490000e-001) (41, -1.06300979852676390000e-001) (42, 1.97570994496345520000e-001) (43, 2.27584585547447200000e-001) (44, -6.67929127812385560000e-002) (45, 7.78494298458099370000e-001) (46, 9.78518903255462650000e-001) (47, -6.56088367104530330000e-002) (48, 1.64674103260040280000e+000) (0, 1.13751418888568880000e-001) (1, 1.64135169982910160000e+000) (2, -1.88118621706962590000e-001) (3, 2.09442332386970520000e-001) (4, 3.90429586172103880000e-001) (5, 8.11554864048957820000e-003) (6, 7.20216780900955200000e-002) (7, -1.61565589904785160000e+000) (8, -3.59884537756443020000e-002) (9, 2.11187943816185000000e-001) (10, -1.64538002014160160000e+000) (11, -3.50362993776798250000e-002) (12, 1.47699177265167240000e-001) (13, -1.59715604782104490000e+000) (14, -8.06295946240425110000e-002) (15, 3.36523503065109250000e-001) (16, -1.47013580799102780000e+000) (17, 1.60309858620166780000e-003) (18, 9.49831083416938780000e-002) (19, -4.33775961399078370000e-001) (20, -2.82186903059482570000e-002) (21, 7.47970581054687500000e-001) (22, -5.61385095119476320000e-001) (23, -2.84637324512004850000e-003) (24, 1.39514356851577760000e-001) (25, -3.23601365089416500000e-001) (26, -1.01936966180801390000e-001) (27, 8.34500133991241460000e-001) (28, -1.71818494796752930000e-001) (29, -8.22592154145240780000e-002) (30, 1.17462359368801120000e-001) (31, 1.50849640369415280000e+000) (32, -4.17562797665596010000e-002) (33, 1.79065138101577760000e-001) (34, 1.64199256896972660000e+000) (35, -1.00203543901443480000e-001) (36, 1.37396425008773800000e-001) (37, 1.49083280563354490000e+000) (38, -1.36482879519462590000e-001) (39, 4.36694413423538210000e-001) (40, 1.84524282813072200000e-001) (41, -1.27992883324623110000e-001) (42, 1.57361030578613280000e-001) (43, 2.23293811082839970000e-001) (44, -5.70089593529701230000e-002) (45, 7.91891515254974370000e-001) (46, 8.09585750102996830000e-001) (47, -7.11202993988990780000e-002) (48, 1.59583771228790280000e+000) (0, 7.25030303001403810000e-001) (1, -4.54989612102508540000e-001) (2, -4.86118793487548830000e-002) (3, 6.20519757270812990000e-001) (4, 2.73307651281356810000e-001) (5, -1.49728819727897640000e-001) (6, 6.18688702583312990000e-001) (7, 4.94453728199005130000e-001) (8, -1.86356008052825930000e-001) (9, 7.49413847923278810000e-001) (10, 4.58662718534469600000e-001) (11, -1.04666575789451600000e-001) (12, 7.50970244407653810000e-001) (13, 5.05165398120880130000e-001) (14, -7.10300952196121220000e-002) (15, 4.04767930507659910000e-001) (16, 5.43934941291809080000e-001) (17, -1.21219307184219360000e-001) (18, 6.62371575832366940000e-001) (19, 5.83704784512519840000e-002) (20, -1.10953196883201600000e-001) (21, 1.54067024588584900000e-001) (22, 2.73389279842376710000e-001) (23, -4.59812581539154050000e-002) (24, 7.38891363143920900000e-001) (25, 1.72719851136207580000e-001) (26, -3.74912768602371220000e-002) (27, 1.39418572187423710000e-001) (28, -2.98393666744232180000e-002) (29, -1.82217836380004880000e-001) (30, 7.15545415878295900000e-001) (31, -4.26614373922348020000e-001) (32, -1.18851140141487120000e-001) (33, 7.42620587348937990000e-001) (34, -3.18661481142044070000e-001) (35, -3.24070453643798830000e-002) (36, 6.18853509426116940000e-001) (37, -3.53591889142990110000e-001) (38, -1.04099661111831670000e-002) (39, 3.59699577093124390000e-001) (40, 4.44394618272781370000e-001) (41, -6.04160726070404050000e-002) (42, 7.74462640285491940000e-001) (43, 4.37540382146835330000e-001) (44, -1.06473207473754880000e-001) (45, 1.05373159050941470000e-001) (46, 3.88453947380185130000e-003) (47, -7.12192952632904050000e-002) (48, -4.17843610048294070000e-001) (0, 6.34522289037704470000e-002) (1, -1.45264923572540280000e+000) (2, 3.40597897768020630000e-001) (3, 2.93213613331317900000e-002) (4, -2.56483435630798340000e-001) (5, 2.91312009096145630000e-001) (6, 8.13660472631454470000e-002) (7, 1.61925077438354490000e+000) (8, 3.72439920902252200000e-001) (9, 2.12786942720413210000e-001) (10, 1.51278722286224370000e+000) (11, 2.91812479496002200000e-001) (12, 1.64581373333930970000e-001) (13, 1.49808382987976070000e+000) (14, 4.02682840824127200000e-001) (15, -1.15382462739944460000e-001) (16, 1.59416532516479490000e+000) (17, 4.21872287988662720000e-001) (18, 7.58423656225204470000e-002) (19, 6.54524743556976320000e-001) (20, 2.78494626283645630000e-001) (21, -5.78611075878143310000e-001) (22, 8.48303020000457760000e-001) (23, 3.77103000879287720000e-001) (24, 3.41553390026092530000e-002) (25, 5.68337023258209230000e-001) (26, 3.88602048158645630000e-001) (27, -5.16892313957214360000e-001) (28, 4.53043311834335330000e-001) (29, 3.49417477846145630000e-001) (30, 5.13611584901809690000e-002) (31, -1.57110631465911870000e+000) (32, 4.28714334964752200000e-001) (33, 1.61108464002609250000e-001) (34, -1.59669220447540280000e+000) (35, 4.54721421003341670000e-001) (36, 1.54534980654716490000e-001) (37, -1.64905428886413570000e+000) (38, 3.01211893558502200000e-001) (39, -2.53370761871337890000e-001) (40, -6.90544471144676210000e-002) (41, 3.55044901371002200000e-001) (42, 2.06323310732841490000e-001) (43, 9.89448130130767820000e-002) (44, 4.59353983402252200000e-001) (45, -4.30588603019714360000e-001) (46, -6.64208829402923580000e-001) (47, 3.46884518861770630000e-001) (48, -1.60774564743041990000e+000) (0, 4.52882759273052220000e-002) (1, 1.58605372905731200000e+000) (2, -1.65804162621498110000e-001) (3, 5.02870567142963410000e-002) (4, 4.13378804922103880000e-001) (5, -3.74358706176280980000e-003) (6, 1.56250193715095520000e-001) (7, -1.57318150997161870000e+000) (8, -7.22799673676490780000e-002) (9, 2.16644465923309330000e-001) (10, -1.56157863140106200000e+000) (11, -5.67953363060951230000e-002) (12, 2.33484089374542240000e-001) (13, -1.54448270797729490000e+000) (14, -1.83510467410087590000e-001) (15, 4.23986911773681640000e-001) (16, -1.60166049003601070000e+000) (17, -9.82931554317474370000e-002) (18, 8.36183577775955200000e-002) (19, -3.83214414119720460000e-001) (20, -1.79164752364158630000e-001) (21, 7.48373448848724370000e-001) (22, -5.54366052150726320000e-001) (23, -1.01216733455657960000e-001) (24, 1.24456979334354400000e-001) (25, -4.21642184257507320000e-001) (26, -5.69601431488990780000e-002) (27, 7.83401489257812500000e-001) (28, -1.79301440715789790000e-001) (29, -1.49648144841194150000e-001) (30, 2.05645948648452760000e-001) (31, 1.63640165328979490000e+000) (32, -5.43112233281135560000e-002) (33, 1.57654002308845520000e-001) (34, 1.62028229236602780000e+000) (35, -8.76669362187385560000e-002) (36, 8.89345183968544010000e-002) (37, 1.47473180294036870000e+000) (38, -1.21541455388069150000e-001) (39, 3.45605552196502690000e-001) (40, 1.35757192969322200000e-001) (41, -1.33089318871498110000e-001) (42, 7.92848616838455200000e-002) (43, 8.02945420145988460000e-002) (44, -2.43795849382877350000e-002) (45, 7.67178356647491460000e-001) (46, 9.11917269229888920000e-001) (47, -1.06001883745193480000e-001) (48, 1.51387977600097660000e+000) (49, 4.62560921907424930000e-001) (50, -8.88401418924331670000e-002) (51, -5.65250456333160400000e-001) (52, -2.12397754192352290000e-001) (53, 4.79940176010131840000e-002) (54, 6.93746358156204220000e-002) (55, -1.91202461719512940000e-002) (56, 5.52816092967987060000e-002) (57, -7.45213031768798830000e-002) (58, -4.38025966286659240000e-003) (59, -1.04842215776443480000e-001) (60, 4.56750020384788510000e-003) (61, 3.34378778934478760000e-001) (62, 7.08944201469421390000e-002) (63, 9.69882428646087650000e-001) (64, -6.07703998684883120000e-003) (65, 2.64521688222885130000e-004) (66, 2.15438291430473330000e-001) (67, -2.34413117170333860000e-001) (68, -7.86559879779815670000e-001) (69, 7.37081319093704220000e-002) (70, 4.28936660289764400000e-001) (71, -1.97120636701583860000e-001) (72, -1.46877467632293700000e+000) 
