FANN_FLO_2.1
num_layers=28
learning_rate=0.500000
connection_rate=1.000000
network_type=1
learning_momentum=0.000000
training_algorithm=2
train_error_function=1
train_stop_function=0
cascade_output_change_fraction=0.010000
quickprop_decay=-0.000100
quickprop_mu=1.750000
rprop_increase_factor=1.200000
rprop_decrease_factor=0.500000
rprop_delta_min=0.000000
rprop_delta_max=50.000000
rprop_delta_zero=0.100000
cascade_output_stagnation_epochs=12
cascade_candidate_change_fraction=0.010000
cascade_candidate_stagnation_epochs=12
cascade_max_out_epochs=150
cascade_min_out_epochs=50
cascade_max_cand_epochs=150
cascade_min_cand_epochs=50
cascade_num_candidate_groups=2
bit_fail_limit=3.49999994039535520000e-001
cascade_candidate_limit=1.00000000000000000000e+003
cascade_weight_multiplier=4.00000005960464480000e-001
cascade_activation_functions_count=10
cascade_activation_functions=3 5 7 8 10 11 14 15 16 17 
cascade_activation_steepnesses_count=4
cascade_activation_steepnesses=2.50000000000000000000e-001 5.00000000000000000000e-001 7.50000000000000000000e-001 1.00000000000000000000e+000 
layer_sizes=49 1 1 1 1 1 1 1 1 1 1 1 1 1 1 1 1 1 1 1 1 1 1 1 1 1 1 1 
scale_included=0
neurons (num_inputs, activation_function, activation_steepness)=(0, 0, 0.00000000000000000000e+000) (0, 0, 0.00000000000000000000e+000) (0, 0, 0.00000000000000000000e+000) (0, 0, 0.00000000000000000000e+000) (0, 0, 0.00000000000000000000e+000) (0, 0, 0.00000000000000000000e+000) (0, 0, 0.00000000000000000000e+000) (0, 0, 0.00000000000000000000e+000) (0, 0, 0.00000000000000000000e+000) (0, 0, 0.00000000000000000000e+000) (0, 0, 0.00000000000000000000e+000) (0, 0, 0.00000000000000000000e+000) (0, 0, 0.00000000000000000000e+000) (0, 0, 0.00000000000000000000e+000) (0, 0, 0.00000000000000000000e+000) (0, 0, 0.00000000000000000000e+000) (0, 0, 0.00000000000000000000e+000) (0, 0, 0.00000000000000000000e+000) (0, 0, 0.00000000000000000000e+000) (0, 0, 0.00000000000000000000e+000) (0, 0, 0.00000000000000000000e+000) (0, 0, 0.00000000000000000000e+000) (0, 0, 0.00000000000000000000e+000) (0, 0, 0.00000000000000000000e+000) (0, 0, 0.00000000000000000000e+000) (0, 0, 0.00000000000000000000e+000) (0, 0, 0.00000000000000000000e+000) (0, 0, 0.00000000000000000000e+000) (0, 0, 0.00000000000000000000e+000) (0, 0, 0.00000000000000000000e+000) (0, 0, 0.00000000000000000000e+000) (0, 0, 0.00000000000000000000e+000) (0, 0, 0.00000000000000000000e+000) (0, 0, 0.00000000000000000000e+000) (0, 0, 0.00000000000000000000e+000) (0, 0, 0.00000000000000000000e+000) (0, 0, 0.00000000000000000000e+000) (0, 0, 0.00000000000000000000e+000) (0, 0, 0.00000000000000000000e+000) (0, 0, 0.00000000000000000000e+000) (0, 0, 0.00000000000000000000e+000) (0, 0, 0.00000000000000000000e+000) (0, 0, 0.00000000000000000000e+000) (0, 0, 0.00000000000000000000e+000) (0, 0, 0.00000000000000000000e+000) (0, 0, 0.00000000000000000000e+000) (0, 0, 0.00000000000000000000e+000) (0, 0, 0.00000000000000000000e+000) (0, 0, 0.00000000000000000000e+000) (49, 5, 1.00000000000000000000e+000) (50, 15, 2.50000000000000000000e-001) (51, 8, 2.50000000000000000000e-001) (52, 15, 2.50000000000000000000e-001) (53, 15, 2.50000000000000000000e-001) (54, 10, 2.50000000000000000000e-001) (55, 17, 2.50000000000000000000e-001) (56, 15, 1.00000000000000000000e+000) (57, 10, 2.50000000000000000000e-001) (58, 10, 7.50000000000000000000e-001) (59, 3, 7.50000000000000000000e-001) (60, 3, 1.00000000000000000000e+000) (61, 10, 7.50000000000000000000e-001) (62, 7, 7.50000000000000000000e-001) (63, 10, 2.50000000000000000000e-001) (64, 7, 2.50000000000000000000e-001) (65, 15, 7.50000000000000000000e-001) (66, 10, 7.50000000000000000000e-001) (67, 15, 7.50000000000000000000e-001) (68, 15, 2.50000000000000000000e-001) (69, 10, 5.00000000000000000000e-001) (70, 10, 1.00000000000000000000e+000) (71, 15, 1.00000000000000000000e+000) (72, 10, 7.50000000000000000000e-001) (73, 15, 1.00000000000000000000e+000) (74, 15, 5.00000000000000000000e-001) (75, 4, 5.00000000000000000000e-001) 
connections (connected_to_neuron, weight)=(0, 4.64468359947204590000e-001) (1, -3.40622901916503910000e+001) (2, -3.84403973817825320000e-001) (3, -1.69816926121711730000e-001) (4, -6.92147541046142580000e+000) (5, 5.81081748008728030000e-001) (6, 1.91460713744163510000e-001) (7, 1.97904324531555180000e+000) (8, 2.02873960137367250000e-001) (9, 8.15550386905670170000e-001) (10, 7.42273139953613280000e+000) (11, 1.15322366356849670000e-001) (12, -1.62655639648437500000e+000) (13, 3.41165113449096680000e+000) (14, -6.05888366699218750000e-001) (15, -1.03984773159027100000e-002) (16, 8.85354280471801760000e-001) (17, -1.46003456115722660000e+001) (18, 3.02984553854912520000e-005) (19, 3.19709837436676030000e-001) (20, -1.49598610401153560000e+000) (21, 3.73616129159927370000e-001) (22, 1.24416742473840710000e-002) (23, 1.62608516216278080000e+000) (24, 8.62759590148925780000e-001) (25, -2.71209716796875000000e-001) (26, 8.23256492614746090000e+000) (27, -5.18223226070404050000e-001) (28, 6.46981954574584960000e-001) (29, 1.84386527538299560000e+000) (30, -7.33576297760009770000e-001) (31, -6.72865331172943120000e-001) (32, -1.07579576969146730000e+000) (33, -3.41133613586425780000e+001) (34, 5.80852283746935430000e-005) (35, -1.49642312526702880000e+000) (36, -1.87666451930999760000e+000) (37, 1.14939033985137940000e+000) (38, -7.33830869197845460000e-001) (39, 2.33344650268554690000e+000) (40, 5.61495125293731690000e-002) (41, 7.89116203784942630000e-001) (42, 1.92171916961669920000e+001) (43, 1.86136698722839360000e+000) (44, -5.33486843109130860000e-001) (45, 2.26867127418518070000e+000) (46, 9.33228015899658200000e-001) (47, 7.38602757453918460000e-001) (48, 1.51612257957458500000e+000) (0, 8.14577415585517880000e-002) (1, 1.04663724899291990000e+001) (2, 9.59367632865905760000e-001) (3, -7.04562515020370480000e-002) (4, 4.61145019531250000000e+000) (5, -4.01874408125877380000e-002) (6, 2.59532183408737180000e-001) (7, 1.07334876060485840000e+000) (8, 9.30725038051605220000e-001) (9, 6.17255508899688720000e-001) (10, 9.83042538166046140000e-001) (11, 8.78261089324951170000e-001) (12, 3.59672278165817260000e-001) (13, 2.03130817413330080000e+000) (14, 1.29656195640563960000e+000) (15, 3.40371042490005490000e-001) (16, 3.55701357126235960000e-001) (17, 1.05870065689086910000e+001) (18, 8.57778650242835280000e-004) (19, -4.25280362367630000000e-001) (20, 3.79156231880187990000e+000) (21, 1.13571238517761230000e+000) (22, -2.31533661484718320000e-001) (23, 1.75767350196838380000e+000) (24, 1.39644169807434080000e+000) (25, 5.15688776969909670000e-001) (26, 1.08365619182586670000e+000) (27, -4.53066587448120120000e-001) (28, -3.16358655691146850000e-001) (29, 1.26188337802886960000e+000) (30, 5.88920891284942630000e-001) (31, 3.09320718050003050000e-001) (32, 7.27928519248962400000e-001) (33, 1.07750473022460940000e+001) (34, 8.56721017044037580000e-004) (35, -2.97720730304718020000e-001) (36, 3.99411916732788090000e+000) (37, 1.86761841177940370000e-001) (38, -1.09219837188720700000e+000) (39, 9.71317768096923830000e-001) (40, -5.81312716007232670000e-001) (41, 5.09579122066497800000e-001) (42, -1.59525185823440550000e-001) (43, -1.17535853385925290000e+000) (44, -1.18478916585445400000e-001) (45, 2.21249818801879880000e+000) (46, 6.79291725158691410000e-001) (47, 4.35754626989364620000e-001) (48, 4.62844991683959960000e+000) (49, 4.71940088272094730000e+000) (0, -3.00443387031555180000e+000) (1, 1.20249092578887940000e+000) (2, 3.54035139083862300000e+000) (3, -3.79713475704193120000e-001) (4, -2.16823697090148930000e+000) (5, 4.50341844558715820000e+000) (6, 2.20083284378051760000e+000) (7, -1.03243792057037350000e+000) (8, 1.06149196624755860000e+000) (9, 1.81092000007629390000e+000) (10, -2.39606571197509770000e+000) (11, 2.77769386768341060000e-001) (12, -7.32170009613037110000e+000) (13, -8.98405671119689940000e-001) (14, 2.73451972007751460000e+000) (15, 7.60507583618164060000e-001) (16, 6.18925690650939940000e-001) (17, 1.40449321269989010000e+000) (18, 1.70071971416473390000e+000) (19, 7.02021658420562740000e-001) (20, 9.89671647548675540000e-001) (21, 1.77210700511932370000e+000) (22, 1.12610685825347900000e+000) (23, -9.51986074447631840000e-001) (24, 1.57952457666397090000e-001) (25, 8.32337319850921630000e-001) (26, 4.45853739976882930000e-001) (27, -1.07777047157287600000e+000) (28, 3.24539452791213990000e-001) (29, 6.05264678597450260000e-002) (30, 1.39224553108215330000e+000) (31, 7.12786436080932620000e-001) (32, 2.15810909867286680000e-002) (33, 7.04731523990631100000e-001) (34, 2.03142309188842770000e+000) (35, 1.12560141086578370000e+000) (36, 4.51565027236938480000e-001) (37, 2.95802736282348630000e+000) (38, 2.07315373420715330000e+000) (39, 2.92648136615753170000e-001) (40, 1.13677334785461430000e+000) (41, 1.17811357975006100000e+000) (42, 1.59089267253875730000e-001) (43, 6.31935656070709230000e-001) (44, 9.97881352901458740000e-001) (45, 1.03901433944702150000e+000) (46, 1.64797091484069820000e+000) (47, 1.80915307998657230000e+000) (48, -1.04006834030151370000e+001) (49, -7.91540503501892090000e-001) (50, -3.30419445037841800000e+000) (0, 2.64209568500518800000e-001) (1, 1.92564725875854490000e+000) (2, 1.24656593799591060000e+000) (3, 8.29728469252586360000e-002) (4, 5.33083379268646240000e-001) (5, 5.07642328739166260000e-001) (6, 3.73507738113403320000e-001) (7, 6.05865240097045900000e-001) (8, 1.29724884033203130000e+000) (9, 9.91543114185333250000e-001) (10, 1.81826579570770260000e+000) (11, 8.25645685195922850000e-001) (12, -4.01500272750854490000e+000) (13, 2.25844168663024900000e+000) (14, 5.74223101139068600000e-001) (15, 1.37273395061492920000e+000) (16, -7.12668955326080320000e-001) (17, -1.32197487354278560000e+000) (18, 6.98506075423210860000e-004) (19, -1.19796586036682130000e+000) (20, 1.76998281478881840000e+000) (21, -1.91165134310722350000e-001) (22, -3.36558222770690920000e-001) (23, 6.70634746551513670000e-001) (24, 9.03798490762710570000e-002) (25, -2.42981687188148500000e-001) (26, 1.96700739860534670000e+000) (27, 2.09178853034973140000e+000) (28, -7.90933752059936520000e+000) (29, 4.06445682048797610000e-001) (30, -2.18088960647583010000e+000) (31, 1.33403480052948000000e+000) (32, -3.54400587081909180000e+000) (33, -7.20579099655151370000e+000) (34, 7.80815898906439540000e-004) (35, -6.54974758625030520000e-001) (36, 7.36799910664558410000e-002) (37, 9.75352451205253600000e-002) (38, -8.02543535828590390000e-002) (39, 1.05363607406616210000e+000) (40, 1.83402585983276370000e+000) (41, -3.28631520271301270000e-001) (42, 1.55358552932739260000e+000) (43, 1.79828953742980960000e+000) (44, -7.60828924179077150000e+000) (45, 2.14343190193176270000e+000) (46, 7.49797999858856200000e-001) (47, 5.19859433174133300000e-001) (48, -9.19071483612060550000e+000) (49, 9.53201949596405030000e-001) (50, 4.58816957473754880000e+000) (51, 4.22735214233398440000e+000) (0, -1.47037416696548460000e-001) (1, 1.22707700729370120000e+000) (2, 8.54609870910644530000e+000) (3, 3.37911158800125120000e-001) (4, 1.41582691669464110000e+000) (5, 7.90181446075439450000e+000) (6, 1.89205002784729000000e+000) (7, 1.12324929237365720000e+000) (8, 3.30798459053039550000e+000) (9, 1.99396491050720210000e+000) (10, 5.11001443862915040000e+000) (11, 1.78243553638458250000e+000) (12, -9.67099785804748540000e-001) (13, 2.23138689994812010000e+000) (14, 3.80828380584716800000e+000) (15, 2.21558237075805660000e+000) (16, 1.79138004779815670000e+000) (17, 1.40321433544158940000e+000) (18, 4.44473145762458440000e-004) (19, 1.83905792236328130000e+000) (20, 1.23881304264068600000e+000) (21, 5.89547157287597660000e+000) (22, 1.88836586475372310000e+000) (23, 7.70973622798919680000e-001) (24, 2.40590429306030270000e+000) (25, 2.15782785415649410000e+000) (26, 1.22776329517364500000e+000) (27, 1.28231906890869140000e+000) (28, 2.46659219264984130000e-001) (29, 1.53897058963775630000e+000) (30, 1.80789351463317870000e+000) (31, 2.06171751022338870000e+000) (32, 8.29295992851257320000e-001) (33, 1.52236819267272950000e+000) (34, 4.54242603154852990000e-004) (35, 8.33657562732696530000e-001) (36, 8.36357355117797850000e-001) (37, 2.54719686508178710000e+000) (38, 1.92464077472686770000e+000) (39, 8.59413623809814450000e-001) (40, 1.21122395992279050000e+000) (41, 2.34272146224975590000e+000) (42, 9.21470165252685550000e-001) (43, 2.41316580772399900000e+000) (44, 1.00882422924041750000e+000) (45, 1.82051551342010500000e+000) (46, 1.44356906414031980000e+000) (47, 8.62192630767822270000e-001) (48, 1.52204763889312740000e+000) (49, 8.46938490867614750000e-001) (50, -8.42390000820159910000e-001) (51, -6.85093402862548830000e+000) (52, 8.80483210086822510000e-001) (0, 6.98029232025146480000e+000) (1, 1.09289474487304690000e+001) (2, -8.29105281829833980000e+000) (3, 5.81212663650512700000e+000) (4, 1.15858907699584960000e+001) (5, -1.11100273132324220000e+002) (6, 4.72234439849853520000e+000) (7, 3.29718170166015620000e+001) (8, -8.00845241546630860000e+000) (9, 1.08173027038574220000e+001) (10, 3.50608940124511720000e+001) (11, -3.46811652183532710000e+000) (12, 5.31596851348876950000e+000) (13, 1.84459896087646480000e+001) (14, -1.51295900344848630000e+000) (15, 4.83689069747924800000e+000) (16, 2.13837480545043950000e+000) (17, 1.38171987533569340000e+001) (18, 1.25837207031250000000e+003) (19, 4.98237514495849610000e+000) (20, 1.98384895324707030000e+001) (21, -2.74549961090087890000e+001) (22, 5.26701831817626950000e+000) (23, 3.37642974853515630000e+001) (24, -3.60867857933044430000e+000) (25, 4.54248762130737300000e+000) (26, 3.55362663269042970000e+001) (27, -4.50588512420654300000e+000) (28, 2.39412236213684080000e+000) (29, 1.67715091705322270000e+001) (30, 3.25432062149047850000e-001) (31, 1.05242385864257810000e+001) (32, 2.11434316635131840000e+000) (33, 1.80132369995117190000e+001) (34, -1.50000000000000000000e+003) (35, 2.03755426406860350000e+000) (36, 2.88896999359130860000e+001) (37, -6.30788207054138180000e-001) (38, 3.75607609748840330000e+000) (39, 2.72537250518798830000e+001) (40, -3.66074848175048830000e+000) (41, 7.02649307250976560000e+000) (42, 2.97531108856201170000e+001) (43, -1.61182804107666020000e+001) (44, 1.67643916606903080000e+000) (45, 2.76620731353759770000e+001) (46, -3.58910298347473140000e+000) (47, 4.14421939849853520000e+000) (48, -7.25687026977539060000e+000) (49, 1.08262924194335940000e+002) (50, -3.09342741966247560000e+000) (51, -7.97620315551757810000e+001) (52, -1.55281372070312500000e+001) (53, 4.89435234069824220000e+001) (0, -1.02502264082431790000e-001) (1, -9.62792587280273440000e+000) (2, -3.45659554004669190000e-001) (3, 1.11867952346801760000e+000) (4, 1.92762672901153560000e+000) (5, 5.64198046922683720000e-002) (6, 1.14621259272098540000e-001) (7, 2.29047775268554690000e+000) (8, -1.01181685924530030000e+000) (9, 1.21882271766662600000e+000) (10, 3.78487491607666020000e+000) (11, -1.00507593154907230000e+000) (12, -8.27469539642333980000e+000) (13, 7.26486563682556150000e-001) (14, -4.94395762681961060000e-001) (15, 9.07457321882247920000e-002) (16, 3.28331626951694490000e-002) (17, 4.20429438352584840000e-001) (18, 7.68457481171935800000e-004) (19, 6.04969501495361330000e-001) (20, 1.95369207859039310000e+000) (21, -4.50851917266845700000e-001) (22, 1.51661992073059080000e+000) (23, 1.04174041748046870000e+000) (24, 6.45146846771240230000e-001) (25, 1.38951432704925540000e+000) (26, 3.98491764068603520000e+000) (27, -8.95610928535461430000e-001) (28, -2.11009240150451660000e+000) (29, 2.04334044456481930000e+000) (30, 4.96275514364242550000e-001) (31, 8.04480016231536870000e-001) (32, 8.47646355628967290000e-001) (33, 1.89048171043396000000e+000) (34, 4.21273725805804130000e-004) (35, 8.62556576728820800000e-001) (36, 6.86395883560180660000e-001) (37, 1.66513955593109130000e+000) (38, 2.31567406654357910000e+000) (39, 1.47637248039245610000e+000) (40, -5.01533031463623050000e-001) (41, 8.59047751873731610000e-003) (42, 4.19720172882080080000e+000) (43, -5.25486350059509280000e-001) (44, -2.36397147178649900000e+000) (45, 1.13654792308807370000e+000) (46, 1.78461825847625730000e+000) (47, 8.04596722126007080000e-001) (48, -2.19013476371765140000e+000) (49, 2.94961738586425780000e+000) (50, -2.01502180099487300000e+000) (51, -7.92963624000549320000e-001) (52, -1.07038474082946780000e+000) (53, 7.21192300319671630000e-001) (54, 2.27288961410522460000e+000) (0, 4.33734804391860960000e-001) (1, 7.73527681827545170000e-001) (2, 1.25741139054298400000e-002) (3, -3.53241622447967530000e-001) (4, 1.06724059581756590000e+000) (5, 1.82277333736419680000e+000) (6, 3.36757898330688480000e-001) (7, 1.87174510955810550000e+000) (8, 8.67150425910949710000e-001) (9, -1.78192615509033200000e+000) (10, -8.97000208497047420000e-002) (11, 6.24843657016754150000e-001) (12, -4.77394485473632810000e+000) (13, 9.76997733116149900000e-001) (14, 2.50015974044799800000e+000) (15, 7.04089403152465820000e-002) (16, -9.19576585292816160000e-001) (17, 6.62642717361450200000e-001) (18, 2.70567339612171050000e-004) (19, -7.48818039894104000000e-001) (20, 4.62875175476074220000e+000) (21, 1.05672168731689450000e+000) (22, -5.42716920375823970000e-001) (23, 2.36275696754455570000e+000) (24, 1.51436436176300050000e+000) (25, -4.50949132442474370000e-001) (26, 2.42848968505859370000e+000) (27, 1.54504585266113280000e+000) (28, -1.04474186897277830000e+000) (29, 8.42285275459289550000e-001) (30, 1.39609992504119870000e+000) (31, 1.19469332695007320000e+000) (32, -1.27371466159820560000e+000) (33, 2.37386584281921390000e+000) (34, 2.73604993708431720000e-004) (35, -1.35747826099395750000e+000) (36, 3.83093070983886720000e+000) (37, 1.20067417621612550000e+000) (38, 1.31308078765869140000e+000) (39, 1.40560483932495120000e+000) (40, 1.84106600284576420000e+000) (41, 8.17233443260192870000e-001) (42, 1.97782897949218750000e+000) (43, 1.54639041423797610000e+000) (44, 1.68241620063781740000e-001) (45, 2.39612889289855960000e+000) (46, 6.34079277515411380000e-001) (47, 1.18295311927795410000e+000) (48, 1.91410589218139650000e+000) (49, 2.13881790637969970000e-001) (50, 8.60991030931472780000e-002) (51, -8.43706607818603520000e-001) (52, 2.50600862503051760000e+000) (53, 2.05669474601745610000e+000) (54, -7.85374498367309570000e+000) (55, 3.41683983802795410000e-001) (0, 1.50000000000000000000e+003) (1, 1.45833325195312500000e+003) (2, -1.50000000000000000000e+003) (3, 1.50000000000000000000e+003) (4, 1.45689208984375000000e+003) (5, -1.50000000000000000000e+003) (6, 1.45717919921875000000e+003) (7, 1.50000000000000000000e+003) (8, -1.50000000000000000000e+003) (9, 1.45816430664062500000e+003) (10, 1.50000000000000000000e+003) (11, -1.50000000000000000000e+003) (12, 1.50000000000000000000e+003) (13, 1.50000000000000000000e+003) (14, -1.50000000000000000000e+003) (15, 1.50000000000000000000e+003) (16, 1.50000000000000000000e+003) (17, 1.45811059570312500000e+003) (18, -1.50000000000000000000e+003) (19, 1.50000000000000000000e+003) (20, 1.50000000000000000000e+003) (21, -1.50000000000000000000e+003) (22, 1.45732141113281250000e+003) (23, 1.50000000000000000000e+003) (24, -1.50000000000000000000e+003) (25, 1.45669616699218750000e+003) (26, 1.50000000000000000000e+003) (27, -1.50000000000000000000e+003) (28, 1.50000000000000000000e+003) (29, 1.50000000000000000000e+003) (30, -1.50000000000000000000e+003) (31, 1.50000000000000000000e+003) (32, 1.50000000000000000000e+003) (33, 1.45750537109375000000e+003) (34, 1.21396459960937500000e+003) (35, 1.45696569824218750000e+003) (36, 1.45704309082031250000e+003) (37, -1.50000000000000000000e+003) (38, 1.45837316894531250000e+003) (39, 1.50000000000000000000e+003) (40, -1.50000000000000000000e+003) (41, 1.45834619140625000000e+003) (42, 1.50000000000000000000e+003) (43, -1.50000000000000000000e+003) (44, 1.45709631347656250000e+003) (45, 1.50000000000000000000e+003) (46, -1.50000000000000000000e+003) (47, 1.50000000000000000000e+003) (48, -1.50000000000000000000e+003) (49, 1.45626208496093750000e+003) (50, 1.45421801757812500000e+003) (51, 1.45453393554687500000e+003) (52, 7.34631713867187500000e+002) (53, 1.45513818359375000000e+003) (54, -1.45417456054687500000e+003) (55, -1.50000000000000000000e+003) (56, 1.19364929199218750000e+003) (0, 1.50000000000000000000e+003) (1, 1.49134802246093750000e+003) (2, -1.50000000000000000000e+003) (3, 1.50000000000000000000e+003) (4, 1.49869360351562500000e+003) (5, -1.50000000000000000000e+003) (6, 1.50000000000000000000e+003) (7, 1.50000000000000000000e+003) (8, -1.50000000000000000000e+003) (9, 1.50000000000000000000e+003) (10, 1.50000000000000000000e+003) (11, -1.49413049316406250000e+003) (12, 1.50000000000000000000e+003) (13, 1.49867578125000000000e+003) (14, -1.50000000000000000000e+003) (15, 1.50000000000000000000e+003) (16, 1.50000000000000000000e+003) (17, 1.50000000000000000000e+003) (18, 3.45305614173412320000e-002) (19, 1.50000000000000000000e+003) (20, 1.50000000000000000000e+003) (21, -1.50000000000000000000e+003) (22, 1.50000000000000000000e+003) (23, 1.50000000000000000000e+003) (24, -1.50000000000000000000e+003) (25, 1.50000000000000000000e+003) (26, 1.50000000000000000000e+003) (27, -1.50000000000000000000e+003) (28, 1.50000000000000000000e+003) (29, 1.50000000000000000000e+003) (30, -1.50000000000000000000e+003) (31, 1.50000000000000000000e+003) (32, 1.50000000000000000000e+003) (33, 1.50000000000000000000e+003) (34, -1.50000000000000000000e+003) (35, 1.50000000000000000000e+003) (36, 1.50000000000000000000e+003) (37, -1.50000000000000000000e+003) (38, 1.50000000000000000000e+003) (39, 1.50000000000000000000e+003) (40, -1.50000000000000000000e+003) (41, 1.50000000000000000000e+003) (42, 1.50000000000000000000e+003) (43, -1.50000000000000000000e+003) (44, 1.50000000000000000000e+003) (45, 1.50000000000000000000e+003) (46, -1.50000000000000000000e+003) (47, 1.50000000000000000000e+003) (48, -1.49413049316406250000e+003) (49, 1.50000000000000000000e+003) (50, 1.49134802246093750000e+003) (51, 1.49686462402343750000e+003) (52, 1.50000000000000000000e+003) (53, 1.50000000000000000000e+003) (54, 1.50000000000000000000e+003) (55, -1.50000000000000000000e+003) (56, -3.21304321289062500000e+001) (57, -3.61283826828002930000e+000) (0, 1.76316535472869870000e+000) (1, -4.69815483093261720000e+001) (2, -5.05030487060546870000e+002) (3, 9.54344630241394040000e-001) (4, -4.59335823059082030000e+001) (5, -1.14289477539062500000e+003) (6, 3.55753600597381590000e-001) (7, 1.32563793659210210000e+000) (8, -1.14339562988281250000e+003) (9, 1.45181453227996830000e+000) (10, 1.78819429874420170000e+000) (11, -1.14278369140625000000e+003) (12, 6.66246948242187500000e+002) (13, -4.62585105895996090000e+001) (14, -1.14437353515625000000e+003) (15, 5.75281441211700440000e-001) (16, 1.09222626686096190000e+000) (17, -4.76975135803222660000e+001) (18, -7.31041610240936280000e-001) (19, 7.43987441062927250000e-001) (20, -1.08007202148437500000e+002) (21, -1.02864501953125000000e+003) (22, 1.22291123867034910000e+000) (23, -1.81400890350341800000e+001) (24, -6.67792480468750000000e+002) (25, -1.89281196594238280000e+001) (26, 5.20638346672058110000e-001) (27, -5.05022613525390620000e+002) (28, 2.10675314068794250000e-001) (29, -4.59861259460449220000e+001) (30, -1.14446765136718750000e+003) (31, -1.84360160827636720000e+001) (32, -4.67176933288574220000e+001) (33, -4.80569572448730470000e+001) (34, -1.63811221718788150000e-002) (35, -4.68341789245605470000e+001) (36, -2.72291137695312500000e+002) (37, -1.02883422851562500000e+003) (38, -4.82284660339355470000e+001) (39, -1.84328575134277340000e+001) (40, -7.94081909179687500000e+002) (41, -4.83646278381347660000e+001) (42, -1.90477523803710940000e+001) (43, -7.93689941406250000000e+002) (44, -4.72636756896972660000e+001) (45, -4.82734260559082030000e+001) (46, -1.14316748046875000000e+003) (47, -4.65535697937011720000e+001) (48, -6.64650268554687500000e+002) (49, 5.39190551757812500000e+002) (50, 1.30159210205078120000e+002) (51, 1.14602954101562500000e+003) (52, 8.40475708007812500000e+002) (53, 2.46449081420898440000e+002) (54, 1.50865340232849120000e+000) (55, 5.64849967956542970000e+001) (56, 4.18792800903320310000e+001) (57, 2.06853270530700680000e+000) (58, -1.96267623901367190000e+002) (0, 4.25794647216796870000e+002) (1, -1.41289337158203120000e+002) (2, -9.05698730468750000000e+002) (3, 6.66100952148437500000e+002) (4, -1.42149200439453130000e+002) (5, -1.14385522460937500000e+003) (6, 1.63926029205322270000e+001) (7, 3.93910378217697140000e-001) (8, -1.14385363769531250000e+003) (9, 8.35384547710418700000e-001) (10, 1.32606112957000730000e+000) (11, -1.14431274414062500000e+003) (12, 1.14521887207031250000e+003) (13, -1.40700317382812500000e+002) (14, -1.14351135253906250000e+003) (15, 1.14444184303283690000e+000) (16, -1.39288339614868160000e+001) (17, -1.41745330810546870000e+002) (18, -2.10160277783870700000e-002) (19, -1.34889733791351320000e+000) (20, -5.47295776367187500000e+002) (21, -1.14267529296875000000e+003) (22, -2.52442431449890140000e+000) (23, -3.27075157165527340000e+001) (24, -6.66358581542968750000e+002) (25, -3.31985359191894530000e+001) (26, -3.15182418823242190000e+001) (27, -6.65887145996093750000e+002) (28, 6.66043273925781250000e+002) (29, -6.07544517517089840000e+001) (30, -1.14370520019531250000e+003) (31, -3.29417343139648440000e+001) (32, -3.15924453735351560000e+001) (33, -1.40946273803710940000e+002) (34, -1.48056888580322270000e+001) (35, -3.33044471740722660000e+001) (36, 3.02946019172668460000e+000) (37, -1.14452722167968750000e+003) (38, -3.26632347106933590000e+001) (39, -3.13479537963867190000e+001) (40, -1.14458190917968750000e+003) (41, -3.32286529541015630000e+001) (42, -3.15257720947265630000e+001) (43, -1.14401123046875000000e+003) (44, -3.18866348266601560000e+001) (45, -5.98439903259277340000e+001) (46, -1.14410546875000000000e+003) (47, -3.17918891906738280000e+001) (48, -4.24645050048828120000e+002) (49, 6.66818725585937500000e+002) (50, 1.25613006591796870000e+002) (51, 1.14494799804687500000e+003) (52, 9.05256347656250000000e+002) (53, 2.44406265258789060000e+002) (54, 1.24179519653320310000e+002) (55, 1.00810158252716060000e+000) (56, 1.70912492275238040000e+000) (57, -4.22275360107421870000e+002) (58, 3.25156426429748540000e+000) (59, 2.71173405647277830000e+000) (0, 7.48603820800781250000e+000) (1, 1.23871238708496090000e+002) (2, 6.77088379859924320000e-001) (3, 6.60464811325073240000e+000) (4, 2.63132038116455080000e+001) (5, 1.30657863616943360000e+000) (6, 8.17054176330566410000e+000) (7, 6.72522926330566410000e+000) (8, 9.35870349407196040000e-001) (9, 1.13956623077392580000e+001) (10, 7.43889904022216800000e+000) (11, 5.44557213783264160000e-001) (12, 7.78800392150878910000e+000) (13, 8.47916030883789060000e+000) (14, 8.36252570152282710000e-001) (15, 7.87362957000732420000e+000) (16, 6.87344551086425780000e+000) (17, 2.61740322113037110000e+001) (18, 2.54728881835937500000e+002) (19, 7.33347320556640620000e+000) (20, 9.90349388122558590000e+000) (21, 3.46552133560180660000e-001) (22, 7.66182231903076170000e+000) (23, 6.62657546997070310000e+000) (24, 1.61338698863983150000e+000) (25, 1.13300828933715820000e+001) (26, 2.12623710632324220000e+001) (27, 1.54033911228179930000e+000) (28, 8.24960517883300780000e+000) (29, 9.11234092712402340000e+000) (30, 7.25930452346801760000e-001) (31, 7.44000911712646480000e+000) (32, 7.26993703842163090000e+000) (33, 1.15383654785156250000e+003) (34, 1.05715286254882810000e+002) (35, 7.13374567031860350000e+000) (36, 1.83495426177978520000e+001) (37, 2.42714047431945800000e-001) (38, 1.27956905364990230000e+001) (39, 1.03780946731567380000e+001) (40, 7.47529327869415280000e-001) (41, 1.49590950012207030000e+001) (42, 1.96620349884033200000e+001) (43, 1.20652174949646000000e+000) (44, 7.98138656616210940000e+001) (45, 8.81528663635253910000e+000) (46, 5.16626536846160890000e-001) (47, 7.98647975921630860000e+000) (48, -8.26173114776611330000e+000) (49, 4.43518180847167970000e+001) (50, -5.44372844696044920000e+000) (51, 3.13768744468688960000e+000) (52, 6.24200582504272460000e+000) (53, -1.17935762405395510000e+001) (54, -5.97966308593750000000e+002) (55, 7.97340469360351560000e+001) (56, 3.24991607666015630000e+001) (57, -1.35331325531005860000e+001) (58, -1.25786561965942380000e+001) (59, -1.50000000000000000000e+003) (60, -1.50000000000000000000e+003) (0, 3.27683568000793460000e-001) (1, 1.22718954086303710000e+000) (2, 1.85210180282592770000e+000) (3, 3.24443817138671880000e-001) (4, 2.52613973617553710000e+000) (5, 5.00457108020782470000e-001) (6, 1.00373113155364990000e+000) (7, 6.73240959644317630000e-001) (8, 9.10684525966644290000e-001) (9, 2.08795189857482910000e+000) (10, 9.10846412181854250000e-001) (11, 5.12255072593688960000e-001) (12, -3.14600872993469240000e+000) (13, 1.18204331398010250000e+000) (14, 1.02007575333118440000e-001) (15, 1.45715999603271480000e+000) (16, 1.22554481029510500000e+000) (17, 1.83896315097808840000e+000) (18, 8.01727950572967530000e-001) (19, 6.96980237960815430000e-001) (20, 1.52936565876007080000e+000) (21, -1.35052397847175600000e-001) (22, 1.77817904949188230000e+000) (23, 1.21213686466217040000e+000) (24, 1.06394565105438230000e+000) (25, 2.12721371650695800000e+000) (26, 1.65740442276000980000e+000) (27, 5.79534053802490230000e-001) (28, -4.39604091644287110000e+000) (29, 1.59989166259765620000e+000) (30, 1.46768435835838320000e-001) (31, 1.49711310863494870000e+000) (32, 1.82616972923278810000e+000) (33, 1.02364563941955570000e+000) (34, 4.99621748924255370000e-001) (35, 1.83753621578216550000e+000) (36, 2.56432628631591800000e+000) (37, 1.39631807804107670000e-001) (38, 1.68544149398803710000e+000) (39, 1.37116885185241700000e+000) (40, 8.98633599281311040000e-001) (41, 7.17176258563995360000e-001) (42, 1.67699050903320310000e+000) (43, 7.60719299316406250000e-001) (44, -4.03247070312500000000e+000) (45, 9.42783355712890630000e-001) (46, 1.62129080295562740000e+000) (47, 2.14335703849792480000e+000) (48, -6.20060384273529050000e-001) (49, -4.87374395132064820000e-001) (50, 7.13844299316406250000e-001) (51, 1.60886037349700930000e+000) (52, 2.23400592803955080000e+000) (53, -4.97320443391799930000e-001) (54, 1.16124391555786130000e+000) (55, -3.66200485229492190000e+001) (56, 5.03466427326202390000e-001) (57, 2.60307174175977710000e-002) (58, 1.76050376892089840000e+000) (59, 1.50000000000000000000e+003) (60, 1.50000000000000000000e+003) (61, -1.29608734130859370000e+002) (0, 9.07750732421875000000e+002) (1, 1.14562451171875000000e+003) (2, -9.05263793945312500000e+002) (3, 9.06277832031250000000e+002) (4, 1.14646789550781250000e+003) (5, -9.04532348632812500000e+002) (6, 9.07243286132812500000e+002) (7, 9.07807922363281250000e+002) (8, -9.05355529785156250000e+002) (9, 1.14486108398437500000e+003) (10, 9.06532836914062500000e+002) (11, -9.04990234375000000000e+002) (12, 9.05852783203125000000e+002) (13, 1.14672631835937500000e+003) (14, -9.03822875976562500000e+002) (15, 9.06402160644531250000e+002) (16, 9.07095825195312500000e+002) (17, 1.14535461425781250000e+003) (18, 4.24093719482421870000e+002) (19, 9.07781127929687500000e+002) (20, 1.14543542480468750000e+003) (21, -9.05419128417968750000e+002) (22, 9.06710021972656250000e+002) (23, 9.07715576171875000000e+002) (24, -9.03989074707031250000e+002) (25, 1.14525537109375000000e+003) (26, 9.06391235351562500000e+002) (27, -9.05047424316406250000e+002) (28, 9.05845336914062500000e+002) (29, 1.14585852050781250000e+003) (30, -9.04767333984375000000e+002) (31, 9.07031005859375000000e+002) (32, 9.06260253906250000000e+002) (33, 1.14669433593750000000e+003) (34, -8.87914276123046880000e+001) (35, 9.06232360839843750000e+002) (36, 1.14678735351562500000e+003) (37, -9.04695373535156250000e+002) (38, 1.14652185058593750000e+003) (39, 9.06580078125000000000e+002) (40, -9.04017150878906250000e+002) (41, 1.14555151367187500000e+003) (42, 9.07837341308593750000e+002) (43, -9.04295349121093750000e+002) (44, 1.14555920410156250000e+003) (45, 1.14649987792968750000e+003) (46, -9.04203918457031250000e+002) (47, 9.07083923339843750000e+002) (48, -9.05487060546875000000e+002) (49, 9.06731079101562500000e+002) (50, 6.64642333984375000000e+002) (51, 1.93561264038085940000e+002) (52, -6.64430603027343750000e+002) (53, 6.65594726562500000000e+002) (54, -8.69882583618164060000e+000) (55, -1.14364941406250000000e+003) (56, -9.03442138671875000000e+002) (57, -9.05388488769531250000e+002) (58, -3.31443977355957030000e+000) (59, 6.81291723251342770000e+000) (60, 9.48540344238281250000e+001) (61, -9.04869934082031250000e+002) (62, -9.04180603027343750000e+002) (0, 1.45594203472137450000e+000) (1, 4.90861749649047850000e+000) (2, 1.49934720993041990000e+000) (3, 1.34924936294555660000e+000) (4, 5.15543699264526370000e+000) (5, 9.67603385448455810000e-001) (6, 8.49956750869750980000e-001) (7, 1.92276298999786380000e+000) (8, 3.43846410512924190000e-001) (9, 1.26438891887664790000e+000) (10, 2.90127086639404300000e+000) (11, 1.42835962772369380000e+000) (12, 2.75113725662231450000e+000) (13, 3.79214620590209960000e+000) (14, 2.62515246868133540000e-001) (15, 2.53014063835144040000e+000) (16, 7.79411971569061280000e-001) (17, 3.32863211631774900000e+000) (18, 6.48833453655242920000e-001) (19, 7.21391916275024410000e-001) (20, 2.42525863647460940000e+000) (21, -7.15207904577255250000e-002) (22, 9.43165600299835210000e-001) (23, 1.40595924854278560000e+000) (24, 1.38780212402343750000e+000) (25, 3.10246205329895020000e+000) (26, 1.43576765060424800000e+000) (27, 1.35724973678588870000e+000) (28, 1.50207793712615970000e+000) (29, 3.01335930824279790000e+000) (30, 7.25348234176635740000e-001) (31, 1.79485905170440670000e+000) (32, 2.00897955894470210000e+000) (33, 5.05524730682373050000e+000) (34, -1.63295059204101560000e+001) (35, 2.71080136299133300000e+000) (36, 2.21498537063598630000e+000) (37, 9.08864200115203860000e-001) (38, 1.10330545902252200000e+000) (39, 2.51699137687683110000e+000) (40, 9.83328744769096370000e-002) (41, 1.00836730003356930000e+000) (42, 1.03374552726745610000e+000) (43, -6.19328081607818600000e-001) (44, 1.77821946144104000000e+000) (45, 1.77281475067138670000e+000) (46, 7.34605789184570310000e-001) (47, 8.41033279895782470000e-001) (48, 6.44567787647247310000e-001) (49, -7.50487375259399410000e+000) (50, -2.20197319984436040000e+000) (51, 8.90745460987091060000e-001) (52, 7.69011402130126950000e+000) (53, 7.43783831596374510000e-001) (54, 1.38760554790496830000e+000) (55, 3.08209190368652340000e+001) (56, 1.50700509548187260000e+000) (57, 5.51755130290985110000e-001) (58, 2.13881134986877440000e-001) (59, -1.50307922363281250000e+001) (60, 1.05999938964843750000e+002) (61, -2.79227972030639650000e-001) (62, -1.16130529785156250000e+003) (63, 2.52905935049057010000e-001) (0, 2.20239567756652830000e+000) (1, 1.27171773910522460000e+001) (2, 9.89242017269134520000e-001) (3, 7.42541909217834470000e-001) (4, 5.72943496704101560000e+000) (5, 8.78830432891845700000e-001) (6, 3.54276752471923830000e+000) (7, 3.17702674865722660000e+000) (8, -6.10991008579730990000e-002) (9, 3.04455351829528810000e+000) (10, 1.88192677497863770000e+000) (11, 3.83426666259765630000e-001) (12, 4.99603688716888430000e-001) (13, 2.58342170715332030000e+000) (14, 3.06987106800079350000e-001) (15, 3.21215748786926270000e+000) (16, 2.28671169281005860000e+000) (17, 5.57171583175659180000e-001) (18, 1.77874481678009030000e+000) (19, 2.05047416687011720000e+000) (20, -1.37010529637336730000e-001) (21, 6.94736659526824950000e-001) (22, 2.54110127687454220000e-001) (23, -1.35285627841949460000e+000) (24, -5.91365933418273930000e-001) (25, 1.77754974365234370000e+000) (26, 4.01654541492462160000e-001) (27, 3.67597609758377080000e-001) (28, 3.41257005929946900000e-001) (29, 4.34868633747100830000e-001) (30, -7.51572072505950930000e-001) (31, 1.74553918838500980000e+000) (32, 1.35321402549743650000e+000) (33, 8.43871593475341800000e-001) (34, 1.48745739459991460000e+000) (35, 2.02558684349060060000e+000) (36, 1.03564143180847170000e+000) (37, 1.74565589427948000000e+000) (38, 1.16108441352844240000e+000) (39, 7.91147530078887940000e-001) (40, 6.00154578685760500000e-001) (41, 2.90978312492370610000e+000) (42, 7.04782962799072270000e-001) (43, 1.40865933895111080000e+000) (44, 1.59396159648895260000e+000) (45, 1.39413666725158690000e+000) (46, -4.35864925384521480000e+000) (47, 1.98725879192352290000e+000) (48, -1.72110438346862790000e+000) (49, 1.27574801445007320000e+000) (50, 5.15828192234039310000e-001) (51, 1.96086800098419190000e+000) (52, 2.33296918869018550000e+000) (53, -1.06629359722137450000e+000) (54, -8.00408744812011720000e+000) (55, 1.76083087921142580000e+001) (56, 2.15652212500572200000e-001) (57, -3.47124838829040530000e+000) (58, -1.56322419643402100000e+000) (59, 7.41658067703247070000e+000) (60, 1.50000000000000000000e+003) (61, 4.82487068176269530000e+001) (62, -1.88657562255859380000e+002) (63, -1.75718796253204350000e+000) (64, -1.18072223663330080000e+000) (0, 2.54837012290954590000e+000) (1, 3.03444433212280270000e+000) (2, 8.15028131008148190000e-001) (3, 2.47908830642700200000e+000) (4, 1.47424292564392090000e+000) (5, 1.45819878578186040000e+000) (6, 2.94795608520507810000e+000) (7, 2.32316517829895020000e+000) (8, 2.21238994598388670000e+000) (9, 1.82060301303863530000e+000) (10, 6.85319423675537110000e-001) (11, 3.90812546014785770000e-001) (12, 9.04718399047851560000e-001) (13, 2.45403742790222170000e+000) (14, 1.69130313396453860000e+000) (15, 3.37197017669677730000e+000) (16, 2.26291306316852570000e-002) (17, 3.05266785621643070000e+000) (18, 2.39608097076416020000e+000) (19, 2.17702269554138180000e+000) (20, 2.37254762649536130000e+000) (21, 7.53941237926483150000e-001) (22, 3.15908169746398930000e+000) (23, 1.27020645141601560000e+000) (24, 1.58749330043792720000e+000) (25, 2.59003806114196780000e+000) (26, 9.12930428981781010000e-001) (27, 2.24823594093322750000e+000) (28, 1.33093869686126710000e+000) (29, 3.09841513633728030000e+000) (30, 6.11200869083404540000e-001) (31, 1.97699868679046630000e+000) (32, -7.49589061737060550000e+000) (33, 3.14860248565673830000e+000) (34, 2.07610940933227540000e+000) (35, -1.22834753990173340000e+000) (36, 1.63361811637878420000e+000) (37, 1.20338463783264160000e+000) (38, 1.31427216529846190000e+000) (39, 2.08145165443420410000e+000) (40, 7.07626879215240480000e-001) (41, 1.76015841960906980000e+000) (42, 1.77026617527008060000e+000) (43, 8.40782046318054200000e-001) (44, -8.59375417232513430000e-001) (45, 1.96615839004516600000e+000) (46, 2.16617774963378910000e+000) (47, 2.88153111934661870000e-001) (48, -8.55869531631469730000e-001) (49, 1.81117129325866700000e+000) (50, -7.85867261886596680000e+000) (51, 1.72066390514373780000e+000) (52, 6.39989423751831050000e+000) (53, 5.64522370696067810000e-002) (54, -1.92729644775390620000e+002) (55, -2.40560363769531250000e+002) (56, 1.20070981979370120000e+000) (57, -3.52721065282821660000e-001) (58, 1.53993713855743410000e+000) (59, -1.50000000000000000000e+003) (60, -1.50000000000000000000e+003) (61, -3.98659423828125000000e+002) (62, -9.69443359375000000000e+001) (63, 1.80429324507713320000e-001) (64, -1.25444549560546870000e+002) (65, 4.18005657196044920000e+000) (0, 2.46099293231964110000e-001) (1, 1.89598822593688960000e+000) (2, 9.57628071308135990000e-001) (3, -5.19872717559337620000e-002) (4, 1.84777510166168210000e+000) (5, 5.22004008293151860000e-001) (6, 6.38098955154418950000e-001) (7, 1.04112017154693600000e+000) (8, 1.11833238601684570000e+000) (9, -1.45832136273384090000e-001) (10, 2.11841440200805660000e+000) (11, 2.45475713163614270000e-002) (12, 1.16335129737854000000e+000) (13, 1.35728144645690920000e+000) (14, 4.78380084037780760000e-001) (15, 5.35206079483032230000e-001) (16, 5.26451969146728520000e+000) (17, 1.78626930713653560000e+000) (18, 2.06990957260131840000e+000) (19, 1.85148298740386960000e+000) (20, 1.64031922817230220000e+000) (21, 6.44115269184112550000e-001) (22, -1.89263626933097840000e-001) (23, 1.40454316139221190000e+000) (24, 1.03187692165374760000e+000) (25, 6.74212574958801270000e-001) (26, 5.55971741676330570000e-001) (27, 1.87062811851501460000e+000) (28, 3.44725430011749270000e-001) (29, 1.89051496982574460000e+000) (30, 1.69005244970321660000e-001) (31, 1.13858938217163090000e+000) (32, 2.57164269685745240000e-001) (33, 1.87511658668518070000e+000) (34, 7.12339401245117190000e-001) (35, 7.72261500358581540000e-001) (36, -1.30116865038871770000e-001) (37, 6.55745327472686770000e-001) (38, 1.24657440185546870000e+000) (39, 1.62564682960510250000e+000) (40, -1.35892951488494870000e+000) (41, 9.50985431671142580000e-001) (42, 3.64316314458847050000e-001) (43, 2.03582191467285160000e+000) (44, -4.64855879545211790000e-002) (45, 6.88420653343200680000e-001) (46, 5.57612031698226930000e-002) (47, 2.31478929519653320000e-001) (48, -1.29089975357055660000e+000) (49, 6.43804311752319340000e-001) (50, 3.47854971885681150000e+000) (51, 4.51156854629516600000e+000) (52, 3.94241046905517580000e+000) (53, 1.35662031173706050000e+000) (54, -7.02229690551757810000e+000) (55, 1.42325811386108400000e+001) (56, 7.40076243877410890000e-001) (57, -2.32579398155212400000e+000) (58, -7.26150691509246830000e-001) (59, 8.98064613342285160000e+000) (60, -1.50000000000000000000e+003) (61, -4.33210601806640630000e+001) (62, -3.37398162841796870000e+002) (63, -2.46776747703552250000e+000) (64, -5.30732192993164060000e+001) (65, 1.83461749553680420000e+000) (66, 6.18929862976074220000e+000) (0, 1.38794398307800290000e+000) (1, -1.89842438697814940000e+000) (2, 4.92521715164184570000e+000) (3, 1.40543922781944270000e-001) (4, 2.99092173576354980000e-001) (5, 1.64032459259033200000e+000) (6, 8.13554823398590090000e-001) (7, 1.55200362205505370000e+000) (8, 8.62884879112243650000e-001) (9, 4.91542249917984010000e-001) (10, 1.98656535148620610000e+000) (11, -9.71639305353164670000e-002) (12, 2.19079804420471190000e+000) (13, 2.10097265243530270000e+000) (14, 1.77524471282958980000e+000) (15, 1.60559964179992680000e+000) (16, 2.06059074401855470000e+000) (17, -1.23456373214721680000e+001) (18, 1.72432994842529300000e+000) (19, 1.76130318641662600000e+000) (20, 1.13397002220153810000e+000) (21, 6.51044905185699460000e-001) (22, 8.28114449977874760000e-001) (23, 1.89998710155487060000e+000) (24, -7.57463455200195310000e-001) (25, 7.45224118232727050000e-001) (26, 1.76722228527069090000e+000) (27, 6.57241046428680420000e-002) (28, 2.20020747184753420000e+000) (29, -2.53671765327453610000e-001) (30, -4.26275432109832760000e-001) (31, 3.97224694490432740000e-001) (32, 1.80918979644775390000e+000) (33, 1.58327770233154300000e+001) (34, -4.31072711944580080000e+000) (35, 9.73290741443634030000e-001) (36, 3.20264518260955810000e-001) (37, 2.48234677314758300000e+000) (38, 2.17414394021034240000e-001) (39, 1.79525494575500490000e+000) (40, -3.40330183506011960000e-001) (41, 1.55076634883880620000e+000) (42, 1.37499570846557620000e+000) (43, -4.36856508255004880000e+000) (44, -3.21188084781169890000e-002) (45, 2.86928266286849980000e-001) (46, 5.02352535724639890000e-001) (47, 6.99594914913177490000e-001) (48, 2.04294490814208980000e+000) (49, 8.40579605102539060000e+000) (50, 3.02730321884155270000e+000) (51, 7.97116041183471680000e+000) (52, 8.08208751678466800000e+000) (53, 3.56624054908752440000e+000) (54, -5.87415122985839840000e+000) (55, 4.45344657897949220000e+001) (56, 1.27257895469665530000e+000) (57, 1.65447807312011720000e+000) (58, 6.35705053806304930000e-001) (59, -1.16055154800415040000e+001) (60, -1.50000000000000000000e+003) (61, -1.04783264160156250000e+002) (62, -3.70875091552734370000e+002) (63, 2.07885432243347170000e+000) (64, -1.34566680908203120000e+002) (65, 3.35774540901184080000e+000) (66, -1.58339309692382810000e+001) (67, 2.14159750938415530000e+000) (0, -1.10229530334472660000e+001) (1, 1.75679283142089840000e+001) (2, 4.70815277099609370000e+001) (3, -1.19095373153686520000e+001) (4, 3.33472938537597660000e+001) (5, 4.80744781494140630000e+001) (6, -1.28889589309692380000e+001) (7, 1.76247344970703120000e+002) (8, 2.72948265075683590000e+000) (9, -1.11789579391479490000e+001) (10, 3.16155948638916020000e+001) (11, -3.40725708007812500000e+001) (12, -1.13314657211303710000e+001) (13, 1.48898956298828120000e+002) (14, 1.31158819198608400000e+001) (15, -1.22763919830322270000e+001) (16, -1.25909404754638670000e+001) (17, 8.40015411376953130000e+000) (18, 1.21192464828491210000e+001) (19, -1.13770790100097660000e+001) (20, 1.50754470825195310000e+001) (21, 1.25554132461547850000e+001) (22, -7.96756505966186520000e+000) (23, 2.23060470581054690000e+002) (24, -9.53634738922119140000e+000) (25, -1.85614833831787110000e+001) (26, 4.54155921936035160000e+001) (27, -2.73144397735595700000e+001) (28, -8.97816658020019530000e+000) (29, 6.51078186035156250000e+001) (30, 3.02165150642395020000e+000) (31, -1.18695945739746090000e+001) (32, -1.02609071731567380000e+001) (33, 8.75269031524658200000e+000) (34, 3.84522581100463870000e+000) (35, -1.79719409942626950000e+001) (36, -4.55481958389282230000e+000) (37, -4.09931802749633790000e+000) (38, -1.88181507587432860000e+000) (39, 1.04984519958496090000e+002) (40, -1.60030593872070310000e+001) (41, -1.73361454010009770000e+001) (42, -2.60952973365783690000e+000) (43, 4.66050949096679690000e+001) (44, -2.12120413780212400000e+000) (45, 3.19627113342285160000e+001) (46, -1.43180932998657230000e+001) (47, -1.72585926055908200000e+001) (48, -4.95210933685302730000e+000) (49, 2.25743699073791500000e+000) (50, 4.10544738769531250000e+001) (51, -5.57851600646972660000e+000) (52, 5.61293475329875950000e-002) (53, -1.08311758041381840000e+001) (54, -1.72185668945312500000e+001) (55, -3.04679901123046870000e+002) (56, 3.28872299194335940000e+000) (57, -5.25655021667480470000e+001) (58, -3.04442138671875000000e+001) (59, -1.50000000000000000000e+003) (60, -1.50000000000000000000e+003) (61, -6.76885175704956050000e+000) (62, -1.50000000000000000000e+003) (63, -5.20291481018066410000e+001) (64, -2.54413009643554690000e+002) (65, 3.13432579040527340000e+001) (66, 6.44174337387084960000e+000) (67, 3.52404289245605470000e+001) (68, -1.60481014251708980000e+001) (0, 5.35028076171875000000e+000) (1, -2.67780971527099610000e+000) (2, -6.93468093872070310000e+001) (3, 7.26121425628662110000e+000) (4, -3.55636501312255860000e+000) (5, -6.46965885162353520000e+000) (6, 6.33712196350097660000e+000) (7, 2.35454130172729490000e+000) (8, -1.51964104175567630000e+000) (9, 5.19387245178222660000e+000) (10, 3.96482205390930180000e+000) (11, 1.28809833526611330000e+000) (12, 1.52035770416259770000e+001) (13, -1.25298916827887300000e-003) (14, -2.99613475799560550000e+000) (15, 6.51516485214233400000e+000) (16, 6.04124975204467770000e+000) (17, -8.01328718662261960000e-001) (18, -7.82945489883422850000e+000) (19, 6.02271223068237300000e+000) (20, -5.64446496963500980000e+000) (21, -1.79904472827911380000e+000) (22, 3.56482148170471190000e+000) (23, 4.94263410568237300000e+000) (24, -3.65865516662597660000e+000) (25, 5.07437133789062500000e+000) (26, 3.20340847969055180000e+000) (27, 8.39792966842651370000e-001) (28, 3.11572399139404300000e+001) (29, 7.85740435123443600000e-001) (30, -3.24620056152343750000e+000) (31, 5.80781364440917970000e+000) (32, -3.81317949295043950000e+000) (33, -5.18142127990722660000e+000) (34, -1.71913993358612060000e+000) (35, 8.27658176422119140000e-001) (36, -1.22008752822875980000e+001) (37, 2.34194070100784300000e-001) (38, -1.11159772872924800000e+001) (39, 3.77019238471984860000e+000) (40, -1.88247251510620120000e+000) (41, 1.70593309402465820000e+000) (42, -3.07543519884347920000e-002) (43, -1.59462720155715940000e-001) (44, -3.23479995727539060000e+001) (45, -2.99036955833435060000e+000) (46, -6.49204015731811520000e-001) (47, 2.04801130294799800000e+000) (48, -1.33953559398651120000e+000) (49, 1.34785423278808590000e+001) (50, -1.72596931457519530000e+001) (51, 2.05586142838001250000e-002) (52, 9.49012756347656250000e-001) (53, 1.61246490478515630000e+001) (54, -1.30177758789062500000e+003) (55, -1.92505321502685550000e+001) (56, 1.09268712997436520000e+001) (57, -7.48248386383056640000e+000) (58, -6.56176853179931640000e+000) (59, -1.50000000000000000000e+003) (60, -1.50000000000000000000e+003) (61, 8.23682403564453130000e+000) (62, -1.50000000000000000000e+003) (63, -7.26971340179443360000e+000) (64, -1.50000000000000000000e+003) (65, -4.03955399990081790000e-001) (66, -7.63093566894531250000e+001) (67, -1.92908263206481930000e+000) (68, -1.01890583038330080000e+001) (69, -1.34432287597656250000e+003) (0, 2.55663609504699710000e+000) (1, -1.23939193785190580000e-001) (2, 1.47221088409423830000e+000) (3, 8.20916593074798580000e-001) (4, 8.44448208808898930000e-001) (5, 1.84616303443908690000e+000) (6, 7.89596915245056150000e-001) (7, 7.78830409049987790000e-001) (8, 1.92133927345275880000e+000) (9, 3.69691431522369380000e-001) (10, 1.25669449567794800000e-001) (11, 2.43733167648315430000e+000) (12, 1.05717599391937260000e+000) (13, 4.29762542247772220000e-001) (14, 1.85948622226715090000e+000) (15, 1.00099968910217290000e+000) (16, 1.72956585884094240000e+000) (17, 1.11692082881927490000e+000) (18, 2.24352359771728520000e+000) (19, 2.54488921165466310000e+000) (20, -4.40906494855880740000e-001) (21, 2.67402100563049320000e+000) (22, -8.80101621150970460000e-001) (23, 1.90496385097503660000e+000) (24, 8.96702587604522710000e-001) (25, 1.86103332042694090000e+000) (26, -6.03700935840606690000e-001) (27, 2.61570501327514650000e+000) (28, 8.78387391567230220000e-001) (29, 1.62062144279479980000e+000) (30, 5.87738931179046630000e-001) (31, 2.31634855270385740000e+000) (32, 6.65051937103271480000e-001) (33, 1.06574463844299320000e+000) (34, 1.34434580802917480000e+000) (35, 2.13346982002258300000e+000) (36, -9.35031592845916750000e-001) (37, 2.93047380447387700000e+000) (38, -6.74913763999938960000e-001) (39, 9.80261802673339840000e-001) (40, -1.29519524052739140000e-002) (41, 1.58132386207580570000e+000) (42, 2.08328858017921450000e-001) (43, 1.07310628890991210000e+000) (44, 1.73832505941390990000e-001) (45, 1.37960433959960940000e+000) (46, 1.46085286140441890000e+000) (47, 1.83732414245605470000e+000) (48, 9.13187026977539060000e-001) (49, 4.23141032457351680000e-001) (50, 1.28542590141296390000e+000) (51, 4.08962869644165040000e+000) (52, 1.90012145042419430000e+000) (53, 6.77518486976623540000e-001) (54, -5.71042861938476560000e+001) (55, 7.74714851379394530000e+000) (56, 1.75764262676239010000e+000) (57, -1.26710385084152220000e-001) (58, -7.50499010086059570000e-001) (59, 2.36900281906127930000e+000) (60, 1.50000000000000000000e+003) (61, 2.28314518928527830000e+000) (62, -1.74794036865234370000e+002) (63, 3.93970966339111330000e-001) (64, 3.53205146789550780000e+001) (65, 5.25035299360752110000e-002) (66, 1.80118191242218020000e+000) (67, 1.23031485080718990000e+000) (68, 1.62428271770477290000e+000) (69, 5.92335605621337890000e+000) (70, 9.55034613609313960000e-001) (0, 1.99956202507019040000e+000) (1, -1.19357204437255860000e+000) (2, -4.00552902221679690000e+001) (3, 2.23875260353088380000e+000) (4, -1.43588602542877200000e+000) (5, -3.39416351318359380000e+001) (6, 3.25266504287719730000e+000) (7, 1.48721897602081300000e+000) (8, -5.21162033081054690000e+000) (9, 1.64431178569793700000e+000) (10, 1.39054203033447270000e+000) (11, -6.93832254409790040000e+000) (12, 1.45143616199493410000e+000) (13, -9.97560620307922360000e-001) (14, 2.72143578529357910000e+000) (15, 2.88670229911804200000e+000) (16, 9.21014499664306640000e+000) (17, -1.67936360836029050000e+000) (18, -1.27282381057739260000e+001) (19, 1.56379687786102290000e+000) (20, -1.51268041133880620000e+000) (21, -1.30921421051025390000e+001) (22, 3.00347590446472170000e+000) (23, 1.91842842102050780000e+000) (24, -1.11702756881713870000e+001) (25, 1.32500910758972170000e+000) (26, 1.90071165561676030000e+000) (27, -9.50690460205078120000e+000) (28, 1.10473179817199710000e+000) (29, -3.67844164371490480000e-001) (30, 2.56347227096557620000e+000) (31, 2.45410323143005370000e+000) (32, 2.68082857131958010000e+000) (33, -5.08686959743499760000e-001) (34, 2.36906766891479490000e+000) (35, 2.26830101013183590000e+000) (36, 3.19364857673645020000e+000) (37, 1.00666055679321290000e+001) (38, 1.52334058284759520000e+000) (39, 9.26935195922851560000e-001) (40, -2.64884638786315920000e+000) (41, 1.91152679920196530000e+000) (42, 1.29447615146636960000e+000) (43, 9.08296871185302730000e+000) (44, 2.04494071006774900000e+000) (45, 2.93451547622680660000e-001) (46, -2.18455171585083010000e+000) (47, 1.96704363822937010000e+000) (48, 1.04463357925415040000e+001) (49, 1.03372430801391600000e+001) (50, -8.69886398315429690000e+000) (51, 1.20057797431945800000e+000) (52, -4.32096385955810550000e+000) (53, -9.42692661285400390000e+000) (54, -2.85610008239746090000e+001) (55, -2.75689697265625000000e+000) (56, -3.43351721763610840000e+000) (57, -1.71544830322265620000e+002) (58, -3.65222129821777340000e+001) (59, -1.50000000000000000000e+003) (60, -1.50000000000000000000e+003) (61, -1.30104019165039060000e+002) (62, -1.50000000000000000000e+003) (63, -1.69839263916015620000e+002) (64, -1.50000000000000000000e+003) (65, 7.36915767192840580000e-001) (66, -3.22943145751953120000e+002) (67, 4.78902053833007810000e+000) (68, 3.24338769912719730000e+000) (69, 3.47269320487976070000e+000) (70, 2.40438246726989750000e+000) (71, 1.17203302383422850000e+001) (0, -4.39832359552383420000e-002) (1, 1.21023893356323240000e+000) (2, 2.15326166152954100000e+000) (3, 1.86495828628540040000e+000) (4, 4.70333248376846310000e-001) (5, 2.15012502670288090000e+000) (6, 1.23508858680725100000e+000) (7, 2.39751026034355160000e-001) (8, 2.46116685867309570000e+000) (9, 7.73563027381896970000e-001) (10, 2.60670572519302370000e-001) (11, 1.75714445114135740000e+000) (12, 5.07071971893310550000e-001) (13, 1.84954121708869930000e-001) (14, 1.44865059852600100000e+000) (15, 8.59603285789489750000e-001) (16, 2.80938565731048580000e-001) (17, -2.92619578540325160000e-002) (18, 1.62902665138244630000e+000) (19, 1.56038248538970950000e+000) (20, -8.15120816230773930000e-001) (21, 2.05962467193603520000e+000) (22, 3.66651266813278200000e-002) (23, 1.29548346996307370000e+000) (24, 5.73654830455780030000e-001) (25, 3.04643893241882320000e+000) (26, -3.51129978895187380000e-001) (27, 1.97908020019531250000e+000) (28, -8.41044113039970400000e-002) (29, 2.82177478075027470000e-002) (30, 1.04492449760437010000e+000) (31, 2.39973235130310060000e+000) (32, 3.13016921281814580000e-001) (33, -1.03492755442857740000e-002) (34, 1.17734742164611820000e+000) (35, 1.91322588920593260000e+000) (36, -1.56344497203826900000e+000) (37, 1.69711542129516600000e+000) (38, -3.99661719799041750000e-001) (39, 1.44509226083755490000e-001) (40, 1.54017400741577150000e+000) (41, 1.64253616333007810000e+000) (42, -1.07991385459899900000e+000) (43, 2.41796565055847170000e+000) (44, 1.33993640542030330000e-001) (45, 1.30823504924774170000e+000) (46, 1.48865616321563720000e+000) (47, 6.11554324626922610000e-001) (48, -8.12592267990112300000e-001) (49, -5.13791263103485110000e-001) (50, -1.18702805042266850000e+000) (51, 4.41044092178344730000e-001) (52, 9.26100909709930420000e-001) (53, 3.08439779281616210000e+000) (54, 8.72124075889587400000e-001) (55, -8.08693313598632810000e+000) (56, 1.45405757427215580000e+000) (57, 3.06279152631759640000e-001) (58, -6.44624605774879460000e-003) (59, 3.38897657394409180000e+000) (60, -1.22704992675781250000e+003) (61, 6.02843399047851560000e+001) (62, 6.36306533813476560000e+001) (63, -1.42005634307861330000e+000) (64, 5.03839988708496090000e+001) (65, -2.11415863037109370000e+000) (66, 1.37491960525512700000e+001) (67, -9.57295715808868410000e-001) (68, 3.76907229423522950000e-001) (69, 3.49571156501770020000e+000) (70, 3.48706632852554320000e-001) (71, -1.61626875400543210000e-001) (72, 7.35835504531860350000e+000) (0, 2.25850224494934080000e+000) (1, 3.77148604393005370000e+000) (2, 1.66861379146575930000e+000) (3, 1.54832804203033450000e+000) (4, 2.15132737159729000000e+000) (5, 1.69923090934753420000e+000) (6, 3.60754847526550290000e+000) (7, 1.11252319812774660000e+000) (8, 1.22323274612426760000e-001) (9, 4.03643846511840820000e+000) (10, 6.60269320011138920000e-001) (11, 1.00526821613311770000e+000) (12, 1.63593542575836180000e+000) (13, 1.24626350402832030000e+000) (14, 5.02947390079498290000e-001) (15, 1.49601995944976810000e+000) (16, 8.90207111835479740000e-001) (17, 2.55425953865051270000e+000) (18, 9.97277438640594480000e-001) (19, 5.91610968112945560000e-001) (20, -1.50714147090911870000e+000) (21, 4.21969622373580930000e-001) (22, -2.28022694587707520000e+000) (23, 1.88956785202026370000e+000) (24, 1.53779327869415280000e+000) (25, 9.51999187469482420000e-001) (26, -6.20174825191497800000e-001) (27, 1.05192117393016820000e-001) (28, -3.17211771011352540000e+000) (29, 1.47160160541534420000e+000) (30, 3.68912428617477420000e-001) (31, 3.61888468265533450000e-001) (32, -2.14730215072631840000e+000) (33, 2.72904753684997560000e+000) (34, 1.15481019020080570000e+000) (35, -4.06000986695289610000e-002) (36, 8.97893249988555910000e-001) (37, 6.55815541744232180000e-001) (38, 1.20859885215759280000e+000) (39, 1.19113910198211670000e+000) (40, 3.05616706609725950000e-001) (41, 1.61475014686584470000e+000) (42, 8.86938989162445070000e-001) (43, 8.54617953300476070000e-001) (44, -9.92211997509002690000e-002) (45, 3.00748729705810550000e+000) (46, -1.02356530725955960000e-001) (47, 1.06079125404357910000e+000) (48, -2.02317714691162110000e+000) (49, 4.46809005737304690000e+000) (50, 4.53675651550292970000e+000) (51, 4.54998582601547240000e-001) (52, 3.29632830619812010000e+000) (53, 5.20995712280273440000e+000) (54, -4.05641651153564450000e+000) (55, 2.83852424621582030000e+001) (56, 2.67249178886413570000e+000) (57, -1.41458988189697270000e-001) (58, 6.07667148113250730000e-001) (59, -4.19497966766357420000e+000) (60, 1.50000000000000000000e+003) (61, -2.08703498840332030000e+001) (62, -2.70418670654296870000e+002) (63, 1.15776979923248290000e+000) (64, -8.11590385437011720000e+000) (65, 2.63653969764709470000e+000) (66, -6.98599290847778320000e+000) (67, 3.80061984062194820000e+000) (68, 2.97026371955871580000e+000) (69, 9.03720016479492190000e+001) (70, 1.57017469406127930000e+001) (71, 6.13283157348632810000e-001) (72, 6.10595655441284180000e+000) (73, 4.34359836578369140000e+000) (0, -4.77546930313110350000e+000) (1, -2.63340015411376950000e+001) (2, 5.74404239654541020000e+000) (3, 4.27584600448608400000e+000) (4, -1.60135936737060550000e+000) (5, 2.89142102003097530000e-001) (6, 6.46383404731750490000e-001) (7, 1.45212583541870120000e+001) (8, 2.91215014457702640000e+000) (9, -2.05601072311401370000e+000) (10, 2.95449657440185550000e+001) (11, 2.88428044319152830000e+000) (12, 1.01476469039916990000e+001) (13, 5.01151371002197270000e+000) (14, 8.07145023345947270000e+000) (15, 1.41492769122123720000e-001) (16, -2.48108005523681640000e+000) (17, -5.64267349243164060000e+001) (18, 1.95532965660095210000e+000) (19, -7.02333033084869380000e-001) (20, -3.54066872596740720000e+000) (21, 6.18801546096801760000e+000) (22, 3.24247431755065920000e+000) (23, 6.96950721740722660000e+000) (24, 2.43884086608886720000e+000) (25, 2.03245210647583010000e+000) (26, 9.75201416015625000000e+000) (27, -7.51977205276489260000e-001) (28, 1.41020333766937260000e+000) (29, 7.09684491157531740000e-001) (30, 3.69587111473083500000e+000) (31, -1.25207149982452390000e+000) (32, 8.84644329547882080000e-001) (33, -1.79003200531005860000e+001) (34, -2.48962521553039550000e+000) (35, 1.52844417095184330000e+000) (36, -4.52380561828613280000e+000) (37, 7.18268728256225590000e+000) (38, 4.03496885299682620000e+000) (39, 5.81172752380371090000e+000) (40, -7.03766250610351560000e+000) (41, 4.49359655380249020000e-001) (42, 1.25809507369995120000e+001) (43, -3.26013221740722660000e+001) (44, -7.50790014863014220000e-002) (45, 1.50033378601074220000e+000) (46, -3.09405732154846190000e+000) (47, 4.12733815610408780000e-002) (48, 2.09026050567626950000e+001) (49, 3.64141869544982910000e+000) (50, 1.34118938446044920000e+001) (51, 9.58830547332763670000e+000) (52, 7.92172670364379880000e+000) (53, 1.36369621753692630000e+000) (54, 3.58924446105957030000e+001) (55, 6.32356529235839840000e+001) (56, 3.34721183776855470000e+000) (57, 5.30060768127441410000e+001) (58, 2.35759868621826170000e+001) (59, 1.50000000000000000000e+003) (60, 1.50000000000000000000e+003) (61, -2.32613372802734370000e+002) (62, -1.30971350097656250000e+003) (63, 9.05395793914794920000e+000) (64, -1.59192428588867190000e+002) (65, 4.83278369903564450000e+000) (66, -1.01175270080566410000e+001) (67, 5.13505029678344730000e+000) (68, 3.65112423896789550000e+000) (69, -3.94672489166259770000e+000) (70, 9.16068935394287110000e+000) (71, 3.79002761840820310000e+000) (72, -8.97945022583007810000e+000) (73, 2.34581923484802250000e+000) (74, 2.21612930297851560000e+000) 
