FANN_FLO_2.1
num_layers=3
learning_rate=0.700000
connection_rate=1.000000
network_type=0
learning_momentum=0.000000
training_algorithm=0
train_error_function=0
train_stop_function=0
cascade_output_change_fraction=0.010000
quickprop_decay=-0.000100
quickprop_mu=1.750000
rprop_increase_factor=1.200000
rprop_decrease_factor=0.500000
rprop_delta_min=0.000000
rprop_delta_max=50.000000
rprop_delta_zero=0.100000
cascade_output_stagnation_epochs=12
cascade_candidate_change_fraction=0.010000
cascade_candidate_stagnation_epochs=12
cascade_max_out_epochs=150
cascade_min_out_epochs=50
cascade_max_cand_epochs=150
cascade_min_cand_epochs=50
cascade_num_candidate_groups=2
bit_fail_limit=3.49999994039535520000e-001
cascade_candidate_limit=1.00000000000000000000e+003
cascade_weight_multiplier=4.00000005960464480000e-001
cascade_activation_functions_count=10
cascade_activation_functions=3 5 7 8 10 11 14 15 16 17 
cascade_activation_steepnesses_count=4
cascade_activation_steepnesses=2.50000000000000000000e-001 5.00000000000000000000e-001 7.50000000000000000000e-001 1.00000000000000000000e+000 
layer_sizes=49 24 2 
scale_included=0
neurons (num_inputs, activation_function, activation_steepness)=(0, 0, 0.00000000000000000000e+000) (0, 0, 0.00000000000000000000e+000) (0, 0, 0.00000000000000000000e+000) (0, 0, 0.00000000000000000000e+000) (0, 0, 0.00000000000000000000e+000) (0, 0, 0.00000000000000000000e+000) (0, 0, 0.00000000000000000000e+000) (0, 0, 0.00000000000000000000e+000) (0, 0, 0.00000000000000000000e+000) (0, 0, 0.00000000000000000000e+000) (0, 0, 0.00000000000000000000e+000) (0, 0, 0.00000000000000000000e+000) (0, 0, 0.00000000000000000000e+000) (0, 0, 0.00000000000000000000e+000) (0, 0, 0.00000000000000000000e+000) (0, 0, 0.00000000000000000000e+000) (0, 0, 0.00000000000000000000e+000) (0, 0, 0.00000000000000000000e+000) (0, 0, 0.00000000000000000000e+000) (0, 0, 0.00000000000000000000e+000) (0, 0, 0.00000000000000000000e+000) (0, 0, 0.00000000000000000000e+000) (0, 0, 0.00000000000000000000e+000) (0, 0, 0.00000000000000000000e+000) (0, 0, 0.00000000000000000000e+000) (0, 0, 0.00000000000000000000e+000) (0, 0, 0.00000000000000000000e+000) (0, 0, 0.00000000000000000000e+000) (0, 0, 0.00000000000000000000e+000) (0, 0, 0.00000000000000000000e+000) (0, 0, 0.00000000000000000000e+000) (0, 0, 0.00000000000000000000e+000) (0, 0, 0.00000000000000000000e+000) (0, 0, 0.00000000000000000000e+000) (0, 0, 0.00000000000000000000e+000) (0, 0, 0.00000000000000000000e+000) (0, 0, 0.00000000000000000000e+000) (0, 0, 0.00000000000000000000e+000) (0, 0, 0.00000000000000000000e+000) (0, 0, 0.00000000000000000000e+000) (0, 0, 0.00000000000000000000e+000) (0, 0, 0.00000000000000000000e+000) (0, 0, 0.00000000000000000000e+000) (0, 0, 0.00000000000000000000e+000) (0, 0, 0.00000000000000000000e+000) (0, 0, 0.00000000000000000000e+000) (0, 0, 0.00000000000000000000e+000) (0, 0, 0.00000000000000000000e+000) (0, 0, 0.00000000000000000000e+000) (49, 4, 5.00000000000000000000e-001) (49, 4, 5.00000000000000000000e-001) (49, 4, 5.00000000000000000000e-001) (49, 4, 5.00000000000000000000e-001) (49, 4, 5.00000000000000000000e-001) (49, 4, 5.00000000000000000000e-001) (49, 4, 5.00000000000000000000e-001) (49, 4, 5.00000000000000000000e-001) (49, 4, 5.00000000000000000000e-001) (49, 4, 5.00000000000000000000e-001) (49, 4, 5.00000000000000000000e-001) (49, 4, 5.00000000000000000000e-001) (49, 4, 5.00000000000000000000e-001) (49, 4, 5.00000000000000000000e-001) (49, 4, 5.00000000000000000000e-001) (49, 4, 5.00000000000000000000e-001) (49, 4, 5.00000000000000000000e-001) (49, 4, 5.00000000000000000000e-001) (49, 4, 5.00000000000000000000e-001) (49, 4, 5.00000000000000000000e-001) (49, 4, 5.00000000000000000000e-001) (49, 4, 5.00000000000000000000e-001) (49, 4, 5.00000000000000000000e-001) (0, 4, 5.00000000000000000000e-001) (24, 6, 5.00000000000000000000e-001) (0, 6, 5.00000000000000000000e-001) 
connections (connected_to_neuron, weight)=(0, -3.30861282348632810000e+000) (1, -4.90852928161621090000e+000) (2, -1.57627844810485840000e+000) (3, -9.17063057422637940000e-001) (4, -2.76315236091613770000e+000) (5, -1.35261523723602290000e+000) (6, 2.52005076408386230000e+000) (7, -2.09599927067756650000e-001) (8, -1.56792676448822020000e+000) (9, 2.57031059265136720000e+000) (10, 3.55612009763717650000e-001) (11, -7.26450741291046140000e-001) (12, -1.52174487709999080000e-001) (13, -1.59126925468444820000e+000) (14, -2.93031549453735350000e+000) (15, 7.84437716007232670000e-001) (16, -7.82821416854858400000e-001) (17, -1.23637306690216060000e+000) (18, 2.67982172966003420000e+000) (19, 5.95841884613037110000e-001) (20, -3.73095107078552250000e+000) (21, -1.47918391227722170000e+000) (22, 5.41222953796386720000e+000) (23, -8.31009864807128910000e-001) (24, 1.83169090747833250000e+000) (25, -2.22927421331405640000e-001) (26, -1.91622471809387210000e+000) (27, -3.83605432510375980000e+000) (28, -4.35286164283752440000e-001) (29, 2.04141306877136230000e+000) (30, 1.44910335540771480000e+000) (31, -3.19926524162292480000e+000) (32, -1.27633798122406010000e+000) (33, 3.82312846183776860000e+000) (34, -5.05148983001708980000e+000) (35, -2.57353454828262330000e-001) (36, 3.51570391654968260000e+000) (37, -3.88063073158264160000e+000) (38, 3.06343853473663330000e-001) (39, -8.95915508270263670000e+000) (40, -6.54516994953155520000e-001) (41, 2.69763612747192380000e+000) (42, -2.24777626991271970000e+000) (43, 2.48899793624877930000e+000) (44, 3.58896279335021970000e+000) (45, 4.20813798904418950000e+000) (46, 1.82487714290618900000e+000) (47, 1.17259955406188960000e+000) (48, -4.54791396856307980000e-001) (0, 6.90525412559509280000e-001) (1, -2.19492411613464360000e+000) (2, -1.77526021003723140000e+000) (3, 6.60278379917144780000e-001) (4, -1.02378141880035400000e+000) (5, -1.42623209953308110000e+000) (6, 6.93195015192031860000e-002) (7, 7.34690487384796140000e-001) (8, -1.10872542858123780000e+000) (9, -4.84408110380172730000e-001) (10, 8.93401980400085450000e-001) (11, -8.47796082496643070000e-001) (12, -3.34981903433799740000e-002) (13, -2.21476212143898010000e-001) (14, -1.05084311962127690000e+000) (15, 5.35421669483184810000e-001) (16, -7.35457763075828550000e-002) (17, -1.50941860675811770000e+000) (18, -4.45017188787460330000e-001) (19, -2.54090189933776860000e-001) (20, -1.02028441429138180000e+000) (21, 1.12148118019104000000e+000) (22, -1.72754809260368350000e-001) (23, -2.00130295753479000000e+000) (24, -1.23343281447887420000e-001) (25, -7.00382947921752930000e-001) (26, -2.30020493268966670000e-001) (27, 1.14491140842437740000e+000) (28, -3.69024395942687990000e-001) (29, -1.89856314659118650000e+000) (30, -8.13155114650726320000e-001) (31, 1.13232314586639400000e+000) (32, -1.35573700070381160000e-001) (33, -4.16410475969314580000e-001) (34, 5.34950494766235350000e-001) (35, -1.38182535767555240000e-001) (36, -3.64109396934509280000e-001) (37, 5.06816267967224120000e-001) (38, 5.37917971611022950000e-001) (39, -2.91765034198760990000e-001) (40, 5.77488720417022710000e-001) (41, 2.76051431894302370000e-001) (42, -1.45820641517639160000e+000) (43, -5.15504814684391020000e-002) (44, -2.18978971242904660000e-001) (45, 6.39412105083465580000e-002) (46, 2.78229147195816040000e-001) (47, 3.73845517635345460000e-001) (48, 1.53522837162017820000e+000) (0, -1.65072202682495120000e+000) (1, -1.72006931304931640000e+001) (2, -6.62137269973754880000e+000) (3, 2.59362101554870610000e+000) (4, -1.31265239715576170000e+001) (5, -2.78661847114562990000e+000) (6, 1.07277877628803250000e-001) (7, 2.60811948776245120000e+000) (8, 2.99956128001213070000e-002) (9, -3.14715218544006350000e+000) (10, 1.05709433555603030000e+000) (11, 2.03445553779602050000e+000) (12, 8.20014953613281250000e+000) (13, -5.49950885772705080000e+000) (14, -2.75415015220642090000e+000) (15, 1.57148909568786620000e+000) (16, -5.86896467208862300000e+000) (17, -1.23071300983428960000e+000) (18, 3.86882328987121580000e+000) (19, -4.78710174560546870000e+000) (20, -7.13654235005378720000e-002) (21, 5.96758508682250980000e+000) (22, -3.06582283973693850000e+000) (23, 3.03381180763244630000e+000) (24, -3.16483736038208010000e-001) (25, 1.57755935192108150000e+000) (26, -5.29135346412658690000e-001) (27, -7.79344463348388670000e+000) (28, 2.02544856071472170000e+000) (29, -7.82605028152465820000e+000) (30, -1.38795244693756100000e+000) (31, 4.80120122432708740000e-001) (32, 3.05795669555664060000e+000) (33, -8.72824573516845700000e+000) (34, 7.73928737640380860000e+000) (35, 3.10441112518310550000e+000) (36, 4.52711284160614010000e-001) (37, 7.80383872985839840000e+000) (38, 5.01111745834350590000e+000) (39, -1.27260041236877440000e+000) (40, 6.65086221694946290000e+000) (41, 4.58748245239257810000e+000) (42, -1.62872755527496340000e+000) (43, 2.17905187606811520000e+000) (44, 3.28176999092102050000e+000) (45, 2.67028594017028810000e+000) (46, 1.43062722682952880000e+000) (47, 2.00501060485839840000e+000) (48, 1.13718872070312500000e+001) (0, 6.60144984722137450000e-002) (1, -1.01374340057373050000e+000) (2, -3.04373174905776980000e-001) (3, 2.78258547186851500000e-002) (4, -5.98694145679473880000e-001) (5, -3.10755819082260130000e-001) (6, 6.00168257951736450000e-002) (7, -1.59676838666200640000e-002) (8, -3.87681454420089720000e-001) (9, -5.42894098907709120000e-003) (10, 1.45026490092277530000e-001) (11, -5.28003215789794920000e-001) (12, -7.55028566345572470000e-003) (13, -3.19710820913314820000e-001) (14, -3.72451364994049070000e-001) (15, 6.19851378723979000000e-003) (16, -1.47275745868682860000e-001) (17, -4.76578116416931150000e-001) (18, 1.43591627478599550000e-001) (19, 7.33839422464370730000e-002) (20, -4.86282110214233400000e-001) (21, -3.55908623896539210000e-003) (22, 3.54914993047714230000e-001) (23, -5.91486036777496340000e-001) (24, 7.07702105864882470000e-003) (25, 2.88148075342178340000e-001) (26, -1.28191515803337100000e-001) (27, -3.14512759447097780000e-001) (28, 3.94647806882858280000e-001) (29, -2.44429305195808410000e-001) (30, 2.96598840504884720000e-002) (31, -2.37012635916471480000e-002) (32, -3.94027173519134520000e-001) (33, 1.52586027979850770000e-001) (34, -9.02783647179603580000e-002) (35, -2.55237996578216550000e-001) (36, 1.66766792535781860000e-001) (37, -1.24104626476764680000e-001) (38, -8.72744023799896240000e-002) (39, -2.43683636188507080000e-001) (40, 7.77356103062629700000e-002) (41, 2.06085946410894390000e-003) (42, -2.03680217266082760000e-001) (43, 5.10434657335281370000e-002) (44, -1.39020577073097230000e-001) (45, 3.89028668403625490000e-001) (46, 2.73574769496917720000e-001) (47, -1.08807168900966640000e-001) (48, -2.93364465236663820000e-001) (0, 2.03122925758361820000e+000) (1, -9.35584008693695070000e-001) (2, -1.85691094398498540000e+000) (3, 1.70567548274993900000e+000) (4, -3.83457040786743160000e+000) (5, -1.47422254085540770000e+000) (6, -1.11803078651428220000e+000) (7, -1.75675427913665770000e+000) (8, 1.70295035839080810000e+000) (9, -1.65354001522064210000e+000) (10, 3.81083941459655760000e+000) (11, 8.67245793342590330000e-002) (12, 2.58902263641357420000e+000) (13, -4.48684740066528320000e+000) (14, 6.51077628135681150000e-002) (15, -1.54253828525543210000e+000) (16, -6.05476522445678710000e+000) (17, 1.09179759025573730000e+000) (18, -3.60354900360107420000e+000) (19, -3.94859838485717770000e+000) (20, 2.15551733970642090000e+000) (21, 4.34238004684448240000e+000) (22, -9.81502914428710940000e+000) (23, 2.39955878257751460000e+000) (24, -4.98237133026123050000e+000) (25, -2.85626745223999020000e+000) (26, 1.75376975536346440000e+000) (27, -6.42447710037231450000e-001) (28, -6.30344295501708980000e+000) (29, 1.91167545318603520000e+000) (30, -2.78743803501129150000e-001) (31, 4.17563724517822270000e+000) (32, -2.61260420083999630000e-001) (33, -2.45856475830078130000e+000) (34, 8.84849834442138670000e+000) (35, -3.55354905128479000000e-001) (36, -6.93907916545867920000e-001) (37, 2.31773972511291500000e-001) (38, -1.38752770423889160000e+000) (39, 5.53661918640136720000e+000) (40, 6.89645886421203610000e-001) (41, -2.27677941322326660000e+000) (42, 1.80842161178588870000e+000) (43, 2.16934275627136230000e+000) (44, -1.41368675231933590000e+000) (45, -2.31961917877197270000e+000) (46, -1.25669121742248540000e-001) (47, -1.00435137748718260000e+000) (48, -4.46682834625244140000e+000) (0, -5.04160642623901370000e-001) (1, -6.73503816127777100000e-001) (2, -6.56669080257415770000e-001) (3, -7.58062243461608890000e-001) (4, -1.87981176376342770000e+000) (5, -6.77513718605041500000e-001) (6, -9.07296001911163330000e-001) (7, -2.13527798652648930000e+000) (8, 6.83344826102256770000e-002) (9, -8.57850193977355960000e-001) (10, -2.30043196678161620000e+000) (11, -2.51952081918716430000e-001) (12, -8.83948266506195070000e-001) (13, -1.85199177265167240000e+000) (14, -2.96800315380096440000e-001) (15, -1.18238806724548340000e+000) (16, -2.16368961334228520000e+000) (17, -3.71292412281036380000e-001) (18, -6.52557790279388430000e-001) (19, -2.22195911407470700000e+000) (20, -1.06657721102237700000e-001) (21, -5.95782935619354250000e-001) (22, -3.43836712837219240000e+000) (23, -3.55929821729660030000e-001) (24, -1.35836791992187500000e+000) (25, -7.21703171730041500000e-001) (26, -1.29951930046081540000e+000) (27, -7.71658003330230710000e-001) (28, -3.76498669385910030000e-001) (29, -1.50190663337707520000e+000) (30, -7.35358595848083500000e-001) (31, -4.52126532793045040000e-001) (32, -1.43093526363372800000e-001) (33, -1.34572470188140870000e+000) (34, 2.17882856726646420000e-001) (35, -3.64123344421386720000e-001) (36, -1.14862394332885740000e+000) (37, 4.49501127004623410000e-001) (38, -1.68545931577682500000e-001) (39, 1.72585117816925050000e+000) (40, 1.18452262878417970000e+000) (41, -1.09801220893859860000e+000) (42, 8.11945974826812740000e-001) (43, 1.89771842956542970000e+000) (44, -4.37676459550857540000e-001) (45, -2.46189737319946290000e+000) (46, 3.99669736623764040000e-001) (47, 4.52725559473037720000e-001) (48, -4.51440781354904170000e-001) (0, 1.84677541255950930000e-001) (1, -2.47616624832153320000e+000) (2, -1.50511980056762700000e+000) (3, 2.92837351560592650000e-001) (4, -1.19782328605651860000e+000) (5, -1.28686857223510740000e+000) (6, 1.67068824172019960000e-001) (7, 9.10571396350860600000e-001) (8, -9.03858721256256100000e-001) (9, -1.41221866011619570000e-001) (10, 1.34847867488861080000e+000) (11, -6.53913676738739010000e-001) (12, -5.44052541255950930000e-001) (13, -2.95427262783050540000e-001) (14, -8.91354143619537350000e-001) (15, 3.54507476091384890000e-001) (16, -4.26270484924316410000e-001) (17, -1.43394243717193600000e+000) (18, -1.37102985382080080000e+000) (19, -1.57573029398918150000e-001) (20, -6.58449292182922360000e-001) (21, 8.95713329315185550000e-001) (22, -1.17822371423244480000e-001) (23, -1.99612212181091310000e+000) (24, -9.44561362266540530000e-002) (25, -6.33483827114105220000e-001) (26, 4.25137281417846680000e-001) (27, 4.84574705362319950000e-001) (28, -1.67651146650314330000e-001) (29, -1.55861401557922360000e+000) (30, -6.72482013702392580000e-001) (31, 7.87672877311706540000e-001) (32, -2.35349670052528380000e-001) (33, -8.76871198415756230000e-002) (34, 4.28344041109085080000e-001) (35, -3.13595533370971680000e-001) (36, 1.27468317747116090000e-001) (37, 8.33684265613555910000e-001) (38, 7.98164427280426030000e-001) (39, 4.95062589645385740000e-001) (40, 2.07571431994438170000e-001) (41, 5.55902898311614990000e-001) (42, -9.16678190231323240000e-001) (43, 2.87527531385421750000e-001) (44, 3.03016394376754760000e-001) (45, 1.75501668453216550000e+000) (46, 9.44719910621643070000e-001) (47, 2.01417997479438780000e-001) (48, 9.43095684051513670000e-001) (0, 2.47494101524353030000e+000) (1, 2.60365557670593260000e+000) (2, 7.83136606216430660000e-001) (3, 2.90935397148132320000e-001) (4, 1.60286962985992430000e-001) (5, -4.96520966291427610000e-001) (6, -9.84292984008789060000e-001) (7, -3.35597252845764160000e+000) (8, 1.46392837166786190000e-001) (9, 5.82881629467010500000e-001) (10, -4.51916790008544920000e+000) (11, -1.22481048107147220000e+000) (12, -4.47256155312061310000e-002) (13, 2.43502538651227950000e-002) (14, 1.22456896305084230000e+000) (15, -3.70316934585571290000e+000) (16, -1.21207249164581300000e+000) (17, -6.53418600559234620000e-001) (18, -1.30285274982452390000e+000) (19, 5.21275848150253300000e-002) (20, 1.39419972896575930000e+000) (21, -2.56509947776794430000e+000) (22, -2.30096650123596190000e+000) (23, -5.20916986465454100000e+000) (24, 2.95284891128540040000e+000) (25, -2.89356803894042970000e+000) (26, 2.32016110420227050000e+000) (27, -2.71235561370849610000e+000) (28, 1.91933798789978030000e+000) (29, -1.12267506122589110000e+000) (30, 2.90735155344009400000e-001) (31, 5.18560934066772460000e+000) (32, 1.01399683952331540000e+000) (33, 1.78467258810997010000e-002) (34, 5.23267173767089840000e+000) (35, -6.64157152175903320000e-001) (36, -1.50861418247222900000e+000) (37, -1.14600777626037600000e+000) (38, -2.93169856071472170000e+000) (39, 2.24891972541809080000e+000) (40, -2.03505587577819820000e+000) (41, -2.46246266365051270000e+000) (42, 2.94153308868408200000e+000) (43, -1.39353144168853760000e+000) (44, -1.53762340545654300000e+000) (45, 7.90106296539306640000e-001) (46, 1.62576842308044430000e+000) (47, -1.08956813812255860000e+000) (48, 1.79975509643554690000e+000) (0, -2.71921008825302120000e-001) (1, -7.40100681781768800000e-001) (2, -4.49453711509704590000e-001) (3, 5.68975090980529790000e-001) (4, 1.69797930866479870000e-002) (5, -3.58130216598510740000e-001) (6, -1.41379922628402710000e-001) (7, 2.92545050382614140000e-001) (8, -7.86589980125427250000e-001) (9, 4.96194837614893910000e-003) (10, 7.93662786483764650000e-001) (11, -1.15365993976593020000e+000) (12, 7.67723202705383300000e-001) (13, -6.86024785041809080000e-001) (14, -1.20017409324646000000e+000) (15, -1.66289627552032470000e-001) (16, 7.93655097484588620000e-001) (17, 6.21711723506450650000e-002) (18, -2.57966965436935420000e-001) (19, 4.23727452754974370000e-001) (20, -1.35374462604522710000e+000) (21, 6.92900776863098140000e-001) (22, -1.28635525703430180000e-001) (23, -2.25764915347099300000e-001) (24, -7.96459853649139400000e-001) (25, -5.38488447666168210000e-001) (26, -6.13601326942443850000e-001) (27, 1.55276149511337280000e-001) (28, -1.58389478921890260000e-001) (29, -7.67149865627288820000e-001) (30, -1.73324663192033770000e-002) (31, -1.97387054562568660000e-001) (32, -2.53280848264694210000e-001) (33, -7.72835686802864070000e-002) (34, -4.21082347631454470000e-001) (35, -4.70960065722465520000e-002) (36, -3.07651132345199580000e-001) (37, -4.71749156713485720000e-001) (38, 3.97416166961193080000e-002) (39, 8.53123784065246580000e-001) (40, 2.06309151649475100000e+000) (41, -5.64377665519714360000e-001) (42, -4.25315976142883300000e-001) (43, 1.60484111309051510000e+000) (44, -4.71991091966629030000e-001) (45, -7.56016885861754420000e-003) (46, -1.66162893176078800000e-001) (47, -4.63878214359283450000e-001) (48, 1.01985144615173340000e+000) (0, -5.39985418319702150000e-001) (1, -2.05492115020751950000e+000) (2, -1.14252813160419460000e-001) (3, -4.64130677282810210000e-002) (4, -1.08878171443939210000e+000) (5, -8.62171500921249390000e-002) (6, 2.21658468246459960000e-001) (7, -3.32003533840179440000e-002) (8, -7.64689981937408450000e-001) (9, 5.29096841812133790000e-001) (10, 3.60994011163711550000e-001) (11, -6.80740952491760250000e-001) (12, -3.23964834213256840000e-001) (13, -3.39294314384460450000e-001) (14, -4.33768928050994870000e-001) (15, 5.27993496507406230000e-003) (16, -3.35350841283798220000e-001) (17, -5.49407839775085450000e-001) (18, -9.69590693712234500000e-002) (19, 4.83998209238052370000e-001) (20, -8.66763889789581300000e-001) (21, 4.79659229516983030000e-001) (22, 5.31934261322021480000e-001) (23, -1.02828335762023930000e+000) (24, -3.49181413650512700000e-001) (25, 5.41693091392517090000e-001) (26, 3.44748914241790770000e-001) (27, -5.60053646564483640000e-001) (28, 1.46121472120285030000e-001) (29, 1.65240671485662460000e-002) (30, 2.61408448219299320000e-001) (31, -1.53311550617218020000e-001) (32, -5.55903732776641850000e-001) (33, 6.15700900554656980000e-001) (34, -4.83515352010726930000e-001) (35, -4.99124437570571900000e-001) (36, 2.83121597021818160000e-003) (37, 2.04427614808082580000e-001) (38, 1.57220922410488130000e-002) (39, 1.18087686598300930000e-001) (40, -6.02016925811767580000e-001) (41, 3.65966618061065670000e-001) (42, 1.18844725191593170000e-001) (43, -4.60521280765533450000e-001) (44, -2.18088090419769290000e-001) (45, 7.64516830444335940000e-001) (46, 4.50696885585784910000e-001) (47, -4.91498917341232300000e-001) (48, -2.47117042541503910000e-001) (0, -7.87741088867187500000e+000) (1, -4.61357307434082030000e+000) (2, -2.27808213233947750000e+000) (3, -4.46241092681884770000e+000) (4, -2.34813022613525390000e+000) (5, -1.13292539119720460000e+000) (6, 1.23761022090911870000e+000) (7, 1.45883727073669430000e+000) (8, -1.09405958652496340000e+000) (9, 2.40237379074096680000e+000) (10, 8.29164922237396240000e-001) (11, -1.05785357952117920000e+000) (12, -1.70821762084960940000e+000) (13, 3.38291263580322270000e+000) (14, -2.14338350296020510000e+000) (15, -2.53632283210754390000e+000) (16, -1.80498361587524410000e+000) (17, -5.83617329597473140000e-001) (18, -9.94973123073577880000e-001) (19, -1.45698532462120060000e-001) (20, -1.54448020458221440000e+000) (21, -2.07078194618225100000e+000) (22, -4.53954505920410160000e+000) (23, 8.05008530616760250000e-001) (24, -6.19593977928161620000e-001) (25, -4.91605949401855470000e+000) (26, -9.05259013175964360000e-001) (27, -7.78079223632812500000e+000) (28, 2.65497231483459470000e+000) (29, -2.13908028602600100000e+000) (30, 2.98058605194091800000e+000) (31, 4.09255027770996090000e+000) (32, -6.02478682994842530000e-001) (33, 3.51962184906005860000e+000) (34, 3.28951334953308110000e+000) (35, -1.40637290477752690000e+000) (36, -1.31144952774047850000e+000) (37, 2.79582619667053220000e+000) (38, 5.43834686279296880000e-001) (39, 1.12528581619262700000e+001) (40, -1.92648279666900630000e+000) (41, -8.97936463356018070000e-001) (42, 4.70851230621337890000e+000) (43, -1.96453320980072020000e+000) (44, 4.14552778005599980000e-001) (45, 8.46917927265167240000e-001) (46, 6.68315887451171880000e-001) (47, -1.19058644771575930000e+000) (48, 2.11627030372619630000e+000) (0, -9.21260952949523930000e-001) (1, -2.95885848999023440000e+000) (2, 2.49938678741455080000e+000) (3, -9.95774745941162110000e-001) (4, -1.88216137886047360000e+000) (5, 2.51891446113586430000e+000) (6, 1.49477505683898930000e+000) (7, -2.18228554725646970000e+000) (8, -1.64037328213453290000e-002) (9, 1.24669814109802250000e+000) (10, -1.68452751636505130000e+000) (11, -4.46669816970825200000e-001) (12, -8.10315459966659550000e-002) (13, -1.38492560386657710000e+000) (14, 1.22479462623596190000e+000) (15, -1.88881650567054750000e-001) (16, -4.12565374374389650000e+000) (17, 1.12925601005554200000e+000) (18, -2.13171291351318360000e+000) (19, -2.46462941169738770000e+000) (20, -8.28385353088378910000e-001) (21, 1.00569450855255130000e+000) (22, -2.45495438575744630000e+000) (23, -3.19111943244934080000e-001) (24, -3.68609309196472170000e+000) (25, 2.65788984298706050000e+000) (26, 1.79419207572937010000e+000) (27, -2.45407652854919430000e+000) (28, -2.52345621585845950000e-001) (29, 8.03391709923744200000e-002) (30, 5.77081441879272460000e-001) (31, 1.88871777057647710000e+000) (32, -1.13549602031707760000e+000) (33, 1.05120730400085450000e+000) (34, 1.44858181476593020000e+000) (35, -6.46208524703979490000e-001) (36, -1.32042241096496580000e+000) (37, 2.84375691413879390000e+000) (38, -2.11898908019065860000e-001) (39, 2.34020090103149410000e+000) (40, 2.59666991233825680000e+000) (41, 3.39345484972000120000e-001) (42, 7.82773673534393310000e-001) (43, 3.68046730756759640000e-001) (44, -5.53723931312561040000e-001) (45, -1.32307158783078190000e-002) (46, 1.86042368412017820000e-001) (47, -1.83988142013549800000e+000) (48, -7.95215785503387450000e-001) (0, -2.23123818635940550000e-001) (1, -2.09229922294616700000e+000) (2, 6.38446569442749020000e-001) (3, -2.40684777498245240000e-001) (4, -1.23566305637359620000e+000) (5, 4.77770745754241940000e-001) (6, -7.84047937486320730000e-004) (7, -9.41627919673919680000e-001) (8, -4.19589161872863770000e-001) (9, 3.12100589275360110000e-001) (10, -5.62855541706085210000e-001) (11, -5.31567633152008060000e-001) (12, -3.17298829555511470000e-001) (13, -6.61537170410156250000e-001) (14, 1.05101488530635830000e-001) (15, 1.21925227344036100000e-001) (16, -3.81565660238265990000e-001) (17, -2.39363923668861390000e-001) (18, -9.57340374588966370000e-002) (19, 3.05880486965179440000e-001) (20, -6.38068795204162600000e-001) (21, 4.85990226268768310000e-001) (22, 9.42119598388671880000e-001) (23, -6.70253992080688480000e-001) (24, -5.40745437145233150000e-001) (25, 1.33555114269256590000e-001) (26, 4.75612133741378780000e-001) (27, 4.92845147848129270000e-001) (28, 5.59676252305507660000e-003) (29, 5.40467858314514160000e-001) (30, 3.48743259906768800000e-001) (31, -7.86702811717987060000e-001) (32, -5.22982120513916020000e-001) (33, 5.20105957984924320000e-001) (34, -6.58617675304412840000e-001) (35, -8.02216410636901860000e-001) (36, -5.08170425891876220000e-001) (37, -1.62384092807769780000e+000) (38, 1.91665813326835630000e-001) (39, -5.98778665065765380000e-001) (40, -8.17161202430725100000e-001) (41, -1.82614266872406010000e-001) (42, -2.84379333257675170000e-001) (43, -8.73982429504394530000e-001) (44, -6.44740521907806400000e-001) (45, 3.48689779639244080000e-002) (46, -8.25865864753723140000e-001) (47, 7.89936110377311710000e-002) (48, -1.26646435260772710000e+000) (0, -8.49864721298217770000e-001) (1, -2.16818976402282710000e+000) (2, -3.47059607505798340000e-001) (3, -3.63749861717224120000e-001) (4, -4.43367660045623780000e-001) (5, -6.91134750843048100000e-001) (6, -2.95062852092087270000e-003) (7, 7.76190832257270810000e-002) (8, -9.40684676170349120000e-001) (9, -1.38164639472961430000e-001) (10, 5.31975030899047850000e-001) (11, -6.21121168136596680000e-001) (12, -6.69000506401062010000e-001) (13, -7.99936056137084960000e-001) (14, -1.14717698097229000000e+000) (15, 6.05923593044281010000e-001) (16, -6.57973885536193850000e-001) (17, -7.15720236301422120000e-001) (18, -4.32448953390121460000e-001) (19, 2.67551064491271970000e-001) (20, -5.64999401569366460000e-001) (21, 3.90818893909454350000e-001) (22, 7.65624940395355220000e-001) (23, -3.27876180410385130000e-001) (24, -1.49497425556182860000e+000) (25, -9.76292133331298830000e-001) (26, 1.80165600776672360000e+000) (27, 1.18042910099029540000e+000) (28, -3.76189899444580080000e+000) (29, 1.93163919448852540000e+000) (30, -1.41202434897422790000e-001) (31, -1.07420897483825680000e+000) (32, -7.73707389831542970000e-001) (33, 5.01961827278137210000e-001) (34, -2.23368978500366210000e+000) (35, -4.64565068483352660000e-001) (36, 8.74729216098785400000e-001) (37, -1.90947878360748290000e+000) (38, -6.80085122585296630000e-001) (39, -3.18316102027893070000e+000) (40, 1.31121063232421870000e+000) (41, -7.97339260578155520000e-001) (42, -2.66551947593688960000e+000) (43, 9.43687260150909420000e-001) (44, -1.67053699493408200000e+000) (45, 2.76676440238952640000e+000) (46, -8.09680521488189700000e-001) (47, -1.06477010250091550000e+000) (48, -1.32830119132995610000e+000) (0, -2.35096380114555360000e-001) (1, -1.49971187114715580000e+000) (2, -9.12200212478637700000e-002) (3, -3.34221534430980680000e-002) (4, -6.95796728134155270000e-001) (5, -6.68779388070106510000e-002) (6, 2.63049937784671780000e-002) (7, -5.10825850069522860000e-002) (8, -5.26330292224884030000e-001) (9, 1.24800972640514370000e-001) (10, 1.11244715750217440000e-001) (11, -5.78058481216430660000e-001) (12, -3.14333617687225340000e-001) (13, -3.06663483381271360000e-001) (14, -2.68234163522720340000e-001) (15, -7.80686968937516210000e-003) (16, -9.89166349172592160000e-002) (17, -3.56472492218017580000e-001) (18, -2.15816631913185120000e-001) (19, 3.85996788740158080000e-001) (20, -4.98591393232345580000e-001) (21, 2.30959698557853700000e-001) (22, 4.25510972738265990000e-001) (23, -5.54912567138671880000e-001) (24, -3.70132207870483400000e-001) (25, 5.36760687828063960000e-001) (26, 2.96204924583435060000e-001) (27, -3.57335597276687620000e-001) (28, 5.50502657890319820000e-001) (29, 3.09242550283670430000e-002) (30, -1.01671926677227020000e-001) (31, -1.42024055123329160000e-001) (32, -4.02735352516174320000e-001) (33, 3.10655117034912110000e-001) (34, -6.56679570674896240000e-002) (35, -3.90111565589904790000e-001) (36, -1.78962484002113340000e-001) (37, -1.01540304720401760000e-001) (38, 4.64547127485275270000e-002) (39, 2.95233950018882750000e-002) (40, 1.61470055580139160000e-001) (41, 2.23434418439865110000e-002) (42, -1.80894255638122560000e-001) (43, 1.58802419900894170000e-001) (44, -1.26258462667465210000e-001) (45, 1.96051880717277530000e-001) (46, 1.81190907955169680000e-001) (47, -2.25463479757308960000e-001) (48, -2.89126396179199220000e-001) (0, -4.25558954477310180000e-001) (1, -5.98579823970794680000e-001) (2, -8.92804339528083800000e-002) (3, -5.53337574005126950000e-001) (4, 1.94681167602539060000e-001) (5, 3.01822874462231990000e-004) (6, 3.85667473077774050000e-001) (7, 6.34789228439331050000e-001) (8, -9.39421832561492920000e-001) (9, 2.10486277937889100000e-001) (10, 6.86821103096008300000e-001) (11, -8.66864621639251710000e-001) (12, -7.94134855270385740000e-001) (13, 1.15410006046295170000e+000) (14, 1.41595462337136270000e-002) (15, 3.63514900207519530000e-001) (16, 7.44864284992218020000e-001) (17, -6.18419706821441650000e-001) (18, -4.12840306758880620000e-001) (19, 3.91663759946823120000e-002) (20, -3.80277484655380250000e-001) (21, 1.70832559466362000000e-001) (22, 9.90758955478668210000e-001) (23, -1.22626924514770510000e+000) (24, 5.80976307392120360000e-001) (25, 2.04073190689086910000e-001) (26, 7.14146137237548830000e-001) (27, 5.19920766353607180000e-001) (28, -4.64554071426391600000e-001) (29, 3.07420015335083010000e-001) (30, -1.06287911534309390000e-001) (31, 1.82259485125541690000e-001) (32, -5.69371461868286130000e-001) (33, 3.23528796434402470000e-001) (34, 1.70621294528245930000e-002) (35, -6.04735493659973140000e-001) (36, -1.70873433351516720000e-001) (37, 3.55558186769485470000e-001) (38, 2.03516140580177310000e-001) (39, -9.52619433403015140000e-001) (40, -1.05383801460266110000e+000) (41, 6.50822341442108150000e-001) (42, 9.64180409908294680000e-001) (43, -1.18812596797943120000e+000) (44, 1.37543812394142150000e-001) (45, 5.05180895328521730000e-001) (46, 1.15436919033527370000e-001) (47, -2.31565743684768680000e-001) (48, -2.14222837239503860000e-002) (0, 5.96865296363830570000e-001) (1, -1.15678930282592770000e+000) (2, -2.78058975934982300000e-001) (3, 1.51678353548049930000e-001) (4, -4.87269252538681030000e-001) (5, -2.26264819502830510000e-001) (6, 1.15330195426940920000e+000) (7, -8.97345125675201420000e-001) (8, -1.28644621372222900000e+000) (9, 1.00551295280456540000e+000) (10, -4.65227216482162480000e-001) (11, -1.56364655494689940000e+000) (12, 3.33271056413650510000e-001) (13, 8.28871652483940120000e-002) (14, -7.60899364948272710000e-001) (15, 5.39459586143493650000e-001) (16, -4.75568801164627080000e-001) (17, -9.32906627655029300000e-001) (18, 1.56527221202850340000e-001) (19, 1.34536087512969970000e-001) (20, -1.57129311561584470000e+000) (21, 1.15646481513977050000e+000) (22, 8.60855355858802800000e-002) (23, -2.03551459312438960000e+000) (24, -1.38572350144386290000e-001) (25, 1.38046884536743160000e+000) (26, -1.19957458972930910000e+000) (27, 2.80078630894422530000e-002) (28, -1.54871451854705810000e+000) (29, -6.96328818798065190000e-001) (30, 4.61628735065460210000e-001) (31, -2.98624038696289060000e-001) (32, -1.54737186431884770000e+000) (33, 1.59342479705810550000e+000) (34, -7.16787397861480710000e-001) (35, -1.25696468353271480000e+000) (36, 1.41140377521514890000e+000) (37, 5.89713752269744870000e-001) (38, -1.28296792507171630000e+000) (39, 1.53746497631073000000e+000) (40, -1.49690163135528560000e+000) (41, -5.66235184669494630000e-001) (42, 2.06139564514160160000e+000) (43, -1.14122354984283450000e+000) (44, -8.05066525936126710000e-001) (45, 1.67340409755706790000e+000) (46, 1.08724510669708250000e+000) (47, -1.53614723682403560000e+000) (48, -7.82823145389556880000e-001) (0, -9.21974003314971920000e-001) (1, -1.38115894794464110000e+000) (2, -9.63841378688812260000e-001) (3, -2.26348817348480220000e-001) (4, -8.71343433856964110000e-001) (5, -6.20196282863616940000e-001) (6, 1.87588348984718320000e-001) (7, -3.93848605453968050000e-002) (8, -8.67474853992462160000e-001) (9, 1.99755460023880000000e-001) (10, 5.06424643099308010000e-002) (11, -9.04580831527709960000e-001) (12, -9.94106978178024290000e-002) (13, 7.92043507099151610000e-002) (14, -7.42543637752532960000e-001) (15, -5.43118536472320560000e-001) (16, -2.83053696155548100000e-001) (17, -6.48591995239257810000e-001) (18, -2.14074999094009400000e-001) (19, -2.15001627802848820000e-001) (20, -7.63106524944305420000e-001) (21, -9.29867383092641830000e-003) (22, -6.21736407279968260000e-001) (23, -9.37162399291992190000e-001) (24, 4.41273689270019530000e-001) (25, 1.04476973414421080000e-001) (26, -3.60478907823562620000e-001) (27, -8.36785912513732910000e-001) (28, 2.00413819402456280000e-002) (29, -1.09186828136444090000e+000) (30, 1.31813332438468930000e-001) (31, -1.19707763195037840000e-001) (32, -5.95095336437225340000e-001) (33, 1.62450820207595830000e-001) (34, -2.25722253322601320000e-001) (35, -6.45993590354919430000e-001) (36, 7.98051118850708010000e-001) (37, 1.24872004985809330000e+000) (38, -1.87589034438133240000e-001) (39, 1.62450730800628660000e+000) (40, -3.51917624473571780000e-001) (41, -1.53722047805786130000e-001) (42, 1.31201851367950440000e+000) (43, -3.52549105882644650000e-001) (44, -3.68750870227813720000e-001) (45, 1.68350148200988770000e+000) (46, 9.51334834098815920000e-001) (47, -6.21292412281036380000e-001) (48, 2.81337380409240720000e-001) (0, -2.78918862342834470000e-001) (1, -1.09191417694091800000e+000) (2, -7.46146798133850100000e-001) (3, -3.34358304738998410000e-001) (4, -1.49741601943969730000e+000) (5, -5.42746067047119140000e-001) (6, -6.54033422470092770000e-001) (7, -1.27579081058502200000e+000) (8, -2.63377368450164790000e-001) (9, -7.35615551471710210000e-001) (10, -1.23082971572875980000e+000) (11, -3.79691302776336670000e-001) (12, -5.18809616565704350000e-001) (13, -1.34097743034362790000e+000) (14, -2.11476504802703860000e-001) (15, -8.56988072395324710000e-001) (16, -1.47719550132751460000e+000) (17, -3.73467683792114260000e-001) (18, 1.69888347387313840000e-001) (19, -7.49569654464721680000e-001) (20, -6.97766065597534180000e-001) (21, -8.85995924472808840000e-001) (22, -5.99264860153198240000e-001) (23, -5.09202420711517330000e-001) (24, 2.58488208055496220000e-001) (25, 5.60824215412139890000e-001) (26, -1.20911097526550290000e+000) (27, -1.86755919456481930000e+000) (28, 1.47998607158660890000e+000) (29, -1.14222109317779540000e+000) (30, -6.41087651252746580000e-001) (31, -6.88685059547424320000e-001) (32, -4.35077041387557980000e-001) (33, -7.89812505245208740000e-001) (34, -6.08755685389041900000e-002) (35, -4.17710721492767330000e-001) (36, -7.05135285854339600000e-001) (37, 9.90506529808044430000e-001) (38, -7.21226274967193600000e-001) (39, -4.20696824789047240000e-001) (40, -3.06255131959915160000e-001) (41, -4.14755254983901980000e-001) (42, -7.96464800834655760000e-001) (43, 3.24990481138229370000e-001) (44, 6.12694025039672850000e-002) (45, -8.79205882549285890000e-001) (46, 8.75212490558624270000e-001) (47, -6.35209500789642330000e-001) (48, -4.49913203716278080000e-001) (0, 9.00721836090087890000e+000) (1, -1.18139266967773440000e+001) (2, 2.38252973556518550000e+000) (3, 7.09268999099731450000e+000) (4, -4.22156810760498050000e+000) (5, 2.80188989639282230000e+000) (6, -1.00086343288421630000e+000) (7, -3.00947737693786620000e+000) (8, -2.49025344848632810000e+000) (9, -6.12165689468383790000e+000) (10, -1.08909130096435550000e+000) (11, -3.45923995971679690000e+000) (12, 2.49338030815124510000e-001) (13, -3.70996522903442380000e+000) (14, 1.71164608001708980000e+000) (15, 4.20235967636108400000e+000) (16, 5.36806821823120120000e+000) (17, 1.66025114059448240000e+000) (18, -3.71145159006118770000e-001) (19, -2.21682500839233400000e+000) (20, 1.65757870674133300000e+000) (21, -6.00696682929992680000e-001) (22, 4.89490842819213870000e+000) (23, -7.72654786705970760000e-002) (24, 4.21943616867065430000e+000) (25, -4.01146364212036130000e+000) (26, 2.30466485023498540000e+000) (27, 3.61701679229736330000e+000) (28, 2.12004423141479490000e+000) (29, -6.06017303466796870000e+000) (30, -1.79530429840087890000e+000) (31, 6.20851659774780270000e+000) (32, -6.42869949340820310000e+000) (33, -7.00537252426147460000e+000) (34, 4.13517475128173830000e+000) (35, -6.14427030086517330000e-001) (36, -3.05356502532958980000e+000) (37, -1.45171415805816650000e+000) (38, -6.45416378974914550000e-001) (39, 4.52771276235580440000e-001) (40, 4.95138597488403320000e+000) (41, 4.97272109985351560000e+000) (42, 6.68161690235137940000e-001) (43, -2.18239203095436100000e-001) (44, 2.93474376201629640000e-001) (45, -7.15225362777709960000e+000) (46, -3.63263964653015140000e+000) (47, 1.14936761558055880000e-001) (48, -1.73262810707092290000e+000) (0, -3.36285352706909180000e+000) (1, -5.44274234771728520000e+000) (2, -1.12608671188354490000e+000) (3, -2.40262556076049800000e+000) (4, -3.03697919845581050000e+000) (5, -9.38878953456878660000e-001) (6, 3.03068637847900390000e-001) (7, -1.89714312553405760000e+000) (8, -2.41076827049255370000e+000) (9, 5.97093045711517330000e-001) (10, -1.35450398921966550000e+000) (11, -1.87638688087463380000e+000) (12, -1.72963178157806400000e+000) (13, -1.78702604770660400000e+000) (14, -1.89366662502288820000e+000) (15, -2.27390259504318240000e-001) (16, -3.29799342155456540000e+000) (17, -1.60770630836486820000e+000) (18, -1.41914141178131100000e+000) (19, 8.21420490741729740000e-001) (20, -2.68182945251464840000e+000) (21, -4.38933044672012330000e-001) (22, 7.57727175951004030000e-002) (23, -2.31698775291442870000e+000) (24, 1.15343558788299560000e+000) (25, 6.72588825225830080000e-001) (26, 2.38294690847396850000e-001) (27, -5.18497705459594730000e-001) (28, -4.91649198532104490000e+000) (29, 1.27538800239562990000e+000) (30, -1.38626560568809510000e-001) (31, -4.51734733581542970000e+000) (32, -2.74848651885986330000e+000) (33, 1.87414169311523440000e+000) (34, -6.30358505249023440000e+000) (35, -2.33572602272033690000e+000) (36, 1.39112555980682370000e+000) (37, -2.19417285919189450000e+000) (38, -1.53085517883300780000e+000) (39, -5.39689421653747560000e-001) (40, -5.94080638885498050000e+000) (41, -9.29827511310577390000e-001) (42, 1.24233317375183110000e+000) (43, -3.47657728195190430000e+000) (44, -1.04771411418914790000e+000) (45, 3.46049094200134280000e+000) (46, 2.20261320471763610000e-001) (47, -1.88595032691955570000e+000) (48, -4.14911746978759770000e+000) (0, -8.12157690525054930000e-002) (1, -8.27612340450286870000e-001) (2, -2.07258239388465880000e-001) (3, 7.03606978058815000000e-002) (4, -4.57509309053421020000e-001) (5, -1.94072842597961430000e-001) (6, 3.70329879224300380000e-002) (7, -7.99902528524398800000e-002) (8, -5.21125614643096920000e-001) (9, 6.81894049048423770000e-002) (10, -1.65148954838514330000e-002) (11, -4.43354666233062740000e-001) (12, -2.18729957938194270000e-001) (13, -2.98373848199844360000e-001) (14, -2.58737653493881230000e-001) (15, -6.54753893613815310000e-002) (16, -5.59002980589866640000e-002) (17, -3.23927849531173710000e-001) (18, -1.48813482373952870000e-002) (19, 4.00536693632602690000e-002) (20, -3.97281885147094730000e-001) (21, 6.81106746196746830000e-002) (22, 7.86891877651214600000e-002) (23, -6.72510921955108640000e-001) (24, -1.17834821343421940000e-001) (25, 3.35096716880798340000e-001) (26, -1.29498079419136050000e-001) (27, -2.68753737211227420000e-001) (28, 3.19739282131195070000e-001) (29, -3.57595235109329220000e-001) (30, -8.36683586239814760000e-002) (31, -1.08603887259960170000e-001) (32, -4.42633926868438720000e-001) (33, 3.01630683243274690000e-002) (34, 1.02154448628425600000e-001) (35, -3.66232395172119140000e-001) (36, 1.73104256391525270000e-001) (37, 4.96431030333042140000e-002) (38, -1.13149434328079220000e-001) (39, 1.67354181408882140000e-001) (40, -9.95616614818573000000e-003) (41, -3.73534634709358220000e-002) (42, 9.80743914842605590000e-002) (43, -1.40214979648590090000e-001) (44, -3.07408094406127930000e-001) (45, 1.79891049861907960000e-001) (46, 6.32312223315238950000e-002) (47, -1.49498984217643740000e-001) (48, -3.11532497406005860000e-001) (0, 1.18520617485046390000e+000) (1, -1.00981462001800540000e+000) (2, -2.74470329284667970000e-001) (3, 7.80887007713317870000e-001) (4, -1.84850370883941650000e+000) (5, -6.00036978721618650000e-001) (6, -1.25629270076751710000e+000) (7, -2.67990875244140620000e+000) (8, -6.48219287395477290000e-001) (9, -6.38231992721557620000e-001) (10, -2.86399173736572270000e+000) (11, -9.84784066677093510000e-001) (12, 3.01768243312835690000e-001) (13, -1.95459496974945070000e+000) (14, 5.38862645626068120000e-002) (15, 3.12499463558197020000e-001) (16, -1.34076297283172610000e+000) (17, -8.72292816638946530000e-001) (18, 1.80680060386657710000e+000) (19, -2.45756462216377260000e-001) (20, 3.20547848939895630000e-001) (21, 1.50337681174278260000e-001) (22, -2.04941773414611820000e+000) (23, -3.10211390256881710000e-001) (24, 2.72627377510070800000e+000) (25, -4.48871374130249020000e-001) (26, -2.31280282139778140000e-001) (27, 2.11593532562255860000e+000) (28, -1.59368097782135010000e-001) (29, -8.38119924068450930000e-001) (30, 3.26687216758728030000e-001) (31, -1.69537305831909180000e+000) (32, -4.09406363964080810000e-001) (33, -1.15958929061889650000e+000) (34, 4.74243648350238800000e-002) (35, -1.64617884159088130000e+000) (36, -3.70922625064849850000e-001) (37, -1.52296614646911620000e+000) (38, -6.36829435825347900000e-001) (39, 2.38595914840698240000e+000) (40, 2.93852901458740230000e+000) (41, -1.68608129024505620000e+000) (42, 1.08782041072845460000e+000) (43, 2.04477906227111820000e+000) (44, -1.81537175178527830000e+000) (45, -7.34115898609161380000e-001) (46, -2.17361044883728030000e+000) (47, -6.24221801757812500000e-001) (48, -1.93261218070983890000e+000) (49, 7.42630910873413090000e+000) (50, 1.35576212406158450000e+000) (51, 8.09667110443115230000e+000) (52, -2.20714788883924480000e-002) (53, -9.72027015686035160000e+000) (54, -6.30287110805511470000e-001) (55, 1.12845456600189210000e+000) (56, -2.38962149620056150000e+000) (57, -1.42918717861175540000e+000) (58, 9.56750363111495970000e-002) (59, 5.21504592895507810000e+000) (60, 1.78174793720245360000e+000) (61, -7.61562049388885500000e-001) (62, 1.68024492263793950000e+000) (63, 6.63125216960906980000e-002) (64, 2.38699153065681460000e-001) (65, 1.29040229320526120000e+000) (66, 2.41982132196426390000e-001) (67, -7.82403707504272460000e-001) (68, 4.49324798583984370000e+000) (69, 6.85062646865844730000e+000) (70, 3.89342836569994690000e-004) (71, -4.30249786376953120000e+000) (72, -9.73417460918426510000e-002) 
