FANN_FLO_2.1
num_layers=279
learning_rate=0.700000
connection_rate=1.000000
network_type=1
learning_momentum=0.000000
training_algorithm=2
train_error_function=1
train_stop_function=0
cascade_output_change_fraction=0.010000
quickprop_decay=-0.000100
quickprop_mu=1.750000
rprop_increase_factor=1.200000
rprop_decrease_factor=0.500000
rprop_delta_min=0.000000
rprop_delta_max=50.000000
rprop_delta_zero=0.100000
cascade_output_stagnation_epochs=12
cascade_candidate_change_fraction=0.010000
cascade_candidate_stagnation_epochs=12
cascade_max_out_epochs=150
cascade_min_out_epochs=50
cascade_max_cand_epochs=150
cascade_min_cand_epochs=50
cascade_num_candidate_groups=2
bit_fail_limit=3.49999994039535520000e-001
cascade_candidate_limit=1.00000000000000000000e+003
cascade_weight_multiplier=4.00000005960464480000e-001
cascade_activation_functions_count=10
cascade_activation_functions=3 5 7 8 10 11 14 15 16 17 
cascade_activation_steepnesses_count=4
cascade_activation_steepnesses=2.50000000000000000000e-001 5.00000000000000000000e-001 7.50000000000000000000e-001 1.00000000000000000000e+000 
layer_sizes=49 1 1 1 1 1 1 1 1 1 1 1 1 1 1 1 1 1 1 1 1 1 1 1 1 1 1 1 1 1 1 1 1 1 1 1 1 1 1 1 1 1 1 1 1 1 1 1 1 1 1 1 1 1 1 1 1 1 1 1 1 1 1 1 1 1 1 1 1 1 1 1 1 1 1 1 1 1 1 1 1 1 1 1 1 1 1 1 1 1 1 1 1 1 1 1 1 1 1 1 1 1 1 1 1 1 1 1 1 1 1 1 1 1 1 1 1 1 1 1 1 1 1 1 1 1 1 1 1 1 1 1 1 1 1 1 1 1 1 1 1 1 1 1 1 1 1 1 1 1 1 1 1 1 1 1 1 1 1 1 1 1 1 1 1 1 1 1 1 1 1 1 1 1 1 1 1 1 1 1 1 1 1 1 1 1 1 1 1 1 1 1 1 1 1 1 1 1 1 1 1 1 1 1 1 1 1 1 1 1 1 1 1 1 1 1 1 1 1 1 1 1 1 1 1 1 1 1 1 1 1 1 1 1 1 1 1 1 1 1 1 1 1 1 1 1 1 1 1 1 1 1 1 1 1 1 1 1 1 1 1 1 1 1 1 1 1 1 1 1 1 1 1 1 1 1 1 1 1 
scale_included=1
scale_mean_in=72.739868 207.919006 1980.223389 71.075012 113.478539 1964.164307 74.608017 -183.423828 2004.286377 75.809181 -365.192047 1990.013184 199.138870 34.674049 1975.579956 -62.361744 30.585224 1971.847534 256.051880 -164.412125 1958.532471 -113.146263 -159.048050 1938.401123 265.841248 -303.479675 1915.733643 -123.743217 -297.324646 1895.460815 171.550964 -410.422485 2007.032471 -16.064611 -412.644287 2009.017700 189.079651 -761.409729 1919.442627 -13.845439 -761.028992 1936.279297 -11.675056 -1118.501465 1952.345703 206.802094 -1113.564819 1931.667358 
scale_deviation_in=356.022125 384.133087 520.178406 354.065247 368.921906 508.496765 355.794830 348.151917 482.459808 357.914398 333.685577 474.425537 351.378265 360.655945 509.000854 356.480255 357.902954 499.628265 356.709320 359.573792 511.838348 357.328705 344.071228 507.932709 371.064423 375.713348 520.470032 371.773132 372.351746 513.686401 357.848694 324.312866 472.436676 364.690430 320.508240 471.740387 365.927460 322.005920 490.883087 369.733276 304.732269 490.089996 381.657867 308.500000 479.320831 362.227509 325.982727 490.617462 
scale_new_min_in=-1.000000 -1.000000 -1.000000 -1.000000 -1.000000 -1.000000 -1.000000 -1.000000 -1.000000 -1.000000 -1.000000 -1.000000 -1.000000 -1.000000 -1.000000 -1.000000 -1.000000 -1.000000 -1.000000 -1.000000 -1.000000 -1.000000 -1.000000 -1.000000 -1.000000 -1.000000 -1.000000 -1.000000 -1.000000 -1.000000 -1.000000 -1.000000 -1.000000 -1.000000 -1.000000 -1.000000 -1.000000 -1.000000 -1.000000 -1.000000 -1.000000 -1.000000 -1.000000 -1.000000 -1.000000 -1.000000 -1.000000 -1.000000 
scale_factor_in=1.000000 1.000000 1.000000 1.000000 1.000000 1.000000 1.000000 1.000000 1.000000 1.000000 1.000000 1.000000 1.000000 1.000000 1.000000 1.000000 1.000000 1.000000 1.000000 1.000000 1.000000 1.000000 1.000000 1.000000 1.000000 1.000000 1.000000 1.000000 1.000000 1.000000 1.000000 1.000000 1.000000 1.000000 1.000000 1.000000 1.000000 1.000000 1.000000 1.000000 1.000000 1.000000 1.000000 1.000000 1.000000 1.000000 1.000000 1.000000 
scale_mean_out=0.554717 
scale_deviation_out=0.496995 
scale_new_min_out=0.000000 
scale_factor_out=0.500000 
neurons (num_inputs, activation_function, activation_steepness)=(0, 0, 0.00000000000000000000e+000) (0, 0, 0.00000000000000000000e+000) (0, 0, 0.00000000000000000000e+000) (0, 0, 0.00000000000000000000e+000) (0, 0, 0.00000000000000000000e+000) (0, 0, 0.00000000000000000000e+000) (0, 0, 0.00000000000000000000e+000) (0, 0, 0.00000000000000000000e+000) (0, 0, 0.00000000000000000000e+000) (0, 0, 0.00000000000000000000e+000) (0, 0, 0.00000000000000000000e+000) (0, 0, 0.00000000000000000000e+000) (0, 0, 0.00000000000000000000e+000) (0, 0, 0.00000000000000000000e+000) (0, 0, 0.00000000000000000000e+000) (0, 0, 0.00000000000000000000e+000) (0, 0, 0.00000000000000000000e+000) (0, 0, 0.00000000000000000000e+000) (0, 0, 0.00000000000000000000e+000) (0, 0, 0.00000000000000000000e+000) (0, 0, 0.00000000000000000000e+000) (0, 0, 0.00000000000000000000e+000) (0, 0, 0.00000000000000000000e+000) (0, 0, 0.00000000000000000000e+000) (0, 0, 0.00000000000000000000e+000) (0, 0, 0.00000000000000000000e+000) (0, 0, 0.00000000000000000000e+000) (0, 0, 0.00000000000000000000e+000) (0, 0, 0.00000000000000000000e+000) (0, 0, 0.00000000000000000000e+000) (0, 0, 0.00000000000000000000e+000) (0, 0, 0.00000000000000000000e+000) (0, 0, 0.00000000000000000000e+000) (0, 0, 0.00000000000000000000e+000) (0, 0, 0.00000000000000000000e+000) (0, 0, 0.00000000000000000000e+000) (0, 0, 0.00000000000000000000e+000) (0, 0, 0.00000000000000000000e+000) (0, 0, 0.00000000000000000000e+000) (0, 0, 0.00000000000000000000e+000) (0, 0, 0.00000000000000000000e+000) (0, 0, 0.00000000000000000000e+000) (0, 0, 0.00000000000000000000e+000) (0, 0, 0.00000000000000000000e+000) (0, 0, 0.00000000000000000000e+000) (0, 0, 0.00000000000000000000e+000) (0, 0, 0.00000000000000000000e+000) (0, 0, 0.00000000000000000000e+000) (0, 0, 0.00000000000000000000e+000) (49, 5, 7.50000000000000000000e-001) (50, 5, 7.50000000000000000000e-001) (51, 5, 7.50000000000000000000e-001) (52, 5, 1.00000000000000000000e+000) (53, 5, 7.50000000000000000000e-001) (54, 5, 1.00000000000000000000e+000) (55, 5, 1.00000000000000000000e+000) (56, 11, 5.00000000000000000000e-001) (57, 10, 5.00000000000000000000e-001) (58, 5, 1.00000000000000000000e+000) (59, 5, 5.00000000000000000000e-001) (60, 10, 1.00000000000000000000e+000) (61, 5, 1.00000000000000000000e+000) (62, 5, 7.50000000000000000000e-001) (63, 10, 2.50000000000000000000e-001) (64, 5, 5.00000000000000000000e-001) (65, 5, 1.00000000000000000000e+000) (66, 5, 7.50000000000000000000e-001) (67, 11, 2.50000000000000000000e-001) (68, 10, 2.50000000000000000000e-001) (69, 5, 2.50000000000000000000e-001) (70, 5, 7.50000000000000000000e-001) (71, 11, 2.50000000000000000000e-001) (72, 10, 1.00000000000000000000e+000) (73, 5, 7.50000000000000000000e-001) (74, 5, 1.00000000000000000000e+000) (75, 10, 2.50000000000000000000e-001) (76, 5, 2.50000000000000000000e-001) (77, 5, 1.00000000000000000000e+000) (78, 10, 7.50000000000000000000e-001) (79, 10, 2.50000000000000000000e-001) (80, 10, 5.00000000000000000000e-001) (81, 5, 5.00000000000000000000e-001) (82, 5, 7.50000000000000000000e-001) (83, 5, 1.00000000000000000000e+000) (84, 5, 1.00000000000000000000e+000) (85, 10, 5.00000000000000000000e-001) (86, 5, 7.50000000000000000000e-001) (87, 5, 5.00000000000000000000e-001) (88, 10, 5.00000000000000000000e-001) (89, 10, 2.50000000000000000000e-001) (90, 5, 5.00000000000000000000e-001) (91, 5, 1.00000000000000000000e+000) (92, 10, 2.50000000000000000000e-001) (93, 10, 2.50000000000000000000e-001) (94, 5, 7.50000000000000000000e-001) (95, 5, 1.00000000000000000000e+000) (96, 10, 2.50000000000000000000e-001) (97, 5, 2.50000000000000000000e-001) (98, 10, 2.50000000000000000000e-001) (99, 5, 7.50000000000000000000e-001) (100, 10, 7.50000000000000000000e-001) (101, 5, 5.00000000000000000000e-001) (102, 11, 1.00000000000000000000e+000) (103, 10, 7.50000000000000000000e-001) (104, 5, 2.50000000000000000000e-001) (105, 11, 1.00000000000000000000e+000) (106, 5, 2.50000000000000000000e-001) (107, 5, 2.50000000000000000000e-001) (108, 10, 5.00000000000000000000e-001) (109, 10, 1.00000000000000000000e+000) (110, 5, 2.50000000000000000000e-001) (111, 10, 2.50000000000000000000e-001) (112, 5, 1.00000000000000000000e+000) (113, 5, 5.00000000000000000000e-001) (114, 10, 7.50000000000000000000e-001) (115, 10, 1.00000000000000000000e+000) (116, 10, 5.00000000000000000000e-001) (117, 10, 1.00000000000000000000e+000) (118, 5, 1.00000000000000000000e+000) (119, 10, 5.00000000000000000000e-001) (120, 11, 7.50000000000000000000e-001) (121, 5, 2.50000000000000000000e-001) (122, 10, 2.50000000000000000000e-001) (123, 5, 2.50000000000000000000e-001) (124, 10, 1.00000000000000000000e+000) (125, 10, 5.00000000000000000000e-001) (126, 10, 7.50000000000000000000e-001) (127, 10, 2.50000000000000000000e-001) (128, 10, 2.50000000000000000000e-001) (129, 5, 2.50000000000000000000e-001) (130, 10, 2.50000000000000000000e-001) (131, 5, 7.50000000000000000000e-001) (132, 10, 2.50000000000000000000e-001) (133, 5, 7.50000000000000000000e-001) (134, 10, 5.00000000000000000000e-001) (135, 10, 7.50000000000000000000e-001) (136, 5, 7.50000000000000000000e-001) (137, 5, 7.50000000000000000000e-001) (138, 10, 7.50000000000000000000e-001) (139, 10, 5.00000000000000000000e-001) (140, 10, 5.00000000000000000000e-001) (141, 5, 7.50000000000000000000e-001) (142, 10, 2.50000000000000000000e-001) (143, 10, 2.50000000000000000000e-001) (144, 5, 5.00000000000000000000e-001) (145, 10, 2.50000000000000000000e-001) (146, 10, 5.00000000000000000000e-001) (147, 5, 7.50000000000000000000e-001) (148, 5, 5.00000000000000000000e-001) (149, 10, 2.50000000000000000000e-001) (150, 5, 2.50000000000000000000e-001) (151, 10, 2.50000000000000000000e-001) (152, 5, 2.50000000000000000000e-001) (153, 10, 2.50000000000000000000e-001) (154, 10, 7.50000000000000000000e-001) (155, 10, 1.00000000000000000000e+000) (156, 5, 7.50000000000000000000e-001) (157, 10, 5.00000000000000000000e-001) (158, 5, 5.00000000000000000000e-001) (159, 10, 5.00000000000000000000e-001) (160, 10, 2.50000000000000000000e-001) (161, 10, 2.50000000000000000000e-001) (162, 10, 5.00000000000000000000e-001) (163, 10, 5.00000000000000000000e-001) (164, 5, 2.50000000000000000000e-001) (165, 5, 5.00000000000000000000e-001) (166, 5, 1.00000000000000000000e+000) (167, 11, 2.50000000000000000000e-001) (168, 10, 2.50000000000000000000e-001) (169, 10, 5.00000000000000000000e-001) (170, 5, 5.00000000000000000000e-001) (171, 11, 1.00000000000000000000e+000) (172, 11, 1.00000000000000000000e+000) (173, 5, 2.50000000000000000000e-001) (174, 10, 2.50000000000000000000e-001) (175, 5, 7.50000000000000000000e-001) (176, 10, 5.00000000000000000000e-001) (177, 5, 7.50000000000000000000e-001) (178, 5, 7.50000000000000000000e-001) (179, 5, 5.00000000000000000000e-001) (180, 5, 1.00000000000000000000e+000) (181, 10, 1.00000000000000000000e+000) (182, 10, 2.50000000000000000000e-001) (183, 10, 7.50000000000000000000e-001) (184, 10, 7.50000000000000000000e-001) (185, 10, 2.50000000000000000000e-001) (186, 5, 2.50000000000000000000e-001) (187, 5, 5.00000000000000000000e-001) (188, 10, 7.50000000000000000000e-001) (189, 10, 1.00000000000000000000e+000) (190, 11, 7.50000000000000000000e-001) (191, 5, 5.00000000000000000000e-001) (192, 5, 2.50000000000000000000e-001) (193, 10, 2.50000000000000000000e-001) (194, 10, 5.00000000000000000000e-001) (195, 10, 1.00000000000000000000e+000) (196, 10, 5.00000000000000000000e-001) (197, 10, 2.50000000000000000000e-001) (198, 10, 2.50000000000000000000e-001) (199, 10, 1.00000000000000000000e+000) (200, 11, 1.00000000000000000000e+000) (201, 5, 1.00000000000000000000e+000) (202, 5, 1.00000000000000000000e+000) (203, 5, 5.00000000000000000000e-001) (204, 10, 2.50000000000000000000e-001) (205, 5, 7.50000000000000000000e-001) (206, 10, 7.50000000000000000000e-001) (207, 10, 7.50000000000000000000e-001) (208, 5, 7.50000000000000000000e-001) (209, 5, 5.00000000000000000000e-001) (210, 10, 7.50000000000000000000e-001) (211, 5, 2.50000000000000000000e-001) (212, 5, 1.00000000000000000000e+000) (213, 5, 1.00000000000000000000e+000) (214, 5, 5.00000000000000000000e-001) (215, 11, 7.50000000000000000000e-001) (216, 10, 2.50000000000000000000e-001) (217, 10, 2.50000000000000000000e-001) (218, 5, 5.00000000000000000000e-001) (219, 3, 7.50000000000000000000e-001) (220, 10, 2.50000000000000000000e-001) (221, 10, 5.00000000000000000000e-001) (222, 5, 5.00000000000000000000e-001) (223, 5, 2.50000000000000000000e-001) (224, 5, 7.50000000000000000000e-001) (225, 5, 2.50000000000000000000e-001) (226, 10, 5.00000000000000000000e-001) (227, 10, 7.50000000000000000000e-001) (228, 5, 1.00000000000000000000e+000) (229, 5, 7.50000000000000000000e-001) (230, 11, 7.50000000000000000000e-001) (231, 5, 2.50000000000000000000e-001) (232, 5, 1.00000000000000000000e+000) (233, 5, 5.00000000000000000000e-001) (234, 11, 1.00000000000000000000e+000) (235, 10, 5.00000000000000000000e-001) (236, 5, 1.00000000000000000000e+000) (237, 10, 2.50000000000000000000e-001) (238, 10, 1.00000000000000000000e+000) (239, 10, 2.50000000000000000000e-001) (240, 10, 5.00000000000000000000e-001) (241, 11, 1.00000000000000000000e+000) (242, 5, 5.00000000000000000000e-001) (243, 11, 1.00000000000000000000e+000) (244, 10, 7.50000000000000000000e-001) (245, 11, 5.00000000000000000000e-001) (246, 5, 7.50000000000000000000e-001) (247, 5, 2.50000000000000000000e-001) (248, 10, 2.50000000000000000000e-001) (249, 11, 7.50000000000000000000e-001) (250, 11, 7.50000000000000000000e-001) (251, 10, 2.50000000000000000000e-001) (252, 10, 5.00000000000000000000e-001) (253, 10, 2.50000000000000000000e-001) (254, 5, 2.50000000000000000000e-001) (255, 10, 1.00000000000000000000e+000) (256, 3, 1.00000000000000000000e+000) (257, 10, 2.50000000000000000000e-001) (258, 10, 7.50000000000000000000e-001) (259, 5, 2.50000000000000000000e-001) (260, 10, 1.00000000000000000000e+000) (261, 10, 5.00000000000000000000e-001) (262, 10, 2.50000000000000000000e-001) (263, 10, 1.00000000000000000000e+000) (264, 5, 7.50000000000000000000e-001) (265, 5, 2.50000000000000000000e-001) (266, 5, 2.50000000000000000000e-001) (267, 10, 2.50000000000000000000e-001) (268, 10, 5.00000000000000000000e-001) (269, 10, 2.50000000000000000000e-001) (270, 5, 1.00000000000000000000e+000) (271, 5, 2.50000000000000000000e-001) (272, 5, 1.00000000000000000000e+000) (273, 10, 5.00000000000000000000e-001) (274, 10, 2.50000000000000000000e-001) (275, 10, 5.00000000000000000000e-001) (276, 11, 1.00000000000000000000e+000) (277, 11, 5.00000000000000000000e-001) (278, 10, 5.00000000000000000000e-001) (279, 10, 7.50000000000000000000e-001) (280, 10, 2.50000000000000000000e-001) (281, 5, 7.50000000000000000000e-001) (282, 5, 1.00000000000000000000e+000) (283, 5, 1.00000000000000000000e+000) (284, 10, 1.00000000000000000000e+000) (285, 11, 5.00000000000000000000e-001) (286, 11, 2.50000000000000000000e-001) (287, 10, 7.50000000000000000000e-001) (288, 5, 2.50000000000000000000e-001) (289, 5, 2.50000000000000000000e-001) (290, 10, 2.50000000000000000000e-001) (291, 10, 2.50000000000000000000e-001) (292, 11, 7.50000000000000000000e-001) (293, 5, 7.50000000000000000000e-001) (294, 5, 5.00000000000000000000e-001) (295, 5, 5.00000000000000000000e-001) (296, 5, 5.00000000000000000000e-001) (297, 5, 7.50000000000000000000e-001) (298, 5, 1.00000000000000000000e+000) (299, 10, 7.50000000000000000000e-001) (300, 10, 2.50000000000000000000e-001) (301, 10, 2.50000000000000000000e-001) (302, 10, 5.00000000000000000000e-001) (303, 5, 2.50000000000000000000e-001) (304, 5, 1.00000000000000000000e+000) (305, 5, 1.00000000000000000000e+000) (306, 5, 1.00000000000000000000e+000) (307, 5, 1.00000000000000000000e+000) (308, 5, 1.00000000000000000000e+000) (309, 5, 7.50000000000000000000e-001) (310, 5, 7.50000000000000000000e-001) (311, 5, 1.00000000000000000000e+000) (312, 10, 2.50000000000000000000e-001) (313, 10, 2.50000000000000000000e-001) (314, 10, 7.50000000000000000000e-001) (315, 10, 5.00000000000000000000e-001) (316, 10, 7.50000000000000000000e-001) (317, 5, 5.00000000000000000000e-001) (318, 5, 2.50000000000000000000e-001) (319, 5, 7.50000000000000000000e-001) (320, 11, 1.00000000000000000000e+000) (321, 10, 5.00000000000000000000e-001) (322, 5, 7.50000000000000000000e-001) (323, 10, 2.50000000000000000000e-001) (324, 5, 5.00000000000000000000e-001) (325, 5, 2.50000000000000000000e-001) (326, 4, 5.00000000000000000000e-001) 
connections (connected_to_neuron, weight)=(0, 6.89730569720268250000e-002) (1, -1.55210266113281250000e+001) (2, 7.52926170825958250000e-001) (3, -1.38794279098510740000e+000) (4, -1.14838749170303340000e-001) (5, -2.99192070960998540000e-001) (6, 1.49574756622314450000e+000) (7, -8.02279293537139890000e-001) (8, 1.39415740966796880000e+000) (9, 6.25658571720123290000e-001) (10, -1.55449426174163820000e+000) (11, 7.51878321170806880000e-001) (12, -2.82962346076965330000e+000) (13, 2.01227474212646480000e+000) (14, 6.40503406524658200000e-001) (15, 2.51212787628173830000e+000) (16, 1.35435705184936520000e+001) (17, 1.39477372169494630000e+000) (18, 1.01830102503299710000e-002) (19, 3.37626762390136720000e+001) (20, 1.86437308788299560000e-001) (21, 3.96344590187072750000e+000) (22, 2.06779336929321290000e+000) (23, 5.40969073772430420000e-002) (24, -7.28071808815002440000e-001) (25, -1.81831455230712890000e+001) (26, 7.61782705783843990000e-001) (27, -6.04612159729003910000e+000) (28, -8.69715213775634770000e-001) (29, 9.15171802043914790000e-002) (30, 5.08391761779785160000e+000) (31, -9.99667644500732420000e+000) (32, -1.40447029843926430000e-003) (33, 1.98493051528930660000e+000) (34, -9.32027244567871090000e+000) (35, -1.75766515731811520000e+000) (36, -5.59555482864379880000e+000) (37, 1.45107591152191160000e+000) (38, -3.04042287170886990000e-002) (39, 8.72217559814453130000e+000) (40, 4.90635395050048830000e-001) (41, -1.48050749301910400000e+000) (42, -7.01736831665039060000e+000) (43, 1.92571747303009030000e+000) (44, -1.07748687267303470000e+000) (45, -5.92804968357086180000e-001) (46, 5.46485424041748050000e-001) (47, -1.92206895351409910000e+000) (48, 1.44796937704086300000e-001) (0, -3.33109468221664430000e-001) (1, -2.57827997207641600000e+000) (2, -2.18878841400146480000e+000) (3, -7.36028611660003660000e-001) (4, -1.19201993942260740000e+000) (5, -5.80897927284240720000e-001) (6, -7.76779830455780030000e-001) (7, 1.25979208946228030000e+000) (8, 1.03207826614379880000e+000) (9, 5.53606986999511720000e-001) (10, 2.99240171909332280000e-001) (11, 1.17130708694458010000e+000) (12, -5.87283611297607420000e-001) (13, -2.19116836786270140000e-001) (14, -1.02894723415374760000e+000) (15, -4.25309228897094730000e+000) (16, 2.28255200386047360000e+000) (17, -1.68930602073669430000e+000) (18, -1.61936902999877930000e+000) (19, 1.46751523017883300000e+000) (20, -4.03630852699279790000e-001) (21, 9.95446562767028810000e-001) (22, -3.54720383882522580000e-001) (23, -1.69654929637908940000e+000) (24, 7.03939795494079590000e-001) (25, -1.07221588492393490000e-001) (26, 6.34718179702758790000e-001) (27, -2.92640104889869690000e-002) (28, 3.92272323369979860000e-001) (29, 4.62584793567657470000e-001) (30, -1.78732812404632570000e-001) (31, -1.49414137005805970000e-001) (32, 1.74254274368286130000e+000) (33, 1.60462391376495360000e+000) (34, 8.73448491096496580000e-001) (35, 3.30572128295898440000e-002) (36, 2.11386060714721680000e+000) (37, -3.35139870643615720000e+000) (38, 1.22343611717224120000e+000) (39, 1.02162027359008790000e+000) (40, 9.83952879905700680000e-001) (41, 2.34247982501983640000e-001) (42, 8.09223711490631100000e-001) (43, 7.73747980594635010000e-001) (44, 7.22523927688598630000e-001) (45, 7.66408920288085940000e-001) (46, -1.68850660324096680000e-001) (47, 4.58751350641250610000e-001) (48, 7.62632322311401370000e+000) (49, 1.35066452026367190000e+002) (0, 1.92581856250762940000e+000) (1, -1.80374920368194580000e+000) (2, -1.03025221824646000000e+000) (3, -1.26082205772399900000e+000) (4, 2.44684800505638120000e-001) (5, -8.12808930873870850000e-001) (6, -4.89676177501678470000e-001) (7, 1.64893639087677000000e+000) (8, 6.28823637962341310000e-001) (9, -1.02723169326782230000e+000) (10, 8.79353106021881100000e-001) (11, 1.35777711868286130000e+000) (12, -1.08458197116851810000e+000) (13, 3.02018117904663090000e+000) (14, -1.11217749118804930000e+000) (15, 1.28295433521270750000e+000) (16, -2.02509284019470210000e+000) (17, -1.57302463054656980000e+000) (18, -3.96797657012939450000e-001) (19, 1.18685387074947360000e-001) (20, -1.68307960033416750000e+000) (21, -5.77697098255157470000e-001) (22, -3.68217778205871580000e+000) (23, -5.55293150246143340000e-002) (24, 3.51339802145957950000e-002) (25, -6.73982948064804080000e-002) (26, 6.14568114280700680000e-001) (27, -7.60482072830200200000e-001) (28, 1.60060977935791020000e+000) (29, -6.27382397651672360000e-001) (30, -7.13499903678894040000e-001) (31, 1.45927357673645020000e+000) (32, -8.05176123976707460000e-002) (33, 6.40013992786407470000e-001) (34, 1.70097064971923830000e+000) (35, 3.73917907476425170000e-001) (36, -4.69112604856491090000e-001) (37, -5.04864215850830080000e+000) (38, 1.16965234279632570000e+000) (39, 7.57273077964782710000e-001) (40, 1.85054302215576170000e+000) (41, 1.32068860530853270000e+000) (42, 2.22827926278114320000e-001) (43, 1.67058217525482180000e+000) (44, 1.54983949661254880000e+000) (45, 1.54659938812255860000e+000) (46, -7.87086427211761470000e-001) (47, 3.64090502262115480000e-001) (48, 2.22132873535156250000e+001) (49, 2.26955337524414060000e+002) (50, -4.20401733398437500000e+002) (0, -8.18271255493164060000e+000) (1, -1.03357183933258060000e+000) (2, 8.50619435310363770000e-001) (3, 1.45058774948120120000e+000) (4, 2.89817619323730470000e+000) (5, 7.28883326053619380000e-001) (6, 1.52623236179351810000e+000) (7, -1.86601531505584720000e+000) (8, 1.02670586109161380000e+000) (9, 1.20887529850006100000e+000) (10, -7.76295423507690430000e+000) (11, -6.29660844802856450000e-001) (12, 4.35204553604125980000e+000) (13, 4.53975105285644530000e+000) (14, 5.49026012420654300000e-001) (15, 1.48787736892700200000e-001) (16, 1.60803115367889400000e+000) (17, 1.09662342071533200000e+000) (18, 4.90208435058593750000e+000) (19, 3.15578639507293700000e-001) (20, 1.01875483989715580000e+000) (21, -1.45379292964935300000e+000) (22, 1.03940010070800780000e+000) (23, 5.53034901618957520000e-001) (24, -2.50324535369873050000e+000) (25, -1.84828209877014160000e+000) (26, -5.86879611015319820000e-001) (27, 2.52500343322753910000e+000) (28, -1.30446207523345950000e+000) (29, 7.61226415634155270000e-001) (30, 5.97590351104736330000e+000) (31, -2.33876752853393550000e+000) (32, 1.80461287498474120000e-001) (33, -9.99225974082946780000e-001) (34, -2.35242414474487300000e+000) (35, 9.42576885223388670000e-001) (36, 6.70750796794891360000e-001) (37, 2.59481763839721680000e+000) (38, -2.54676175117492680000e+000) (39, -4.90530252456665040000e-001) (40, 1.30760586261749270000e+000) (41, -1.47175565361976620000e-001) (42, -2.72846388816833500000e+000) (43, 1.05022974312305450000e-001) (44, 9.38731789588928220000e-001) (45, -5.97716712951660160000e+000) (46, 2.92606234550476070000e+000) (47, -5.20151901245117190000e+000) (48, 7.68675537109375000000e+001) (49, -4.35628448486328120000e+002) (50, 5.76605834960937500000e+002) (51, 5.45244140625000000000e+002) (0, -3.69132399559021000000e+000) (1, -6.35192096233367920000e-001) (2, 8.25550377368927000000e-001) (3, 1.54061943292617800000e-001) (4, 2.11388039588928220000e+000) (5, -1.32917359471321110000e-001) (6, 9.88605499267578130000e+000) (7, -5.52340507507324220000e-001) (8, -1.52029871940612790000e-001) (9, 1.30093252658843990000e+000) (10, -8.67836761474609380000e+001) (11, 1.10626816749572750000e+000) (12, 2.20248260498046870000e+001) (13, 4.13478279113769530000e+000) (14, 5.49460470676422120000e-001) (15, -5.32025456428527830000e-001) (16, 1.28301267623901370000e+001) (17, -6.91560059785842900000e-002) (18, 1.70895175933837890000e+001) (19, 5.35020980834960940000e+001) (20, 1.40287733078002930000e+000) (21, -2.41562614440917970000e+001) (22, -1.96885719299316410000e+001) (23, -6.14781200885772710000e-001) (24, -4.19202232360839840000e+001) (25, -3.22873077392578130000e+001) (26, 1.00070044398307800000e-001) (27, 2.10321235656738280000e+001) (28, 2.70760107040405270000e+000) (29, -7.03636026382446290000e+000) (30, 2.10756042480468750000e+002) (31, -3.52129459381103520000e+000) (32, 2.00534284114837650000e-001) (33, -1.99611663818359370000e+002) (34, -9.28122253417968750000e+001) (35, -4.75841641426086430000e-001) (36, -1.05740201473236080000e+000) (37, 8.63286077976226810000e-001) (38, -1.09403595328330990000e-001) (39, -1.03178863525390620000e+001) (40, 1.71428909301757810000e+002) (41, -1.15700340270996090000e+000) (42, 3.44204807281494140000e+000) (43, 1.06533777713775630000e+000) (44, -8.50586175918579100000e-001) (45, -2.38225078582763670000e+000) (46, -3.20797424316406250000e+001) (47, 1.01411116123199460000e+000) (48, 1.50000000000000000000e+003) (49, -8.03547546386718750000e+002) (50, -2.46297485351562500000e+002) (51, -1.14853073120117190000e+002) (52, -1.50000000000000000000e+003) (0, -8.58875453472137450000e-001) (1, -1.09619843959808350000e+000) (2, 9.49789464473724370000e-001) (3, -4.49339103698730470000e+000) (4, 6.97710657119750980000e+000) (5, -3.03998619318008420000e-001) (6, 3.46570730209350590000e-001) (7, 1.93910682201385500000e+000) (8, -1.06621548533439640000e-001) (9, -4.20050650835037230000e-001) (10, 1.10086989402771000000e+000) (11, -6.38784885406494140000e-001) (12, 8.69220256805419920000e-001) (13, 4.13914680480957030000e+000) (14, -8.47725272178649900000e-002) (15, 3.99818569421768190000e-002) (16, -2.66651034355163570000e+000) (17, 8.43503296375274660000e-001) (18, -1.47781765460968020000e+000) (19, 5.32003736495971680000e+000) (20, 3.51455211639404300000e-001) (21, -7.29834604263305660000e+000) (22, -7.78539371490478520000e+000) (23, -8.65255832672119140000e-001) (24, -1.33791470527648930000e+000) (25, -1.98100316524505620000e+000) (26, 1.13108351826667790000e-001) (27, 2.59534955024719240000e+000) (28, 1.53520774841308590000e+000) (29, -1.87512350082397460000e+000) (30, 1.57827939987182620000e+001) (31, 1.19493412971496580000e+000) (32, 2.02775865793228150000e-001) (33, 3.61527174711227420000e-001) (34, -1.45919141769409180000e+001) (35, 5.73212742805480960000e-001) (36, -1.27603816986083980000e+000) (37, 1.70814716815948490000e+000) (38, -7.70142316818237300000e-001) (39, 7.02085554599761960000e-001) (40, 5.30057311058044430000e-001) (41, 3.46221804618835450000e-001) (42, 3.56119245290756230000e-001) (43, 2.59168100357055660000e+000) (44, -1.10019004344940190000e+000) (45, -3.14913940429687500000e+000) (46, -6.59387350082397460000e-001) (47, 3.99289608001708980000e-001) (48, 4.31218261718750000000e+002) (49, -3.63204864501953120000e+002) (50, -1.70252243041992190000e+002) (51, 1.64379348754882810000e+002) (52, -3.55120056152343750000e+002) (53, -7.53552551269531250000e+002) (0, -6.04451179504394530000e+000) (1, -2.81406474113464360000e+000) (2, 9.14138972759246830000e-001) (3, -3.00195813179016110000e+000) (4, -4.79576170444488530000e-001) (5, 2.00530588626861570000e-001) (6, -5.17405629158020020000e-001) (7, 2.76590287685394290000e-001) (8, -6.89493119716644290000e-002) (9, 9.11580741405487060000e-001) (10, -4.59369039535522460000e+000) (11, -1.00394105911254880000e+000) (12, -1.19531989097595210000e+000) (13, 4.77126216888427730000e+000) (14, -7.52314805984497070000e-001) (15, 2.12724924087524410000e+000) (16, 5.38418292999267580000e+000) (17, 3.76623421907424930000e-002) (18, 2.95519322156906130000e-001) (19, 3.50251150131225590000e+000) (20, 3.71898680925369260000e-001) (21, 1.94783854484558110000e+000) (22, 1.24468877911567690000e-001) (23, -4.21814560890197750000e-001) (24, -6.00991696119308470000e-002) (25, -2.26230597496032710000e+000) (26, 2.78515547513961790000e-001) (27, -1.49670398235321040000e+000) (28, -8.42671170830726620000e-002) (29, -4.74010527133941650000e-001) (30, 9.01040363311767580000e+000) (31, -3.03875017166137700000e+000) (32, -4.96508896350860600000e-001) (33, 2.90291213989257810000e+000) (34, -3.24114227294921870000e+000) (35, 9.06683027744293210000e-001) (36, -1.42435646057128910000e+000) (37, -4.54711198806762700000e-001) (38, -5.39739072322845460000e-001) (39, 1.35377919673919680000e+000) (40, 2.79777556657791140000e-001) (41, 9.32549774646759030000e-001) (42, -1.56294023990631100000e+000) (43, 6.98109090328216550000e-001) (44, -6.04173541069030760000e-001) (45, -3.22667050361633300000e+000) (46, 8.48002552986145020000e-001) (47, -2.57793575525283810000e-001) (48, 3.14837017059326170000e+001) (49, -4.43154541015625000000e+002) (50, -1.03256919860839840000e+002) (51, 1.20452178955078120000e+002) (52, -3.21701446533203120000e+002) (53, -7.06517791748046880000e+001) (54, -4.65343811035156250000e+002) (0, 8.16320598125457760000e-001) (1, -6.87893152236938480000e+000) (2, 3.08587439358234410000e-002) (3, 1.09954977035522460000e+000) (4, -3.17152708768844600000e-001) (5, 1.25428760051727290000e+000) (6, -5.35576462745666500000e-001) (7, 2.07869672775268550000e+000) (8, 1.40270805358886720000e+000) (9, 1.23613262176513670000e+000) (10, 2.25875997543334960000e+000) (11, 7.08748638629913330000e-001) (12, 1.77696850150823590000e-002) (13, 8.57727408409118650000e-001) (14, 2.30967745184898380000e-001) (15, 1.73244702816009520000e+000) (16, -3.97490411996841430000e-001) (17, -8.66891369223594670000e-002) (18, 1.08756482601165770000e+000) (19, 2.40606641769409180000e+000) (20, -2.96603620052337650000e-001) (21, 2.24722266197204590000e+000) (22, 1.74562478065490720000e+000) (23, 7.23814249038696290000e-001) (24, 3.13482671976089480000e-001) (25, 1.26317381858825680000e+000) (26, 1.31230211257934570000e+000) (27, 3.03495550155639650000e+000) (28, 1.32166600227355960000e+000) (29, 1.60549473762512210000e+000) (30, 9.04052793979644780000e-001) (31, 1.43428146839141850000e+000) (32, 6.38196021318435670000e-002) (33, 2.97027397155761720000e+000) (34, 2.93683791160583500000e+000) (35, 1.03141701221466060000e+000) (36, 1.22922563552856450000e+000) (37, 1.40164458751678470000e+000) (38, 9.12667930126190190000e-001) (39, 2.95962595939636230000e+000) (40, 2.08373641967773440000e+000) (41, 6.67913734912872310000e-001) (42, 1.58774530887603760000e+000) (43, 2.72245669364929200000e+000) (44, 1.12127470970153810000e+000) (45, -1.28310481086373330000e-002) (46, 2.11066126823425290000e+000) (47, 1.32232621312141420000e-001) (48, -1.77842140197753910000e+000) (49, 1.09339213371276860000e+000) (50, 7.40449607372283940000e-001) (51, 3.49652695655822750000e+000) (52, -6.20591118931770320000e-002) (53, 1.00528633594512940000e+000) (54, 3.34332537651062010000e+000) (55, -6.39090001583099370000e-001) (0, 4.00402724742889400000e-001) (1, -2.05726623535156250000e+000) (2, -9.44636166095733640000e-002) (3, 1.26685500144958500000e+000) (4, -5.54432868957519530000e+000) (5, 1.06192387640476230000e-001) (6, -3.50618362426757810000e-002) (7, -5.02395853400230410000e-002) (8, -2.55006700754165650000e-001) (9, 5.09468495845794680000e-001) (10, 3.56249618530273440000e+000) (11, 5.02924144268035890000e-001) (12, 6.27091407775878910000e-001) (13, -6.42759370803833010000e+000) (14, 6.63543820381164550000e-001) (15, 2.06995940208435060000e+000) (16, -6.79153966903686520000e+000) (17, 7.91930913925170900000e-001) (18, 1.21778917312622070000e+000) (19, -1.44693493843078610000e-001) (20, -5.76400041580200200000e-001) (21, -1.63698089122772220000e+000) (22, 5.67394077777862550000e-001) (23, -2.13404908776283260000e-001) (24, 1.32248985767364500000e+000) (25, 3.25486063957214360000e+000) (26, 1.25554239749908450000e+000) (27, -3.53593778610229490000e+000) (28, 2.82047224044799800000e+000) (29, 9.78307902812957760000e-001) (30, 1.15983080863952640000e+000) (31, 1.66628909111022950000e+000) (32, -3.17147187888622280000e-002) (33, 8.70259225368499760000e-001) (34, 2.13506889343261720000e+000) (35, 4.37156498432159420000e-001) (36, -4.28364276885986330000e-001) (37, 3.49235510826110840000e+000) (38, 9.35658931732177730000e-001) (39, -1.16807508468627930000e+000) (40, 2.93855714797973630000e+000) (41, 6.53193444013595580000e-002) (42, -5.84319770336151120000e-001) (43, 2.90769076347351070000e+000) (44, -1.49854436516761780000e-001) (45, 4.67140316963195800000e-001) (46, 3.42147350311279300000e+000) (47, 9.22408401966094970000e-002) (48, -8.88613045215606690000e-001) (49, 1.60129702091217040000e+000) (50, 1.07952814102172850000e+001) (51, 2.63893222808837890000e+000) (52, 3.11500310897827150000e+000) (53, 1.98346659541130070000e-001) (54, 5.40632591247558590000e+001) (55, 7.24731326103210450000e-001) (56, -2.57978177070617680000e+000) (0, -3.52729845046997070000e+000) (1, -8.37781524658203120000e+000) (2, 3.47290515899658200000e-001) (3, -3.12369518280029300000e+001) (4, 5.16187858581542970000e+000) (5, 7.82933175563812260000e-001) (6, -7.90716648101806640000e-001) (7, 1.43190789222717290000e+000) (8, 6.63110554218292240000e-001) (9, -1.95022538304328920000e-001) (10, 9.44666504859924320000e-001) (11, -1.41617727279663090000e+000) (12, -5.13213539123535160000e+000) (13, 2.40468883514404300000e+001) (14, 7.53181874752044680000e-001) (15, 2.50817203521728520000e+000) (16, 7.93481492996215820000e+000) (17, -8.25468182563781740000e-001) (18, -5.15751218795776370000e+000) (19, 1.78551757335662840000e+000) (20, 1.53167402744293210000e+000) (21, 3.41921114921569820000e+000) (22, -2.62376842498779300000e+001) (23, -4.87363725900650020000e-001) (24, -7.60534822940826420000e-001) (25, -7.28927946090698240000e+000) (26, 2.13118529319763180000e+000) (27, 4.63808012008666990000e+000) (28, 9.86666202545166020000e+000) (29, -1.62217867374420170000e+000) (30, -8.24333727359771730000e-001) (31, 2.90208101272583010000e+000) (32, -1.75745809078216550000e+000) (33, 2.00271391868591310000e+000) (34, 1.32667338848114010000e+000) (35, -2.39693880081176760000e+000) (36, 8.62112045288085940000e+000) (37, -2.41970767974853520000e+001) (38, 7.07043111324310300000e-001) (39, 3.38845825195312500000e+001) (40, 6.92493772506713870000e+000) (41, -3.16318702697753910000e+000) (42, -1.64787693023681640000e+001) (43, 2.45270085334777830000e+000) (44, -9.20063555240631100000e-001) (45, 9.72354125976562500000e+000) (46, -3.15903306007385250000e+000) (47, -1.49746119976043700000e-001) (48, 1.98904266357421880000e+001) (49, -1.50000000000000000000e+003) (50, -7.89861694335937500000e+002) (51, 2.09890579223632810000e+002) (52, -5.97824707031250000000e+002) (53, -1.50000000000000000000e+003) (54, -1.50000000000000000000e+003) (55, -1.39617077636718750000e+003) (56, 1.44297595214843750000e+003) (57, 1.50000000000000000000e+003) (0, 9.15993595123291020000e+000) (1, 4.97429227828979490000e+000) (2, 2.39179596304893490000e-001) (3, 3.16518235206604000000e+000) (4, 7.70441591739654540000e-001) (5, 7.06257760524749760000e-001) (6, -2.57405829429626460000e+000) (7, 1.51138079166412350000e+000) (8, -3.13610099256038670000e-002) (9, -1.35095500946044920000e+001) (10, 3.71455478668212890000e+000) (11, 4.65002298355102540000e-001) (12, -5.50108814239501950000e+000) (13, -7.19258165359497070000e+000) (14, -2.43528187274932860000e-001) (15, 2.47268700599670410000e+000) (16, -4.27772951126098630000e+000) (17, 5.26832461357116700000e-001) (18, 8.25842976570129390000e-001) (19, -1.31849117279052730000e+001) (20, -2.87282854318618770000e-001) (21, 2.34902358055114750000e+000) (22, 2.04624533653259280000e+000) (23, 7.18897402286529540000e-001) (24, 1.87580001354217530000e+000) (25, 8.08299827575683590000e+000) (26, 3.09323132038116460000e-001) (27, -2.75810599327087400000e+000) (28, -2.75579595565795900000e+000) (29, 3.25225144624710080000e-001) (30, -1.37921380996704100000e+000) (31, 9.15568411350250240000e-001) (32, 1.52347183227539060000e+000) (33, 1.13370168209075930000e+000) (34, 3.02069038152694700000e-001) (35, 2.69317179918289180000e-001) (36, -5.32894134521484380000e-001) (37, 4.84828138351440430000e+000) (38, -3.51522296667099000000e-001) (39, 8.87999629974365230000e+000) (40, -4.66537141799926760000e+000) (41, -3.96748304367065430000e-001) (42, -8.21997928619384770000e+000) (43, 9.42326188087463380000e-001) (44, 3.63403677940368650000e-001) (45, 5.23505926132202150000e+000) (46, 6.66914653778076170000e+000) (47, 8.17855715751647950000e-001) (48, -7.80841827392578130000e+001) (49, 7.82099914550781250000e+002) (50, 7.05664306640625000000e+002) (51, -3.01094493865966800000e+001) (52, 3.44029632568359370000e+002) (53, 1.17005383300781250000e+003) (54, 1.50000000000000000000e+003) (55, 1.35580981445312500000e+003) (56, -8.54021179199218750000e+002) (57, -1.50000000000000000000e+003) (58, 3.26535217285156250000e+002) (0, -9.71800982952117920000e-002) (1, 1.09832060337066650000e+000) (2, 1.09027266502380370000e+000) (3, -2.09953039884567260000e-001) (4, -8.86358201503753660000e-001) (5, 1.12843644618988040000e+000) (6, 1.01163017749786380000e+000) (7, 3.30170893669128420000e+000) (8, 5.78268587589263920000e-001) (9, 9.58929419517517090000e-001) (10, 4.50728988647460940000e+000) (11, 4.67699468135833740000e-001) (12, -3.56375426054000850000e-001) (13, 9.16722297668457030000e-001) (14, -5.59452772140502930000e-001) (15, 9.11316215991973880000e-001) (16, 1.47024786472320560000e+000) (17, -7.83079624176025390000e-001) (18, -5.31899547576904300000e+000) (19, 2.45373368263244630000e+000) (20, 3.80291432142257690000e-001) (21, 6.47148251533508300000e-001) (22, -3.43839526176452640000e+000) (23, 8.70546579360961910000e-001) (24, -5.02700424194335940000e+000) (25, -9.66551527380943300000e-002) (26, -1.13216429948806760000e-001) (27, 7.58056223392486570000e-001) (28, -1.35651016235351560000e+000) (29, -9.33142244815826420000e-001) (30, 5.00601828098297120000e-001) (31, 3.70676064491271970000e+000) (32, -3.55030298233032230000e-001) (33, 1.47704088687896730000e+000) (34, 2.69815182685852050000e+000) (35, 3.95411610603332520000e-001) (36, 2.38247466087341310000e+000) (37, 3.70225667953491210000e+000) (38, 6.48578643798828130000e-001) (39, 1.40170979499816890000e+000) (40, 2.47491645812988280000e+000) (41, -8.84843945503234860000e-001) (42, 1.07856154441833500000e+000) (43, 2.39248418807983400000e+000) (44, 7.46897816658020020000e-001) (45, 3.32743644714355470000e-001) (46, 2.79460620880126950000e+000) (47, -1.08689725399017330000e-001) (48, 1.36216342449188230000e+000) (49, 2.21882653236389160000e+000) (50, 1.50070071220397950000e+000) (51, 2.84310650825500490000e+000) (52, 1.05277669429779050000e+000) (53, -4.04452209472656250000e+001) (54, 7.02210569381713870000e+000) (55, -5.81016421318054200000e-001) (56, 6.89604997634887700000e-001) (57, -7.65771150588989260000e-001) (58, 1.68298780918121340000e+000) (59, -8.35981063842773440000e+001) (0, 1.70219480991363530000e+000) (1, 5.64910173416137700000e-001) (2, -2.53038823604583740000e-001) (3, 2.12918796539306640000e+001) (4, -6.99209880828857420000e+000) (5, 1.19896233081817630000e+000) (6, -6.82378888130187990000e-001) (7, 2.52171206474304200000e+000) (8, 1.37628126144409180000e+000) (9, -4.20871257781982420000e-001) (10, 3.57203316688537600000e+000) (11, 3.84898602962493900000e-001) (12, 1.09958720207214360000e+000) (13, -2.87674331665039060000e+000) (14, -3.66286605596542360000e-001) (15, 2.83913111686706540000e+000) (16, -9.56828784942626950000e+000) (17, 1.27274966239929200000e+000) (18, 1.36904507875442500000e-001) (19, -9.49711132049560550000e+000) (20, 4.71556782722473140000e-001) (21, 4.13101482391357420000e+000) (22, 3.39683747291564940000e+000) (23, -1.70404419302940370000e-001) (24, 2.40310192108154300000e+000) (25, 2.61369252204895020000e+000) (26, -8.16965550184249880000e-002) (27, -9.25893783569335940000e+000) (28, -6.97875380516052250000e-001) (29, 9.14509773254394530000e-001) (30, -1.47650539875030520000e+000) (31, 9.54119968414306640000e+000) (32, 6.96003675460815430000e-001) (33, 4.44952487945556640000e+000) (34, 4.37877273559570310000e+000) (35, -2.82077640295028690000e-001) (36, 3.84579986333847050000e-001) (37, 2.27384805679321290000e+000) (38, 5.38336932659149170000e-001) (39, -2.23884696960449220000e+001) (40, 1.23666334152221680000e+000) (41, 3.23485851287841800000e-001) (42, 7.89816856384277340000e-001) (43, 1.67314207553863530000e+000) (44, 3.83111238479614260000e-001) (45, -5.10658359527587890000e+000) (46, 3.33831572532653810000e+000) (47, 1.16221356391906740000e+000) (48, -3.57800964355468750000e+002) (49, 7.52298583984375000000e+002) (50, 7.79866027832031250000e+002) (51, -1.02108569335937500000e+003) (52, 7.07064392089843750000e+002) (53, 7.62475341796875000000e+002) (54, 1.50000000000000000000e+003) (55, 1.39146069335937500000e+003) (56, -1.50000000000000000000e+003) (57, -1.50000000000000000000e+003) (58, 1.50000000000000000000e+003) (59, -1.50000000000000000000e+003) (60, 1.34080004882812500000e+003) (0, -2.74719214439392090000e+000) (1, 1.60299720764160160000e+001) (2, 8.79519805312156680000e-002) (3, -2.71317267417907710000e+000) (4, -7.25209832191467290000e-001) (5, 7.44931638240814210000e-001) (6, -3.93132424354553220000e+000) (7, -3.59371399879455570000e+000) (8, 9.09927308559417720000e-001) (9, -1.99460923671722410000e+000) (10, 2.20704722404479980000e+000) (11, 5.32949686050415040000e-001) (12, -1.25027930736541750000e+000) (13, -3.11526908874511720000e+001) (14, 9.52802717685699460000e-001) (15, 2.18248486518859860000e+000) (16, -2.44527864456176760000e+000) (17, 4.59836661815643310000e-001) (18, 1.32929162979125980000e+001) (19, -7.35749673843383790000e+000) (20, 1.22542232275009160000e-001) (21, 2.25122308731079100000e+000) (22, 1.48802003860473630000e+001) (23, 5.95325008034706120000e-002) (24, 2.19590425491333010000e-001) (25, 2.85715174674987790000e+000) (26, -1.62210023403167720000e+000) (27, 4.75320100784301760000e-001) (28, -6.56252574920654300000e+000) (29, 5.62175869941711430000e-001) (30, -2.77543401718139650000e+000) (31, 1.60493242740631100000e+000) (32, -4.78647023439407350000e-001) (33, 1.16014778614044190000e+000) (34, 3.47554874420166020000e+000) (35, 3.90861928462982180000e-002) (36, 3.63099932670593260000e+000) (37, 5.22120666503906250000e+000) (38, -2.54470318555831910000e-001) (39, 9.47708845138549800000e-001) (40, 1.89713561534881590000e+000) (41, 5.24596534669399260000e-002) (42, -7.19678926467895510000e+000) (43, 4.10319614410400390000e+000) (44, 2.01086473464965820000e+000) (45, -6.86330080032348630000e-001) (46, 2.29833531379699710000e+000) (47, 1.33617305755615230000e+000) (48, -4.07440124511718750000e+002) (49, 8.15378112792968750000e+002) (50, 7.55292907714843750000e+002) (51, -1.41854686737060550000e+001) (52, -5.07905054092407230000e+000) (53, 9.15328063964843750000e+002) (54, 1.40370104980468750000e+003) (55, 1.19913879394531250000e+003) (56, -1.03629174804687500000e+003) (57, -1.50000000000000000000e+003) (58, 6.12013427734375000000e+002) (59, -1.49100122070312500000e+003) (60, 1.50000000000000000000e+003) (61, -9.61366577148437500000e+002) (0, -7.87787973880767820000e-001) (1, 1.02149903774261470000e+000) (2, 1.51291742920875550000e-001) (3, 1.90211638808250430000e-001) (4, 1.78964233398437500000e+000) (5, 5.17103195190429690000e-001) (6, -1.91925704479217530000e-001) (7, 3.86479520797729490000e+000) (8, -4.94643181562423710000e-001) (9, -1.53107643127441410000e+000) (10, 6.01816892623901370000e+000) (11, 6.28774523735046390000e-001) (12, 8.25780868530273440000e-001) (13, 1.83231937885284420000e+000) (14, 3.49552482366561890000e-001) (15, 1.10052168369293210000e+000) (16, 1.98561203479766850000e+000) (17, 7.52038002014160160000e-001) (18, 1.22389650344848630000e+000) (19, 2.61041808128356930000e+000) (20, -7.00846731662750240000e-001) (21, 2.31403684616088870000e+000) (22, 1.46879279613494870000e+000) (23, -4.57048207521438600000e-001) (24, -3.97685885429382320000e+000) (25, -1.61327781677246090000e+001) (26, 9.02923762798309330000e-001) (27, -7.57462441921234130000e-001) (28, 3.91750144958496090000e+000) (29, -1.84894859790802000000e-001) (30, 9.36357855796813960000e-001) (31, 2.33390235900878910000e+000) (32, -5.83219289779663090000e-001) (33, -3.29160618782043460000e+000) (34, 2.41645550727844240000e+000) (35, -2.03814238309860230000e-001) (36, -1.80130803585052490000e+000) (37, 2.94552063941955570000e+000) (38, 6.45050227642059330000e-001) (39, 2.10843467712402340000e+000) (40, 4.03810310363769530000e+000) (41, 1.31675434112548830000e+000) (42, 2.01613473892211910000e+000) (43, 4.18328475952148440000e+000) (44, -2.94932276010513310000e-001) (45, 1.30311667919158940000e+000) (46, 3.81195974349975590000e+000) (47, -7.47831404209136960000e-001) (48, 2.45424580574035640000e+000) (49, -4.59156870841979980000e-001) (50, -3.33709329366683960000e-001) (51, 1.26108181476593020000e+000) (52, 1.28387272357940670000e+000) (53, 5.15571773052215580000e-001) (54, -5.60792207717895510000e-001) (55, 1.41989338397979740000e+000) (56, 5.76197683811187740000e-001) (57, 1.80168211460113530000e+000) (58, 2.26499557495117190000e+000) (59, 4.03937673568725590000e+000) (60, 2.74261617660522460000e+000) (61, 1.01449222564697270000e+001) (62, 4.93996334075927730000e+000) (0, -1.79117918014526370000e+000) (1, -7.25161194801330570000e-001) (2, 9.64441001415252690000e-001) (3, -1.35651051998138430000e+000) (4, -4.19165432453155520000e-001) (5, 7.99868524074554440000e-001) (6, -4.22182418406009670000e-002) (7, 1.26114463806152340000e+000) (8, -4.48801368474960330000e-001) (9, -1.51257288455963130000e+000) (10, 3.21795135736465450000e-001) (11, 1.25083580613136290000e-001) (12, -1.11002171039581300000e+000) (13, -5.89863181114196780000e-001) (14, -2.98799186944961550000e-001) (15, 1.88379630446434020000e-001) (16, 4.25627529621124270000e-001) (17, 5.59529066085815430000e-001) (18, -3.82459819316864010000e-001) (19, 1.52472853660583500000e+000) (20, -5.00151962041854860000e-002) (21, 1.58983290195465090000e+000) (22, 6.93183243274688720000e-001) (23, -9.49771821498870850000e-001) (24, -3.31757843494415280000e-001) (25, 1.13562417030334470000e+000) (26, -7.80075490474700930000e-001) (27, 3.81131201982498170000e-001) (28, -1.78543612360954280000e-001) (29, 1.17429317906498910000e-002) (30, -1.48861050605773930000e+000) (31, 2.94701233506202700000e-002) (32, 6.87928497791290280000e-001) (33, -4.87137883901596070000e-001) (34, -2.36404061317443850000e-001) (35, 2.70752832293510440000e-002) (36, 5.05159044265747070000e+000) (37, -4.10311222076416020000e+000) (38, 4.40438628196716310000e-001) (39, -1.88297653198242190000e+000) (40, -6.36102437973022460000e-001) (41, -1.39682725071907040000e-001) (42, 4.19287967681884770000e+000) (43, 1.34065520763397220000e+000) (44, -9.86834406852722170000e-001) (45, -7.84584701061248780000e-001) (46, 3.11969190835952760000e-001) (47, 6.46837428212165830000e-003) (48, 1.65747702121734620000e+000) (49, -5.25972890853881840000e+000) (50, -9.85533905029296880000e+001) (51, 2.66393402099609370000e+002) (52, -3.78686165809631350000e+000) (53, 1.38599649071693420000e-001) (54, -2.39782669067382810000e+002) (55, -5.83867034912109380000e+001) (56, -1.61610061645507810000e+002) (57, -5.49563781738281250000e+002) (58, -1.98399887084960940000e+001) (59, 1.31819260120391850000e+000) (60, -1.50000000000000000000e+003) (61, 2.24032760620117190000e+002) (62, -2.40399150848388670000e+001) (63, -7.15800048828125000000e+002) (0, 6.02682924270629880000e+000) (1, 7.70442199707031250000e+000) (2, 3.19995313882827760000e-001) (3, 1.13541007041931150000e-001) (4, -6.16040766239166260000e-001) (5, 5.02186268568038940000e-002) (6, -3.88558197021484370000e+000) (7, 1.39531767368316650000e+000) (8, 1.46753418445587160000e+000) (9, -1.89196383953094480000e+000) (10, 1.56983745098114010000e+000) (11, -2.23039492964744570000e-001) (12, 2.00370028614997860000e-001) (13, -1.06235351562500000000e+001) (14, -1.78068637847900390000e-001) (15, 4.31470423936843870000e-001) (16, -2.43449134826660160000e+001) (17, 8.30342948436737060000e-001) (18, 1.67781841754913330000e+000) (19, -1.50886905193328860000e+000) (20, 5.30847370624542240000e-001) (21, -1.26683056354522710000e+000) (22, 5.91298294067382810000e+000) (23, -3.89267429709434510000e-002) (24, 3.95235753059387210000e+000) (25, 1.94231200218200680000e+000) (26, -3.49562078714370730000e-001) (27, -3.06796002388000490000e+000) (28, -2.01799154281616210000e+000) (29, -1.41946479678153990000e-001) (30, -1.83529388904571530000e+000) (31, 1.33081207275390620000e+001) (32, 7.02630162239074710000e-001) (33, 1.36903107166290280000e+000) (34, 2.85670280456542970000e+000) (35, 1.31020104885101320000e+000) (36, 9.69156801700592040000e-001) (37, 1.01174974441528320000e+000) (38, 1.35229480266571040000e+000) (39, 1.40200221538543700000e+000) (40, 2.75215291976928710000e+000) (41, 2.33419612050056460000e-001) (42, -5.09470367431640620000e+000) (43, 2.65161800384521480000e+000) (44, 1.97979420423507690000e-001) (45, 1.78532731533050540000e+000) (46, 2.67323207855224610000e+000) (47, 8.46804261207580570000e-001) (48, -4.65023326873779300000e+000) (49, 6.16785766601562500000e+002) (50, 3.45782745361328120000e+002) (51, -3.82251159667968750000e+002) (52, 2.33599731445312500000e+002) (53, 8.77360595703125000000e+002) (54, 1.22239196777343750000e+003) (55, 1.50000000000000000000e+003) (56, -1.35425476074218750000e+003) (57, -1.50000000000000000000e+003) (58, 7.20253112792968750000e+002) (59, -1.50000000000000000000e+003) (60, 9.33172668457031250000e+002) (61, -1.45847741699218750000e+003) (62, -1.10943884277343750000e+003) (63, -5.58168640136718750000e+002) (64, -2.31535964965820310000e+002) (0, -1.31001596450805660000e+001) (1, -9.05800628662109370000e+000) (2, 3.71848046779632570000e-001) (3, -4.98642504215240480000e-001) (4, -2.57862043380737300000e+000) (5, -6.95109307765960690000e-001) (6, 5.00312280654907230000e+000) (7, 4.67093372344970700000e+000) (8, 5.61749674379825590000e-002) (9, -3.28301578760147090000e-001) (10, 8.18370342254638670000e-001) (11, 8.26134562492370610000e-001) (12, -1.99129736423492430000e+000) (13, 1.55234832763671870000e+001) (14, -7.83772692084312440000e-002) (15, 4.65170621871948240000e+000) (16, -1.86106812953948970000e+000) (17, -1.45432245731353760000e+000) (18, -8.22813436388969420000e-002) (19, 5.99646806716918950000e+000) (20, -9.82259452342987060000e-001) (21, 4.28703784942626950000e+000) (22, -1.41475987434387210000e+000) (23, 3.81384730339050290000e-001) (24, 1.67140686511993410000e+000) (25, -5.28155469894409180000e+000) (26, -1.54140129685401920000e-001) (27, 1.21504254639148710000e-001) (28, 1.87970936298370360000e+000) (29, 9.66578543186187740000e-001) (30, 1.60356199741363530000e+000) (31, 1.14038574695587160000e+000) (32, -3.45623940229415890000e-001) (33, 1.54556834697723390000e+000) (34, 9.56729054450988770000e-001) (35, -2.29697629809379580000e-001) (36, -1.91879069805145260000e+000) (37, -6.79271650314331050000e+000) (38, 9.35665905475616460000e-001) (39, 6.15404224395751950000e+000) (40, -4.37235164642333980000e+000) (41, -7.62115344405174260000e-002) (42, -5.03981971740722660000e+000) (43, -2.02223682403564450000e+000) (44, -9.70548629760742190000e-001) (45, -2.26463222503662110000e+000) (46, 1.03825724124908450000e+000) (47, -5.84144711494445800000e-001) (48, -2.55227780342102050000e+000) (49, -7.36046875000000000000e+002) (50, -4.27096984863281250000e+002) (51, -1.22050422668457030000e+002) (52, -2.44343353271484370000e+002) (53, -4.11528892517089840000e+001) (54, -5.70343994140625000000e+002) (55, -1.08067297363281250000e+003) (56, 1.82647872924804690000e+002) (57, 4.11734504699707030000e+001) (58, -4.12029418945312500000e+002) (59, 4.27921661376953120000e+002) (60, -1.42116870117187500000e+003) (61, 2.38005218505859370000e+002) (62, 4.17791473388671870000e+002) (63, -1.18892443847656250000e+003) (64, -1.21632637023925780000e+002) (65, 1.86295013427734370000e+002) (0, 7.27629780769348140000e-001) (1, -4.86333370208740230000e-001) (2, 1.13667853176593780000e-001) (3, -9.08546447753906250000e-001) (4, -7.41010284423828120000e+000) (5, 1.12847733497619630000e+000) (6, 2.01054945588111880000e-001) (7, 3.00854420661926270000e+000) (8, 9.89145517349243160000e-001) (9, -1.55764377117156980000e+000) (10, 3.31335234642028810000e+000) (11, 6.53112411499023440000e-001) (12, 7.96329319477081300000e-001) (13, -7.94358015060424800000e+000) (14, -2.40979273803532120000e-003) (15, 3.21051287651062010000e+000) (16, -1.51086063385009770000e+001) (17, 1.75769233703613280000e+000) (18, -9.07667204737663270000e-002) (19, 2.19365644454956050000e+000) (20, 1.90973865985870360000e+000) (21, 1.53076028823852540000e+000) (22, 2.22429418563842770000e+000) (23, 4.09790813922882080000e-001) (24, -7.68237635493278500000e-002) (25, 1.23335266113281250000e+000) (26, 8.84881019592285160000e-001) (27, 1.57460284233093260000e+000) (28, 3.82094216346740720000e+000) (29, 1.84291756153106690000e+000) (30, -9.26708579063415530000e-001) (31, 4.13304185867309570000e+000) (32, 1.52073085308074950000e+000) (33, 1.32082426548004150000e+000) (34, 3.12828063964843750000e+000) (35, 3.05316932499408720000e-002) (36, -3.46403449773788450000e-001) (37, 2.14985394477844240000e+000) (38, 1.72132217884063720000e+000) (39, 1.97080218791961670000e+000) (40, 2.69279837608337400000e+000) (41, 1.10329055786132810000e+000) (42, 3.03062319755554200000e+000) (43, 3.27699446678161620000e+000) (44, 4.82474356889724730000e-001) (45, -1.17431998252868650000e+000) (46, 3.12682533264160160000e+000) (47, 1.23627007007598880000e+000) (48, 3.25055748224258420000e-001) (49, 1.26568794250488280000e+000) (50, 2.94773626327514650000e+000) (51, 3.21553564071655270000e+000) (52, 1.84871181845664980000e-001) (53, 3.79347324371337890000e-001) (54, 3.02025842666625980000e+000) (55, 1.36104238033294680000e+000) (56, 1.10251986980438230000e+000) (57, -5.62782001495361330000e+000) (58, 1.85349106788635250000e+000) (59, 1.84119760990142820000e+000) (60, -1.50217580795288090000e+001) (61, 1.41089129447937010000e+000) (62, 4.38489151000976560000e+000) (63, -6.76593322753906250000e+001) (64, 4.08131742477416990000e+000) (65, 3.35478639602661130000e+000) (66, 3.38480567932128910000e+000) (0, -1.90094456076622010000e-001) (1, 7.96150743961334230000e-001) (2, 7.65760123729705810000e-001) (3, -2.41442084312438960000e-001) (4, 9.78192210197448730000e-001) (5, 9.39611315727233890000e-001) (6, -3.39438498020172120000e-001) (7, 1.70581352710723880000e+000) (8, -2.73190855979919430000e-001) (9, -3.24168294668197630000e-001) (10, 1.73065876960754390000e+000) (11, -3.69531065225601200000e-001) (12, 7.22046256065368650000e-001) (13, 1.11022412776947020000e+000) (14, 7.61375129222869870000e-001) (15, 1.12217760086059570000e+000) (16, 2.06147074699401860000e+000) (17, 4.31881308555603030000e-001) (18, 4.03019249439239500000e-001) (19, -2.75239887237548830000e+001) (20, -9.84047293663024900000e-001) (21, 1.46521425247192380000e+000) (22, 3.17938971519470210000e+000) (23, 3.22931587696075440000e-001) (24, 1.14992153644561770000e+000) (25, 2.05265021324157710000e+000) (26, 2.08397597074508670000e-001) (27, 1.41550397872924800000e+000) (28, -8.84328126907348630000e-001) (29, -7.82005250453948970000e-001) (30, 6.62235319614410400000e-001) (31, 2.69590449333190920000e+000) (32, 1.82604342699050900000e-001) (33, 2.60642170906066890000e+000) (34, 3.58418869972229000000e+000) (35, -4.54264968633651730000e-001) (36, 9.11556303501129150000e-001) (37, 3.62587022781372070000e+000) (38, 2.22949702292680740000e-002) (39, 1.86242210865020750000e+000) (40, 2.17091751098632810000e+000) (41, -4.87861484289169310000e-001) (42, 1.87207603454589840000e+000) (43, 2.77306652069091800000e+000) (44, -8.19095015525817870000e-001) (45, 1.17695307731628420000e+000) (46, 3.22309780120849610000e+000) (47, -1.05722665786743160000e+000) (48, -1.37372350692749020000e+000) (49, -3.00860047340393070000e-001) (50, 2.81650066375732420000e+000) (51, 3.01397399902343750000e+001) (52, -7.32463150024414060000e+001) (53, -3.71612048149108890000e+000) (54, -1.82460165023803710000e+000) (55, -7.41204299926757810000e+001) (56, 1.32124400138854980000e+000) (57, -1.50000000000000000000e+003) (58, -2.86234498023986820000e+000) (59, 4.01846694946289060000e+001) (60, 1.74784027099609370000e+002) (61, 1.61345352172851560000e+002) (62, 6.07398080825805660000e+000) (63, 8.50599853515625000000e+002) (64, 1.35625612735748290000e+000) (65, 1.23020505905151370000e+001) (66, 2.84693980216979980000e+000) (67, -7.73678064346313480000e-001) (0, -1.94996154308319090000e+000) (1, -1.12427139282226560000e+000) (2, 1.12099301815032960000e+000) (3, -2.47947669029235840000e+000) (4, -8.42375946044921870000e+000) (5, -3.86032789945602420000e-001) (6, -1.75069308280944820000e+000) (7, 2.53641098737716670000e-001) (8, -4.89610731601715090000e-001) (9, 3.74325871467590330000e-001) (10, 1.54622733592987060000e+000) (11, 9.96001303195953370000e-001) (12, -3.59053587913513180000e+000) (13, -1.91201210021972660000e+000) (14, 1.17380213737487790000e+000) (15, 6.49520099163055420000e-001) (16, -3.46835923194885250000e+000) (17, 1.82200872898101810000e+000) (18, -3.84729117155075070000e-001) (19, 1.24005866050720210000e+000) (20, 1.78560221195220950000e+000) (21, 1.97688472270965580000e+000) (22, -1.03452241420745850000e+000) (23, 7.83685624599456790000e-001) (24, 7.37423419952392580000e+000) (25, 4.96820002794265750000e-001) (26, 7.76447534561157230000e-001) (27, -4.09679794311523440000e+000) (28, 9.98024642467498780000e-001) (29, -3.32389831542968750000e-001) (30, 5.59164397418498990000e-002) (31, 1.42218685150146480000e+000) (32, 1.90156891942024230000e-001) (33, 1.69389474391937260000e+000) (34, 1.28425097465515140000e+000) (35, -2.03993856906890870000e-001) (36, 6.35425710678100590000e+000) (37, 1.14632105827331540000e+000) (38, 3.62146645784378050000e-001) (39, 1.17888987064361570000e+000) (40, 2.59449577331542970000e+000) (41, -2.37155839800834660000e-001) (42, -3.58715271949768070000e+000) (43, 4.74313259124755860000e+000) (44, 5.66089928150177000000e-001) (45, 1.69188529253005980000e-001) (46, 4.22948503494262700000e+000) (47, -4.87954586744308470000e-001) (48, -1.17478742599487300000e+001) (49, 1.85085800170898440000e+002) (50, 2.27240722656250000000e+002) (51, -8.34024887084960940000e+001) (52, -1.31954315185546870000e+002) (53, 9.44405273437500000000e+002) (54, 8.68653991699218750000e+002) (55, 1.21704272460937500000e+003) (56, -1.36561950683593750000e+003) (57, 1.50000000000000000000e+003) (58, 3.64779663085937500000e+002) (59, -1.50000000000000000000e+003) (60, 1.40183251953125000000e+003) (61, -1.50000000000000000000e+003) (62, -1.25991333007812500000e+003) (63, 1.50000000000000000000e+003) (64, -4.87751708984375000000e+002) (65, -1.50000000000000000000e+003) (66, 2.25015075683593750000e+002) (67, -8.76007080078125000000e+002) (68, -1.50000000000000000000e+003) (0, 1.19878311157226560000e+001) (1, 8.56587290763854980000e-001) (2, 7.19102740287780760000e-001) (3, 2.97970523834228520000e+001) (4, -2.20012998580932620000e+000) (5, 9.69084262847900390000e-001) (6, -7.41671276092529300000e+000) (7, 2.54473381042480470000e+001) (8, 1.21257746219635010000e+000) (9, -8.92569923400878910000e+000) (10, 5.66006374359130860000e+000) (11, 1.77122080326080320000e+000) (12, 1.98681616783142090000e+000) (13, -8.38454437255859370000e+000) (14, 1.36369025707244870000e+000) (15, 1.07365398406982420000e+001) (16, -2.45175704956054690000e+001) (17, 1.45683538913726810000e+000) (18, 1.06125986576080320000e+000) (19, -6.12683200836181640000e+000) (20, -2.19802916049957280000e-001) (21, -1.33590192794799800000e+001) (22, 2.97546958923339840000e+000) (23, 8.89860868453979490000e-001) (24, -8.29334616661071780000e-001) (25, 8.59716653823852540000e-001) (26, 2.91744947433471680000e-001) (27, -1.08644933700561520000e+001) (28, -4.89474916458129880000e+000) (29, -9.79830265045166020000e-001) (30, -5.05013084411621090000e+000) (31, 1.76189160346984860000e+000) (32, 4.56911593675613400000e-001) (33, 8.89125061035156250000e+000) (34, 2.47750139236450200000e+000) (35, 6.80570960044860840000e-001) (36, -1.71133482456207280000e+000) (37, 2.25948405265808110000e+000) (38, -2.11006253957748410000e-001) (39, -1.16861419677734380000e+001) (40, 2.53450298309326170000e+000) (41, 2.69410520792007450000e-001) (42, -3.16275000572204590000e+000) (43, 4.26603698730468750000e+000) (44, 6.16592884063720700000e-001) (45, -1.25075960159301760000e+000) (46, 2.78001046180725100000e+000) (47, -4.05953139066696170000e-001) (48, -1.50000000000000000000e+003) (49, 4.65990814208984370000e+002) (50, 1.16951599121093750000e+003) (51, -1.46121398925781250000e+003) (52, 8.41248168945312500000e+002) (53, 1.11090698242187500000e+003) (54, 1.50000000000000000000e+003) (55, 1.50000000000000000000e+003) (56, -9.55641174316406250000e+002) (57, 1.50000000000000000000e+003) (58, 1.38981823730468750000e+003) (59, -1.45252099609375000000e+003) (60, 1.50000000000000000000e+003) (61, -1.50000000000000000000e+003) (62, -4.11646270751953120000e+002) (63, 1.50000000000000000000e+003) (64, 5.72941833496093750000e+002) (65, -9.65327453613281250000e+002) (66, 4.13212432861328120000e+002) (67, -1.34906665039062500000e+003) (68, -1.11204321289062500000e+003) (69, -1.63995620727539060000e+002) (0, 4.59917634725570680000e-001) (1, 5.49843847751617430000e-001) (2, -4.41262304782867430000e-001) (3, 1.26286053657531740000e+000) (4, 1.59098756313323970000e+000) (5, 1.54464757442474370000e+000) (6, 8.68420004844665530000e-001) (7, 1.53366911411285400000e+000) (8, -1.18480153381824490000e-001) (9, 2.28029221296310420000e-001) (10, 2.45527529716491700000e+000) (11, 1.10771775245666500000e+000) (12, -2.84667670726776120000e-001) (13, 2.17255473136901860000e+000) (14, 1.23311841487884520000e+000) (15, 1.88836026191711430000e+000) (16, 1.24539971351623540000e+000) (17, 1.12757217884063720000e+000) (18, -5.15355110168457030000e-001) (19, 2.55795240402221680000e+000) (20, -9.28050354123115540000e-002) (21, 2.04497480392456050000e+000) (22, 2.12450337409973140000e+000) (23, 1.44175302982330320000e+000) (24, -1.04582600295543670000e-001) (25, 3.73267602920532230000e+000) (26, -3.98060977458953860000e-001) (27, 1.95908176898956300000e+000) (28, 1.85383546352386470000e+000) (29, 1.29152417182922360000e-001) (30, 1.10279425978660580000e-001) (31, 2.38649892807006840000e+000) (32, 3.29767763614654540000e-001) (33, 1.83375704288482670000e+000) (34, 2.06354093551635740000e+000) (35, 2.96849191188812260000e-001) (36, -5.35655803978443150000e-002) (37, 3.46712136268615720000e+000) (38, 4.45984959602355960000e-001) (39, 2.78089761734008790000e+000) (40, 3.04681229591369630000e+000) (41, 8.83949458599090580000e-001) (42, 2.62545680999755860000e+000) (43, 2.88092637062072750000e+000) (44, -4.07433286309242250000e-002) (45, -9.02720272541046140000e-001) (46, 3.05185675621032710000e+000) (47, 1.25756466388702390000e+000) (48, -2.05112934112548830000e+000) (49, 1.84879004955291750000e+000) (50, 1.50203800201416020000e+000) (51, 1.16146671772003170000e+000) (52, 3.65279793739318850000e-001) (53, 1.10769569873809810000e+000) (54, 2.00272393226623540000e+000) (55, 8.27595353126525880000e-001) (56, 1.10095858573913570000e+000) (57, 1.96200729370117190000e+002) (58, 4.17951136827468870000e-001) (59, 1.32154035568237300000e+000) (60, 4.84568405151367190000e+000) (61, 4.92457896471023560000e-002) (62, 1.53577601909637450000e+000) (63, 2.13062454223632810000e+002) (64, 1.80377125740051270000e-001) (65, 3.75767016410827640000e+000) (66, 1.29028308391571040000e+000) (67, 4.24575388431549070000e-001) (68, -1.64323017001152040000e-001) (69, 2.18136763572692870000e+000) (70, 2.09426164627075200000e+000) (0, -1.50000000000000000000e+003) (1, -2.40686721801757810000e+001) (2, 9.13348236083984370000e+001) (3, 1.16442260742187500000e+002) (4, -1.50000000000000000000e+003) (5, 9.70998687744140630000e+001) (6, -1.50000000000000000000e+003) (7, -1.21556579589843750000e+003) (8, 1.27496658325195310000e+002) (9, -6.51636535644531250000e+002) (10, 7.78401916503906250000e+002) (11, 5.42858505249023440000e+001) (12, -7.60366394042968750000e+002) (13, -1.50000000000000000000e+003) (14, 9.15708923339843750000e+001) (15, 7.06788711547851560000e+001) (16, -1.50000000000000000000e+003) (17, 4.25372253417968750000e+002) (18, 6.40800048828125000000e+002) (19, 2.42663909912109370000e+002) (20, 1.09964653015136720000e+002) (21, 5.40781311035156250000e+002) (22, 7.66186767578125000000e+002) (23, 1.28360092163085940000e+002) (24, 6.61178161621093750000e+002) (25, 5.75528686523437500000e+002) (26, 7.94720382690429690000e+001) (27, 5.84541931152343750000e+001) (28, 3.03594360351562500000e+001) (29, 8.31893310546875000000e+001) (30, -3.57358001708984370000e+002) (31, 2.60469703674316410000e+001) (32, 9.02131805419921880000e+001) (33, 8.64751434326171870000e+000) (34, 3.22895568847656250000e+002) (35, 5.32554779052734370000e+001) (36, 1.41580627441406250000e+002) (37, 1.50000000000000000000e+003) (38, -6.44077606201171870000e+001) (39, 8.43462524414062500000e+001) (40, 6.82371139526367190000e+001) (41, -4.89701347351074220000e+001) (42, 1.16301501464843750000e+003) (43, 1.50000000000000000000e+003) (44, 8.31330108642578130000e+001) (45, 1.22925634765625000000e+003) (46, 1.50000000000000000000e+003) (47, 8.41078796386718750000e+001) (48, -1.50000000000000000000e+003) (49, -3.29919311523437500000e+002) (50, -8.10866577148437500000e+002) (51, -5.72060791015625000000e+002) (52, -1.50000000000000000000e+003) (53, -1.50000000000000000000e+003) (54, 8.13255981445312500000e+002) (55, 1.32162841796875000000e+003) (56, 1.56865356445312500000e+002) (57, 1.50000000000000000000e+003) (58, 8.12493324279785160000e+000) (59, -1.05160717773437500000e+003) (60, 1.50000000000000000000e+003) (61, 1.50000000000000000000e+003) (62, -1.71584014892578120000e+002) (63, 1.50000000000000000000e+003) (64, -8.69991821289062500000e+002) (65, -8.10667053222656250000e+002) (66, -6.04339218139648440000e+001) (67, -5.50957412719726560000e+001) (68, -1.50000000000000000000e+003) (69, -1.86442673206329350000e+000) (70, 8.13929260253906250000e+002) (71, 8.75608215332031250000e+001) (0, -8.73513519763946530000e-002) (1, -1.73193204402923580000e+000) (2, -2.95264601707458500000e-001) (3, 1.59127432852983470000e-002) (4, 1.60363597869873050000e+001) (5, 6.72823369503021240000e-001) (6, -4.43368684500455860000e-003) (7, -2.15437114238739010000e-001) (8, -3.39709103107452390000e-001) (9, -2.16854453086853030000e-001) (10, -1.37726902961730960000e+000) (11, -3.06801795959472660000e+000) (12, -2.42560696601867680000e+000) (13, 1.76361525058746340000e+000) (14, 1.24321615695953370000e+000) (15, 9.57549858093261720000e+000) (16, 1.09731614589691160000e+000) (17, -4.58328199386596680000e+000) (18, -2.11698007583618160000e+000) (19, 8.41643691062927250000e-001) (20, 5.70187941193580630000e-002) (21, 4.58836221694946290000e+000) (22, -2.84302520751953130000e+000) (23, -2.53943181037902830000e+000) (24, -1.76443397998809810000e+000) (25, -2.27785730361938480000e+000) (26, 9.76985573768615720000e-001) (27, 6.42932891845703130000e-001) (28, -1.24107050895690920000e+000) (29, 3.00683170557022090000e-001) (30, 5.55352807044982910000e-001) (31, -3.68779611587524410000e+000) (32, 3.16374272108078000000e-001) (33, -7.30152750015258790000e+000) (34, -1.34316742420196530000e-001) (35, -9.56027805805206300000e-001) (36, -2.36997461318969730000e+000) (37, -3.10766339302062990000e+000) (38, 9.84597802162170410000e-001) (39, 1.43512725830078130000e-001) (40, -1.11175024509429930000e+000) (41, 2.23345845937728880000e-001) (42, 5.88921785354614260000e-001) (43, -5.74996280670166020000e+000) (44, -5.53305387496948240000e-001) (45, -2.52681344747543330000e-001) (46, -2.74850320816040040000e+000) (47, -1.98604613542556760000e-001) (48, 8.96591644287109380000e+001) (49, -3.80807647705078120000e+002) (50, -9.88428039550781250000e+001) (51, -7.18869934082031250000e+001) (52, 4.08691833496093750000e+002) (53, -7.48398315429687500000e+002) (54, -7.54634948730468750000e+002) (55, -1.10944763183593750000e+003) (56, 1.37775048828125000000e+003) (57, -1.50000000000000000000e+003) (58, -7.19611450195312500000e+002) (59, 1.50000000000000000000e+003) (60, 8.82639892578125000000e+002) (61, 1.38770983886718750000e+003) (62, 1.23309924316406250000e+003) (63, -7.84172302246093750000e+002) (64, 7.62337707519531250000e+002) (65, 1.44024218750000000000e+003) (66, -4.43390686035156250000e+002) (67, 4.59648315429687500000e+002) (68, -4.51184692382812500000e+002) (69, 9.21892028808593750000e+002) (70, 7.42213211059570310000e+001) (71, 9.86386901855468750000e+002) (72, 1.50000000000000000000e+003) (0, -2.69694805145263670000e+000) (1, -1.48753714561462400000e+000) (2, 1.06192624568939210000e+000) (3, -2.86877608299255370000e+000) (4, 1.42590391635894780000e+000) (5, 7.04471647739410400000e-001) (6, 1.66726261377334590000e-001) (7, 1.06393206119537350000e+000) (8, -9.61858451366424560000e-001) (9, -3.03587168455123900000e-001) (10, -2.39671134948730470000e+000) (11, 1.02132570743560790000e+000) (12, 3.93296766281127930000e+000) (13, 3.29824805259704590000e-001) (14, -1.35821509361267090000e+000) (15, 4.92597550153732300000e-001) (16, 2.64670038223266600000e+000) (17, -1.33759677410125730000e+000) (18, 9.15225267410278320000e-001) (19, 1.40946125984191890000e+000) (20, -2.67606303095817570000e-002) (21, -4.64248619973659520000e-002) (22, -1.61401152610778810000e+000) (23, -7.06260740756988530000e-001) (24, -2.70433211326599120000e+000) (25, 1.75991252064704900000e-001) (26, -9.23914134502410890000e-001) (27, 1.44347882270812990000e+000) (28, 8.92077445983886720000e-001) (29, 1.36349499225616460000e+000) (30, 7.21446514129638670000e-001) (31, -1.82991492748260500000e+000) (32, 1.93675622344017030000e-001) (33, 1.36845123767852780000e+000) (34, -7.62240231037139890000e-001) (35, 4.43021178245544430000e-001) (36, 4.49405610561370850000e-002) (37, -1.02185988426208500000e+000) (38, 7.72670388221740720000e-001) (39, 7.36331820487976070000e-001) (40, -9.74011003971099850000e-001) (41, -4.47323292493820190000e-001) (42, -5.84151685237884520000e-001) (43, 6.95206522941589360000e-001) (44, 4.47712302207946780000e-001) (45, -1.02798151969909670000e+000) (46, 9.87586557865142820000e-001) (47, -4.92114752531051640000e-001) (48, -9.35783743858337400000e-001) (49, 1.99152545928955080000e+001) (50, -9.28886795043945310000e+001) (51, 5.74166488647460940000e+001) (52, -1.82895324707031250000e+002) (53, 1.12850856781005860000e+001) (54, -9.48248443603515630000e+001) (55, -2.12596206665039060000e+002) (56, -1.30859384536743160000e+001) (57, -1.50000000000000000000e+003) (58, 8.69045257568359380000e+000) (59, 1.64900264739990230000e+001) (60, -1.50000000000000000000e+003) (61, 2.02763275146484370000e+002) (62, 6.87579193115234370000e+001) (63, -1.03367468261718750000e+003) (64, -2.35219345092773440000e+002) (65, 1.43461166381835940000e+002) (66, -9.77352600097656250000e+001) (67, 8.35217437744140630000e+001) (68, -1.01442584991455080000e+001) (69, 1.20005668640136720000e+002) (70, -1.09983742237091060000e+000) (71, -1.45487184524536130000e+001) (72, -1.50000000000000000000e+003) (73, 1.31790786743164060000e+002) (0, 3.44824612140655520000e-001) (1, 1.96861341595649720000e-001) (2, -1.20386675000190730000e-001) (3, 1.34308147430419920000e+000) (4, -4.96869683265686040000e-001) (5, 2.73996561765670780000e-001) (6, 1.56049048900604250000e+000) (7, 1.86630606651306150000e+000) (8, -2.64844149351120000000e-001) (9, 4.68548715114593510000e-001) (10, 2.21354603767395020000e+000) (11, 7.85129368305206300000e-001) (12, -8.64537134766578670000e-002) (13, 3.87181729078292850000e-001) (14, -6.17847681045532230000e-001) (15, 1.94841670989990230000e+000) (16, -8.13529372215271000000e-001) (17, -7.81638026237487790000e-001) (18, 9.82212051749229430000e-002) (19, 2.34509015083312990000e+000) (20, 9.96393322944641110000e-001) (21, 3.30857110023498540000e+000) (22, 2.57478928565979000000e+000) (23, -6.39774441719055180000e-001) (24, 1.21799290180206300000e+000) (25, 1.64883697032928470000e+000) (26, 1.98400571942329410000e-001) (27, 2.98704075813293460000e+000) (28, 1.27342140674591060000e+000) (29, 1.02387614548206330000e-001) (30, 1.31898725032806400000e+000) (31, 1.20822918415069580000e+000) (32, 6.08500659465789790000e-001) (33, 2.03218173980712890000e+000) (34, 2.26993870735168460000e+000) (35, 9.77071821689605710000e-001) (36, 6.81968629360198970000e-001) (37, 3.38018202781677250000e+000) (38, 1.36171609163284300000e-001) (39, 2.02921390533447270000e+000) (40, 2.79267454147338870000e+000) (41, 1.08097858726978300000e-001) (42, 2.60963845252990720000e+000) (43, 2.19452500343322750000e+000) (44, -7.29428410530090330000e-001) (45, 6.93265438079833980000e-001) (46, 2.09113669395446780000e+000) (47, -2.28262037038803100000e-001) (48, 8.71676146984100340000e-001) (49, 3.26424908638000490000e+000) (50, 1.78902375698089600000e+000) (51, -2.62069606781005860000e+000) (52, 1.07418072223663330000e+000) (53, 9.00037646293640140000e-001) (54, 7.66538202762603760000e-001) (55, 6.90348863601684570000e-001) (56, 1.18563580513000490000e+000) (57, 1.84224987030029300000e+000) (58, 3.78195762634277340000e-001) (59, 1.32561635971069340000e+000) (60, -1.41055202484130860000e+001) (61, 1.91872727870941160000e+000) (62, 2.60588812828063960000e+000) (63, -1.36413979530334470000e+000) (64, -3.88625174760818480000e-001) (65, 3.29767012596130370000e+000) (66, 3.69147443771362300000e+000) (67, 1.81543365120887760000e-001) (68, -3.68495635986328120000e+001) (69, 1.96255218982696530000e+000) (70, -1.70021653175354000000e+000) (71, 1.44190394878387450000e+000) (72, -1.52480900287628170000e+000) (73, 1.07877147197723390000e+000) (74, 1.48409867286682130000e+000) (0, -9.40150260925292970000e+000) (1, 2.33269071578979490000e+000) (2, 1.09264743328094480000e+000) (3, -5.44377279281616210000e+000) (4, -5.91318559646606450000e+000) (5, 2.01842570304870610000e+000) (6, -1.00645675659179690000e+001) (7, 1.30092465877532960000e+000) (8, -1.20907925069332120000e-001) (9, -5.99950933456420900000e+000) (10, 1.25009298324584960000e+000) (11, 1.80470526218414310000e+000) (12, -1.28881943225860600000e+000) (13, -2.50434131622314450000e+001) (14, 4.03480231761932370000e-001) (15, -3.07888565063476560000e+001) (16, -2.03448219299316410000e+001) (17, 2.53649067878723140000e+000) (18, 5.15877990722656250000e+001) (19, 5.47593712806701660000e-001) (20, 2.78593635559082030000e+000) (21, 6.32311105728149410000e-001) (22, 1.60601031780242920000e+000) (23, 5.92700839042663570000e-001) (24, 9.57710647583007810000e+000) (25, 1.06290531158447270000e+000) (26, -2.76070743799209590000e-001) (27, 1.42021870613098140000e+000) (28, -1.83436071872711180000e+000) (29, 1.13895463943481450000e+000) (30, -7.08315515518188480000e+000) (31, 1.96454601287841800000e+001) (32, 9.67943549156188960000e-001) (33, -1.11085879802703860000e+000) (34, 2.77889800071716310000e+000) (35, 1.26561462879180910000e+000) (36, -3.20758724212646480000e+000) (37, 1.04959745407104490000e+001) (38, 9.11994099617004390000e-001) (39, 2.71283388137817380000e+000) (40, 1.48951730728149410000e+001) (41, 8.30639004707336430000e-001) (42, 8.71047878265380860000e+000) (43, 2.54788041114807130000e+000) (44, 6.26485884189605710000e-001) (45, -1.69168543815612790000e+000) (46, 9.59565067291259770000e+000) (47, 1.13733656704425810000e-001) (48, -8.81441802978515630000e+001) (49, 1.39056911468505860000e+001) (50, 1.34076828002929690000e+002) (51, -6.46432495117187500000e+001) (52, -3.06996093750000000000e+002) (53, 9.76723083496093750000e+002) (54, 1.47000000000000000000e+003) (55, 7.75073913574218750000e+002) (56, 5.07290482521057130000e-001) (57, 1.50000000000000000000e+003) (58, 1.50000000000000000000e+003) (59, -1.44500000000000000000e+003) (60, -5.90800048828125000000e+002) (61, -1.44500000000000000000e+003) (62, -1.49514440917968750000e+003) (63, 1.50000000000000000000e+003) (64, 1.68047821044921870000e+002) (65, -1.05064904785156250000e+003) (66, 8.50528991699218750000e+002) (67, -7.22298706054687500000e+002) (68, -1.50000000000000000000e+003) (69, -1.44500000000000000000e+003) (70, -9.65293457031250000000e+002) (71, -1.15753955078125000000e+003) (72, 1.50000000000000000000e+003) (73, -2.96005737304687500000e+002) (74, -2.40809307098388670000e+001) (75, -3.02790617942810060000e+000) (0, -1.21611869335174560000e+000) (1, -1.34601080417633060000e+000) (2, -4.20947045087814330000e-001) (3, -3.83471512794494630000e+000) (4, 4.52791976928710940000e+000) (5, 9.97761547565460210000e-001) (6, 5.70766508579254150000e-001) (7, 5.38015842437744140000e-001) (8, 4.15077507495880130000e-001) (9, -1.39882338047027590000e+000) (10, 9.94877457618713380000e-001) (11, -2.26654365658760070000e-001) (12, -7.54885911941528320000e-001) (13, 4.74600028991699220000e+000) (14, -9.17310118675231930000e-001) (15, -1.81171727180480960000e+000) (16, 6.39422845840454100000e+000) (17, -1.94689452648162840000e+000) (18, -1.94549068808555600000e-001) (19, 5.87364554405212400000e-001) (20, -4.47094030678272250000e-002) (21, -7.02223598957061770000e-001) (22, 1.22840881347656250000e+000) (23, -1.95338889956474300000e-001) (24, -1.41044175624847410000e+000) (25, -1.30628883838653560000e+000) (26, -2.73610651493072510000e-001) (27, -1.15581548213958740000e+000) (28, -1.74095189571380620000e+000) (29, -1.02549791336059570000e+000) (30, 1.31131559610366820000e-001) (31, -1.40223896503448490000e+000) (32, -3.72965276241302490000e-001) (33, -9.69322681427001950000e+000) (34, -1.23148396611213680000e-001) (35, -6.44271552562713620000e-001) (36, 4.21368293464183810000e-002) (37, -1.40860486030578610000e+000) (38, 7.60878399014472960000e-002) (39, 1.38002848625183110000e+000) (40, -2.05434513092041020000e+001) (41, 5.53280293941497800000e-001) (42, 1.38222875595092770000e+001) (43, 5.21498024463653560000e-001) (44, -6.17744505405426030000e-001) (45, 5.98848724365234370000e+000) (46, 1.49272751808166500000e+000) (47, -4.35723876953125000000e+000) (48, 6.20625488281250000000e+002) (49, -1.01766433715820310000e+002) (50, -5.51697265625000000000e+002) (51, 7.75298889160156250000e+002) (52, -3.09397613525390620000e+002) (53, 1.35634412765502930000e+001) (54, -1.42984020996093750000e+003) (55, -7.38525756835937500000e+002) (56, -1.74951477050781250000e+001) (57, -1.50000000000000000000e+003) (58, -4.26114227294921870000e+002) (59, 1.25358215332031250000e+003) (60, 1.50000000000000000000e+003) (61, 1.50000000000000000000e+003) (62, 5.31113342285156250000e+002) (63, 1.50000000000000000000e+003) (64, 1.14820410156250000000e+003) (65, 3.92194732666015620000e+002) (66, 3.65629089355468750000e+002) (67, 1.50000000000000000000e+003) (68, 1.47735119628906250000e+003) (69, 5.57740356445312500000e+002) (70, 1.11896838378906250000e+003) (71, 1.29933410644531250000e+003) (72, 1.50000000000000000000e+003) (73, -8.26802444458007810000e+001) (74, 8.90134033203125000000e+002) (75, -1.47500000000000000000e+003) (76, 4.19584960937500000000e+002) (0, -1.19876801967620850000e+000) (1, 7.23108053207397460000e-001) (2, 5.91834008693695070000e-001) (3, -1.42448341846466060000e+000) (4, 1.27204239368438720000e+000) (5, -5.76460242271423340000e-001) (6, -2.99963092803955080000e+000) (7, 2.46886062622070310000e+000) (8, -3.01635295152664180000e-001) (9, -1.39457917213439940000e+000) (10, 2.01134014129638670000e+000) (11, 1.15307129453867670000e-003) (12, -4.97101783752441410000e+000) (13, 2.10949015617370610000e+000) (14, -2.67803579568862920000e-001) (15, 2.98119615763425830000e-002) (16, 1.45409131050109860000e+000) (17, 7.74251699447631840000e-001) (18, 7.08371698856353760000e-001) (19, 2.75502371788024900000e+000) (20, 3.22020262479782100000e-001) (21, 2.41330742835998540000e+000) (22, 2.78393316268920900000e+000) (23, 2.63166517019271850000e-001) (24, 5.30753433704376220000e-001) (25, 2.35264015197753910000e+000) (26, -5.99291503429412840000e-001) (27, 3.91550087928771970000e+000) (28, -4.10661816596984860000e-001) (29, 9.09914553165435790000e-001) (30, 1.25135409832000730000e+000) (31, 2.88591456413269040000e+000) (32, -5.46205461025238040000e-001) (33, 7.94800341129302980000e-001) (34, 1.62429654598236080000e+000) (35, 3.22020262479782100000e-001) (36, -4.44008618593215940000e-001) (37, 3.54010605812072750000e+000) (38, 5.78069210052490230000e-001) (39, 1.49954712390899660000e+000) (40, 2.36231350898742680000e+000) (41, 7.62220740318298340000e-001) (42, 1.53824222087860110000e+000) (43, 2.41856598854064940000e+000) (44, -8.14476966857910160000e-001) (45, 1.13306730985641480000e-001) (46, 2.25084877014160160000e+000) (47, 5.86569666862487790000e-001) (48, -5.31239546835422520000e-002) (49, 1.29257059097290040000e+000) (50, 1.24354577064514160000e+000) (51, 1.94177377223968510000e+000) (52, -1.30057823657989500000e+000) (53, 2.11966738104820250000e-001) (54, 2.49428629875183110000e+000) (55, 2.02858209609985350000e+000) (56, 1.27002894878387450000e+000) (57, -1.15611718750000000000e+003) (58, 8.14449369907379150000e-001) (59, 9.06716060638427730000e+000) (60, -4.16449066162109370000e+002) (61, -7.70122259855270390000e-002) (62, 1.00279645919799800000e+001) (63, -1.91627624511718750000e+002) (64, 2.20822930335998540000e+000) (65, 3.00000166893005370000e+000) (66, 2.11549282073974610000e+000) (67, 1.33713233470916750000e+000) (68, 1.34018385410308840000e+000) (69, -3.87060832977294920000e+000) (70, 1.16652894020080570000e+000) (71, 4.55385237932205200000e-001) (72, -4.15647338867187500000e+002) (73, 5.02151870727539060000e+000) (74, 4.12641620635986330000e+000) (75, -7.66088256835937500000e+001) (76, 7.75624752044677730000e-001) (77, 2.59537529945373540000e+000) (0, -1.46011674404144290000e+000) (1, 1.35445976257324220000e+000) (2, -2.50779271125793460000e-001) (3, -2.89010047912597660000e-001) (4, 2.15240550041198730000e+000) (5, 1.12857866287231450000e+000) (6, 7.88663625717163090000e-001) (7, -4.22209548950195310000e+000) (8, -2.21795246005058290000e-001) (9, -3.13941776752471920000e-001) (10, 3.08323168754577640000e+000) (11, 3.02366703748703000000e-001) (12, -7.26715803146362300000e+000) (13, 1.82482564449310300000e+000) (14, -3.55713725090026860000e-001) (15, 6.81313455104827880000e-001) (16, 6.36605545878410340000e-002) (17, 4.55779284238815310000e-001) (18, -1.57128267288208010000e+001) (19, -1.42841844558715820000e+001) (20, -3.89171630144119260000e-001) (21, 2.36928558349609370000e+000) (22, -9.34228324890136720000e+000) (23, -4.31821674108505250000e-001) (24, 2.28410530090332030000e+000) (25, 2.65725064277648930000e+000) (26, 1.25452435016632080000e+000) (27, 1.32704973220825200000e+001) (28, 2.94361543655395510000e+000) (29, 2.46827788650989530000e-002) (30, 1.13456034660339360000e+000) (31, 3.07730293273925780000e+000) (32, 9.00810956954956050000e-001) (33, 1.05571949481964110000e+000) (34, 3.09096908569335940000e+000) (35, 3.17922681570053100000e-001) (36, 1.91749548912048340000e+000) (37, 4.18037128448486330000e+000) (38, -2.53252178430557250000e-001) (39, 1.20354384183883670000e-001) (40, 4.17249631881713870000e+000) (41, 6.77273988723754880000e-001) (42, 9.03338432312011720000e-001) (43, 3.64537382125854490000e+000) (44, 4.51391428709030150000e-001) (45, 3.19133305549621580000e+000) (46, 3.73361730575561520000e+000) (47, 5.66018402576446530000e-001) (48, 1.04297018051147460000e+000) (49, -2.89753341674804690000e+000) (50, 9.04320180416107180000e-001) (51, 1.03982245922088620000e+000) (52, -3.95253419876098630000e+000) (53, 1.37624919414520260000e+000) (54, 2.67287200927734370000e+002) (55, -7.98935079574584960000e+000) (56, 1.93155586719512940000e+000) (57, -1.50000000000000000000e+003) (58, -2.78906345367431640000e+000) (59, 5.45266819000244140000e+000) (60, -1.50000000000000000000e+003) (61, 3.36362886428833010000e+000) (62, 2.60252285003662110000e+000) (63, 1.25858192443847660000e+002) (64, 3.61443996429443360000e-001) (65, -1.64923354983329770000e-001) (66, 2.39344286918640140000e+000) (67, 1.50019574165344240000e+000) (68, -3.69166433811187740000e-001) (69, 4.50683021545410160000e+000) (70, 9.42900772094726560000e+001) (71, 2.37117290496826170000e+000) (72, 9.20927429199218750000e+000) (73, 2.61101841926574710000e+000) (74, 7.74253225326538090000e+000) (75, -1.28133068847656250000e+003) (76, 2.84034180641174320000e+000) (77, -7.72109270095825200000e-001) (78, 1.07513010501861570000e+000) (0, -1.77016782760620120000e+000) (1, -7.88158059120178220000e-001) (2, 1.15036320686340330000e+000) (3, -1.41539490222930910000e+000) (4, 5.91796398162841800000e-001) (5, -6.24921619892120360000e-001) (6, -2.44194507598876950000e+000) (7, 2.75638961791992190000e+000) (8, 1.18311822414398190000e+000) (9, -3.20624399185180660000e+000) (10, 3.78241300582885740000e+000) (11, 1.12014770507812500000e+000) (12, -7.69396960735321040000e-001) (13, 9.35803472995758060000e-001) (14, -1.96826383471488950000e-001) (15, 1.27512633800506590000e+000) (16, -2.51179844141006470000e-001) (17, 8.65400493144989010000e-001) (18, 2.95981973409652710000e-001) (19, 1.15352666378021240000e+000) (20, -3.88733416795730590000e-001) (21, 1.24019026756286620000e+000) (22, 2.58289742469787600000e+000) (23, -4.39591675996780400000e-001) (24, 8.55494201183319090000e-001) (25, 2.15461754798889160000e+000) (26, -1.62746861577034000000e-001) (27, 1.37318038940429690000e+000) (28, 5.06948852539062500000e+000) (29, -5.89170992374420170000e-001) (30, 6.45624518394470210000e-001) (31, 3.74019312858581540000e+000) (32, 1.15147018432617190000e+000) (33, 2.10414037108421330000e-001) (34, 2.44703459739685060000e+000) (35, 1.47459700703620910000e-001) (36, 4.09887105226516720000e-001) (37, 2.77714705467224120000e+000) (38, -6.43610775470733640000e-001) (39, 1.07538640499114990000e+000) (40, 2.09217429161071780000e+000) (41, 3.85800860822200780000e-002) (42, 9.73703145980834960000e-001) (43, 2.41301751136779790000e+000) (44, -2.35832944512367250000e-001) (45, -2.64020618051290510000e-002) (46, 3.11057639122009280000e+000) (47, 3.48808854818344120000e-001) (48, 7.66250967979431150000e-001) (49, 2.53102874755859370000e+000) (50, -7.42258965969085690000e-001) (51, 1.83865654468536380000e+000) (52, 2.30158615112304690000e+000) (53, -8.91708254814147950000e-001) (54, 1.68411362171173100000e+000) (55, -5.64384937286376950000e-001) (56, -1.47459268569946290000e-001) (57, 2.66102256774902340000e+001) (58, -4.86240804195404050000e-001) (59, 1.99848568439483640000e+000) (60, 1.80810727179050450000e-002) (61, 2.73817420005798340000e+000) (62, 2.84225821495056150000e+000) (63, 8.61120891571044920000e+000) (64, -1.96622943878173830000e+000) (65, 2.88156089782714840000e+001) (66, 2.81854915618896480000e+000) (67, -6.34168565273284910000e-001) (68, 5.43237328529357910000e-001) (69, 3.33072513341903690000e-001) (70, 1.37453389167785640000e+000) (71, 8.18151235580444340000e-001) (72, -9.61459445953369140000e+000) (73, 1.92522120475769040000e+000) (74, 1.78817486763000490000e+000) (75, 8.41612339019775390000e-001) (76, -3.57320356369018550000e+000) (77, 5.84162354469299320000e-001) (78, -1.12605106830596920000e+000) (79, -8.62542092800140380000e-001) (0, -1.05794525146484370000e+000) (1, 7.63004541397094730000e-001) (2, 1.45526170730590820000e+000) (3, -2.97963172197341920000e-001) (4, -3.58053302764892580000e+000) (5, 1.96373915672302250000e+000) (6, -3.13058948516845700000e+000) (7, -1.66004407405853270000e+000) (8, 9.54199209809303280000e-002) (9, -8.06707918643951420000e-001) (10, 9.29732561111450200000e-001) (11, 3.32019925117492680000e-001) (12, 9.97963547706604000000e-001) (13, -7.36743593215942380000e+000) (14, 9.80206847190856930000e-001) (15, 5.76518058776855470000e-001) (16, -8.09485816955566410000e+000) (17, 2.13480019569396970000e+000) (18, 2.06523628234863280000e+001) (19, -5.82804203033447270000e+000) (20, 5.03916692733764650000e+000) (21, -3.42324042320251460000e+000) (22, -1.09076929092407230000e+001) (23, 2.78092533349990840000e-001) (24, 7.90317356586456300000e-001) (25, 1.92821800708770750000e+000) (26, 6.11754775047302250000e-001) (27, -1.15297114849090580000e+000) (28, 4.33293581008911130000e+000) (29, 1.02946960926055910000e+000) (30, -1.26284492015838620000e+000) (31, 2.22091937065124510000e+000) (32, -4.95410740375518800000e-001) (33, 9.91095662117004390000e-001) (34, 1.60906803607940670000e+000) (35, 5.64905762672424320000e-001) (36, -1.12393379211425780000e+000) (37, 2.83654918670654300000e+001) (38, -3.76643270254135130000e-001) (39, -4.65039610862731930000e-001) (40, 2.77169656753540040000e+000) (41, -7.54917800426483150000e-001) (42, -5.42185878753662110000e+000) (43, 2.78555059432983400000e+000) (44, -4.84384119510650630000e-001) (45, -1.04372978210449220000e+000) (46, 3.80132675170898440000e+000) (47, 2.12221503257751460000e+000) (48, -5.33312940597534180000e+000) (49, 3.22759399414062500000e+002) (50, 1.35307263183593750000e+003) (51, -3.33890106201171870000e+002) (52, -5.79266540527343750000e+002) (53, 1.02126165771484370000e+003) (54, 1.50000000000000000000e+003) (55, 1.50000000000000000000e+003) (56, -1.42711083984375000000e+003) (57, 1.50000000000000000000e+003) (58, 1.01878894042968750000e+003) (59, -1.50000000000000000000e+003) (60, 1.50000000000000000000e+003) (61, -1.50000000000000000000e+003) (62, -1.15661865234375000000e+003) (63, 1.50000000000000000000e+003) (64, -6.29643432617187500000e+002) (65, -1.50000000000000000000e+003) (66, 3.21310806274414060000e+001) (67, -1.50000000000000000000e+003) (68, -1.50000000000000000000e+003) (69, -1.50000000000000000000e+003) (70, -1.26537414550781250000e+003) (71, -1.50000000000000000000e+003) (72, -1.50000000000000000000e+003) (73, 2.71197784423828120000e+002) (74, -3.08007293701171870000e+002) (75, -1.44999145507812500000e+003) (76, -1.50000000000000000000e+003) (77, 1.12106384277343750000e+003) (78, 3.78171875000000000000e+002) (79, 6.78610229492187500000e+001) (80, 1.50000000000000000000e+003) (0, -1.68236029148101810000e+000) (1, -3.81939578056335450000e+000) (2, 4.04217779636383060000e-001) (3, -2.90959906578063960000e+000) (4, 1.13647832870483400000e+001) (5, -9.08667370676994320000e-002) (6, -3.98497343063354490000e-001) (7, 1.76760733127593990000e+000) (8, 8.16700220108032230000e-001) (9, -1.84332716464996340000e+000) (10, 8.91912519931793210000e-001) (11, -3.23924720287323000000e-001) (12, -5.15310764312744140000e-001) (13, 2.25941162109375000000e+001) (14, 1.08130015432834630000e-001) (15, -1.14145908355712890000e+001) (16, 7.05889034271240230000e+000) (17, -7.90744066238403320000e-001) (18, 7.54981398582458500000e-001) (19, -6.14744782447814940000e-001) (20, -3.88263535499572750000e+000) (21, 4.67460423707962040000e-001) (22, -4.48967704772949220000e+001) (23, -1.25871926546096800000e-001) (24, 1.27368247509002690000e+000) (25, -9.72819232940673830000e+000) (26, -3.00710654258728030000e+000) (27, 9.13690185546875000000e+000) (28, 2.28247852325439450000e+001) (29, -6.42755478620529170000e-002) (30, -7.99596309661865230000e-001) (31, 2.85054326057434080000e-001) (32, -1.43301755189895630000e-001) (33, 2.81533312797546390000e+000) (34, 1.95979273319244380000e+000) (35, -2.90228962898254390000e-001) (36, -1.89563620090484620000e+000) (37, 1.21574163436889650000e+000) (38, -6.45385265350341800000e-001) (39, 5.48781776428222660000e+000) (40, -1.04237413406372070000e+001) (41, 4.70142215490341190000e-001) (42, 8.50882709026336670000e-001) (43, -9.32360839843750000000e+000) (44, -6.29648089408874510000e-001) (45, 8.63916516304016110000e-001) (46, 4.98313307762146000000e-001) (47, -1.22385644912719730000e+000) (48, 1.49383401870727540000e+001) (49, -1.05996536254882810000e+002) (50, -7.23461364746093750000e+002) (51, -3.69880065917968750000e+002) (52, -6.21739562988281250000e+002) (53, -6.41245849609375000000e+002) (54, -1.50000000000000000000e+003) (55, -1.50000000000000000000e+003) (56, -1.27643787860870360000e+000) (57, -1.50000000000000000000e+003) (58, -1.50000000000000000000e+003) (59, 1.50000000000000000000e+003) (60, 7.72076416015625000000e+002) (61, 1.50000000000000000000e+003) (62, 1.50000000000000000000e+003) (63, 1.50000000000000000000e+003) (64, 1.26880346679687500000e+003) (65, 1.35643786621093750000e+003) (66, -5.49832214355468750000e+002) (67, 1.50000000000000000000e+003) (68, -1.46959997558593750000e+003) (69, 3.87644073486328120000e+002) (70, 1.09745971679687500000e+003) (71, 1.36800012207031250000e+003) (72, 1.50000000000000000000e+003) (73, -4.77912628173828120000e+002) (74, 2.95474182128906250000e+002) (75, -1.50000000000000000000e+003) (76, 3.09364204406738280000e+001) (77, -8.19887512207031250000e+002) (78, 7.14749023437500000000e+002) (79, -1.50000000000000000000e+003) (80, 7.62865905761718750000e+002) (81, -8.48894836425781250000e+002) (0, 2.55516439676284790000e-001) (1, -4.90279245376586910000e+000) (2, -2.68514782190322880000e-001) (3, -8.83987724781036380000e-001) (4, 3.00990748405456540000e+000) (5, -2.10742926597595210000e+000) (6, 8.64462471008300780000e+000) (7, 1.13539516925811770000e+000) (8, -4.42492902278900150000e-001) (9, -1.25385725498199460000e+000) (10, -6.23754799365997310000e-001) (11, -7.73249149322509770000e-001) (12, -1.39305070042610170000e-002) (13, 9.80357837677001950000e+000) (14, -7.76224374771118160000e-001) (15, 5.41844546794891360000e-001) (16, -1.67117762565612790000e+000) (17, -1.58061492443084720000e+000) (18, -9.08396911621093750000e+000) (19, -8.74557346105575560000e-002) (20, 5.84788858890533450000e-001) (21, 7.21731996536254880000e+000) (22, 1.33471765518188480000e+001) (23, -2.03046250343322750000e+000) (24, -5.06150543689727780000e-001) (25, 1.40293693542480470000e+000) (26, 7.95366048812866210000e-001) (27, 6.22380137443542480000e-001) (28, -4.51389455795288090000e+000) (29, -5.84611594676971440000e-001) (30, -9.75915864109992980000e-002) (31, -6.54409265518188480000e+000) (32, 7.80648052692413330000e-001) (33, 8.44765245914459230000e-001) (34, -3.22117114067077640000e+000) (35, 6.12568736076354980000e-001) (36, -5.41037178039550780000e+000) (37, -9.60709285736083980000e+000) (38, 1.04683268070220950000e+000) (39, -2.71432161331176760000e+000) (40, 2.91015446186065670000e-001) (41, 7.55179002881050110000e-002) (42, 8.48717451095581050000e-001) (43, -2.27657198905944820000e+000) (44, 5.99161326885223390000e-001) (45, 6.67764723300933840000e-001) (46, 4.31092202663421630000e-001) (47, 1.05692118406295780000e-001) (48, 3.29818344116210940000e+000) (49, -1.48869827270507810000e+002) (50, -8.08888732910156250000e+002) (51, -1.22945365905761720000e+002) (52, 2.69524719238281250000e+002) (53, -1.31574569702148440000e+002) (54, -6.26380432128906250000e+002) (55, -1.01689477539062500000e+003) (56, 3.69688446044921870000e+002) (57, -1.50000000000000000000e+003) (58, -1.58149841308593750000e+002) (59, 6.51856689453125000000e+002) (60, -1.61277969360351560000e+002) (61, 7.34974304199218750000e+002) (62, 4.41605560302734370000e+002) (63, -1.50000000000000000000e+003) (64, -1.16494743347167970000e+002) (65, 5.25521606445312500000e+002) (66, -3.11135650634765630000e+002) (67, -1.57578217983245850000e+000) (68, 7.37461364746093750000e+002) (69, 5.79987854003906250000e+002) (70, 1.85055328369140620000e+002) (71, 6.98856140136718750000e+002) (72, 1.45433056640625000000e+003) (73, -3.49633636474609380000e+002) (74, -1.91347961425781250000e+002) (75, -4.53698043823242190000e+001) (76, 6.48088195800781250000e+002) (77, -6.75409469604492190000e+001) (78, 4.93662322998046870000e+002) (79, 1.39957971191406250000e+003) (80, -1.45019836425781250000e+003) (81, 6.51484924316406250000e+002) (82, 3.26316772460937500000e+002) (0, 6.05234289169311520000e+000) (1, 1.88967013359069820000e+000) (2, -2.74157345294952390000e-001) (3, 1.54580140113830570000e+000) (4, -9.05094683170318600000e-001) (5, 4.46594059467315670000e-001) (6, -5.53221273422241210000e+000) (7, -5.10114252567291260000e-001) (8, -2.64363527297973630000e-001) (9, -2.47005939483642580000e+000) (10, -2.55965501070022580000e-001) (11, -4.39834266901016240000e-001) (12, 1.12012743949890140000e+000) (13, -2.85533070564270020000e+000) (14, 6.64102852344512940000e-001) (15, -1.40278428792953490000e-001) (16, -1.45636832714080810000e+000) (17, 7.93235957622528080000e-001) (18, 2.18913507461547850000e+000) (19, -1.38509392738342290000e+000) (20, 1.33521914482116700000e+000) (21, -1.20017230510711670000e+000) (22, -4.22389841079711910000e+000) (23, 6.95210337638854980000e-001) (24, 1.27411556243896480000e+000) (25, 8.82984280586242680000e-001) (26, -3.07879243046045300000e-002) (27, 9.18263643980026250000e-002) (28, 2.45038604736328120000e+000) (29, 1.30724155902862550000e+000) (30, -1.64089119434356690000e+000) (31, 1.55321705341339110000e+000) (32, -7.22228735685348510000e-002) (33, -1.50240337848663330000e+000) (34, 1.13619756698608400000e+000) (35, 6.42028093338012700000e-001) (36, 5.21552562713623050000e-001) (37, 4.92233306169509890000e-001) (38, -5.25391936302185060000e-001) (39, -1.83053433895111080000e+000) (40, -1.73310395330190660000e-002) (41, -4.87927138805389400000e-001) (42, 1.92492568492889400000e+000) (43, 4.00576925277709960000e+000) (44, 2.59624838829040530000e-001) (45, 1.13207435607910160000e+000) (46, 2.30938911437988280000e+000) (47, -2.43783488869667050000e-001) (48, -1.96149206161499020000e+000) (49, 9.21819076538085940000e+001) (50, 3.99572631835937500000e+002) (51, -1.40433334350585940000e+002) (52, 1.44865112304687500000e+002) (53, 1.85316970825195310000e+002) (54, 4.21232116699218750000e+002) (55, 5.33963989257812500000e+002) (56, -5.26340332031250000000e+002) (57, 1.50000000000000000000e+003) (58, 3.29101531982421870000e+002) (59, -3.46857299804687500000e+002) (60, -7.92057434082031250000e+002) (61, -3.51656433105468750000e+002) (62, -1.92854919433593750000e+002) (63, -1.50000000000000000000e+003) (64, -2.79642181396484370000e+002) (65, -4.64340667724609370000e+002) (66, 2.25324417114257810000e+002) (67, -5.83825012207031250000e+002) (68, -7.17870300292968750000e+002) (69, -3.55299407958984370000e+002) (70, -4.94363494873046870000e+002) (71, -2.99715209960937500000e+002) (72, -1.50000000000000000000e+003) (73, 9.53839874267578130000e+001) (74, -3.36034965515136720000e+001) (75, -7.47251342773437500000e+002) (76, -3.44057342529296880000e+002) (77, 3.98163482666015620000e+002) (78, 1.36208666992187500000e+003) (79, -1.42028820514678960000e+000) (80, 2.49495895385742190000e+002) (81, -4.52439483642578120000e+002) (82, 3.69128341674804690000e+001) (83, 1.30659744262695310000e+002) (0, -2.13625812530517580000e+000) (1, 1.26964712142944340000e+000) (2, 4.92084562778472900000e-001) (3, -2.85659217834472660000e+000) (4, 1.09709370136260990000e+000) (5, 5.64818322658538820000e-001) (6, 9.16198670864105220000e-001) (7, -5.94402980804443360000e+000) (8, -1.92208781838417050000e-001) (9, -2.06450748443603520000e+000) (10, 2.87739896774291990000e+000) (11, 9.22289133071899410000e-001) (12, 1.80516576766967770000e+000) (13, 1.13007867336273190000e+000) (14, 3.86494815349578860000e-001) (15, -6.06780409812927250000e-001) (16, 1.59080117940902710000e-001) (17, 6.55209362506866460000e-001) (18, 1.02731990814208980000e+000) (19, -7.45820379257202150000e+000) (20, -6.52719557285308840000e-001) (21, -4.58774179220199580000e-001) (22, -7.16819524765014650000e+000) (23, -5.29788672924041750000e-001) (24, 4.55709838867187500000e+000) (25, 1.33661389350891110000e+000) (26, 2.80687361955642700000e-001) (27, -7.15170800685882570000e-002) (28, 3.64741444587707520000e-001) (29, -5.72156786918640140000e-001) (30, 2.06306123733520510000e+000) (31, 3.75499582290649410000e+000) (32, -5.90276777744293210000e-001) (33, -2.65528869628906250000e+000) (34, 3.08858966827392580000e+000) (35, 6.73302114009857180000e-001) (36, -4.45794284343719480000e-001) (37, 2.71573352813720700000e+000) (38, -3.15261296927928920000e-002) (39, -9.80877339839935300000e-001) (40, 3.27527809143066410000e+000) (41, 2.71279990673065190000e-001) (42, 5.05589008331298830000e-001) (43, 1.87230074405670170000e+000) (44, -3.37923467159271240000e-001) (45, 7.63312280178070070000e-001) (46, 